Weights Network
4 Hiddens Layers
-0.06 -0.35 0.36 0.18 0.06 0.35 0.69 -0.02 0.47 0.41 -0.33 -0.16 -0.25 -0.83 0.12 -0.78 -0.63 0.77 -0.31 0.39 0.12 -0.9 -0.9 -0.23 -0.11 -0.07 0.55 0.21 -0.63 -1 -0.71 -0.74 -0.45 0.1 0.85 0.9 0.35 0.38 0.63 0.23 0.91 0.63 -0.63 0.16 -0.99 0.96 0.52 0.96 -0.54 0.48 -0.1 0.8 0.82 -0.74 -0.14 -0.97 0.53 0.33 -0.63 0.01 0.39 0.26 -0.78 0.95 0.56 0.12 0.86 -0.52 0.91 0.38 0.9 0.99 0.05 0.51 -0.43 0.95 0.97 -0.34 0.22 -0.36 -0.4 0.79 0.85 0.42 -0.73 -0.71 0.45 -0.7 0.2 0.32 -0.88 0.61 0.58 0.97 -0.68 0.56 -0.88 -0.29 -0.67 -0.66 0.19 -0.81 0.92 0.33 0.2 -0.23 0.08 0.38 -0.49 0.42 -0.16 0.26 0.35 0.06 -0.84 0.13 0.77 -0.75 0.65 -0.69 0.18 -0.1 0.41 0.26 -0.04 -0.54 0.44 0.44 -0.34 0.16 0.54 0.45 -0.12 0.33 -0.76 -0.76 0.06 -0.06 0.44 0.76
0.61 -0.74 -0.32 0.57 0.64 0.1 -0.21 -0.96 -0.6 -0.91 -0.78 0.41 -0.48 -0.6 0.16 0.53 -0.54 0.56 0.67 -0.57 -0.23 -0.71 -0.35 -0.69 -0.56 0.91 -0.83 -0.8 1 0.22 -0.29 0.09 -0.26 -0.31 -0.24 -0.12 0.93 0.28 0.35 -0.36 -0.41 -0.64 0.05 0.54 -0.98 -0.89 0.61 -0.74 0.6 0.25 -0.97 0.82 -0.85 0.55 0.94 -0.64 0.69 0.71 0.22 -0.19 0.19 0.05 0.33 -0.68 0.24 -0.21 0.23 0.61 -0.31 0.79 -0.68 0.96 -0.07 0.5 0.13 0.27 0.15 0.77 0.02 0.7 -0.47 0.31 -0.07 0.91 -0.79 -0.51 -0.7 -0.45 0.61 -0.29 0.04 0.82 0.92 0.28 -0.63 -0.82 0.39 0.79 0.17 -0.02 -0.75 0.31 -1 0.88 -0.19 0.9 0.27 0.2 0.58 -0.55 -0.74 -0.45 0.78 0.76 -0.58 0.93 -0.33 0.42 0.94 0.77 -0.56 0.13 -0.39 -0.65 -0.08 -0.63 0.94 0.26 -0.9 0.55 -0.85 0.41 0.33 -0.02 0.42 -0.19 -0.33 -0.24 0.81 0.52
0.29 0.08 0.32 -0.28 0.2 0.71 0.67 -0.67 0.89 0.84 0.22 -0.58 -0.82 0.26 -0.14 -0.38 0.99 -0.37 -0.02 -0.83 -0.65 -0.09 -0.35 0.65 -0.02 0.28 -0.85 0.97 0.88 0.52 -0.17 -0.15 0.45 -0.24 -0.46 0.36 -0.14 0.32 0.35 0.13 0.93 0.69 0.41 0.36 0.89 0.18 -0.78 -0.87 0.18 -0.36 -0.37 0.02 0.24 0.34 -0.32 -0.82 0 0.71 -0.75 0.2 -0.58 -0.12 -0.23 -0.43 0.57 -0.93 -0.72 0.46 0.12 -0.98 -0.63 0.21 -0.22 0.72 1 -0.55 0.26 -0.41 -0.63 0.31 0.43 0.95 0.16 -0.7 0.49 -0.33 -0.98 0.11 -0.42 0.43 -0.23 0.83 -0.13 -0.76 -0.47 0.64 0.91 -0.51 0.2 0.31 0.41 -0.88 0.32 0.09 0.95 0.41 -0.11 0.7 -0.84 0.14 -0.41 -0.1 0.67 0.8 -0.97 -0.6 -0.77 -0.24 0.48 -0.15 -0.36 -0.71 0.16 -0.79 0.93 0.75 0.23 0.43 0.21 -0.86 -0.8 0.93 0.2 -0.08 -0.93 0.93 0.44 0.72 0.26 0.48
-0.36 0.560004 0.230006 0.549989 0.55 -0.62 -0.709998 -0.429999 -0.380008 -0.740005 0.88 -0.28 0.749991 0.0399996 -0.520015 0.399997 -0.71 0.619928 0.0699999 0.1 0.7 -0.51001 -0.659937 0.609976 -0.03 -0.140012 0.58 0.53 -0.999972 0.810001 0.690014 0.96 0.01 0.550014 0.81 -0.470041 0.65 0.35 -0.26 -0.560001 -0.17 -0.84 0.61 0.86 -0.51 0.949969 -0.179983 -0.460001 -0.16 -0.13 -0.7 0.0100121 -0.120008 0.559984 0.419986 -0.979998 -0.130037 0.27 -0.0600114 -0.53 0.28 -0.620001 0.910005 -0.530001 -0.219933 0.119992 0.18 0.540015 -0.0700122 -0.62 0.0299972 0.770008 -0.34 -0.319991 -0.78 0.0400001 -0.349984 0.63 -0.360001 -0.74 -0.04 -0.87 0.180007 -0.410016 0.99 -0.39 -0.94 0.97 0.730012 0.97 -0.97 0.38002 0.300003 -0.609988 0.51 -0.65 0.81 0.539971 -0.94 -0.19 0.76 -0.03 -0.54 0.74 0.439999 -0.21 0.839999 0.54 0.98 -0.570004 -0.249998 -0.0199975 0.109997 0.469982 -0.499993 0.870002 0.66 0.0499996 -0.399976 -0.839992 -0.73 -0.550026 -0.459988 -0.339999 -0.27 0.659997 0.68 0.0200446 -0.299999 -0.600002 0.85 0.960009 0.620002 0.819986 -0.47 0.0899798 -0.620043 0.699982 -0.66999 0.2
0.121812 -0.0290158 -0.628771 -0.140596 0.409927 0.019869 -0.489656 0.599848 -0.0808465 -0.669946 -0.509909 0.629745 -0.391685 -0.450779 0.758381 0.189983 -0.928701 0.773258 0.499994 -0.0994006 -0.340007 -0.950571 0.415746 -0.352166 0.500022 -0.411078 0.768529 -0.980447 -0.20867 -0.309255 -0.788181 0.310173 -0.690221 0.518913 -0.489901 0.84682 -0.719588 -0.670132 -0.620414 -0.409648 -0.420407 -0.0994478 0.569876 0.860181 0.459971 0.937539 0.341662 -0.500674 -0.969496 -0.867841 0.850148 0.0712601 -0.270508 -0.660807 0.788854 -0.619758 -0.0616223 -0.0900061 0.588985 0.951623 -0.229949 -0.950916 -0.639385 -0.329981 0.777274 0.369443 -0.869951 -0.00847492 -0.57127 0.739912 -0.0908126 0.0608684 0.400153 0.199261 -0.699734 -0.549926 0.851635 0.149915 0.529637 0.180027 0.291299 -0.670071 -0.589909 0.578612 0.60141 -0.379972 -0.539328 0.640018 0.911157 -0.839896 -0.780403 0.680905 0.620318 -0.258987 -0.651165 0.448565 0.970016 -0.60177 -0.279862 0.849675 -0.0997461 -0.560758 0.209112 -0.539963 0.770134 0.85935 -0.0705981 0.259953 -0.139661 0.579698 -0.0188823 -0.37002 0.349624 0.900829 -0.539136 -0.130609 0.649972 -0.569091 -0.597817 -0.799814 0.489769 -0.562302 0.740646 -0.370726 -0.0101736 -0.170879 -0.490005 0.40446 -0.449518 0.270078 -0.469802 0.260658 -0.238767 0.580546 0.389968 -0.871717 0.215218 0.369037 0.321742 -0.840035
0.154326 0.193803 0.789944 0.879659 -0.611139 -0.116898 -0.0280383 -0.831483 0.327872 -0.279294 -0.408896 0.629004 0.22516 -0.0138234 0.0968426 -0.391997 0.960609 -0.377131 -0.55612 0.733287 0.790185 -0.828881 -0.115857 0.0463593 -0.719046 -0.460455 0.901186 -0.811371 0.651994 0.253943 0.656805 0.810197 -0.279876 -0.291969 -0.889517 0.176398 0.231591 -0.471031 0.721111 0.812655 -0.710352 0.903446 0.225655 0.330957 0.411498 -0.800199 0.955262 0.674647 0.766258 0.983241 0.382761 0.682939 -0.481146 0.385335 -0.711526 0.0601674 -0.676299 0.0793139 0.556881 -0.374647 -0.770504 0.176864 0.719804 0.497679 -0.146345 -0.617944 -0.280376 -0.177454 0.528382 0.77042 0.845148 0.489941 -0.390286 0.373403 0.568281 0.0316942 -0.398006 -0.258656 0.350426 -0.348493 0.372036 0.718532 -0.223435 -0.575667 -0.694919 -0.150016 -0.465871 -0.0616128 0.762217 0.870132 -0.588197 0.938354 0.0141643 -0.199043 0.494506 0.84334 0.910892 0.694174 -0.992614 0.198371 0.871897 -0.783151 -0.262961 -0.298851 -0.00923952 0.374314 0.850896 0.746514 0.580745 -0.779859 -0.668368 0.319501 0.208307 0.461352 1.00188 -0.463836 0.160425 0.562892 0.64054 -0.315141 -0.586893 0.00310537 0.950309 -0.0830502 -0.0325986 -1.0034 -0.260094 0.882608 0.00634254 0.563067 0.83359 -0.770256 -0.739521 -0.15468 0.998512 -0.951158 -0.775196 0.982838 0.270092 -0.779623
0.163272 0.802185 0.839029 -0.872887 0.131302 -0.154952 -0.601514 0.32753 0.434712 -0.534597 0.840738 0.0125315 0.702488 -0.59349 -0.133784 0.459405 0.599349 -0.0143474 -0.896156 0.187743 -0.889917 -0.15877 0.561739 -0.813648 -0.264694 -0.0899281 1.00489 0.45689 0.343956 0.817645 -0.885939 -0.685577 -0.263472 0.652806 -0.101215 -0.469703 -0.24992 0.763868 0.46275 0.270083 -0.589161 0.230353 -0.844514 -0.958642 0.735494 0.658581 0.23507 -0.621023 0.575562 -0.770629 -0.971482 -0.885352 0.867433 -0.156506 0.389695 0.597932 0.461687 0.68567 0.39172 -0.195178 0.948079 0.707482 -0.189848 0.574774 -0.947382 0.234793 0.667867 0.429401 -0.152698 -0.0886435 -0.484094 -0.479307 -0.255654 0.0936961 -0.0627618 0.614996 -0.520954 0.586058 -0.862166 0.599689 0.78294 -0.480724 0.708576 -0.859623 0.329761 -0.738773 0.299 0.0065297 0.326905 0.868247 -0.881266 0.408705 -1.00847 -0.096959 0.760953 0.851726 0.760224 0.903944 -0.503838 0.645729 0.0015738 0.637514 -0.0994407 0.965646 0.774611 0.656853 0.688015 -0.576317 0.385277 0.966135 -0.572982 0.943772 -0.366436 0.594128 -0.986494 0.255826 0.690264 -0.111546 -0.939152 -0.201313 -0.717009 0.281322 0.310938 0.260908 0.851901 0.741921 -0.199614 -0.669522 -0.170367 -0.305443 0.811168 0.446076 -0.370712 0.901329 0.949938 -0.599364 0.43398 -0.512887 0.798079 0.923986
-0.598728 -0.536955 0.639412 -0.300396 0.923504 0.394316 0.146597 0.253106 0.522908 -0.834131 0.240097 0.352197 0.575675 0.96903 0.738375 0.829568 -0.506632 -0.34987 -0.641221 0.521095 -0.910329 0.440785 -0.362639 0.133336 -0.0284724 -0.479243 0.164424 -0.932681 0.341583 -0.263846 -0.36411 0.990147 -0.0938699 0.905395 0.659777 -0.525779 -0.025701 0.232846 -0.802603 0.316631 0.381553 -0.891299 -0.0404394 -0.568225 -0.766835 -0.37149 0.327839 -0.688229 0.292515 -0.957606 -0.222372 -0.627796 -0.168264 0.546687 -0.796133 -0.671333 0.815136 -0.561088 0.302772 -0.290484 -0.812911 -0.979278 -0.699642 -0.316932 -0.257616 -0.864596 -0.660988 0.0769088 0.31901 0.760964 0.480968 -0.171055 -0.940731 0.406684 0.93782 -0.0378763 -0.382183 -0.87051 -0.760165 0.862805 0.240583 -0.277692 -0.789724 0.535224 -0.790508 0.362579 -0.846014 -0.754251 0.302805 0.237415 -0.239336 -0.228139 -0.0696113 -0.929157 -0.310462 0.551853 -0.150208 0.927207 -0.000163352 -0.959089 0.471647 -0.304468 -0.62036 0.0550725 0.342925 -0.829056 0.714121 -0.121179 -0.985551 -0.0586109 0.575306 0.00160228 -0.885843 0.989262 0.381556 -0.384037 0.180658 -0.479631 0.102651 -0.587613 -0.154228 0.0597818 -0.0465035 -0.625007 0.831219 -0.750738 -0.498282 0.324595 0.0361068 -0.390515 0.571775 0.945994 0.757552 -0.617191 -0.780047 -0.388367 0.990505 0.128772 0.471582 0.370055
0.878488 -0.922505 0.76979 -0.879592 -0.289815 -0.0192896 -0.939726 -0.844217 -0.420572 0.652088 0.469842 -0.0410206 0.917762 -0.518947 -0.920218 0.168675 0.782687 0.530247 -0.769654 -0.806877 -0.859942 -0.699522 -0.582857 0.873576 -0.460125 0.391087 0.292186 -0.060423 -0.644748 -0.436502 -0.935686 0.200105 -0.560878 -0.12827 -0.0400229 -0.697059 0.368307 0.968022 0.399149 0.505778 0.780109 0.846966 -0.610107 0.972758 -0.527366 0.5557 -0.0501477 0.280257 0.301871 0.226041 0.466912 0.181368 -0.47662 0.592991 0.230209 -0.880376 -0.718719 0.80924 -0.856012 -0.795753 0.638157 -0.73848 0.711919 -0.179079 -0.888867 0.13933 -0.0874203 0.978572 0.726642 -0.918333 -0.137652 -0.690676 -0.76866 0.516 -0.718766 0.640732 -0.606525 0.990502 0.620247 0.703701 0.680602 -0.655027 0.341651 -0.288071 0.960592 0.831359 -0.289143 0.845232 -0.815599 -0.541714 0.452318 -0.458354 0.339671 0.88937 0.692023 0.015689 0.709829 -0.750027 -0.989726 -0.105994 0.0618273 -0.943806 -0.192138 -0.606877 -0.000311043 -0.663097 -0.155843 0.24817 0.0695444 0.439782 -0.167739 0.847385 -0.963889 0.932986 -0.240663 -0.910325 -0.96929 -0.10286 -0.186491 0.95372 -0.297281 -0.410765 -0.307972 0.549051 -0.764953 -0.0363799 0.872526 -0.589637 -0.396868 -0.869816 -0.652046 0.618235 0.329639 0.242844 -0.731717 0.805952 -0.209461 0.994164 0.660224 -0.0212008
-0.869748 -0.763154 -0.401373 -0.148951 -0.512073 -0.350725 -0.12942 -0.282759 -0.647323 0.878467 -0.0714351 0.981836 -0.823102 0.570754 0.429694 0.701852 0.150176 -0.670073 0.883846 0.0228097 0.140033 -0.149159 0.105121 0.0436267 0.209839 0.480776 -0.250524 0.100661 -0.660604 0.690353 -0.754235 0.330482 0.0637713 0.816399 -0.761358 0.251184 -0.719138 0.339963 -0.77971 0.851302 -0.530265 0.849842 -0.519474 0.155326 0.845339 -0.782859 0.950883 0.461643 -0.71864 0.842302 0.258436 -0.460929 -0.520301 0.699359 0.981836 0.340001 0.099836 -0.850541 0.671893 -0.818814 0.0587546 -0.478756 0.237381 0.209987 -0.749613 0.901225 0.0524203 0.959851 0.370788 0.801764 0.132422 0.439403 0.571396 0.859861 0.992355 -0.899637 -0.508701 -0.821393 -0.11913 0.902541 0.950236 -0.427914 -0.677941 -0.509768 0.129719 -0.330396 -0.850179 0.919887 0.971115 -0.771915 0.369748 0.57144 0.86176 0.26983 -0.436376 -0.371746 -0.489209 -0.980388 -0.488396 -0.703153 0.800327 -0.820988 -0.401048 -0.388026 0.149282 -0.194105 0.000699466 -0.211103 -0.810563 0.39136 -0.459096 -0.400555 0.937822 -0.560227 0.230115 -1.00017 0.810636 0.860751 -0.917124 -0.490837 -0.0296897 -0.177099 -0.0425134 -0.671554 -0.884286 -0.708609 -0.249071 0.0916705 0.53263 -0.688989 -0.519505 -0.441643 0.707969 0.171637 0.149427 0.697072 0.169749 0.030678 -0.959825 -0.971212
-0.139934 0.862639 -0.180436 -0.0596963 -0.17106 -0.760443 -0.629807 0.0288468 0.59099 -0.319992 0.778983 0.710544 0.672916 0.0199881 0.369894 0.610083 -0.470211 0.730235 0.892141 -0.338908 0.529732 -0.429654 0.440308 0.0620098 -0.0899396 0.219866 -0.149904 -0.369821 0.519363 0.409533 0.112103 -0.849814 0.696069 0.129726 -0.140557 -0.81952 -0.619669 0.0799565 0.450155 -0.389787 -0.910078 -0.959933 0.300452 0.986605 -0.107668 0.859095 0.790642 0.910683 0.0504633 0.389488 -0.989678 0.399188 -0.169926 -0.0907172 0.491658 -0.309988 0.249422 -0.879998 0.921592 -0.479983 -0.410391 -0.389315 -0.83237 0.260125 -0.800607 0.330753 -0.493468 -0.719631 0.200488 0.460981 -0.758886 0.289396 0.980692 -0.689533 -0.168796 0.719997 -0.539481 0.199228 0.260838 -0.39983 -0.439951 -0.629249 0.690726 -0.689354 -0.690115 0.499869 0.569488 -0.100251 0.110478 -0.0508721 -0.069982 0.610927 -0.478392 0.419413 -0.65837 0.420228 0.0508537 0.689952 0.170872 -0.236683 -0.470144 0.600183 -0.560295 0.311035 -0.911066 0.908049 0.230777 0.719538 0.22971 0.559955 0.460048 0.209756 0.989341 0.428782 -0.519622 -0.140025 0.959985 0.849852 -0.449035 0.390324 -0.459652 -0.738253 0.768722 0.439931 0.452981 -0.689755 0.559908 0.551526 0.97127 0.720241 0.819958 0.0994088 0.489061 -0.759294 0.220095 0.85858 0.559847 -0.699774 -0.300063 0.469943
0.290015 -0.549706 -0.549985 -0.810038 0.339983 0.510433 0.420085 -0.820013 -0.369889 0.130043 -0.150425 -0.909992 0.820378 -0.329985 -0.699983 0.519751 -0.189998 -0.080011 0.630242 -0.249642 0.729791 0.439985 0.210317 0.960024 -0.29002 -0.779895 0.919681 -0.539883 -0.14 0.240027 0.420072 -0.0300948 0.319508 0.279839 0.320023 0.129933 -0.340023 -0.889976 0.0100485 -0.839901 -0.750006 0.740135 -0.329661 0.200208 0.819842 -0.940799 0.580018 -0.520208 -0.530035 -0.609614 -0.539815 -0.51998 0.770009 -0.119603 0.770492 -0.439998 0.799988 -0.610023 0.870893 -0.390009 -0.429994 0.529898 0.0302655 -0.519998 -0.640777 -0.130215 0.439968 0.859984 0.160335 -0.279763 -0.390127 -0.0199873 0.519977 0.930256 0.810008 -0.429999 -0.429481 -0.0700017 0.870083 0.340178 0.790084 -0.209672 0.630061 0.680463 -0.0100353 0.529959 -0.660202 -0.490026 -0.779599 -0.790048 0.480115 0.540052 0.179911 -0.859837 0.790166 -0.909986 -0.299801 -0.240005 0.769919 -0.900179 -0.18995 0.43001 -0.0499994 0.609913 0.999893 0.530201 -0.279638 0.73 -0.270256 -0.580213 0.520148 0.740033 -0.360048 -0.410216 -0.230183 0.620112 0.209994 0.499937 -0.769817 0.179924 0.170056 -0.629595 -0.230002 0.0499974 -0.0399955 -0.450043 -0.439613 -0.189494 0.479936 -0.0601491 0.450027 0.6 -0.640001 0.280064 0.549946 0.909915 0.769997 -0.589617 0.619805 -0.789492
0.810006 0.140196 0.830004 -0.320003 -0.849976 -0.019964 -0.639807 -0.389851 -0.499915 -0.859782 0.819987 0.559883 -0.729756 -0.19996 0.809986 -0.640072 0.549927 0.680037 0.820259 0.460053 0.739969 0.61001 0.630047 0.389976 -0.270001 0.169766 -0.579991 -0.28989 -0.760293 0.149878 0.739769 0.0398861 0.6998 -0.940033 -0.919961 -0.539954 0.860129 -0.920017 0.419932 -0.729864 -0.0200431 0.499773 0.340049 -0.890008 0.519957 -0.710739 -0.320074 0.480022 0.969926 0.770202 0.520409 0.0399218 0.570001 0.45023 -0.369833 0.0200074 -0.900031 0.16 -0.129918 -0.920077 0.599918 -0.110081 -0.340201 0.520002 -0.300101 0.659744 -0.439799 -0.529921 0.849762 0.710021 -0.989899 0.509999 -0.870028 -0.520008 -0.489941 -0.689998 0.190117 0.029938 -0.580025 0.769875 0.509994 0.489924 -0.230037 0.480073 -0.759973 0.779954 -0.349977 -0.400003 -0.629883 0.610056 -0.870046 -0.320089 0.100014 0.25005 -0.100188 -0.259983 -0.0199746 0.359987 0.599981 0.070071 -0.130052 -0.59002 0.510619 -0.819989 0.249843 0.970032 -0.179927 -0.919996 0.949918 0.560078 0.880071 -0.0999089 -0.749915 0.040207 0.540062 0.280025 0.720069 0.300233 -0.620004 0.160275 0.00987365 -0.62999 0.649947 0.729975 0.44 0.149786 0.570044 0.760268 0.649963 0.13984 -0.589894 -0.789775 0.240074 0.649728 -0.509835 -0.979943 0.849788 -0.869986 -0.289926 -0.110018
-0.000566544 0.740013 0.160072 0.380188 -0.24935 -0.51021 -0.319791 0.370009 -0.259173 -0.16975 -0.030179 0.589596 0.179546 -0.24004 -0.380003 -0.189908 -0.990169 0.620032 0.33012 -0.259976 0.879935 0.659989 -0.910188 0.00996821 0.0100012 0.149633 -0.349996 -0.739966 -0.970355 -0.600899 -0.751281 -0.109962 0.400026 -0.750058 0.530001 -0.2891 -0.709751 0.210021 0.859886 -0.300315 -0.420133 0.430526 0.989997 0.639493 0.559985 0.519991 -0.409962 -0.699981 0.029766 0.809917 0.0800016 0.109952 -0.591277 0.780048 -0.589828 0.140005 -0.500006 -0.899998 -0.0600419 -0.0404087 0.339082 0.479957 0.679585 0.200002 -0.140472 0.119991 -0.899665 -0.0300584 0.0493085 -0.329982 0.930188 -0.900939 0.779709 0.000106559 -0.419877 -0.389994 0.390023 0.930006 -0.699403 -0.86018 -0.100221 0.150784 0.389837 -0.399694 0.97999 -0.979984 0.760087 0.809912 -1.00038 -0.499848 0.839957 -0.259847 -0.14993 -0.799995 -0.000240621 0.449937 -0.790114 -0.159357 -0.829972 0.0203 0.309724 -0.159964 0.210117 -0.169765 0.390099 -0.34019 0.167915 0.920001 -0.41002 -0.370359 -0.800006 0.849908 -0.180322 0.0905381 0.230053 0.149949 -0.0193131 -0.979983 -0.259803 0.740372 -2.00807e-05 -0.899981 -0.160165 0.52021 -0.400004 -0.730705 0.580095 -0.600018 -0.88999 0.569884 0.0209102 0.530358 0.231192 0.709948 -0.970182 0.6104 -7.9329e-05 -0.669426 0.660019 -0.340167
-0.871619 -0.796944 -0.949664 -0.828524 -0.800139 -0.9203 0.380825 0.669369 -0.829606 0.165126 -0.640079 -0.179502 -0.687204 0.508908 0.162234 0.671994 -0.957339 -0.370037 -0.379605 0.910018 -0.85 0.389898 -0.308879 0.0612982 0.339764 -0.980108 -0.92021 0.620179 -0.0979276 0.330486 0.579916 0.760201 0.169484 -0.661052 -0.979553 0.242842 0.539315 -0.579945 -0.0405886 0.999205 0.801927 0.508182 0.439855 -0.477917 0.0731004 -0.962815 0.970721 -0.682062 -0.289437 -0.789181 -1.00095 0.920169 -0.710573 -0.671537 0.650174 0.049977 0.449128 0.819198 0.849559 0.540028 -0.428205 -0.93935 0.171353 -0.999707 0.459708 -0.562524 0.126974 -0.789995 0.759363 0.390848 -0.368734 0.441352 0.850509 0.581407 0.320465 -0.259598 0.361539 -0.719408 -0.699681 -0.649042 -0.0297715 -0.446081 -0.109985 0.918887 0.781599 -0.110148 0.379009 0.589999 -0.839674 0.899467 -0.480755 -0.549244 0.618571 -0.10208 0.20131 -0.00995296 0.919884 -0.76061 0.449596 -0.0286488 -0.469758 0.38111 -0.0609698 -0.0105853 0.891453 0.106978 -0.146102 0.539273 0.55886 -0.826586 -0.370067 -0.330152 -0.260846 -0.130969 0.939615 0.750765 -0.00963207 0.711893 -0.899332 -0.39155 -0.0694049 -0.419714 -0.54122 0.821679 0.651459 0.659262 -0.888942 -0.239881 -0.309241 0.359706 -0.289791 0.527905 0.161374 0.800423 0.989003 -0.0802324 0.350043 0.810935 -0.539981 -0.280899
0.776183 0.352647 0.24962 -0.347765 0.859166 0.670589 0.121034 -0.75968 -0.278654 -0.759355 0.619425 -0.179622 -0.988399 -0.191929 0.732772 -0.906416 -0.427352 0.329527 -0.909982 0.570078 -0.760567 -0.880194 -0.428709 0.330384 0.379613 0.749943 -0.372399 -0.589881 -0.856389 -0.8179 -0.222281 0.450304 -0.469235 0.508148 0.970939 0.535351 -0.604174 0.280279 -0.211178 0.528506 0.522957 0.58594 0.12949 -0.634398 -0.748304 0.796327 0.942535 0.796672 -0.149359 -0.668608 0.137717 -0.359479 0.359069 0.0895919 -0.780178 0.529883 -0.311106 -1.00431 0.228932 -0.199718 -0.676672 0.790277 -0.216145 -0.7488 -0.390455 0.835684 0.425707 -0.270535 -0.220735 0.823328 0.800613 -0.907331 0.830027 0.643082 0.248528 0.173279 0.783401 -0.0602455 0.490249 0.730791 -0.229405 -0.923902 0.168904 -0.372526 0.402512 -0.200698 0.817881 0.689932 0.102163 -0.829505 0.606816 -0.230183 -0.0148567 0.648456 -0.498547 0.640193 0.859422 -0.579707 0.35947 0.245538 -0.989503 0.0112135 -0.611945 0.369646 -0.368297 0.757339 -0.279169 -0.220658 0.387696 -0.721947 -0.330338 0.239033 -0.734123 0.0186505 0.389431 0.301455 -0.799851 0.185519 0.190775 0.166889 0.420815 -0.158886 -0.640436 0.79337 0.820029 -0.540957 0.83218 0.799734 -0.648004 -0.470823 0.00952217 -0.152741 0.00358852 0.809926 0.818098 -0.020472 0.709589 -0.67866 -0.92986 -0.941046
-0.47823 0.308737 -0.829891 -0.0391008 0.500265 0.468753 0.381469 -0.648503 -0.569679 0.69152 -0.946828 -0.929024 0.569468 -0.0196027 0.136356 0.630554 0.55749 -0.20495 0.73105 -0.703135 0.253268 0.599066 -0.369116 0.0418378 0.909659 0.24177 -0.872603 -0.0304481 -0.9293 0.269716 0.585283 -0.837949 0.120515 -0.991665 0.0612233 -0.00640031 0.375833 0.318953 0.51489 -0.239966 0.73687 0.0700046 -0.811509 0.582307 -0.137976 -0.973883 -0.488493 0.761256 -0.129716 -0.889326 -0.54185 -0.611199 -0.276823 -0.829823 -0.13699 0.660784 0.899287 -0.193791 -0.690328 -0.669319 -0.122367 -0.438729 -0.708547 -0.850815 -0.807156 0.606469 0.600647 0.428883 0.816036 -0.263679 -0.779512 0.398043 0.169977 -0.365504 0.300161 -0.545075 0.434655 -0.619042 0.672305 -0.183354 0.89103 -0.62335 0.838077 0.468762 0.559943 0.309242 -0.523813 0.0601492 0.352129 -0.019152 -0.335003 0.517307 -0.584131 0.387134 -0.959537 0.0465859 -0.980995 -0.797316 -0.317543 -0.603999 0.360697 0.113326 -0.0408017 -0.197547 -0.898621 0.699276 -0.496528 0.358228 0.697902 0.309576 -0.2905 -0.218808 0.723735 -0.179753 -0.519717 -0.289518 -0.640865 0.279182 -0.856514 0.796431 0.399615 -0.579907 -0.156923 -0.0427776 -0.0701899 0.127871 0.600602 0.327028 0.105939 -0.431599 -0.370647 0.260343 0.112374 -0.568079 0.17713 0.48929 0.178317 0.49923 0.549054 0.547688
-0.346647 0.73069 0.432525 -0.765382 0.79155 0.120255 -0.538701 0.622003 0.361622 0.893847 -0.0781631 0.447132 0.917586 0.00880398 0.746147 -0.382601 0.424984 0.40623 -0.988277 -0.989583 0.0142743 -0.651475 -0.350037 -0.975013 -0.929993 -0.769629 -0.30722 -0.931817 -0.548456 -0.00135633 -0.374999 0.212339 -0.339228 -0.490505 0.511301 -0.546863 0.289865 -0.691629 -0.115761 -0.00958633 -0.973423 -0.491735 -0.119187 -0.86533 0.0393797 0.257171 0.728351 -0.203139 -0.691241 -0.800064 -0.415782 -0.582046 -0.0461886 0.950767 -0.516318 0.651722 -0.549575 -0.329266 0.101222 0.580066 0.727083 -0.218244 -0.158399 -0.1229 1.00659 -0.426888 -0.890211 -0.61019 0.766388 -0.638699 -0.651125 -0.860067 -0.556831 0.100689 0.720475 0.672888 0.59498 -0.967819 0.28469 -0.2137 -0.718454 -0.335919 -0.00988351 0.131286 0.369601 -0.960523 -0.252869 0.060483 0.640802 0.550425 0.0735716 0.427745 0.169617 0.0959725 0.620361 0.465671 0.685002 0.838057 -0.898806 0.90039 -0.368719 0.540936 0.87468 0.4852 -0.356938 -0.331559 -0.856803 0.619424 -0.332975 -0.750363 0.733407 0.122362 0.397475 0.0504827 -0.290977 0.65739 0.640032 0.25205 0.512187 -0.673042 -0.691426 -0.841729 0.484135 0.585294 0.325743 -0.411263 -0.819093 -0.746272 0.355426 0.47898 -0.159099 0.373257 0.296153 0.805143 0.395866 0.319229 0.769544 -0.0381658 0.506125 0.557807
-0.706076 -0.875893 -0.318438 0.463096 -0.00806972 -0.276169 -0.999683 -0.0599426 0.980078 0.0102277 0.677219 -0.802166 0.718845 -0.419593 -0.150414 -0.662502 0.207627 0.383134 -0.838266 -0.385825 -0.0313369 -0.430647 0.280296 0.802949 -0.279805 -0.819134 -0.240428 -0.280975 -0.350635 -0.596373 -0.489896 0.25831 0.239763 -0.529303 0.160513 -0.168741 0.290507 0.13918 0.428864 -0.750591 0.228215 0.307167 0.501074 0.480173 -0.79061 -0.781451 -0.430932 0.35541 0.608984 0.640469 -0.027269 0.929329 0.162504 0.520558 0.821347 -0.438969 0.960539 -0.749315 0.870197 0.339949 -0.0658073 -0.0295373 0.242969 -0.582113 0.605342 0.955232 -0.64296 -0.929739 -0.739954 -0.991741 -0.799851 0.334091 0.351788 0.620385 -0.769933 0.531184 -0.689134 -0.769434 0.0925427 -0.748796 -0.772379 0.0815211 0.219707 -0.569962 -0.230182 -0.290156 0.448315 -0.259491 0.180902 0.790231 -0.0752444 0.297437 0.708958 0.0182515 0.400126 -0.402592 -0.975452 0.656444 0.228397 0.735553 -0.469416 -0.333048 -0.277313 0.642564 -0.22933 -0.81054 -0.719581 0.880001 -0.110249 -0.410002 0.283797 0.581011 -0.00100787 -0.260788 0.449229 0.628045 0.0408245 -0.846074 -0.771402 0.269811 0.539244 0.12999 0.482527 0.700467 0.466559 0.349348 0.0625855 -0.993751 -0.398363 0.159664 0.381813 0.0219908 0.973441 0.233049 0.647372 -0.270469 -0.130297 0.630595 -0.182507 -0.6013
-0.779779 0.100917 -0.749999 0.730017 0.310077 -0.748674 -0.881727 0.600232 0.530013 -0.769724 -0.0797034 -0.669952 0.301186 0.700005 -0.959982 0.340593 -0.829974 0.0200038 0.920623 0.810068 0.440215 0.561564 0.313968 0.0300484 -0.97998 -0.650018 0.899977 0.370024 0.159919 0.530078 0.590427 -0.0901714 0.548989 0.350169 -0.0816007 0.839907 0.750427 -0.0398956 -0.859998 0.450179 0.310459 0.129796 0.160222 -0.00996425 -0.579972 -0.552831 0.381326 0.299727 0.0429949 0.42983 -0.189537 0.390006 0.139976 0.0792783 0.730578 -0.969702 0.778647 -0.65039 0.919905 -0.16004 0.969861 0.470197 -0.0198352 -0.540067 -0.649261 -0.231005 -0.673219 0.150121 0.99963 0.932589 -0.130216 0.970114 0.28009 0.0800713 0.629402 0.559991 0.60022 0.299192 -0.410473 -0.600149 -0.290243 -0.799983 -0.140037 -0.313366 -0.409994 0.560029 0.950387 0.570078 0.0203678 0.750033 0.0892086 0.388999 0.501653 -0.408105 -0.658475 0.430047 0.72985 -0.411429 -0.730062 0.072929 0.819984 0.849781 0.671163 -0.18975 0.00855623 -0.670846 -0.709279 0.460016 -0.480296 0.876554 0.520411 0.710217 0.830053 -0.710244 0.569966 -0.52002 -0.389968 0.660366 0.0400738 0.800826 -0.100385 0.0695205 0.329966 -0.569907 0.0399246 0.719953 -0.240087 0.900544 -0.610214 -0.910377 0.900045 -0.379876 0.351301 -0.191219 0.140086 0.300014 -0.992792 -0.810067 0.660379 0.809813
0.680899 0.481002 0.700027 0.441929 -0.909099 0.881464 -0.491139 -0.328099 -0.710141 -0.2993 -0.520416 -0.130043 -0.719121 0.740675 0.343544 0.251383 0.0832923 -0.629984 -0.369715 0.35784 0.525598 -0.298225 0.624607 -0.0800289 0.610337 0.159529 -0.648644 -0.610517 -0.440871 0.660225 0.160529 0.3914 -0.174034 0.641454 0.16815 0.772153 -0.12964 0.26325 -0.890522 0.0784687 0.784829 -0.890797 -0.570357 0.0610305 -0.349254 0.339962 0.142033 0.708872 0.863653 0.099616 0.380042 0.589417 0.789592 0.356185 0.360075 -0.769685 -0.561392 0.620178 -0.740134 0.819967 0.69079 -0.570032 0.449106 -0.0614462 0.981216 -0.325881 -0.0918917 0.947101 -0.721331 0.29298 0.650992 -0.396883 -0.939916 0.0135786 -0.641092 0.140028 -0.497406 -0.502644 -0.10159 -0.389982 0.898162 0.160068 0.253827 -0.783632 0.240786 -0.300195 -0.209704 0.621827 0.0701438 -0.757469 0.969455 -0.167048 0.653182 -0.800789 0.641878 -0.959529 0.216383 0.169225 -0.541503 -0.627368 -0.53991 -0.3302 0.910517 0.0384532 0.917907 0.141641 0.367006 -0.959984 0.549708 -0.31916 0.741577 -0.853882 0.25035 -0.810227 -0.100123 -0.770261 -0.779986 0.419886 0.490003 0.360578 0.878172 -0.457788 -0.270759 -0.769954 0.529351 0.699946 0.279126 0.941556 -0.529418 0.849812 -0.330241 0.110184 0.0416455 0.746559 0.21494 0.159818 -0.885172 0.530094 -0.263521 0.569867
-0.219947 -0.874527 -0.748905 0.779976 -0.0398227 -0.57894 -0.161851 -0.708211 -0.819095 0.581708 -0.709505 -0.689745 -0.530216 0.660406 -0.948863 0.899384 -0.568328 -0.796881 0.829986 0.419876 0.665618 0.49182 0.754715 0.0399909 -0.527991 0.159244 0.280441 0.109979 -0.970489 -0.919958 -0.251455 0.970901 -0.148229 0.473074 -0.251785 -0.342798 0.910342 0.830346 -0.710002 -0.589973 0.992556 0.658479 0.666644 -0.839554 0.0285439 0.779419 -0.647201 0.493252 -0.433983 -0.722576 0.401019 0.999748 0.483848 -0.862511 0.681102 -0.174537 -0.739676 0.174717 0.57997 0.100247 -0.620293 -0.559886 -0.470881 -0.270617 -0.789058 -0.124368 -0.594221 -0.039871 -0.115417 0.353003 0.260506 -0.401233 -0.72981 -0.338189 -0.620582 -0.277297 -0.887931 0.138511 0.938625 0.969668 -0.0214619 -0.789358 0.873816 -0.683107 0.951447 -0.0400101 -0.0901836 -0.768853 -0.839316 -0.578682 0.65925 -0.260188 0.941668 -0.769032 0.922682 0.202973 0.887962 -0.775175 0.199183 0.0232477 -0.909993 -0.772373 -0.0823401 0.390294 0.745868 -0.0488815 0.0916807 0.877327 -0.290342 0.0236536 -0.778159 -0.872282 -0.930548 0.759787 0.708849 -0.780371 0.659992 -0.998253 0.330715 -0.168451 0.13754 0.411 0.292512 -0.95944 -0.470883 0.178567 -0.790583 0.73163 0.580109 -0.368642 -0.330618 -0.429061 -0.0484404 0.528311 0.186251 -0.323522 -0.355102 -0.811328 -0.936342 -0.0392372
0.280003 0.750011 0.13 0.31 0.47999 0.490059 -0.670096 0.0900428 0.250018 -0.0301622 -0.0199793 0.140122 -0.839952 0.909986 -0.089987 0.390033 -0.740061 0.259972 -0.790008 -0.39013 -0.96 -0.449937 -0.789818 0.270002 0.28 0.0999969 -0.0698932 -0.549954 0.640023 0.570015 0.860063 -0.340001 0.599892 0.639946 -0.910103 0.139971 0.490004 0.970034 0.149905 -0.840006 0.890019 0.789889 0.810031 0.779997 -0.470008 -0.990067 0.420045 -0.880019 0.530139 -0.320053 -0.590004 -0.74001 -0.410131 -0.560051 0.339984 0.710012 0.859831 0.91 -0.460005 0.94 -0.460052 -0.839965 -0.0799742 -0.230006 -0.949934 0.719767 -0.750049 -0.259999 -0.919983 0.660111 -0.249852 -0.219997 -0.989886 0.799996 0.859996 -0.56 -0.760003 -0.840031 0.179976 -0.240004 -0.740009 -0.280025 0.0399614 -0.410131 -0.610008 0.189996 -0.0699886 -0.66 -0.710006 0.819997 0.499965 0.219885 0.0800678 -0.909927 -0.649845 0.83001 1 -4.58765e-05 0.89 -0.509881 0.0899975 -0.540019 -0.340011 -0.66999 -0.680041 0.759954 0.480021 0.71 0.959984 0.659869 -0.589991 0.44 -0.26 -0.270006 0.869976 0.820001 0.529997 0.689993 -0.800001 -0.879874 0.129887 0.229922 -0.319884 -0.639996 -0.690087 0.850024 0.64003 0.179995 -0.390024 -0.9099 -0.640027 1.00001 -0.0999676 0.429982 0.810007 0.609996 0.329914 -0.740095 0.909992 0.580003
0.03 -0.23 0.39 -0.13 0.859996 -0.2 -0.329999 -0.989995 0.9 -0.629994 -0.78999 0.400001 0.869987 -0.679997 -0.309925 -0.689986 -0.63 0.76 0.819984 0.879972 0.58 -0.5 -0.109991 -0.0900001 0.07 -0.319995 -0.86 0.689991 0.940012 -0.7 0.14 -0.85 0.250011 -0.320014 -0.210001 0.69 0.2 -0.599932 0.58 -0.0300039 -0.529999 -0.910024 0.13004 0.49 0.89999 -0.349971 0.77 0.95 -0.399969 0.369988 -0.660019 0.869983 0.649999 -0.119993 -0.75 0.549999 -0.7 0.87 0.989998 -0.58 0.119999 0.689997 0.549999 -0.830012 0.0300016 0.75 0.349996 -0.649998 0.519993 0.519993 -0.0499979 0.71 0.409995 -0.89 0.83 -0.32 0.62999 -0.52 -0.219977 -0.130006 -0.99 0.519999 -0.28 -0.940021 -0.370003 -0.97 0.260003 0.65 0.609986 0.55 -0.22 -0.39 -0.58 0.359999 -0.829993 0.669999 -0.06 -0.37 -0.29 -0.739997 -0.450003 -0.0100285 -0.279988 -0.279999 -0.0900241 0.819992 -0.66 -0.34 -0.719998 -0.33 -0.579986 0.97 0.33 -0.479991 0.210001 -0.929998 0.45 -0.210003 0.37 -0.109939 -0.350056 0.190001 -0.84 0.899985 -0.430001 0.94 -0.05 -0.890013 0.820011 -0.290001 -0.760001 -0.739981 -0.67 0.300033 0.0399953 0.899992 -0.540039 -0.410014 0.089974 -0.0499824
0.21 0.65 -0.04 -0.56 0.289998 -0.91 0.940001 -0.149997 -0.49 0.320003 0.160005 -0.0499996 0.879993 -0.0399985 0.0900374 0.0900069 -0.47 -0.51 -0.510008 0.339986 0.49 -0.58 -0.749996 -0.29 -0.31 -0.889998 -0.63 0.539995 0.270006 0.4 -0.22 -0.64 -0.329995 -0.420007 -0.760001 0.09 0.76 0.570034 0.27 0.759998 0.0500005 -0.890012 0.33002 -0.28 0.689995 0.420014 0.15 0.34 0.410016 0.649994 -0.70001 0.929992 -0.0600007 -0.459996 0.09 0.719999 -0.88 -0.25 -0.0700011 0.44 0.00999939 -0.250002 0.55 -0.370006 -0.559999 0.12 0.049998 0.330001 -0.200004 0.329997 0.960001 -0.57 0.209998 -0.66 -0.9 0.33 0.729995 -0.09 0.910011 -0.210003 -0.92 -0.43 0.47 0.219989 -0.250002 -0.04 -0.469999 -0.4 -0.700007 -0.48 0.08 0.93 0.36 0.42 -0.769997 -0.0100003 -0.73 -0.25 -0.28 -0.639999 -0.820001 0.979986 -0.0399941 -0.569999 0.179988 -0.650004 -0.25 0.94 -0.749999 -0.7 -0.509993 0.25 -0.38 -0.129996 0.0200007 0.640001 0.48 0.339999 -0.83 -0.579969 -0.620028 0.600001 0.71 -0.450007 0.49 0.53 -0.32 -0.210007 0.930006 -0.33 0.96 -0.58999 -0.5 0.520017 -0.680002 0.939996 0.459981 0.779993 -0.970013 0.480009
-0.92 0.82 -0.31 0.08 0.88 0.11 0.47 0.13 0.97 0.24 -0.22 -0.82 -0.48 0.01 0.79 0.93 -0.48 0.58 -0.75 -0.18 -0.1 -0.57 0.95 0.95 0.64 -0.23 -0.26 0.92 0.86 0.61 0.2 0.67 -0.05 -0.96 0.36 -0.46 0.27 -0.88 0.18 -0.89 0.12 0.54 -0.13 -0.48 0.62 -0.22 -0.78 -0.6 0.91 -0.58 -0.34 -0.04 0.04 -0.26 -0.47 0.53 0.98 -0.98 0.96 -0.88 -0.49 -1 0.32 0.14 0.75 -0.21 0.12 -0.03 0.42 0 -0.84 1 -0.43 0.95 0.67 0.51 -0.55 -0.25 -0.24 -0.31 -0.52 0.28 0.72 -0.63 -0.11 -0.57 0.67 0.23 -0.57 0.09 -0.83 -0.75 0.19 0.18 -0.48 0.22 0.76 -0.06 0.03 0.06 -0.74 -0.05 -0.71 1 -0.39 0.97 -0.29 0.96 -0.22 -0.26 -0.24 -0.18 -0.91 -0.27 -0.09 -0.73 0.57 0.98 0.65 0.17 -0.53 0.64 0.64 0.58 -0.92 -0.93 0.58 -0.02 0.92 -0.28 -0.58 0.5 0.85 0.15 0.24 -0.71 -0.49 0.45 -0.3 0.07
-0.1 -0.22 -0.48 0.89 -0.01 0.94 0.95 0.02 -0.86 -0.57 0.47 0.83 -0.89 0.53 0.36 0.28 -0.03 -0.39 0.37 -0.93 -0.19 -0.31 -0.93 -0.94 -0.26 0.14 -0.32 -0.97 -0.98 0.65 0.56 0.13 0.59 0.26 -0.88 0.62 -0.76 0.34 0.72 -0.85 0.94 0.42 -0.51 0.26 0.07 0.97 -0.89 -0.34 0.49 0.64 0.94 -0.29 0.48 -0.05 0.56 0.24 -0.55 0.29 0.61 -0.73 0.98 -0.16 -0.69 -0.71 -0.25 0.57 -0.21 0.23 -0.91 0.32 0.42 0.6 -0.84 -0.11 -0.65 -0.63 -0.61 -0.32 -0.35 -0.54 -0.26 -0.11 0.08 0.89 0.23 0.26 0.66 -0.9 0.42 0.23 -0.84 0.59 0.09 1 -0.21 0.01 0.89 0.53 -0.24 -0.72 -0.33 -0.26 -0.63 -0.33 0.49 -0.62 0.55 0.03 1 0.4 -0.72 0.17 -0.99 0.52 -0.41 0.82 0.62 -0.01 -0.73 0.89 0.39 -0.66 -0.35 0.99 0.06 0.76 -0.64 0.57 -0.93 0.38 0.25 -0.12 -0.69 0.23 0.4 1 0.51 -0.52 0.81 0.18
0.5 -0.48 0.25 0.89 0.2 0.81 0.61 -0.97 -0.34 0.81 0.34 0.13 -0.14 0.37 0.08 0.98 0.63 0.13 -0.01 0.01 -0.33 -0.97 0.39 0.11 0.13 0.29 0.35 -0.11 -0.77 0.99 -0.45 0 0.1 -0.85 -0.91 -0.83 -0.79 -0.01 0.91 -0.38 0.51 -0.88 -0.02 -0.64 0.38 0.58 0.13 0.5 0.68 -0.68 -0.06 -0.48 -0.75 -0.06 0.93 0.9 0.71 0.34 -0.07 -0.23 -0.01 0.25 -0.04 -0.66 -0.84 0.85 -0.75 -0.24 -0.98 0.58 -0.62 1 0.76 -0.7 0.58 -0.12 -0.76 -0.72 -0.82 0.5 -0.23 -0.96 -0.57 -0.03 -0.31 -0.71 0.23 0.34 0.29 -0.03 0.55 0.52 0.81 0.85 -0.91 0.21 -0.46 0.62 -0.49 0.45 -0.24 -0.38 -0.93 -0.11 -0.56 -0.45 0.31 -0.12 -0.19 -0.1 -0.26 0.7 0.57 -0.47 0.14 -0.12 -0.68 -0.87 0.76 -0.09 -0.34 -0.3 0.85 -0.92 0.91 -0.99 -0.48 0.73 0.48 -0.49 -0.09 0.04 -0.37 -0.38 0.9 0.84 -0.04 0.32 -0.66 0.45
0.79 0.5 0.35 -0.88 -0.05 1 0.72 0.36 -0.09 0.12 0.18 0.15 -0.72 -0.5 0.6 0.4 -1 -0.47 -0.1 0.47 0.7 -0.82 0 0.68 -0.27 0.58 -0.94 -0.71 -0.42 0.5 -0.95 -0.46 0.14 -0.21 -0.95 0.4 -0.69 -0.57 -0.78 0.73 -0.27 -0.23 0.92 -0.18 0.15 0.4 0.87 0.64 0 -0.48 0.96 -0.16 0.24 0.58 0.97 -0.27 -0.71 0.72 -0.37 0.64 -0.77 -0.55 0.54 -0.65 0.77 0.7 0.83 -0.75 0.97 -0.72 0.78 0.96 -0.56 -0.03 0.89 0.57 -0.78 0 0.45 -0.06 -0.6 -0.97 -0.15 0.95 0.63 0.74 -0.21 -0.28 0.21 0.01 0.58 -0.06 -0.45 0.39 0.28 -0.19 0.71 0.47 -0.62 -0.94 0.99 0.35 -0.86 -0.08 0.2 -0.19 0.28 0.4 0.03 -0.83 -0.88 0.76 0.83 0.13 -0.96 0.66 0.32 0.74 0.44 -0.62 0.14 -0.43 -0.45 -0.57 -1 0.6 0.71 -0.25 -0.54 0.24 0.77 -0.09 0.72 -0.41 -0.72 -0.42 -0.36 0.19 0.54 0.04
-0.0200229 -0.749972 -0.790008 -0.620004 -0.559943 -0.500029 0.829995 1.00001 -0.659995 0.89001 -0.390072 -0.090002 0.130002 0.529986 -0.640015 -0.329984 -0.21 0.549995 0.799976 -0.110014 0.279998 -0.830007 -0.459999 0.0899964 0.639989 0.740001 -0.549949 0.359989 -0.230007 0.599986 0.919998 0.0299923 -0.759994 0.860015 0.370006 0.840007 0.729995 -0.0800151 -0.130002 -0.169996 0.140014 0.0200362 0.390025 -0.189995 -0.579961 0.589972 0.809975 -0.130017 -0.230007 -0.369998 -0.739992 0.430045 0.539995 -0.0800014 -0.109997 -0.379985 0.290008 -0.840001 0.120064 -0.450002 0.759999 0.54 0.260001 0.859996 -0.670039 -0.6 -0.730012 0.149977 -0.940003 0.430001 0.990001 -0.95 -0.519917 -0.739996 -0.41 -0.519998 0.179999 -1 0.290055 0.960002 0.299967 0.270054 -0.24 -0.560005 0.850003 0.550004 -0.320004 0.619994 -0.649957 0.210011 -0.950008 0.209987 0.789996 -0.760027 -0.65 0.409998 0.150016 0.0100093 -0.459994 0.939979 0.450001 0.589996 -0.200005 -0.449998 -0.350001 -0.960024 0.299997 0.960003 0.960021 0.410018 0.0599982 -0.170012 -0.0400011 0.510002 0.309979 -0.240002 0.410001 -0.509999 0.110003 -0.0700041 0.300018 -0.859995 0.749999 -0.739962 0.549996 0.419998 -0.0800033 -0.700045 -0.189976 -0.630024 -0.370014 -0.949999 0.389991 -0.00999387 0.989998 0.41004 -0.820007 0.889999 0.099968 -0.529992
-0.920415 0.120368 0.531137 -0.190044 -0.979705 -0.881091 -0.609777 0.450243 0.820294 0.650094 -0.980347 -0.239819 -0.590099 -0.620594 0.6601 -0.719815 -0.0900079 0.150018 -0.120167 0.439185 -0.189921 -0.290227 -0.930168 0.999253 0.530046 0.959555 -0.630263 0.459853 0.880847 -0.0796354 -0.320289 0.419878 0.461318 -0.910122 -0.969598 -0.20017 0.200255 -0.249757 -0.520406 -0.339893 0.38086 -0.469867 0.500283 -0.669669 -0.0704441 0.119693 0.930049 -0.280093 0.939758 0.81991 0.140301 0.110674 -0.55958 -0.889659 0.420032 -0.899435 -0.0703281 -0.739905 -0.690552 -0.289971 -0.819845 -0.700108 0.540868 0.520031 0.200626 0.830194 0.160056 -0.900665 0.499844 0.280006 -0.929444 -0.96015 0.0209943 0.439794 -0.559384 0.299922 0.609854 -0.200028 -0.179887 -0.61058 -0.150845 0.659842 -0.649007 0.0999164 -0.649972 0.680247 0.0490863 0.470603 -0.738983 -0.649611 -0.440351 -0.149867 0.209141 0.939995 0.0902909 0.540892 -0.169742 -0.680377 -0.320383 -0.129563 -0.720639 -0.42015 -0.459878 -0.370638 0.179878 0.570724 -0.520156 0.370078 0.189454 0.680347 -0.330193 0.539654 0.339852 -0.449935 -0.430214 0.760099 -0.44994 -0.0599063 0.0791888 0.0293614 -0.319744 -0.0800102 0.739857 0.859805 0.0691764 -0.570012 -0.759857 -0.659652 0.400408 -0.0699041 0.99987 -0.319742 -0.291545 0.82022 -0.509441 -0.229714 0.809853 0.429758 -0.340061 0.469594
-0.562073 0.726908 0.428441 -0.688877 0.191791 -0.245459 0.921363 0.978447 0.0214171 -0.45296 0.917286 -0.969932 -0.931435 -0.361869 0.0308395 0.202908 0.872018 0.0320991 0.359638 -0.0330613 -0.0603432 0.130238 0.407053 -0.634144 0.00750308 0.858975 0.332649 -0.891276 0.193234 -0.413526 -0.762182 -0.263673 -0.882916 -0.121509 -0.365045 -0.307603 0.213069 -0.296294 0.400368 0.429461 -0.584949 -0.0915352 -0.268543 0.766417 0.989011 0.3593 0.84157 0.208478 0.297088 -0.875291 0.792615 -0.771739 0.00201905 -0.447042 0.00806914 0.0618928 -0.900772 -0.219579 -0.893225 -0.623141 0.910529 0.199837 -0.728908 0.237287 -0.586335 0.810328 0.923894 0.377293 -0.0912913 -0.930194 -0.13704 0.529602 -0.465343 -0.709066 0.931509 -0.649873 -0.561783 -0.829821 0.0302229 0.379021 -0.263829 -0.421736 -0.19443 0.600885 -0.0810758 -0.00936181 0.397663 -0.407514 0.313406 0.991851 -0.329415 -0.539807 -0.862234 -0.408474 0.611376 -0.461928 -0.697713 0.827534 -0.961595 -0.897268 0.888598 -0.548128 -0.549252 0.685614 0.222915 0.57914 0.816721 0.970234 -0.471892 -0.00154166 0.783193 -0.243303 0.988988 -0.799335 0.611983 -0.770519 -0.459851 -0.953785 0.259719 -0.100946 0.558662 -0.24029 -0.569253 0.360626 -0.185349 -0.351748 -0.279758 0.719246 0.477218 0.238033 0.0431156 0.0801553 -0.280907 -0.75738 -0.208452 0.631789 0.488807 0.0788622 -0.929981 0.534155
0.541089 0.085068 -0.413706 -0.285053 0.0532232 0.451913 0.25783 0.972961 -0.41125 -0.970702 0.530991 -0.834068 0.680929 -0.547377 -0.325887 -0.168972 0.724534 0.0537933 0.15078 -0.827269 -0.644682 0.220027 0.612865 0.3097 -0.945637 -0.0638408 0.303025 0.312155 -0.50598 0.56198 0.234732 0.703945 0.232766 -0.686971 -0.57964 -0.733487 -0.0900522 0.726729 -0.985097 -0.876777 0.0615223 0.752724 0.119235 0.0465952 -0.0830601 -0.669052 -0.353417 0.964613 -0.404439 -0.613584 -0.0993726 0.535312 -0.206393 0.741964 -0.25028 -0.100788 0.230156 -0.333397 0.465096 -0.506624 -0.603595 -0.0409524 -0.840881 0.557938 0.710116 0.635293 -0.262734 -0.452239 -0.663043 0.849679 0.376362 0.397838 0.672168 0.281848 -0.535003 0.0565427 -0.568307 -0.241912 0.251627 -0.111814 0.167384 -0.564581 0.641168 -0.455969 0.226098 0.653839 0.180935 -0.433046 -0.859637 -0.998971 0.81712 0.490288 -0.960241 -0.448153 -0.652508 -0.934968 -0.269242 0.700247 0.784403 -0.968133 -0.73188 0.982148 0.218563 0.689905 0.538523 -0.304403 -0.613501 -0.317762 -0.722272 0.326657 0.458275 -0.422089 0.0281961 -0.559053 -0.0950984 0.401513 0.500964 0.324662 0.555259 0.542038 -0.0910678 -0.430432 -0.9639 0.832526 -0.170072 -0.67198 0.281711 -0.193414 -0.112566 -0.680413 0.974208 -0.229425 -0.642087 -0.55893 0.832178 -0.547323 0.864772 0.705782 -0.470864 0.884855
0.0949067 0.404447 0.0412894 0.0223874 -0.600602 0.194563 0.290224 0.630215 -0.229445 -0.760611 0.375275 -0.584892 -0.594441 0.382634 -0.236045 -0.694368 -0.388712 0.141215 0.303174 -0.196386 -0.965602 0.523857 -0.760959 -0.536243 -0.9998 -0.213496 0.283676 -0.019084 0.653431 -0.570297 0.84037 0.573679 -0.0957578 -0.505523 0.754112 0.0288395 -0.858831 0.069765 -0.0427381 -0.20813 0.426362 0.295328 0.32279 0.0744025 -0.487707 -0.526203 -0.657604 -0.938191 0.620324 0.207283 0.790221 -0.175682 0.0848128 0.208513 0.486544 0.543858 0.430596 0.946737 0.644908 -0.851028 0.566632 -0.0897833 0.784433 0.766123 0.585788 0.118802 0.839888 0.0756797 0.421421 -0.384222 0.814498 -0.389077 0.0698617 0.21133 -0.512767 -0.801206 0.751083 0.139064 0.463137 -0.811113 -0.281169 -0.679384 -0.561215 -0.85084 -0.515606 -0.221351 0.660513 0.12013 -0.076091 0.580146 0.752099 -0.360758 0.898969 0.846129 0.605108 -0.541978 0.341859 0.977152 -0.151626 -0.0863253 -0.990012 0.687607 0.943991 -0.425803 0.243755 -0.531825 0.662622 -0.492483 0.303667 0.380924 -0.0512423 -0.277286 -0.828217 0.837598 -0.508452 -0.948576 0.811586 -0.93235 -0.0972442 -0.481473 0.326742 -0.217878 -0.667935 0.171196 0.612786 0.217655 0.234672 -0.506562 0.828422 0.738016 0.989551 1.01473 0.15321 0.925039 -0.797164 0.466246 0.0693272 -0.484566 -0.437342 0.187757
0.443109 0.83915 -0.674527 -0.579154 0.90136 -0.544755 0.567857 0.515097 0.950558 0.881783 0.301635 -0.197081 0.927979 0.887934 -0.154728 0.591997 0.923573 0.617739 -0.96075 -0.971164 0.413385 -0.582865 0.482989 0.557218 0.777431 0.770583 -0.181186 -0.609336 -0.416847 -0.25685 0.311032 0.909634 -0.844856 -0.952466 -0.291284 0.169672 -0.112501 0.223911 0.291866 -0.510241 0.21298 -0.833497 0.870744 0.741382 -0.388658 -0.126678 -0.559584 -0.356883 0.0409675 -0.805828 0.987616 0.375465 -0.857084 0.698843 0.850729 0.944107 0.293276 -0.842555 0.60658 0.290444 -0.670926 0.867942 -0.241754 -0.0911685 -0.272049 -0.412863 -0.894746 0.362206 0.678042 0.914876 -0.355673 0.743369 0.081124 0.498959 0.847612 0.789232 0.618359 0.532735 0.988222 -0.173488 -0.539408 0.527808 -0.356806 0.110422 -0.111777 -0.194876 0.180826 0.944627 -0.736835 -0.358898 0.958624 -0.230286 -0.177899 0.183256 0.910275 0.355889 -0.774877 0.154917 0.525486 0.997389 -0.374315 0.452489 -0.209707 -0.0860566 0.0858038 0.475011 -0.451881 0.641988 -0.690142 0.00502594 -0.402603 0.621142 0.970836 -0.851512 0.675969 -0.201051 -0.581173 0.311809 -0.738184 0.799399 0.974423 0.412092 0.83908 1.01558 -0.611873 0.319931 0.420142 -0.37477 0.739439 -0.446828 -1.00546 -0.461545 -0.26402 -0.0355961 -0.385342 0.940725 0.127862 0.950836 -0.352532 -0.103647
-0.56701 -0.971002 0.187847 0.591441 -0.406241 0.429371 -0.262811 -0.424814 0.940637 0.785068 0.0173857 0.0429589 0.248859 0.562226 0.555007 -0.35411 0.848095 0.83994 0.999188 0.47281 -1.00664 0.00915035 0.0362691 -0.331045 0.1474 0.118357 0.066403 -0.507893 0.637417 0.539633 0.386285 0.289341 0.318415 0.763167 0.43255 0.267638 0.634635 0.976843 0.813909 -0.549054 0.757138 -0.798192 -0.0835169 0.0309412 0.210215 0.852153 -0.714235 -0.366632 -0.911348 0.324005 -0.940757 -0.66425 0.208198 0.155516 -0.569124 -0.336563 -0.466977 0.461315 -0.737353 0.90971 -0.792294 -0.995201 0.195795 0.0111706 0.968374 0.329434 0.607159 -0.875047 0.895404 -0.615195 -0.843596 0.0887137 0.653133 0.727462 0.421768 -0.49943 0.864965 0.278601 -0.880418 0.131289 -0.974179 -0.611545 0.425036 0.634552 -1.00961 -0.326381 -0.944819 -0.723298 0.469793 -0.169502 0.951204 0.0169772 -0.768786 0.856191 0.0760548 -0.153718 -0.641308 0.748238 -0.881224 -0.0561405 0.156924 -0.780826 -0.336626 0.250831 -0.00263361 0.246499 0.17208 0.577726 0.536256 -0.483708 0.760823 0.701761 0.38124 -0.196814 -0.990735 0.642711 0.387307 0.165001 0.863573 -0.0585717 0.755346 0.351443 0.226244 0.580542 -0.731298 0.277694 -0.887306 -0.555872 0.196684 -0.200737 0.370522 -0.124337 0.157232 -0.950842 0.467639 0.940194 0.613499 -0.956194 -0.700605 0.749006
0.864545 0.621125 -0.265911 0.938032 -0.805796 0.435848 0.735097 -0.546262 -0.362001 -0.0195477 -0.480837 0.587081 -0.115465 0.725208 -0.110191 0.25289 -0.156564 -0.883863 0.417193 0.30852 -0.578029 0.232064 -0.445433 -0.415738 0.448686 -0.842791 0.0407967 0.456165 -0.258621 -0.0357393 0.327388 0.822248 -0.201849 0.0605241 0.683814 -0.0584511 0.294619 0.864813 -0.183954 0.176731 0.841563 -0.967335 0.0190263 -0.644922 -0.0360525 0.247791 0.409758 0.261667 -0.413055 -0.414768 -0.171079 0.991614 0.0182821 -0.724614 0.837415 0.15385 0.294891 0.41963 0.945986 0.923647 -0.980133 0.891208 0.86599 -0.369101 -0.586476 -0.0116557 0.317987 -0.136842 0.237205 -0.300933 -0.437892 -0.9774 -0.711983 0.535172 0.683238 -0.860331 -0.799729 0.667344 0.996416 0.486035 0.42457 0.623605 0.8919 0.682309 0.125773 0.0719459 0.795434 0.709438 -0.797294 0.940421 0.977953 -0.730792 0.353866 -0.234085 0.646365 0.82266 0.758612 0.873081 -0.592656 0.560094 0.279737 0.227597 0.955068 0.742886 0.651377 -0.646484 -0.545053 0.099068 0.861373 -0.727015 0.118293 -0.858948 0.187234 0.756152 0.818526 -0.531108 -0.955747 -0.326846 0.183485 -0.00644141 0.403332 0.234108 -0.273991 -0.60446 -0.426577 0.757712 0.0851927 0.926905 0.952935 0.596874 0.711636 -0.354544 0.80535 -0.193997 -0.744517 0.510465 0.862436 -0.252699 -0.984378 -0.970249
0.698352 -0.322089 0.897536 -0.351302 0.00255103 -0.44531 0.947534 -0.0639208 -0.570541 0.388247 0.904748 0.0748923 0.853429 -0.723517 0.453766 -0.707126 -0.628643 0.950642 -0.265145 0.835723 0.820589 0.236881 -0.960022 0.513274 0.643142 -0.243755 0.300939 -0.167314 -0.18244 -1.00669 -0.454988 0.2218 0.225078 -0.99518 -0.840071 0.459374 -0.0491249 0.800775 -0.130445 0.25622 -0.925339 0.213437 -0.512022 -0.345734 0.643246 -0.740754 -0.634019 0.94664 0.960508 0.39753 0.323834 0.96762 0.882235 -0.465716 -0.664274 0.114761 0.669023 -0.639025 -0.00161908 0.228432 0.635308 0.00157697 0.881571 0.700475 0.804972 -0.45691 0.32588 0.993679 0.0124099 -0.665325 0.0824232 0.275254 0.704314 -0.945254 0.352896 -0.0328342 0.950093 -0.630824 0.0933407 0.26828 -0.495576 0.0424209 -0.418358 -0.772206 -0.116954 -0.12587 0.448745 -0.584707 -0.738647 0.855485 -0.573385 0.570576 -0.0937976 0.300299 -0.111889 -1.01048 0.501807 0.997964 0.307094 0.493378 -0.418235 0.292257 0.145892 -0.374049 1.00561 0.646628 -0.171366 0.46944 -0.283914 0.652167 -0.369303 -0.602927 -0.0801069 0.657097 -0.551413 -0.954435 -0.850985 0.746896 0.170519 -0.269132 -0.210386 0.230741 -0.382548 -0.390656 -0.648281 0.266545 0.843627 0.154947 -0.410577 0.182084 -0.111892 0.741299 -0.536071 0.428726 -0.291244 -0.678742 0.310066 0.851587 0.0124913 0.412416
0.068883 0.965343 -0.536053 0.439881 -0.647057 -0.378289 0.263583 -0.661801 -0.545739 0.137724 -0.171209 -0.806852 -0.181029 0.0108843 -0.595162 0.507884 -0.785422 -0.557707 0.447592 -0.713154 -0.146306 -0.21139 0.0653594 0.150198 -0.438697 0.220199 -0.533054 -0.647315 -0.851822 -0.766512 -0.604779 -0.0595977 -0.848486 0.457169 0.856796 0.621663 0.071551 0.0651397 -0.103655 0.935723 0.352641 -0.255777 -0.640676 0.0492807 0.670873 0.619729 -0.226269 -0.186712 0.368167 0.35923 0.946146 0.851257 -0.786945 0.116286 0.98 0.322335 -0.427827 -0.256275 -0.956617 0.118242 0.89051 -0.785639 0.41269 0.671415 0.696071 0.0687236 0.643615 0.0790776 0.972194 -0.461229 0.97591 -0.0524325 -0.372281 0.911894 -0.681251 -0.626906 0.991044 0.818612 0.360016 0.712027 -0.443851 -0.0449762 -0.6503 0.102436 -0.648968 -0.562448 0.648098 -0.00115375 0.27279 0.985401 0.153309 0.752896 0.288206 -0.76916 0.892657 -0.253444 0.951385 0.767943 0.21413 -0.00807743 -0.45578 0.47153 0.899062 0.715007 0.544805 0.69759 -0.078714 0.420633 -0.90855 -0.412673 0.542123 0.19114 -0.813036 0.875775 -0.677644 0.738802 0.886958 0.562778 -0.09543 -0.214328 0.85194 -0.472709 0.840127 -0.642095 0.368311 -0.825826 -0.056772 0.545516 -0.604387 0.515101 -0.554732 -0.0569781 -0.158224 0.864655 -0.66191 -0.229352 0.845358 0.847077 0.701954 -0.24168
0.706224 0.362518 -0.326792 0.352748 -0.508974 -0.547307 0.52385 0.208173 0.197442 0.318151 -0.0976228 -0.809122 0.964451 -0.855403 -0.40441 0.677369 0.702471 -0.0151946 0.0501504 0.223875 -0.685179 0.292561 -0.162148 -0.0330462 -0.775052 0.505369 0.192228 0.766463 0.776647 0.735284 -0.500327 -0.389295 -0.151367 -0.319848 -0.573196 -0.741274 0.0385366 0.653714 -0.674368 -0.932077 0.440041 0.895665 -0.585493 -0.137435 0.879786 0.637298 0.164318 -0.935969 -0.00673759 0.507686 -0.686729 -0.201107 0.196887 -0.79479 0.725158 0.122354 -0.0480487 0.208356 -0.909612 0.333529 0.810877 0.991552 0.201202 0.639037 0.638467 -0.061831 -0.488372 0.599872 -0.792078 0.0690252 0.63491 -0.64195 -0.392034 0.235274 -0.33765 0.660698 0.304616 0.642435 0.135031 -0.228846 -0.514045 0.502521 -0.469936 0.08488 -0.0434818 -0.137176 -0.446214 -0.0481071 0.741009 -0.827214 0.268896 -0.837076 -0.591725 0.615017 -0.596951 0.275609 0.829266 0.648404 -0.54991 0.790806 0.988717 -0.399096 -0.116448 0.989212 -0.3529 -0.420788 -0.651097 0.489235 0.363264 -0.301956 -0.630372 -0.841449 -0.623054 -0.512567 -0.91359 0.191314 0.140618 0.624793 -0.619974 -0.0141523 0.135634 0.732622 0.443719 -0.488293 -0.0323527 -0.848895 0.587966 0.15717 -0.0498109 -0.316442 -0.288262 0.734237 0.626745 0.702879 0.304606 -0.49986 0.430611 0.187461 -0.151175 -0.129468
-0.338489 -0.823073 0.0465709 -0.286591 0.621537 0.724054 -0.422288 -0.0421168 0.0209348 -0.443956 -0.642624 -0.69703 0.876885 -0.375245 -0.668761 0.683197 -0.0525744 -0.532537 -0.832097 0.580948 -0.38723 0.861196 -0.235899 0.68382 0.920801 -0.733631 -0.804072 0.411261 0.278355 0.400897 -0.758414 0.103648 -0.183916 -0.638469 0.39209 -0.316779 0.34898 -0.124923 -0.433618 0.3619 0.300209 0.644895 -0.971863 -0.263381 -0.732725 0.685766 -0.521945 0.737829 -0.599277 -0.0868107 -0.899873 -0.837573 -0.769308 0.0364039 -0.537641 0.730663 -0.9344 0.326843 -0.0973928 -0.926637 -0.336412 0.546137 -0.455707 -0.875083 0.301247 -0.322508 -0.857734 0.26346 -0.845459 -0.593464 -0.203272 -1.00199 0.223564 0.318592 -0.939047 -0.791934 0.933349 0.323193 -0.917171 -0.0902598 0.764029 0.502968 -0.807084 -0.106024 0.693529 0.850709 -0.0684702 -0.696251 0.644342 0.514135 -0.607361 -0.672757 -0.0298431 0.689108 0.358366 -0.950948 -0.490108 0.397755 -0.943774 0.0494676 -0.206462 -0.183452 -0.876553 0.367841 0.00103212 -0.106698 0.613951 0.721084 -0.584635 0.329526 0.539408 0.520599 0.307893 -0.313972 0.4611 0.686755 0.548772 -0.183668 -0.355023 0.106089 0.488831 0.468521 -0.439135 -0.317505 0.26979 0.0351192 -0.733863 0.356754 0.740808 -0.867634 0.163356 0.946096 -0.859998 0.243157 -0.107531 -0.399859 -0.686003 0.130083 0.401974 -0.976417
0.177358 0.235248 0.573246 -0.965507 0.00951276 -0.939259 0.1159 -0.996414 -0.872729 -0.589823 -0.0818106 -0.402826 -0.665953 0.759271 -0.560119 -0.89293 0.33721 0.0468887 0.767535 0.849975 0.247738 -0.527634 0.611444 -0.772883 0.0057075 -0.781582 0.338566 -0.932991 -0.683007 1.00362 0.0412544 -0.342014 -0.0652844 -0.151921 0.0465208 0.303533 -0.212723 0.413054 0.727623 -0.0207305 -0.716635 0.332443 -0.693059 0.140475 -0.00301322 -0.928559 -0.488086 0.0532925 -0.0534292 -0.963743 -0.844347 -0.455784 0.730141 -0.388538 -0.35071 0.727889 -0.830471 -0.794726 -0.247462 -0.762827 0.183172 0.198984 0.287739 0.154495 0.607235 -0.49272 0.667841 -0.718335 0.32292 0.184608 0.383533 -0.795143 0.412604 -0.65056 0.0570011 0.251549 0.812155 -0.447165 0.927516 0.434879 0.457758 -0.502014 -0.331175 -0.0254217 0.657449 -0.939987 0.224613 -0.879166 0.611239 0.827631 0.363028 0.0338895 0.414561 0.398888 0.405314 0.0449082 -0.239605 0.305154 -0.830805 -0.973312 -0.716565 0.453937 0.681769 0.945353 -0.0711236 -0.501114 -0.73557 0.681418 -0.671091 -0.720605 0.875848 -0.771892 -0.109384 0.545485 0.736545 0.836297 -0.834397 0.564135 0.631536 -0.775143 0.704679 -0.449125 -0.340641 -0.93969 0.230901 0.0826175 -0.196079 -0.582577 0.146779 0.163236 -0.255646 -0.249009 -0.39135 -0.734438 0.650892 0.659567 0.247576 -0.827684 -0.352937 -0.453151
0.0117031 0.0537542 0.925159 0.734335 0.0862928 0.430351 -0.834231 1.00618 -0.440212 -0.519213 -0.721162 -0.493163 0.301019 0.371897 0.609533 -0.57269 0.273123 -0.0483087 0.110727 0.299846 -0.229166 0.642414 -0.78953 -0.468763 0.034821 0.26715 0.948996 -0.603316 -0.627041 0.0331675 -0.368445 0.167619 -0.123751 -0.143838 -0.166028 -0.256048 0.341964 -0.446586 -0.405992 0.502023 0.819376 -0.920877 -0.568204 -0.0595462 -0.74448 -0.955999 0.639908 0.781758 -0.132809 -0.880768 0.624131 0.477692 -0.363572 -0.746607 -0.196261 -0.104285 -0.302665 0.55561 -0.813545 0.660404 0.0788785 0.97799 0.343993 -0.62037 -0.0725672 0.533022 0.440895 -0.905627 0.442337 0.347683 -0.0877585 0.372255 -0.739969 0.302456 -0.314929 -0.776642 0.153638 -0.722181 -0.779526 -0.226268 0.724423 -0.255323 -0.20702 0.120331 0.495805 -0.828739 0.131323 -0.381317 -0.346748 0.924875 -0.144058 0.931221 -0.199929 -0.266912 -0.284981 0.518304 0.832978 -0.0896543 0.710382 -0.0783371 -0.0388045 0.95061 -0.217404 -0.967655 -0.0236561 -0.968328 -0.699177 -0.429963 0.848038 0.183124 -0.378617 0.550279 -0.354495 0.626256 -0.976429 0.631843 0.0449921 -0.132793 -0.201282 -0.0600295 -0.366471 -0.872484 -0.297709 -0.315763 0.386219 0.24538 -0.435542 0.86273 0.180035 0.422987 -0.399303 -0.0261886 0.851467 -0.849827 0.855383 0.0485054 -0.371819 0.556243 0.00920609 0.233751
-0.289876 -0.512148 0.783076 0.931307 0.17762 0.853441 -0.827705 0.490194 -0.75637 0.203395 -0.40438 0.698524 -0.683758 -0.241627 0.409066 0.622267 -0.491507 0.233485 -0.233955 0.137445 0.971145 -0.519665 -0.0411443 0.945889 -0.324023 -0.354982 0.0657486 0.831241 0.80657 0.522421 -0.503455 -0.0371883 -0.431687 0.511566 -0.37721 -0.395167 -0.0789172 -0.89933 -0.889123 0.778006 0.105592 0.354778 0.723681 -0.166119 -0.889232 -0.443095 0.937167 -0.330784 -0.96452 0.177717 -0.984768 -0.502974 0.494729 0.518373 0.514797 0.974278 -0.416806 0.907544 -0.676096 0.561395 -0.339526 0.156425 0.917902 -0.620329 0.556938 0.910816 0.503947 0.642681 -0.594569 0.595927 -0.882237 -0.402752 -0.166294 -0.488484 -0.290253 -0.677525 0.962303 0.345881 -0.668533 -0.262819 0.547637 -0.57076 -0.241776 -0.874471 -0.204959 -0.0719761 0.0604834 0.356862 0.805071 -0.826808 0.0616292 0.850777 -0.259406 -0.796116 -0.0732048 0.950245 -0.283957 -0.703153 0.0545792 -0.706277 0.163678 -0.941517 -0.424884 0.938137 -0.343309 0.0195568 -0.0582168 -0.479718 -0.730674 -0.0796491 0.529744 0.889376 0.0940152 -0.811213 0.777284 -0.986223 -0.373423 -0.530519 -0.653776 -0.452436 -0.442032 -0.215869 0.143064 0.288989 -0.0760029 1.00474 0.517951 0.943178 -0.392712 -0.736225 -0.66299 -0.0411753 -0.231293 -0.152392 0.0935266 -0.109453 -0.531596 -0.192994 0.398266 -0.888422
0.0705938 -0.181105 0.678019 0.541229 -0.0943627 0.325377 -0.431943 0.132602 -0.511485 -0.23715 -0.273751 0.638578 -0.339364 0.0833755 -0.89538 -0.255766 0.505296 0.10853 -0.0537968 0.200257 0.538758 0.742686 -0.432168 -0.628377 0.42725 0.759082 -0.533152 -0.600636 0.743686 -0.351698 0.115875 0.742813 -0.168415 -0.510437 -0.672327 0.997372 -0.815653 0.00648028 0.0745718 -0.25646 0.359595 -0.235911 -0.298579 0.708623 -0.566136 0.141478 0.608601 -0.77264 0.238156 -0.404552 0.658761 0.664235 0.310428 0.551119 -0.398244 -0.339684 -0.738066 -0.123446 -0.895939 -0.971985 -0.624304 -0.754167 0.674557 0.229829 0.525605 -0.516017 -0.440482 -0.803035 -0.0499663 -0.550856 -0.604243 0.154932 0.0369691 -0.612848 0.576756 0.435798 0.247598 -0.933058 0.869629 0.0482488 -0.111787 0.373158 -0.515038 0.911359 -0.887206 0.550431 -0.352281 0.810993 -0.774514 -0.414033 0.707568 -0.0423999 -0.77446 -0.688484 0.497631 0.0849503 -0.636874 -0.956904 0.29444 -0.0755431 0.958389 0.695788 0.860887 0.21869 0.774841 0.176513 -0.678206 -0.246825 -0.509577 -0.253913 0.684886 -0.50706 0.894353 -0.126337 -0.35949 0.756405 0.588309 0.0917078 0.319192 0.839036 -0.3085 -0.119864 -0.233188 -0.556036 0.986152 -0.0877888 0.689229 0.555636 -0.711895 0.958079 0.32493 -0.704575 0.928372 -0.802699 -0.38533 0.650468 -0.791759 0.242114 -0.60374 0.492899
0.48118 -0.249523 0.603638 0.63885 0.730829 0.596659 -0.907158 0.30691 0.579295 -0.148574 0.221187 -0.001448 -0.270677 0.829334 -0.959476 0.0873631 0.923805 -0.374819 -0.817032 0.751556 -0.846391 0.286473 -0.97905 -0.582007 -0.298688 0.159683 -0.974113 -0.407799 0.699748 -0.894881 0.76284 0.73974 0.376429 -0.886395 -0.75857 0.161523 0.12309 -0.410379 -0.575549 -0.697753 -0.993122 -0.633658 0.183762 0.436124 0.633865 0.208888 0.777252 -0.681288 0.240713 0.263712 0.228841 -0.753427 0.0446321 0.166642 -0.0390741 -0.976344 -0.288173 0.982416 0.0287947 -0.502176 -0.355088 -0.950832 0.370367 0.996345 -0.50496 -0.697167 0.560933 0.291028 -0.90712 -0.428031 0.0799221 0.164168 -0.308231 0.885135 0.832603 0.0435815 0.658423 0.0556773 0.48256 0.983202 0.880564 0.750592 -0.195793 1.00659 0.436228 -0.390026 0.661357 0.161717 0.0804285 -0.490575 -0.23433 0.557261 -0.0017623 -0.71577 0.0933093 -0.355969 -0.334985 -0.198037 0.115105 0.984437 -0.23541 -0.278665 -0.919089 0.129377 0.567446 0.858582 -0.374635 -0.489078 0.873974 0.516206 -0.445163 -0.597024 0.86858 0.917772 -0.871335 0.694081 0.45577 -0.510874 0.540421 0.87424 -0.459922 0.500602 0.607232 0.245321 -0.0451256 0.206654 -0.395309 0.497159 0.385404 0.959509 -0.332351 -0.442781 0.839894 -0.615527 0.138449 0.986104 0.714482 -0.345726 0.752745 0.533511
0.302952 0.210849 0.163901 -0.922025 0.730728 -0.584788 0.473503 -0.884928 0.930943 0.799017 0.872706 0.428608 0.737587 -0.539774 -0.410804 -0.255896 0.327354 0.733663 -0.0404831 -0.313235 -0.479203 0.416521 0.708078 0.295769 -0.148038 -0.836004 -0.0454628 0.651547 0.666703 0.0837983 0.432668 0.900904 -0.605903 0.768105 0.903053 -0.424026 -0.143924 -0.148132 -0.554374 0.679731 0.5681 0.873672 0.10702 0.449136 -0.412049 -0.0643181 -0.0396532 0.0630364 -0.582594 0.7973 -0.715577 -0.319247 -0.731934 0.458761 0.128366 0.787369 -0.413483 -0.757542 -0.275585 0.309946 -0.946575 0.21403 -0.755597 0.45873 -0.583461 0.784177 -0.535261 -0.139961 -0.692297 -0.347727 -0.0320881 0.850381 0.0130769 -0.654808 -0.995786 0.185092 -0.460069 -0.770595 0.732502 -0.0932933 -0.742798 -0.654174 -0.559449 -0.62598 0.430003 0.194784 -0.404874 0.215085 0.647421 -0.686047 -0.154204 0.145002 0.677708 0.583819 0.181612 0.836248 0.637196 -0.687221 0.0771891 -0.090469 0.414223 -0.434605 0.24175 -0.647229 0.263716 -0.479078 -0.1479 0.531381 0.0725329 -0.627131 0.253959 0.443112 -0.950637 -0.033939 -0.668166 -0.269426 0.554489 -0.463444 0.176322 -0.901337 -0.0871287 -0.544602 -0.0169475 0.277936 -0.954487 0.685793 -0.81161 0.432308 -0.0247584 0.725016 -0.573117 0.782259 0.789028 0.278388 0.0676093 0.954297 0.663175 0.651495 -0.816446 0.0976804
-0.624259 0.449246 0.137275 -0.801222 0.837273 -0.191088 -0.176409 -0.847739 -0.858951 -0.931773 0.0597573 -0.0707901 0.257909 0.98842 0.767215 -0.548099 -0.352954 0.895314 -0.0942911 0.0930216 -0.774867 -0.684845 0.37262 -0.656331 -0.038046 0.206905 -0.698031 0.579986 -0.489117 0.183322 0.883467 0.864293 0.943461 0.542448 -0.269842 -0.681888 0.0645565 -0.753095 -0.455235 -0.324695 -0.317932 -0.710264 0.841154 -0.232164 0.140321 -0.700481 0.146046 -0.936591 0.840401 0.0966477 -0.845351 -0.0390814 -0.604977 0.112584 0.528815 -0.816684 0.175837 0.313692 0.107126 0.951333 -0.0568542 -0.0939089 -0.474925 0.667911 0.678898 0.92238 -0.401312 0.712284 0.566384 0.63404 -0.307136 -0.0252802 0.719084 -0.168211 0.461371 -0.296681 0.172831 0.455519 0.204564 0.175385 0.173434 -0.999787 -0.129241 -0.490812 0.354591 0.525292 0.87105 -0.228113 0.836659 0.0318095 -0.656044 0.787834 0.777631 0.858863 -0.140776 -0.00678937 0.848524 -0.998831 0.966183 0.222399 0.0415378 -0.288982 0.681572 0.492087 -0.221742 -0.0525048 0.538548 0.349026 -0.728938 -0.672191 -0.591115 0.850013 -0.481659 -0.374212 0.907369 0.314498 -0.490957 -0.442857 0.100214 -0.619639 0.167795 0.324647 0.785847 -0.133912 -0.108546 -0.86818 -0.389155 -0.412743 -0.368487 -0.814009 0.0874871 0.827487 -0.691107 -0.464243 -0.863011 -0.92297 0.459907 0.366792 -0.313908 -0.248696
0.614148 0.841702 0.0380092 -0.0609982 0.459052 0.546541 0.583058 -0.0560544 0.0962205 0.62328 0.585173 -0.909402 0.608105 -0.308654 -0.916771 -0.585216 -0.226735 0.879848 0.752853 -0.927659 0.223846 -0.0169411 -0.102362 -0.0433045 -0.127112 -0.00811588 0.182775 0.755538 -0.901841 0.200887 0.830521 -0.679834 0.0277127 -0.260739 -0.370753 -0.18933 0.587336 -0.1871 -0.507616 0.73732 0.96567 0.502112 -0.38978 -0.390858 0.628847 -0.266987 0.673066 -0.853702 -0.66869 -0.539012 -0.0535614 -0.99367 -0.0883345 -0.393481 -0.488207 0.190664 0.757228 -0.44802 0.102511 0.17529 -0.865382 0.0203705 0.924217 0.0746284 0.575915 0.18428 -0.921085 -0.841991 0.79798 0.165454 0.6519 0.259052 0.134528 0.342646 0.378758 -0.616984 0.914733 -0.448754 0.670655 -0.0874213 0.274202 0.757017 0.688911 0.273342 -0.0233651 -0.938568 0.590648 -0.704487 -0.83971 0.855183 0.326548 0.758105 0.458749 0.99236 -0.308378 -0.500713 -0.174076 -0.175821 -0.384513 0.868529 -0.39955 0.595065 0.742471 -0.440732 -0.0263167 0.215004 0.0486071 -0.0897834 -0.728633 0.433423 -0.547547 -0.92284 -0.437904 -0.390821 0.630805 0.978275 0.306193 -0.518143 0.0191066 -0.793189 0.157954 0.319465 -0.600533 -0.575546 0.613054 -0.178946 -0.276646 -0.276583 0.292 -0.806095 0.0317088 -0.583508 -0.760813 0.350525 -0.2847 -0.746093 0.125497 -0.630486 0.365438 -0.200839
0.916563 -0.193382 -0.790117 0.499283 0.0149255 0.721038 0.654294 -0.0494154 -0.450075 -0.211379 -0.347381 0.859469 -0.66181 0.340705 0.0299913 -0.568675 0.542299 0.786257 0.905605 0.405991 0.418283 0.000987002 0.733672 -0.605129 -0.339614 0.457618 0.681787 -0.0718055 -0.344111 0.605607 0.987305 -0.567307 -0.808492 -0.418045 0.163188 0.545822 -0.475834 0.510119 0.241584 -0.721207 -0.00924489 0.976459 0.556292 0.564606 -0.11606 0.28859 -0.221624 -0.556612 -0.887891 -0.656794 -0.136914 -0.212513 0.129126 0.831195 -0.0924773 0.662747 0.915834 0.865684 -0.477884 1.00017 0.0453459 0.727278 0.478384 -0.461172 -0.933811 0.0401497 -0.631228 -0.895975 -0.755943 -0.661689 0.437923 0.0897756 0.821648 0.0549251 -0.50268 -0.704477 0.368733 -0.486046 -0.878074 0.840952 0.0657703 -0.928403 0.498336 -0.9269 0.0548271 0.581602 -0.342967 -0.763555 0.954425 1.01248 0.0163692 -0.354157 -0.348844 -0.85212 -0.590805 -0.183069 0.102483 0.398608 0.0656569 0.0533084 -0.501707 0.999018 -0.664642 -0.37352 0.276133 -0.600146 -0.483963 0.0368138 0.386489 0.9245 0.924708 -0.582763 0.957995 -0.178722 0.0863201 -0.0134754 -0.177418 -0.931754 0.16694 -0.0377223 -0.29694 0.847953 -0.902138 -0.660821 -0.701849 1.00261 0.633013 0.0624843 0.508578 -0.43667 -0.382612 0.490713 -0.739924 0.346734 -0.802234 0.559314 -0.314859 0.489167 0.538634 0.0125351
-0.783057 -0.481469 -0.405489 -0.135469 0.0175468 0.474578 -0.557103 0.0609745 0.552967 -0.621982 0.292749 0.0253491 0.243696 0.545101 0.379984 -0.893202 0.569506 -0.987346 -0.0958827 0.214273 -0.572215 -0.805206 -0.0108361 -0.400378 -0.93077 -0.250513 0.833716 -0.446619 -0.720432 -0.674087 -0.930323 -0.690313 -0.75358 0.258019 -0.18718 0.660569 0.996295 -0.794199 0.318251 -0.841632 -0.0775447 -0.0608266 -0.198067 -0.00799261 0.748104 0.100515 0.38326 0.17678 0.971324 0.13705 0.823754 -0.403043 -0.734405 -0.97716 -0.14001 0.493342 -0.118353 0.502842 0.569036 0.434292 -0.63594 0.630177 -0.235819 -0.195509 0.0654333 0.391461 -0.152021 -0.512263 0.0331949 0.378163 -0.0978742 0.938667 0.0182297 -0.206503 0.909998 0.0956098 0.726104 -0.766547 -0.0525844 -0.485374 0.947468 0.604465 -0.344576 -0.677233 -0.130374 -0.996771 0.469735 0.429541 -0.817529 -0.321401 -0.780598 0.665881 -0.24618 0.238858 0.542771 -0.667116 -0.028478 -0.948932 -0.564049 -0.471441 -0.0511719 0.995893 -0.0915962 -0.306777 0.380024 0.232553 -0.469556 -0.373809 -0.297568 0.243953 -0.416093 0.984813 -0.268247 -0.248026 0.219514 0.896597 0.318803 -0.982795 0.710727 0.0243318 0.0636602 -0.189242 0.259899 0.678996 -0.404606 -0.582548 -0.607879 0.469085 0.0334513 -0.402187 -0.707964 0.300059 0.0961907 0.230533 -0.645326 0.574673 -0.781655 0.0926523 0.872319 -0.293892
0.785364 0.194653 0.707317 0.811198 -0.278427 0.667704 -0.58436 0.899622 0.280945 0.296062 0.0515261 -0.28643 -0.243399 -0.906869 -0.833796 -0.147556 0.534163 0.937508 0.62352 0.820404 -0.158114 0.243602 -0.754452 0.251817 0.837056 0.335758 -0.250121 0.582844 0.578068 0.77554 -0.657496 -0.0330632 0.964879 -0.321687 -0.660514 -0.510647 0.980703 -0.756921 -0.71547 0.998853 0.18939 0.321925 0.23113 0.216207 -0.0764784 0.301723 0.155278 0.558573 0.164414 -0.948218 -0.521588 0.766468 0.795143 0.775959 0.772884 -0.367112 0.452662 -0.453178 -0.305817 0.720464 0.0881109 0.10442 -1.00482 -0.352264 -0.87644 0.565061 -0.449476 0.134505 -0.781798 -0.881864 0.823731 -0.446288 -0.639686 0.712207 -0.455771 0.0206963 -0.0414158 -0.335594 0.442662 0.0978521 0.254592 -0.438496 0.542824 -0.532152 0.529687 0.861214 0.721353 -0.534604 -0.660312 0.234767 0.525549 0.951694 -0.103104 -0.842202 -0.596961 0.348898 0.197207 -0.635492 -0.204545 0.779516 0.222992 0.892503 -0.90878 -0.739976 0.622009 0.774052 0.341441 -0.159668 -0.987886 -0.594873 0.264281 -0.714415 -0.0128437 0.569922 0.38485 0.990517 0.346641 -0.331688 0.768558 -0.436956 0.966118 0.14115 0.635655 -0.209863 -0.505823 -0.944723 -0.574666 -0.495646 -0.776388 0.695308 0.462056 0.721137 -0.882113 -0.773609 0.501743 0.126043 0.964897 0.0883296 0.467386 0.335837
0.889041 -0.889716 0.797852 0.0715985 0.567829 0.0561812 -0.878435 -0.63517 -0.440214 -0.89284 -0.150684 -0.465097 -0.0274162 0.732245 0.910527 0.661861 0.420685 0.696146 0.143569 -0.0014263 0.584743 -0.293634 0.0580139 0.253472 -0.0953389 -0.0832067 -0.995241 0.116184 0.398391 -0.61373 -0.0749323 -0.458691 0.698738 0.664265 0.186582 0.975513 -0.992737 -0.955714 -0.943167 0.366231 0.236147 -0.868745 -0.013407 -0.783566 -0.965024 -0.548033 0.52453 -0.749152 0.0771862 -0.928755 -0.268216 0.661618 0.893634 -0.527155 0.0145099 -0.952106 0.184767 -0.363795 -0.19137 0.872705 -0.238348 0.851396 -0.335986 0.0848787 -0.940311 -0.130357 -0.783287 -0.253509 -0.776364 0.966223 0.584175 0.181235 0.998499 -0.873491 0.390652 -0.772759 -0.801265 -0.158479 -0.844351 0.168597 0.0260428 -0.51389 -0.177563 -0.846182 0.561969 0.697073 -0.739988 0.548052 -0.58033 -0.100087 0.606103 -0.0477062 0.655976 0.722942 0.432762 -0.586809 -0.549788 -0.483287 -0.230813 0.944898 0.631813 0.945738 -0.844079 -1.00968 -0.155026 0.235084 -0.509505 -0.461154 0.662607 -0.498247 0.923159 -0.0624825 0.263115 0.364428 0.848453 -0.810981 0.949069 -0.437703 0.08641 -0.356346 0.745589 0.468452 -0.447731 -0.738023 -0.737387 -0.640023 0.339847 0.925258 -0.0186723 0.37131 0.803669 -0.989941 -0.915329 -0.829703 0.0636745 -0.882485 -0.497308 -0.871584 0.36856 -0.946822
0.338072 -0.936405 0.842058 -0.359667 0.474367 0.538573 -0.689757 0.0660268 -0.143015 0.333555 0.683288 -0.581928 -0.89614 -0.26752 0.999136 -0.660953 -0.448732 -0.485536 -0.710417 -0.45253 0.0566603 0.875017 0.850224 0.700484 0.332017 0.579857 0.701822 -0.634867 -0.860146 -0.132215 0.936842 -0.630664 0.341334 0.04669 -0.636845 0.194471 0.108876 -0.375478 -0.629156 0.469299 0.327018 -0.230279 -0.721071 -0.742975 -0.198333 -0.372607 -0.569949 -0.343534 0.63674 0.305391 0.749089 -0.925692 -0.77506 -0.23059 0.920322 -0.870531 -0.698132 0.975636 0.771236 0.185816 -0.10689 0.744053 -0.513046 0.338531 0.950081 -0.167901 0.233438 0.498503 -0.116477 0.00693868 0.958856 -0.706056 0.380053 0.629927 -0.17456 -0.211363 -0.828573 0.589545 1.00647 -0.934742 0.798653 0.791678 -0.377451 0.142314 0.901558 0.308987 -0.0565353 0.0108927 0.680747 -0.117236 1.00052 0.220428 -0.742374 0.220994 -0.769416 0.946267 0.110179 0.590118 0.624416 0.62182 -0.723215 -0.00765198 0.782796 0.260662 0.289318 -0.729641 0.421959 0.409261 -0.85059 -0.689952 -0.761278 0.523512 -0.624201 -0.948361 0.408596 -0.744542 0.959922 -0.207084 0.911645 0.403378 -0.861116 0.966897 0.978631 0.323296 0.300752 -0.0512274 0.764823 -0.582785 0.293269 0.647199 0.336286 0.482388 0.286624 -0.315565 0.806959 0.593459 0.588702 0.247719 -0.741102 0.608778
-0.0699999 0.939659 -0.829097 -0.920178 -0.989598 -0.0897427 0.63002 0.171053 -0.790294 -0.920102 0.412594 -0.129987 -0.871881 -0.851444 -0.230055 -0.550074 -0.692032 -0.745651 0.770314 0.812487 -0.729975 0.0496503 -0.642168 -0.259389 -0.130135 0.679893 -0.489955 0.290978 0.569843 -0.950059 -0.210824 0.980009 -0.633313 0.238119 -0.34068 0.552837 0.299987 -0.480033 -0.769757 -0.290069 -0.221245 0.287245 0.820184 0.949958 0.710871 -0.71994 -0.880447 -0.869203 -0.850006 -0.108778 0.354738 0.189182 0.200101 0.550399 -0.369595 -0.0500305 -0.269951 -0.0797708 -0.789606 0.84008 0.0297726 0.580302 0.170052 0.249854 -0.140426 0.819378 -0.17876 -0.420405 -0.931538 0.129912 0.299944 0.830054 -0.479818 0.820112 0.591982 0.219922 0.310138 0.580106 0.985303 0.210637 -0.7108 -0.0599738 0.0365318 0.862221 0.0503355 0.203707 0.591672 -0.490046 -0.0309539 0.221877 0.499903 -0.884609 0.789872 -0.530099 0.270019 -0.320271 -0.419931 -0.750185 0.740519 -0.570171 0.760113 0.380055 0.824944 0.10997 -0.418499 0.901161 0.723365 -0.719964 0.0396814 0.0184693 0.849865 0.461204 0.671747 -0.207793 -0.410829 -0.980889 -0.169911 0.961132 -0.330105 -0.24932 -0.00306188 -0.160602 -0.560462 -0.889847 0.410267 0.0499059 -0.192798 0.809734 -0.779998 -0.500123 0.369151 0.0300093 -0.949009 0.328082 0.0998763 -0.719932 0.160868 -0.129698 0.0395849 -0.629958
-0.760001 -0.960003 -0.569998 0.59 0.4 0.6 -0.64 -0.0999896 -0.96 -0.72 0.910024 0.12 -0.400018 0.449987 0.770001 0.059999 -0.0100175 0.480035 -0.249998 -0.110067 -0.87 0.6 -0.560019 0.610006 0.969999 -0.660002 -0.57 -0.249992 -0.490001 -0.68 0.349994 0.15 -0.730031 -0.150012 0.739991 -0.309977 -0.92 0.25 -0.399998 0.399999 -0.71001 0.719976 -0.419998 -0.51 -0.949993 0.55 -0.110005 0.570009 -0.21 0.140011 0.310041 0.809993 0.309997 -0.459999 0.520003 0.37 -0.0499997 -0.06 0.54 0.74 -0.68 0.54 -0.800001 0.909999 0.1 -0.570006 -0.369988 0.98 0.959987 0.389999 -0.34 0.89 0.01 0.94 0.0800153 -0.990001 0.0999955 0.74 -0.189954 0.710004 -0.480009 -0.63 0.189973 1.60244e-05 -0.239998 0.560034 -0.0299861 0.36 -0.850009 0.700015 -0.26 0.669959 -0.1 0.17 -0.690001 0.62 -0.46 -0.660001 0.580002 -0.550001 -0.649998 0.12 0.0400436 0.8 -0.799992 -0.939989 0.539941 -0.59 0.739997 -0.150014 0.83 0.190012 -0.719983 -0.259891 -0.340006 0.589991 0.62 -0.61999 -0.0800018 0.850007 -0.620027 -0.950004 0.319999 -0.4 -0.430001 0.939999 -0.830023 -0.87 -0.410001 -0.63 -0.34001 -0.25 0.74001 0.239982 -0.86 0.270001 0.590006 0.380004 -0.920003 -0.37
0.52 0.06 0.74 0.25 -0.15 -0.78 -0.39 -0.89 -0.29 -0.43 0.48 0.49 -0.83 0.75 0.52 -0.25 0.46 -0.95 -0.82 -0.4 0.25 -0.87 -0.46 -0.06 0.35 0.69 -0.56 0.2 -0.3 0.39 -0.44 0.63 -0.75 -0.66 -0.23 0.03 -0.66 0.24 0.18 0.32 -0.93 -0.94 -0.86 -0.31 0.3 -0.58 0.77 0.01 0.73 0.28 -0.55 0.72 0.09 0.42 -0.14 0.2 0.02 0.47 -0.19 0.53 0.71 -0.6 -0.09 -0.02 0.84 0.89 -0.46 -0.66 0.76 -0.69 0.32 -0.21 0.88 -0.89 0.24 -0.84 0.7 -0.74 -0.34 -0.83 0.46 0.12 -0.69 0.85 -0.13 0.2 -0.22 0.55 -0.35 0.48 -0.3 -0.68 0.28 0.54 -0.71 -0.45 0.54 -0.4 0.29 -0.17 -0.59 -0.7 -0.91 0.55 0.13 0.61 0.84 -0.3 0.55 1 -0.48 -0.61 -0.32 0.78 -0.98 0.97 0.89 -0.32 0.97 0.72 0.59 0.13 -0.83 0.38 0.89 0.48 0.48 -0.7 -0.84 -0.65 -0.38 0.8 -0.74 0.39 -0.65 0.27 0.8 -0.6 0.65 0.75
-0.911448 -0.440604 0.979281 0.830003 0.3105 0.348954 -0.178784 -0.519878 -0.679874 -0.199675 -0.47043 -0.530314 -0.950264 -0.360595 -0.299858 1.00026 -0.689983 0.819486 -0.889253 -0.940493 0.129958 -0.640162 0.000133393 -0.260482 -0.379593 0.849981 0.609915 -0.410538 0.140032 -0.529663 -0.0102355 0.770215 0.520543 0.319903 -0.489868 -0.970087 -0.0301377 0.790263 0.80992 -0.920082 0.0409838 -0.789282 0.730262 -0.371016 0.0398546 0.71976 0.19 0.0498015 -0.610543 0.179273 -0.49939 0.910079 0.849779 -0.549174 -0.229487 -0.0185198 0.239734 0.529925 -0.33006 0.41029 0.0898211 -0.470137 -0.109625 -0.510902 0.360415 0.0200144 -0.520815 0.860345 -0.60014 0.0495078 0.750259 1.00007 0.381446 -0.329782 0.219895 0.720138 -0.900863 -0.280028 0.810588 -0.819022 -0.770724 -0.309416 0.360271 -0.170629 -0.709521 0.880081 0.0491644 0.409558 0.19031 -0.949528 -0.0310324 0.989846 -0.570141 -0.780402 -0.0600869 0.960093 0.720245 -0.779467 -0.260192 -0.680287 -0.560242 -0.589172 0.43981 0.330331 0.200495 0.15994 -0.580083 -0.509772 -0.790253 -0.119959 0.689847 0.0594609 0.159845 0.669601 -0.749281 -0.240318 -0.139905 0.089424 -0.200677 -0.890003 0.839934 -0.0600927 0.560108 -0.440273 -0.220381 -0.160165 0.660328 -0.620599 -0.4198 0.759958 -0.48996 -0.130009 0.099391 0.280378 0.00998768 0.710402 -0.730244 -0.460054 0.239777 0.130174
0.649659 -0.132234 -0.746317 0.86794 0.279902 0.0639519 -0.00368934 0.10644 -0.727978 0.651645 0.266239 0.660393 -0.581034 0.980854 0.976518 -0.467812 0.283944 0.939317 0.809756 -1.00169 -0.678659 0.572068 -0.609416 0.464708 -0.80966 0.731806 -0.388845 -0.960663 -0.781588 -0.919934 -0.578299 -0.344237 -0.951354 0.720582 0.365685 0.800712 -0.595869 -0.792626 0.708394 -0.131408 -0.198769 -0.471554 0.50649 -0.193301 0.22743 0.398341 -0.257344 -0.403877 -0.829177 0.717801 0.0849612 0.471142 0.0495483 -0.553851 0.771942 0.413337 0.716077 0.786971 0.198645 0.0302645 -0.0451625 -0.261017 -0.394929 0.642303 -0.353262 -0.56341 -0.7108 0.62965 -0.510188 -0.902424 0.0805105 0.213686 -0.416376 0.782971 -0.693795 -0.335721 0.674224 -0.635518 -0.985187 -0.969619 0.89091 -0.933773 -0.853583 0.470527 -0.149817 -0.72833 -0.0803323 -0.94636 -0.500984 -0.831709 0.654474 -0.476144 0.194561 0.444108 -0.479705 -0.576516 -0.418002 0.32817 -0.415281 0.800797 0.737981 -0.443813 0.828527 -0.683149 -0.676917 0.181952 0.632815 -0.438505 0.93332 -0.982932 -0.522322 -0.460218 0.514641 -0.626908 -0.309795 -0.494706 -0.549557 0.773273 -0.706419 0.977844 0.443926 0.348091 -0.849128 0.926248 0.82312 0.529001 -0.463449 0.138242 -0.805501 0.464758 -0.606358 -0.235594 0.554464 0.0394396 0.909245 -0.776356 0.695484 -0.181182 -0.883433 0.431897
0.0181208 -0.712146 0.135125 -0.773354 -0.0110837 0.290219 -0.310302 -0.311555 -0.88334 0.706694 -0.869495 -0.425804 0.857504 0.284734 0.334993 0.314735 -0.897301 -0.738006 -0.421413 0.796809 -0.500603 -0.321741 0.705737 0.709333 0.0231064 0.134994 -0.719666 -0.342567 0.329785 -0.910735 -0.519339 -0.154826 -0.343935 0.464581 0.216655 0.228014 0.564092 -0.846586 -0.444785 0.0504838 0.395675 -0.802193 -0.80666 0.635403 -0.19359 -0.274085 0.384997 0.883103 0.242477 -0.0462279 0.127048 0.834578 0.938941 0.488305 0.208807 -0.708719 0.833517 0.764585 0.745141 0.0433113 0.83899 0.342211 -0.426529 -0.0185497 0.785821 0.164539 -0.0850666 0.864178 0.634107 0.0304052 -0.575504 -0.10808 0.0950528 -0.0996995 0.670601 -0.849246 0.931931 0.731871 0.156791 0.797568 -1.02131 -0.440815 -0.162373 0.168575 0.452562 -0.54312 -0.233828 0.299179 -0.294148 0.406389 0.187326 -0.626074 0.835797 -0.789626 -0.721349 0.875161 0.314551 0.837448 0.264934 0.686255 0.814619 -0.268767 -0.789729 0.604297 -0.895591 -0.513727 -0.00302246 0.515023 0.621355 -0.964629 0.0253063 0.104811 0.406906 -0.138722 0.500341 -0.936559 -0.809948 -0.134356 0.923728 -0.0412987 0.823931 -0.955028 -0.0181362 0.362112 -0.998945 -0.665675 0.653521 0.629417 -0.944196 0.610513 -0.391931 0.204038 0.617626 -0.538692 0.145623 -0.674149 0.676895 -0.296009 0.135459 0.260249
0.797262 0.808376 0.606003 0.957669 -0.00361853 0.788372 0.572613 -1.03649 -0.546637 -0.176056 0.482642 -0.644845 0.406533 0.893024 -0.690875 0.349962 0.914155 0.262746 -1.01899 0.823985 0.0428451 -0.92927 -0.409067 -0.602761 -0.674231 0.933035 1.01866 -0.781567 -0.306227 -0.190169 0.175302 -0.779189 -0.549402 0.431394 0.527695 -0.843163 0.657752 0.336478 0.484684 -0.090643 -0.948852 -0.847229 -0.0775284 -0.487564 0.596716 -0.400425 0.518619 0.334724 0.741228 0.733969 -0.918535 0.723832 -0.194492 0.751964 0.988414 -0.644358 0.708221 -0.249533 0.887324 0.0160423 0.969985 -0.492728 0.884403 -0.155316 1.02093 -0.522273 0.602039 -0.299753 0.419993 -0.570171 -0.693067 -0.712965 -0.818266 0.859277 -0.320817 0.718888 0.901078 0.257163 0.79227 0.733086 0.253695 0.959516 0.0863433 -0.31469 0.880508 0.896249 -0.581362 0.137765 0.117566 0.643684 -0.189422 -0.172948 0.378827 0.850451 -0.184867 -0.0277306 0.910887 0.274711 -0.419502 0.957916 -0.243553 -0.605926 -0.00108082 0.675595 -0.35569 0.687976 -0.824774 0.477391 -0.0210039 -0.0401391 -0.588879 -0.374034 0.276584 0.90644 -0.648221 -0.855071 -0.555809 0.842108 0.939371 -0.881857 0.67857 -0.600483 0.136345 -0.355665 -0.442347 0.323482 0.102078 0.315366 -0.840586 -0.488338 -0.394461 0.587591 -0.391961 0.611866 -0.141145 0.843766 0.361096 -0.824599 -0.277635 0.163115
-0.966408 -0.990449 -0.672973 0.331092 -0.0954858 0.881571 -0.336376 -0.235217 0.902943 0.403196 0.795912 -0.151066 -0.355275 0.0416797 -0.921194 -0.186571 -0.72678 -0.472178 -0.990441 -0.509642 -0.256594 0.184351 -0.705815 -0.87306 -0.933415 -0.051873 -0.686057 0.321995 -0.535239 0.0621797 0.712563 0.799345 -0.0904498 -0.813068 0.770051 -0.435788 0.275132 0.565269 0.411164 0.17904 0.391688 0.708219 0.0533931 -0.621507 -0.632026 -0.687446 0.572352 0.457692 -0.914262 0.427285 0.63104 0.534011 0.805601 -0.364473 -0.264473 0.538326 -0.298152 -0.666229 -0.851581 -0.866341 -0.698881 0.653807 -0.907073 0.665724 -0.274101 -0.20755 0.709468 0.853503 -1.02136 -0.0600369 -0.218156 -0.215419 -0.280233 0.906283 0.84313 0.0297757 -0.363048 -0.338423 0.494599 -0.106213 0.64466 -0.207926 0.269998 0.185947 -0.581862 0.831642 0.884338 0.797971 0.584938 -0.582234 0.629988 -0.798637 -0.457698 -0.727157 -0.971361 -0.143904 0.93024 0.212127 0.2277 -0.778442 0.0824791 0.261396 0.714946 0.963767 -0.625323 0.902924 -0.78583 0.336259 -0.0864928 0.132024 0.210199 0.587478 0.137794 0.743106 -0.348778 0.134058 0.714595 0.921038 0.635136 0.633884 0.391264 -0.349967 0.0889846 -0.751445 1.01473 -0.591913 -0.713259 -0.13082 0.9905 -0.231728 -0.0622695 0.730744 -0.674648 -0.307709 -0.442005 0.690842 0.644864 0.484508 0.460553 -0.54075
-0.592674 0.171391 0.0309865 -0.507098 -0.475092 0.354409 -0.354809 0.0541711 0.201522 0.651699 -0.86101 -0.535931 -0.890162 -0.685461 -0.46014 -0.958192 0.635132 0.156694 0.76874 -0.377083 -0.946622 -0.750718 0.872328 0.205133 1.00068 -0.146513 -0.135427 -0.175464 0.558527 -0.242325 -0.726462 -0.91203 -0.137577 0.220454 -0.014122 -0.503847 0.518733 0.341284 -0.27634 -0.345659 0.917456 0.813623 -0.868058 -0.338741 -0.399659 0.788019 0.113362 -0.996452 0.59524 -0.405131 0.661873 0.434841 -0.872531 0.852885 0.184829 1.0822 -0.861454 -0.567646 0.332851 -0.401347 -0.584 0.787444 -0.341251 0.0282271 0.445777 0.914969 -0.152979 0.0403867 0.802643 0.24482 -0.389507 -0.12323 -0.901524 0.79734 -0.602744 -0.228877 0.275842 -0.0483157 -0.153981 -0.826071 0.182489 0.00378014 -0.878577 -0.649303 0.0767189 0.205503 -0.0321108 0.713362 -0.865766 -0.177306 0.018235 -0.560948 -0.699519 -0.623181 -0.719764 -1.07156 0.128691 -0.0982457 0.188636 -0.490813 0.783948 -0.957137 -0.875878 0.574609 -0.931544 -0.431293 -0.698915 0.463899 0.61069 0.930558 0.350105 -0.711346 -1.0202 0.657235 0.686731 -0.517305 0.648444 -0.634276 0.72492 0.0974471 -0.373273 0.16078 0.0595305 -0.0229573 0.258816 -0.242029 -0.356869 -0.616354 1.00913 0.821854 0.140715 0.256503 0.943304 0.186346 -0.753315 -0.291182 0.433368 -0.32675 0.355033 -0.565167
0.467225 0.638586 0.839868 0.0683107 1.08597 -0.650712 0.930172 0.850256 -0.823758 -0.352483 -0.0442406 -0.409382 -0.989417 0.422014 -0.868606 -0.286459 0.0125803 0.666614 0.04439 0.191435 -0.333457 -0.854435 0.572715 -0.822924 0.860579 -0.659989 -0.802591 -0.978011 0.0489041 -0.365236 -0.0347435 -0.918961 0.208731 1.01357 0.424112 -0.381175 0.635165 0.49535 -0.371235 0.031 0.747087 0.215291 -0.257951 0.315126 -0.500539 -0.873881 0.0145108 0.78072 0.062579 -0.276329 -0.807367 -0.119663 -0.225364 -0.918954 0.103336 -0.844891 0.289679 -0.475707 -0.68798 0.151715 0.00807254 0.706337 0.0966295 -0.349383 0.411606 0.327899 0.977329 0.581415 -0.606584 -0.509839 -0.724636 0.40759 0.576487 -0.209698 0.355108 0.433583 -0.542034 -0.9346 0.700161 -0.0455313 0.399721 0.152595 0.13058 -0.716406 0.41595 -0.842848 0.849889 0.185847 -0.737066 0.651923 0.584479 -0.141365 -0.225269 -0.836384 -0.523349 -0.476095 -0.847724 0.51006 0.722413 -0.232666 -0.104264 -0.434412 0.619445 -0.142369 0.153983 -0.484917 0.898544 0.863619 0.612431 0.0921599 0.152224 -0.268126 0.807591 0.546914 0.361582 0.14757 -0.833349 -0.150204 0.924334 -0.1999 0.330614 0.602255 0.583429 -0.346656 0.693744 -0.00810261 -0.898026 -0.490319 0.617688 0.00549631 0.62304 0.932897 0.193955 -0.776524 0.410117 -0.197414 0.142214 -0.344948 0.241533 -0.586819
-0.849877 -0.970117 0.0136761 -0.034396 0.914194 -0.592826 0.784772 0.447894 0.354501 -0.334975 0.601168 0.753148 0.324963 -0.762808 -0.399206 0.851164 -0.371255 1.029 0.147978 0.909697 0.251604 0.354293 0.21376 0.325565 -0.808533 0.38239 0.00574429 0.506252 0.607644 0.659137 0.933806 -0.809382 0.268772 0.120338 0.54178 -0.331783 0.125894 0.799261 -0.848668 -0.772689 0.643497 -0.455492 -0.911742 0.51593 -0.595395 -0.0785908 0.278225 0.417966 0.570177 0.95737 -0.825597 -0.835904 0.411305 -0.186624 0.301392 -0.464792 0.813386 0.594017 -0.761893 0.830599 -0.556143 -0.376738 0.153579 0.524618 0.587374 0.546688 0.371066 -0.276369 -0.472909 0.428247 0.749221 0.0193585 0.40606 -0.119074 -0.443626 -0.972968 0.868467 0.211333 -0.545378 -0.697931 -0.362231 -0.916085 -0.121605 0.658699 0.189341 0.891777 0.145963 0.198342 -0.031047 -0.310709 0.164339 -0.901312 -0.520581 -0.025086 0.536835 -0.761464 0.858494 0.669281 -0.17818 0.182228 0.406842 0.0302194 0.216449 0.32529 0.465638 0.38841 -0.830098 0.73534 -0.170395 0.886224 -0.321033 -0.517552 0.323897 -0.442472 -0.727345 -0.730382 -0.683528 0.307308 0.0746258 0.371097 0.813479 0.141416 -0.38478 0.663493 -0.00153172 -0.71408 -0.187726 -0.0849018 0.583054 0.429655 0.200642 0.178052 -0.277768 0.626787 -0.399833 -0.754217 -0.664948 -0.351912 0.566058 -0.0292491
0.402374 0.391498 -0.950564 0.672717 -0.368815 -0.369698 0.761389 -0.776584 0.121186 -0.961915 -0.0342453 -0.562355 0.130078 0.398318 -0.762048 0.0469373 -0.560083 -0.373944 -0.511112 -0.594791 -0.317217 0.834628 0.119263 0.191464 0.416531 -0.649141 1.08827 0.871804 0.850365 0.267365 0.883168 -0.428613 0.150751 -0.504498 0.301616 -0.344686 -0.0153338 0.632697 -0.721772 0.453509 0.288912 0.865442 0.416191 -0.290338 -0.883841 0.565081 0.6007 -0.14248 0.175194 0.117661 -0.39504 0.75733 0.964785 0.973028 -0.457687 -0.920994 0.227997 -0.118056 0.449318 0.122783 -1.04077 -0.825211 -0.748854 -0.8883 0.769551 -0.141575 -0.889983 -0.95645 -1.04054 0.148385 -0.542475 0.234932 -0.692965 0.600557 0.497316 -0.850702 0.874354 -0.0233226 0.00797478 1.0035 0.607963 -0.824895 0.428037 0.175003 0.94461 -0.267244 -0.604126 -0.188272 0.469543 -0.680639 0.78212 0.460105 0.757538 0.780812 0.374384 -0.305632 0.403247 0.508931 0.197077 0.625298 -0.441827 0.0254459 0.568236 -0.539893 -0.479749 -0.652776 -0.735567 0.45891 -0.97811 0.39044 -0.50762 0.764221 0.0308051 -0.829808 0.0259123 -0.868481 0.79971 -0.190731 0.779975 0.0764415 -0.510288 -0.0305322 0.339911 0.757478 0.28336 0.131885 -0.515848 1.05472 0.567025 -0.726338 -0.308961 -0.254846 -0.94568 0.919571 -0.300794 -0.627133 -0.885329 -1.00423 0.12726 0.809442
-0.603499 -0.784265 -0.274874 -0.0223897 0.392701 -0.199224 -0.339455 -0.434607 0.814193 -0.0648311 -0.263555 0.872369 -0.992736 0.39852 0.535042 0.338276 0.380822 0.584516 0.739875 1.05207 0.41317 -0.62669 0.40272 0.171937 -0.59346 -0.745536 0.83765 -0.766017 -0.051998 0.639057 -0.81258 -0.445268 -0.926436 0.362635 -0.693251 -0.0695525 0.453669 0.786368 0.737764 0.0415616 0.526531 0.889271 -0.544996 0.373606 0.283818 -0.524836 0.455467 -0.275697 0.623659 0.579059 0.214687 0.919389 0.304809 0.355405 -0.65562 -0.40019 -0.839156 0.73445 -0.493444 -0.670678 -0.54197 -0.467975 0.45023 -0.678555 0.590041 -0.0251981 0.537998 -0.800938 0.399419 0.900254 -0.128505 -0.173746 0.979463 -0.772987 0.830663 -0.293292 0.785821 -0.370948 0.658675 -0.655433 -0.0964487 0.12141 0.0916592 -0.21619 -0.584173 0.520343 -0.593948 0.527681 0.191449 0.163621 0.484368 0.76976 0.68162 0.637304 -0.609822 -0.174344 -0.495726 0.255095 -0.712662 -0.466733 -0.118416 0.552791 -0.81911 -0.0423225 0.770357 -0.598108 -0.11127 0.78273 0.136759 -0.408411 0.451913 -0.902753 0.423379 0.130799 -0.329206 -0.158236 -0.0767884 0.349043 -0.82813 0.506584 -0.716984 -0.244743 -0.397975 -0.332329 -0.349226 -0.22888 -0.664299 -0.28299 0.659219 -0.685062 0.777077 1.05263 0.665775 0.828032 -0.94888 -0.487989 -0.0168249 0.786076 -0.846716 0.0513835
-0.42076 0.361881 -0.314622 0.209779 1.25226 0.970819 -0.223293 -0.646367 0.364879 -0.925815 0.703164 -0.166975 0.296649 -0.150624 0.513503 0.971382 -0.229177 0.838439 1.03163 0.199775 -0.0161919 -0.0401171 -0.904337 -0.53226 0.432053 -0.247325 0.356243 -0.21954 0.189953 -0.617212 0.265232 0.865353 0.704072 -0.513248 0.235057 -0.532598 0.313902 0.421119 0.803328 -0.697574 0.334277 1.13134 0.220092 0.00472768 0.0153998 -0.365373 0.816999 -0.543877 -0.925377 0.885365 0.745432 -0.814603 -0.654968 0.632347 -0.186811 -0.721253 0.455923 -0.909673 -0.562762 -0.741899 -0.0707591 -0.874846 0.729318 -0.873233 -0.607048 0.540386 -0.164947 0.803912 -0.151592 0.397237 0.22895 0.163303 0.513012 -0.215272 -0.515451 -0.538501 -0.578139 0.595962 -0.236101 0.0655495 -0.897734 -0.981528 -0.664321 -0.76169 0.951338 0.979307 -0.773265 0.543065 -0.24549 -0.435285 0.222945 -0.0250991 0.718808 -0.734008 0.329114 0.28225 0.13481 -0.516723 0.969761 0.328974 0.357627 0.526981 0.698274 0.730608 0.874203 0.766252 0.534724 -0.0757183 0.56084 -0.0602095 -0.661851 0.669569 0.444765 0.590018 0.449657 -0.538316 -0.867373 0.483834 0.727918 0.388466 0.127872 -0.414512 0.891098 -0.229247 -0.71004 0.270902 0.080388 0.493426 0.792618 -0.0619767 -0.173235 -0.0516607 0.871077 -0.771415 0.0779153 0.453133 -0.148214 0.181874 0.40146 -0.103391
-0.270079 0.124191 0.50296 0.338725 0.0678696 -0.455347 -0.723712 0.081723 -0.218759 0.214482 -0.353355 -0.507719 -0.704348 0.472534 -0.728126 0.638313 -0.0486295 -0.54192 -0.866964 -0.287151 0.79077 0.237597 -0.0242266 -0.394421 0.253182 -0.568943 0.375471 0.236682 0.644324 0.814646 0.532184 0.469689 -0.0303951 -0.176538 -0.688437 -0.972106 0.681411 -0.764098 0.373994 1.09145 0.270811 0.583474 0.479402 -0.127262 -0.652897 -0.998696 0.953736 0.149315 0.714591 0.785616 -0.468398 0.0862002 0.416755 -0.585882 -0.4761 -0.946912 -0.472874 -0.256445 0.312062 0.539691 0.56149 0.915881 -0.63846 0.21137 -1.04679 0.581285 0.240299 -0.26051 0.762537 0.517924 -0.810972 -0.315673 0.0830828 0.207253 0.336697 -0.609844 0.871729 -0.866029 0.391713 -0.350327 0.616363 -0.612758 -0.326855 0.465695 -0.521771 0.0621138 -0.379151 0.374236 -0.188123 -0.802591 0.260032 -0.665236 0.338919 -0.370085 -0.17065 -0.675503 0.271597 -0.913357 0.789705 -0.0947524 -0.492314 -0.93469 -0.774136 -0.580675 -0.346229 0.824932 0.333794 0.567048 0.772786 -0.61378 -0.403957 0.265291 -0.496529 -0.0668509 -0.912122 -0.00386035 -0.528482 -0.134093 -0.885498 -0.0793041 -1.03413 -0.446102 -0.991565 0.355162 -0.00581851 -0.942384 -0.201874 0.744242 0.215679 -0.619797 -0.413692 0.230302 -0.767261 0.552027 -0.571355 0.554097 0.22619 0.41553 -0.955965 0.0245689
-0.38134 -0.109568 0.210441 0.106094 1.12642 -0.0358567 -0.673498 -0.0999534 0.420339 0.635813 0.561537 0.0075304 0.781414 0.724183 -0.156927 0.313405 -0.418887 -0.658499 0.951083 -0.225888 0.588505 -0.51317 -0.358318 0.804487 -0.764471 -0.73168 -0.242591 0.801566 0.656342 1.14585 0.820573 -0.509943 -0.599627 -0.451379 -0.700569 0.120337 0.864212 -0.0298175 -0.752057 0.41654 0.610555 0.242921 -0.278713 -0.965279 0.0766389 -0.996628 0.77666 -1.11724 -1.08341 0.363218 0.774393 -0.688125 0.213962 -0.235936 -0.643595 0.184794 0.310595 1.00123 1.03436 0.315159 0.560473 -1.06594 0.962292 -0.684438 -1.12306 0.67461 0.146625 0.124376 -0.365342 0.0866125 -1.02551 0.278722 0.308392 -0.340625 -0.627198 -0.728363 -0.552866 -0.403413 -0.57123 -0.574735 -0.0236482 0.0213798 -0.296774 -0.396643 -0.561879 0.581906 -0.299186 -0.439805 -0.0281217 0.573227 -0.0775852 0.31873 0.0262622 0.867984 0.738805 0.689453 -0.291613 -0.437623 0.815007 0.057171 -0.698792 -0.0654438 0.209947 0.990952 0.716181 0.146552 0.448515 0.288129 0.217703 0.633772 0.74137 0.103081 0.24128 -0.544405 -0.443592 0.692632 -0.272346 -0.438194 -0.378736 -0.155952 -0.376548 -0.732696 0.138097 0.912416 -0.913508 -0.353081 -0.422193 0.827824 -0.811331 -0.578628 0.404227 0.0147409 0.861247 -7.92306e-05 0.500225 0.094525 -0.479974 0.876674 -0.837281 -1.0235
-0.592431 0.26048 -0.290925 0.497765 0.20095 -0.664188 0.250089 -1.06411 -0.470011 -0.950151 -0.507739 -0.0429447 0.633844 0.67267 -0.0015628 -0.394197 0.997654 -0.370653 0.0248994 0.158201 0.583825 -0.910534 -0.790257 -0.432238 -0.669234 -0.327964 -0.0707877 0.534803 0.970135 1.10935 0.706606 -0.484239 0.258145 -0.303355 -0.510525 0.500713 -0.868499 0.4586 -0.699027 0.157804 -0.26324 -0.0977816 -0.175045 -0.102037 -0.00421117 -1.01274 -0.0783336 0.399067 -0.549056 0.581168 -0.356039 -0.525071 -1.08563 0.329212 -0.947075 0.467717 0.18625 0.632008 0.277516 0.813301 0.25245 -0.236832 -0.433957 0.354 0.103692 -0.969114 0.83706 -0.615134 -0.68133 -0.078209 -0.744565 0.372061 1.12318 -0.444166 0.305912 0.626097 1.04779 -0.168868 -0.424324 -0.177752 -0.677774 0.436686 0.206735 0.745683 0.885286 0.545899 -0.943218 -0.882036 -0.718654 0.239026 -0.461927 0.520309 0.401922 -0.661743 -0.0299139 0.424163 0.0185832 0.189127 -0.405286 0.296822 0.368318 0.927629 -0.363553 0.417527 -0.163868 0.35222 -1.0172 0.479436 -0.862279 0.153703 -0.273862 -0.830584 0.0252096 0.366109 0.730306 -0.0364596 0.154913 -0.234301 -0.0827384 0.116809 -0.548219 0.377048 0.00662598 0.888035 0.896607 1.00004 -0.854779 0.0297491 -0.711393 0.302616 0.0401875 0.709463 0.278418 0.518964 -0.830259 -0.177716 -0.183367 0.717052 -0.494321 -0.21017
0.918221 0.422558 0.0377201 -0.685408 1.22698 0.585416 0.13113 0.471852 -0.590529 -0.585593 0.487562 -0.897338 0.762508 0.0995134 0.552732 0.312769 0.064284 0.962132 -0.455388 -0.744958 0.249387 0.9961 0.755924 0.0116625 -0.253546 0.209661 0.355664 -0.0035017 0.186806 0.922249 -0.786142 0.182949 0.727628 -0.295907 0.887663 -0.0293503 -0.797131 -0.554342 0.412718 -0.827079 -0.700606 -0.0116504 -0.920741 -1.0522 0.0103861 -0.14821 -0.948659 -0.479655 -0.478897 -0.157089 0.669416 -0.481662 -0.0607701 0.579205 0.821666 -0.19021 0.0847572 0.54261 0.786418 -0.418832 -0.313007 -0.580538 -0.215152 0.541256 -0.66779 0.161669 0.066233 0.562248 0.748269 -0.223197 -0.966993 -0.94217 -0.608892 -0.302144 0.914187 0.206196 0.254774 -0.77594 -0.493021 0.792852 -0.21369 -0.353099 -0.390015 1.01269 0.474845 -0.960975 -0.562402 -0.131609 0.929818 -0.0142639 0.16809 0.582156 -0.602354 0.125094 0.390725 0.400172 -0.95349 -0.970305 0.483355 0.373254 -0.76678 -0.359064 0.309138 0.277939 -0.687705 -0.927889 -0.408318 0.509801 -0.0836066 0.308267 -0.144369 -0.749206 0.634594 -0.323208 0.151323 0.442732 -0.291645 1.00206 0.797952 0.407235 -0.331524 -0.571844 -0.492997 -0.184676 0.657903 -0.295418 0.0831844 -0.455309 0.287951 -0.0132895 0.759451 0.0861922 -0.125746 -0.774695 0.164032 0.425271 0.523131 -0.678496 -0.675152 0.0847373
-0.903234 -0.578047 0.564674 -0.360775 1.23376 -0.0127703 -0.934448 -0.20394 -0.848628 -0.132026 0.918511 0.495492 0.359532 -0.569123 -0.144251 -0.73313 0.496513 -0.317999 0.738832 0.311795 0.000482666 -0.103852 0.73194 -0.506645 0.593546 0.708612 0.527678 0.0958767 0.170235 -0.108431 0.733738 0.546836 0.400372 0.964018 0.764365 0.919542 -0.212654 0.654728 -0.895819 -0.458492 0.192586 -0.104809 -0.164559 0.239822 -0.466768 0.337473 -0.131305 0.527464 0.475283 -0.0414236 0.154033 -0.543764 0.0930154 0.992588 0.788916 -0.941119 0.0197469 0.257171 0.802631 -0.39067 0.63283 -1.01967 -0.364104 0.355335 -0.215612 0.519548 -0.832842 0.143537 -0.270318 0.798557 0.357796 -0.517411 -0.747117 0.206822 0.716812 -0.151273 0.378655 -0.984991 0.165129 -0.294228 -0.384569 0.507992 -0.00809747 0.617701 -0.963178 -0.822182 -0.17789 0.132538 0.265222 -0.911775 0.424953 0.543492 0.0238582 0.615314 0.909373 -0.463807 0.153459 0.0662688 -0.110606 0.169751 -0.966952 -0.476179 0.294581 0.214515 -0.631512 -0.0855786 -0.331418 0.154825 0.750116 -0.32913 0.122651 0.880726 -0.241073 0.0193541 -0.234999 -0.163985 0.716299 -0.480043 0.288497 -0.555975 0.156396 -0.848593 0.386393 0.521626 -0.0258701 -0.666914 -0.763249 -0.552854 -0.872735 -0.44973 0.774064 -0.815846 0.856617 -0.65427 1.09082 -0.199193 0.679998 0.590056 -0.139924 -0.382677
0.789287 0.375255 -0.582192 -0.203561 -0.422743 0.810992 -0.529414 0.698259 -0.167077 -0.659376 -0.36672 -0.787279 0.639421 -0.985345 -0.881229 0.806526 -0.919831 0.522425 0.49874 -0.213001 0.408969 -0.25524 -0.593255 -0.0902076 -0.117236 0.115924 -0.745905 0.162309 0.165167 0.196987 -0.745164 0.290599 0.673422 0.503918 0.638817 1.01793 -0.242065 1.10532 -0.579813 0.124396 -0.742931 0.281015 -0.0910495 -0.535008 -0.642266 0.490218 -1.01782 0.170966 0.717162 0.269261 0.733632 -0.536657 0.280014 -0.400453 -0.450204 -0.83382 -0.854671 0.887673 0.0291107 0.838353 -0.567062 0.532564 0.448166 0.013698 -0.804368 0.411953 -0.0939881 0.430184 -0.302529 0.0831625 0.516812 -0.014254 -0.302476 -0.426732 -0.28873 1.04589 0.39027 0.544951 -1.0683 0.998367 0.475168 0.0452932 0.307047 -0.0906303 0.714264 -0.338889 -0.880753 0.462827 -0.335746 -0.847388 -0.457314 0.457394 -0.240471 -0.191896 -0.926596 0.514001 0.716804 -0.906976 -0.544437 0.873146 -0.256267 0.0689262 -0.404796 1.13704 0.399536 -0.474756 -0.202493 -0.581979 -0.315928 -0.790863 0.775203 -0.525241 -0.0197175 -0.758627 -0.306755 0.479983 0.843852 0.488812 0.158191 0.986746 -0.542637 0.326369 -0.664031 0.644942 -0.559026 -0.540441 0.0167188 0.906969 0.735916 -0.335342 0.838414 0.250943 -0.100143 0.507705 0.183214 0.733931 -0.769427 0.464115 -0.823585 -0.139674
0.736962 -0.683298 -0.164665 -0.838462 -0.599894 -0.786704 -0.0280743 0.86637 0.551978 -0.155251 0.403502 0.808238 -0.896468 -0.764383 -0.59832 0.869306 0.234723 0.111426 0.928391 0.384843 0.410928 0.382893 0.0376229 -0.958758 0.224324 -0.408728 -0.459947 0.221611 1.00356 -0.423904 -0.035567 0.395966 -0.0807498 -1.00714 0.750988 -0.0178624 0.932776 0.112465 0.512964 -0.00248679 -0.392113 0.880855 -0.437027 0.506245 -1.07186 -0.0762299 0.658096 -0.119849 -0.0284758 1.03313 -0.543694 -0.233032 0.125517 -0.644118 0.915222 0.484751 0.499166 0.397121 -0.814568 0.434925 -0.407594 -0.654221 0.50576 0.939338 -0.703117 0.501643 0.403546 0.824633 -0.529467 -0.616141 -0.168922 0.374973 0.143522 0.420867 -0.260592 0.0335012 -0.607259 -0.455943 -0.395547 -0.545307 -1.04186 0.333479 -0.105621 -0.193868 0.168924 -0.108056 -0.531477 0.65901 -0.0846703 -0.413201 -0.50535 0.0523124 0.259781 0.50356 -0.771859 0.629931 -0.130264 0.881626 0.727483 0.491316 -0.398387 -0.279914 0.757238 1.03688 0.296175 -0.508894 0.940809 0.677176 0.288697 -0.144816 -0.775632 -0.759386 -0.302482 0.374692 0.335738 -0.764925 -0.975095 -0.109077 -0.368051 -0.459613 0.158628 0.771042 0.518742 -0.598222 0.497892 0.512077 0.645175 -0.710045 0.391239 0.5326 -0.878995 0.898366 -0.179015 -0.671375 0.475857 -0.352219 -0.764846 -0.810581 0.754191 0.600758
0.168871 0.185539 -0.768346 0.978999 0.0155092 0.967967 -0.631139 -0.437851 0.968632 -0.985004 -0.880022 0.669776 -0.35866 1.12707 0.787066 0.295255 0.809016 -0.510159 0.989483 -0.0870156 0.207043 -0.112785 -0.326098 0.152678 0.307192 -0.184336 -0.190847 -1.01234 0.334714 0.542273 0.896954 -0.615613 -0.694522 -0.543033 -0.679562 -0.541838 0.981184 0.432593 -0.294483 0.035314 -0.561663 -0.179424 0.773934 -0.74776 -0.620915 0.800798 -0.0101517 -0.0978839 0.908982 -0.125775 -0.501532 -0.604304 -0.116429 0.397842 0.58766 0.38896 0.945551 -0.804118 0.41319 0.97811 -0.22788 -0.246519 -1.25635 -0.951034 0.567051 0.324547 0.485641 -0.0711936 0.717598 0.866476 -0.455783 0.258578 0.0173904 0.6272 -0.260032 -0.518904 0.27161 0.0439637 0.422622 -0.613503 0.66584 0.269508 0.413833 0.551256 0.030801 -0.622593 -0.492193 -0.528368 0.0648715 0.693196 -0.466132 0.669313 -0.616979 0.502957 0.162522 -0.633841 0.781559 0.918298 0.334076 0.476741 0.958642 -0.790451 -0.103948 -0.628014 0.553927 0.0447027 -0.0749693 -0.333092 -0.745569 -0.522274 0.706923 -0.812279 0.776623 0.415542 0.881365 -0.748446 0.90316 0.628577 0.772031 0.055341 0.205039 0.530041 0.279892 0.708872 -0.0554225 0.530998 -0.293481 0.153951 -0.325125 -0.408078 0.857419 0.62 0.41141 0.808175 0.65271 0.261016 -0.19076 -0.0232937 0.675031 0.0646943
0.226305 -0.939806 -0.313485 -0.732033 0.234824 -0.650345 -0.574618 -0.925871 0.221162 -0.259907 0.559532 -0.458626 -0.0670399 -0.0920603 -0.0252219 -0.160271 0.554035 -0.301694 0.503649 0.204868 -0.0415196 -0.633582 -0.58367 0.569102 -0.631415 0.241646 0.481527 -0.126081 0.0688711 0.292393 -0.750024 -0.0865985 1.09738 0.425666 0.926167 0.163531 0.421776 -0.792252 0.328349 -0.272074 0.354528 0.350348 -0.0235244 -0.112143 0.385719 -0.418113 0.600164 0.458426 -0.385099 -0.657458 0.330977 -0.909192 0.610882 0.0797284 -0.00920004 0.279745 0.684326 -0.26095 -0.644516 -0.58132 0.46406 0.138266 -0.68232 0.578169 -0.820292 -0.274497 0.232889 -0.807053 0.556845 -0.681996 0.438128 0.723702 -0.460404 0.820835 -0.0551866 -0.360002 0.24655 0.158741 -0.860003 -0.178685 -1.08502 -0.785923 0.216574 -0.575445 0.3424 -0.407843 -0.473754 0.571408 0.695226 -0.780015 -0.741541 0.444393 1.00027 -0.0804588 0.0680406 0.531167 0.469714 0.922028 -0.364828 -0.0395854 -0.8301 -0.011237 -0.399222 0.768371 0.73026 0.42198 0.345887 0.169372 0.606092 -0.763247 -0.0451343 0.198873 -0.503472 -0.518126 0.888263 1.00586 -0.562321 -0.164274 -0.67132 -0.539179 -0.011735 -0.871654 0.762181 0.621705 -0.799613 0.234479 -0.943763 0.0537953 -0.907282 -0.54338 0.748101 0.820528 0.699135 -0.0198937 -0.287456 -0.0573505 0.287923 -0.796034 -0.902737 -0.966871
-0.627984 -0.697013 -0.739896 0.404655 -0.890644 -0.715488 0.674118 -0.277206 0.0647792 -0.753922 -0.0122854 -0.622239 -0.318567 -0.294024 0.792696 0.641057 0.246028 0.330725 -0.343405 0.915221 -0.776971 -0.991473 0.234146 0.631275 0.047575 0.236731 -0.375412 0.0702063 0.800569 -0.263305 0.170491 0.0821695 0.508143 -0.3183 -0.219695 0.565125 0.563173 -0.332821 -0.586841 -0.443441 -0.484517 0.679768 0.0758121 0.439763 -0.571965 -0.0636311 -0.471211 0.76403 -0.663718 -0.151255 -0.0804394 0.626214 0.605839 -0.558509 0.531797 -0.504802 -0.750024 0.604814 -0.85911 -0.477084 0.531767 0.740566 -1.12382 -0.750888 0.483338 -0.392714 -0.498538 -0.536116 -0.791137 0.228506 0.802051 0.380354 -0.400711 -0.246615 0.206778 -0.881906 -0.34702 0.121881 -0.22223 0.837215 -0.38688 -0.621782 0.191467 0.246234 -0.270018 0.258871 0.85456 -0.253336 -0.0367256 0.408323 -0.973912 0.321574 0.389071 -1.0043 0.304228 0.0189042 0.551506 0.535776 0.104683 0.274729 -0.244757 -0.962372 -0.654567 -0.0410111 -0.443571 -0.758499 0.53181 -0.0887336 -0.473174 0.105322 0.485718 0.831837 -0.501445 -0.735673 0.464401 -0.167577 0.25779 -0.359863 -0.271645 -0.471327 -0.621151 0.289031 0.720467 0.396891 -0.403762 0.651367 -0.790402 -0.483358 -0.343577 0.353976 0.417032 0.258569 -0.408498 -0.653681 -0.543741 5.76541e-05 -0.944127 -0.97586 -0.672221 -0.266252
0.135132 0.466177 -0.933397 0.620982 -0.451786 0.191049 0.824496 -0.12215 0.650805 -0.686609 -0.254925 -1.0727 -0.544754 0.701403 0.761448 -0.663393 0.366958 -0.0144192 0.379421 -0.26614 0.308543 0.0856981 -0.375764 0.685622 0.589732 0.599818 -0.544208 0.872077 0.732319 0.358993 -0.674538 0.490346 -0.229523 0.828683 -0.943933 -0.607774 -0.726401 0.291872 -0.666551 0.0112309 0.822608 0.708258 -0.714912 0.474641 -0.350766 -0.221594 -1.02506 0.819232 0.0219269 -0.0359122 -0.391712 -0.910452 0.716397 0.523871 -0.2315 -0.902945 -0.779281 -0.667352 1.06656 0.958742 -0.952535 -0.980191 0.268273 -0.989027 -0.419666 0.502317 -0.00572379 -0.41106 0.627884 0.152799 0.25814 -0.5838 0.393623 -0.792585 0.138601 0.136769 0.96564 0.435355 0.703858 0.803491 0.802827 -0.956978 -0.150852 0.586167 0.00111373 0.571808 -0.900242 -0.720361 0.725534 -0.251031 -0.807562 -0.747186 0.772692 0.837019 0.456834 -0.416995 0.576492 0.156511 -0.140187 -0.536742 0.725397 -0.919177 -0.110364 -0.951042 -0.756531 0.263797 -1.01555 -0.604731 1.02728 -0.561189 -0.2925 0.763924 0.217369 -0.739855 -0.46615 -0.746598 -0.811344 -0.0990112 0.723647 -0.138545 0.504864 0.86531 -0.336294 -0.213143 0.735071 0.878466 0.324683 -0.78705 0.950582 0.398336 0.318486 0.755277 0.714791 -0.0441332 0.392329 0.179726 -0.0272268 -0.924734 0.659632 -0.0688408
