Weights Network
2 Hiddens Layers
-0.12 0.83 -0.38 -0.32 0.01 0.81 -0.64 -0.21 -0.22 0.71 0.47 0.67 -0.56 0.41 -0.82 -0.01 -0.25 -0.39 0.22 -0.09 -0.16 0.33 -0.15 0.97 0.76 -0.98 0.52 -0.71 0.79 -0.04 -0.43 -0.4 -0.96 0.93 -0.18 -0.9 0.49 -0.85 -0.82 -0.2 -0.79 -0.22 -0.06 -0.59 0.69 0.69 -0.27 0.63 0.05 -0.96 -0.1 0.15 -0.81 0.55 0.68 0.87 0.12 0.18 -0.12 0.19 -0.04 0.84 -0.37 0.71 -0.1 0.96 -0.23 0.97 -0.4 0.95 -0.7 -0.51 0.11 -0.36 -0.13 -0.07 0.68 0.88 0.2 0.14 -0.8 0.58 0.72 0.02 -0.47 0.91 0.87 -0.89 0.26 -0.64 -0.11 0.94 -0.78 -0.27 -0.41 0.96 0.3 -0.26 -0.79 -0.56 0.22 -0.07 -0.98 0.63 -0.95 0.1 -0.61 0.75 0.2 -0.95 -0.92 0.42 1 -0.22 -0.1 -0.56 -1 -0.22 0.96 0.53 0.43 0.8 -0.89 -0.53 -0.55 -0.96 0.33 -0.79 0.96 -0.04 -0.81 -0.58 0.65 0.83 -0.74 0.06 0.15 0.67 -0.07 -0.55
-0.71 0.57 0.41 -0.92 0.41 0.45 -0.04 0.74 0.71 -0.05 -0.43 0.06 -0.72 0.2 0.37 0.63 0.45 0.97 -0.05 -0.7 0.31 0.17 0.41 0.33 -0.08 0.84 -0.12 -0.63 -0.26 -0.04 -0.03 0.77 -0.71 -0.44 0.32 -0.03 0.09 0.46 0.61 -0.71 0.05 -0.87 -0.95 0.93 0.24 -0.62 0.13 -0.46 0.21 0.48 -0.55 -0.27 0.81 -0.19 0.88 0.06 -0.81 0.83 0.1 -0.56 0.91 -0.95 -0.28 -0.12 0 -0.39 -0.17 0.88 -0.77 -0.36 -0.19 0.27 0.38 0.49 0.79 -0.85 0.81 0.21 -0.47 -0.64 -0.91 -0.68 -0.22 0.44 0.97 -0.41 -0.58 0.75 -0.17 -0.09 0.42 0.58 0.37 0.33 0.17 0.3 0.11 -0.44 0.69 -0.3 0.89 0.96 -0.68 0.38 0.6 0.6 0.72 0.11 -0.09 0.89 -0.15 -0.47 0.89 -0.45 -0.1 0.14 -0.37 -0.06 -0.3 0.45 -0.81 -0.29 -0.17 0.43 0.11 -0.14 0.87 -0.98 0.14 -0.93 0.85 0.01 -0.85 -0.14 -0.74 0.33 0.83 0.3 -0.82 0.35
-0.03 0.41 0.79 0.92 0.06 -0.23 -0.97 0.45 -0.58 0.26 0.94 0.14 -0.8 -0.43 -0.13 -0.3 -0.49 -0.38 -0.68 0.29 0.52 0.14 0.67 0.43 0.16 -0.85 -0.3 0.88 -0.42 0.34 -0.9 -0.12 0.7 0.59 -0.49 0.58 -0.82 0.73 -0.64 0.71 -0.16 -0.39 0.12 0.89 -0.01 -0.31 -0.89 -0.48 0.2 -0.87 0.31 -0.48 0.71 -0.27 0.51 -0.82 -0.64 -0.2 0.07 -0.29 0.5 0.44 -0.93 -0.91 0.69 -0.31 -0.84 -0.42 -0.48 0.55 0.1 -0.87 0.24 -0.07 0.5 0.23 0.95 0.74 -0.35 0.02 0.03 0.98 0.17 0.81 -0.84 0.53 0.03 0.19 0.85 0.46 0.23 -0.19 -0.56 -0.72 -0.09 -0.8 0.03 -0.84 0.56 -0.91 -0.67 -0.47 0.83 0.63 0.53 -0.84 -0.34 0.89 0 -0.96 -0.04 0.27 -0.82 0.78 -0.51 -0.9 0.21 -0.75 0.13 0.83 0.61 0.61 -0.3 -0.48 0.57 -0.26 -0.15 -0.13 0.43 0.21 0.46 0.03 -0.77 -0.39 -0.24 0.95 0.77 -0.02 -0.34 0.3
-0.84 0.509998 -0.400002 -0.41 -0.700017 -0.83 -0.370001 0.889999 0.22 0.660002 -0.0800001 -0.11 0.920001 -0.570002 -0.869987 -0.16 -0.290003 0.45 0.44 -0.0699887 -0.52 0.799967 -0.210002 0.450004 6.4841e-06 -0.909998 0.960016 -0.1 -0.65999 -0.73 0.75 0.7 0.0499996 -0.4 -0.24 -0.260007 0.68 -0.170064 0.379999 0.119981 -0.509991 -0.43 0.239999 0.34 -0.440005 0.509988 0.44 -0.230001 0.15 0.930006 0.69 -0.62 0.64 -0.21 0.0599859 -0.570007 0.35 0.140004 0.490052 -0.42 -0.860025 0.690004 -0.350001 -0.94 -0.759999 -0.45 0.91 -0.4 0.85 0.609996 0.53002 -0.419988 -0.64 -0.360006 0.039994 -3.85418e-08 -0.67 -0.80997 0.260002 0.959997 0.97 0.970001 1 0.310024 -0.44 -0.309963 0.3 0.12 0.97 -0.739993 0.470004 0.83 0.629998 0.579994 -0.280033 0.890003 0.98 -0.0700006 -0.219997 0.73 -0.589999 -0.77 0.449974 -0.130006 -0.490049 0.910002 0.4 -0.439998 0.980017 -0.55 0.0700066 0.569995 -0.619995 0.74 0.66 0.400001 0.0399966 -0.84 -0.63 0.76 -0.36 0.0800017 0.0399885 -0.17 0.619972 0.559891 -0.71 -0.13 0.730003 -0.92 -0.100002 -0.51997 0.45001 0.69996 0.07 -0.989966 -0.91 -0.190014 -0.909999 0.529865
0.94999 -0.660726 0.31056 0.371698 -0.521284 -0.467793 0.960243 0.55008 0.439941 0.910323 -0.839959 0.419572 -0.808833 0.639945 -0.409627 -0.171391 0.61992 -0.0699481 -0.229769 -0.268203 0.0912987 -0.623103 0.390118 0.440777 -0.620328 0.240115 0.471857 0.248815 0.791139 -0.719953 0.869824 0.0699418 0.162526 0.368791 -0.479408 -0.0510268 -0.629142 0.963826 0.960186 -0.612489 -0.179153 -0.970202 -0.559707 0.429771 0.43964 -0.351229 0.679527 -0.110025 0.253 0.070081 0.719824 0.679748 0.580037 -0.449919 0.357199 -0.581583 0.570006 -0.859545 -0.733465 -0.470004 0.478359 -0.259703 -0.570756 0.891666 0.640288 0.519999 0.150038 0.499998 -0.170189 0.849858 -0.456814 0.86189 -0.54019 0.179925 0.419833 -0.539986 0.929952 0.700727 0.970323 -0.0504567 -0.616782 0.481292 0.690048 -0.547788 0.779839 -0.44502 0.622043 0.849591 -0.769775 -0.649188 -0.569657 -0.0501522 -0.0803136 0.320482 -0.142803 0.380488 -0.77977 0.369678 0.630166 -0.909705 -0.649276 0.7 -0.542852 -0.439783 -0.593941 0.420004 -0.331133 -0.319836 0.9912 -0.230897 -0.148529 0.510155 0.999853 -0.729457 -0.830823 0.00117392 -0.830623 -0.269999 -0.310292 0.999882 0.839945 0.380266 0.348891 0.500035 -0.542627 -0.339668 -0.350182 0.0599767 0.38072 0.780112 -0.140151 0.972939 0.880725 -0.32401 0.270191 0.132358 0.220058 0.619885 -0.259853 0.0677887
0.840025 -0.412381 -0.271556 0.84519 -0.707475 0.618059 0.510746 -0.378897 -0.45035 0.830728 0.227594 -0.47016 -0.976269 -0.382842 0.259555 -0.738908 0.711289 0.190243 -0.731715 -0.0425612 -0.817173 0.729456 -0.857847 -0.388322 -0.665995 -0.61982 0.157369 -0.21691 -0.548296 0.479216 0.689159 0.178038 0.0617098 -0.367662 -0.735766 -0.960769 0.0700464 -0.951992 0.740839 -0.95543 -0.715723 0.708584 0.706748 -0.0536163 0.379218 0.666977 -0.381278 -0.433045 -0.252985 -0.450855 -0.75004 -0.0799276 0.0277057 0.768834 -0.835918 -0.555455 -0.8703 -0.263622 0.420793 -0.978293 -0.690029 0.189507 0.451163 0.182549 -0.358063 0.700265 0.531738 0.141174 -0.230258 0.461204 0.523804 -0.540667 0.0491946 0.972531 -0.258371 -0.563146 -0.87404 -0.822744 -0.318345 -0.40673 -0.227775 -0.984959 0.776853 -0.0899081 -0.631309 0.812771 0.383345 0.735423 -0.95581 -0.648584 0.238326 -0.411359 0.880232 -0.0562822 -0.499616 -0.63999 -0.299333 0.550017 -0.154726 0.352246 -0.559246 -0.680003 0.684989 -0.507465 -0.429443 -0.235871 -0.894344 0.506495 -0.792927 0.0192517 0.541631 0.131733 -0.366515 0.991514 0.615501 0.272623 0.953542 -0.310144 0.136622 0.609575 0.239589 -0.727364 0.908628 -0.664476 -0.587055 0.526838 -0.427321 -0.113862 0.117265 0.670971 -0.460601 -0.14717 -0.0775931 -0.956153 0.249947 0.436694 -0.118043 0.73195 -0.938083 0.158091
-0.939106 -0.251657 -0.221051 0.8089 0.866135 0.557034 -0.742073 -0.000735423 0.880002 0.260574 -0.159201 -0.609033 -0.232183 0.383728 0.324452 -0.760356 -0.853593 0.111413 -0.141732 -0.40404 0.0885356 0.414573 -0.595835 0.201785 -0.16477 -0.169533 -0.51101 -0.0643536 -0.629085 -0.608777 -0.678495 0.85672 -0.244918 0.216066 0.425267 0.678505 -0.505382 0.391173 0.546689 -0.0415225 0.683295 0.439681 0.97935 -0.964201 -0.229969 0.277465 -0.0208018 -0.0257176 0.669449 -0.652919 0.347251 0.959596 0.64863 0.319353 -0.864033 0.200316 0.310237 0.484175 0.560047 0.31126 0.281041 -0.620167 -0.0980134 -0.127966 -0.747997 -0.450294 -0.543709 -0.981122 0.42246 0.917064 0.48827 -0.663259 -0.879052 0.33051 0.470728 0.602238 0.0283373 0.657831 0.916687 0.0853525 -0.967628 -0.915642 -1.00236 -0.100169 0.451275 0.520784 -0.154032 -0.946932 -0.689002 0.589954 0.829913 0.418382 0.329773 0.219825 0.890874 0.429982 0.447019 -0.136185 0.528076 0.420039 -0.517597 0.0100237 -0.199052 -0.358218 -0.595368 0.774975 0.497938 0.407151 -0.891652 0.981022 0.65623 0.959567 -0.76772 -0.819716 -0.780333 -0.682117 -0.603163 -0.960202 0.394942 0.389726 -0.289798 0.413303 -0.111593 0.271762 0.751843 0.799191 0.14598 0.738744 -0.904961 -0.794078 -0.571768 0.348905 0.250803 0.198684 -0.53004 -0.931026 0.641038 -0.910995 -0.695994 -0.829395
0.991664 -0.960577 0.0795582 0.431387 0.185415 0.72059 -0.269894 -0.500831 0.140033 0.641671 0.840327 0.0211369 0.291611 0.402905 -0.144746 0.748009 0.268179 -0.120633 -0.880056 0.265286 -0.399459 0.493367 0.51341 0.163778 -0.200336 -0.269497 0.815024 0.445979 -0.0298151 0.320144 0.497307 -0.000428937 0.417999 -0.904338 -0.938941 -0.380888 -0.996183 -0.999193 0.146687 0.324806 -0.254486 -0.309353 -0.877822 -0.245831 -0.209026 0.241588 0.488038 0.577118 -0.674699 0.428136 -0.460912 -0.195743 0.947822 -0.461314 0.316731 0.860301 -0.357956 -0.898062 -0.963048 0.294211 -0.264754 -0.920546 0.475658 -0.254196 0.0715244 0.946329 0.583455 -0.839026 0.239389 -0.73095 0.155634 -0.734241 -0.532091 -0.0584579 -0.478632 0.496945 0.35877 0.140741 -0.995627 0.249548 0.752677 0.692533 0.0452266 0.53307 -0.138359 0.403947 0.335557 -0.735635 -0.93033 -0.0774344 0.94816 0.715491 0.959563 0.273029 -0.768968 0.590143 0.143462 0.227755 0.756331 -0.0589643 0.189142 -0.739646 0.647842 -0.0980051 0.376349 -0.930324 -0.489261 -0.141056 0.814243 0.500493 -0.474795 0.819477 -0.550181 0.48145 0.261247 -0.00962031 -0.598061 0.401791 0.958281 0.869753 0.108347 -0.866275 0.848207 -0.877676 0.698669 -0.372965 0.306937 0.383686 0.606985 -0.991317 -0.394508 -0.388805 -0.980321 0.660792 -0.956276 -0.200824 0.983254 -0.0454955 0.60242 -0.365143
-0.359314 0.948613 0.575547 -0.961946 0.443515 0.531097 0.559684 0.929413 0.909933 0.197718 0.508844 -0.909266 -0.467385 0.485367 0.26914 0.677322 0.738017 0.529859 0.899167 -0.810019 -0.138098 -0.909301 0.270955 -0.663896 0.137515 -0.327829 -0.912836 -0.456436 0.520353 0.300244 -0.271262 0.454443 -0.251012 0.164005 0.711152 0.459148 0.025609 -0.909957 -0.118724 -0.658663 -0.00147666 -0.810341 0.922659 -0.907531 0.825496 0.456438 0.858691 -0.891569 0.746525 -0.642085 0.200409 0.382302 -0.893149 -0.560855 0.794755 0.28104 0.460207 0.724632 0.786536 0.136065 -0.274283 0.617435 0.0640192 -0.721435 0.678565 0.927953 0.909711 0.478049 -0.4457 0.499428 0.581578 0.104444 -0.812147 0.89414 0.600864 -0.0449564 -0.293164 -0.759164 0.712194 0.489543 -0.493347 0.325633 -0.174208 -0.49736 0.551727 -0.226392 -0.241975 0.151085 0.235761 0.341071 0.801358 0.386938 0.979057 -0.343089 0.57075 -0.490441 -0.802654 -0.366348 0.123706 0.580314 -0.558283 -0.800966 0.78875 -0.169518 0.735147 0.898326 -0.896113 0.969569 0.871718 -0.709745 0.455369 0.222008 0.797535 -0.0478388 -0.875821 0.440496 -0.293093 0.951399 -0.943616 0.400402 -0.651379 0.413219 -0.630978 0.233893 0.360512 0.934984 0.549052 -0.886724 0.366446 -0.960136 0.872453 0.221867 -0.630915 0.959268 -0.531721 -0.0804721 0.401454 -0.366644 0.992594 -0.574212
-0.91107 -0.170654 0.646145 0.0502254 0.163672 0.0643703 0.68719 0.609761 -0.930086 0.856188 -0.0707493 0.0997002 0.022493 -0.725531 0.0159718 0.927457 0.867329 -0.569688 0.308714 0.92169 -0.409721 0.961929 0.370145 0.413521 0.458704 0.692205 -0.473373 0.483902 -0.598781 -0.729631 -0.371048 -0.419506 0.931113 -0.64385 -0.830911 -0.609708 0.730148 0.0171634 0.811583 -0.777583 0.186807 0.468981 -0.888761 0.0427077 -0.445235 0.628522 0.782558 0.361796 -0.816179 -0.620767 -0.0173833 -0.738144 -0.914579 -0.0619356 0.317588 -0.737041 -0.353731 -0.573399 -0.705412 0.595801 0.361386 -0.113242 0.203071 0.342658 -0.792344 -0.55983 -0.88017 -0.724269 0.652934 -0.235766 0.979617 -0.0368376 -0.871169 0.503639 -0.428769 -0.0311863 0.417171 0.980795 0.900019 -0.611928 0.901508 0.18557 0.867407 0.441359 0.909846 0.524046 0.447994 0.755386 0.416491 0.769805 0.29184 -0.592342 -0.922735 -0.286943 0.881755 0.250623 0.0654988 0.802129 -0.928411 0.86209 -0.640891 0.887205 -0.192151 -0.431067 0.353328 -0.770647 0.157337 -0.830126 -0.712031 0.430032 -0.145194 0.631645 -0.226143 0.151551 0.264373 -0.160099 -0.460896 0.40191 0.797187 0.237303 0.169248 0.222742 0.119193 0.607041 0.670167 0.282895 -0.591247 -0.511018 -0.623792 0.759896 -0.151003 -0.793408 0.469544 -0.980144 -0.249891 0.81997 -0.919935 -0.5495 0.852219 -0.473146
-0.510678 0.640133 -0.324311 0.13442 0.481288 0.56048 -0.342612 0.149959 -0.310086 0.627763 -0.20994 0.760277 0.745936 -0.437692 -0.931144 -0.711447 0.218474 -0.749549 0.0793982 -0.150263 -0.859515 -0.420594 -0.649963 -0.938786 -0.479313 0.801599 0.740789 -0.846126 0.940313 0.600383 -0.55022 -0.687656 -0.0896228 0.367853 -0.522438 0.429843 0.480168 -0.721029 -0.439128 0.835746 0.0217136 0.919985 0.469824 0.777319 -0.252825 0.355404 -0.997986 0.751721 0.290664 0.490253 0.470575 -0.451023 -0.261235 0.150311 0.629892 -0.67788 0.537759 0.119159 -0.669585 0.988009 -0.0995306 -0.17316 -0.611114 0.160405 0.16931 0.200175 -0.220871 -0.377383 0.782083 -0.513795 0.169637 -0.429245 -0.0904268 -0.278393 0.24172 -0.582633 -0.0477968 0.60073 0.299439 -0.126301 -0.270977 -0.187588 -0.0904478 -0.279148 -0.309905 0.172245 -0.791713 0.536972 0.402933 0.549455 -0.348039 0.598921 0.0582354 0.080224 0.981522 -0.879673 0.00282407 -0.802971 0.279765 -0.210175 0.0499714 0.95875 0.00973237 -0.421694 0.681158 -0.330265 -0.987043 0.310283 0.910091 -0.409904 -0.14991 -0.159189 -0.357975 0.150242 -0.757159 -0.0599993 0.782894 -0.789878 -0.710133 -0.79116 -0.240014 0.831104 -0.860184 0.5033 -0.290243 -0.174322 -0.347306 0.148845 0.471199 0.320057 0.25933 -0.706754 -0.739879 0.341268 -0.869057 0.549141 -0.0895773 -0.800099 -0.549469 -0.099968
0.119979 0.77998 0.480298 0.830554 -0.390116 0.220035 0.698541 0.959943 -0.740001 -0.300116 0.0800004 -0.92998 0.980705 0.57005 0.739942 -0.361473 -0.429997 0.5202 -0.670002 -0.550017 0.629798 0.330312 0.0899174 0.71006 0.0701694 -0.488631 -0.130078 0.539934 -0.840032 0.150791 -0.0704636 0.0836806 0.0203424 0.939778 0.34773 -0.980882 -0.0398349 -0.269448 -0.319219 0.308994 -0.999997 0.819683 0.96991 -0.701043 0.629734 -1.00005 -0.128659 -0.29944 -0.62982 0.359793 0.75003 -0.840088 -0.770028 0.531256 -0.829863 -0.830032 0.0499968 0.710815 0.11029 0.518432 -0.379585 -0.182525 0.888691 0.370091 -0.679443 -0.459838 0.168307 -0.590002 0.140093 -0.140015 -0.850237 -0.639945 -0.0500741 0.961123 -0.359031 -0.180392 0.53217 0.0904454 0.429768 -0.447793 0.209962 -0.200184 -0.330213 -0.800003 0.160013 0.599491 -0.279589 -0.370137 0.231034 -0.58997 -0.748038 -0.0999646 0.0898019 -0.569609 -0.858876 -0.449891 -0.982741 0.789831 -0.639887 0.367944 0.999338 -0.811569 -0.748451 0.898032 -0.829063 -0.219206 0.180116 0.98003 0.430006 0.589957 0.620306 -0.799765 0.149778 0.308887 0.180697 -0.529891 -0.589713 0.410001 -1 -0.739999 -0.0500202 -0.860154 0.829706 -0.959097 -0.960067 -0.0320047 0.0800892 0.589812 -0.890076 -0.0799566 -0.881239 -0.0600012 -0.710076 -0.57031 0.530043 0.879589 -0.89985 0.809896 0.290761 -0.599632
0.85 0.160071 0.359831 0.130002 -0.489964 0.250002 0.489774 0.970129 0.109942 0.24 0.39014 -0.190001 -0.509869 0.409956 -0.250181 0.679856 0.82994 -0.999975 0.270006 -0.119995 0.159781 0.79006 -0.10005 0.469982 0.649989 0.949958 0.579995 0.349989 -0.879873 0.420484 0.529294 0.15907 0.929686 -0.310059 -0.0102552 -0.830813 -0.669775 0.880406 0.510234 0.939969 -0.82994 -0.560291 0.399932 -0.44098 -0.670033 0.249943 -0.729796 -1.00014 0.529934 -0.749997 0.000308717 0.360029 -0.600036 -0.388505 0.769942 -0.440131 0.98994 0.560243 0.670355 -0.730268 -0.969886 -0.890965 0.309732 0.779953 0.380505 0.530153 0.529646 0.819992 0.959889 -0.0800291 -0.249951 0.359875 -0.259738 -0.0789481 -0.889867 0.459997 -0.939625 -0.0798575 0.49995 0.430646 0.160146 -0.44994 -0.840331 0.449564 -0.0499693 -0.860139 -0.549835 -0.320002 0.609893 0.350037 0.890276 -0.0399946 0.139946 0.850006 -0.729386 0.770197 -0.200577 -0.560129 0.570347 0.489601 -0.0801544 0.739741 -0.438273 -0.500333 -0.259095 0.240231 -0.349837 -0.780004 0.850001 -0.140003 0.0398937 -0.929985 0.319898 -0.310257 0.940215 0.999991 -0.919804 0.359949 -0.500002 0.82 0.0400115 -0.469954 0.709664 -0.140137 -0.320031 -0.250891 0.549998 -0.229525 0.74996 -0.0899393 -0.570197 0.00998524 -0.950106 -0.910065 0.940004 0.539825 -0.389882 0.0399659 0.660379 1.0002
0.269925 -0.880034 -0.639974 0.659897 -0.320007 0.700237 -0.219869 -0.699806 -0.550144 -0.32995 -0.359783 -0.0999545 0.169986 0.619958 -0.710034 0.12018 -0.0700715 0.0699019 0.320004 0.410078 0.419907 0.0298982 0.680118 0.380046 -0.630138 0.749695 0.700028 -0.659983 0.540686 0.629213 -0.970126 0.870071 -0.730266 -0.360028 0.630751 -0.929141 0.499202 0.249996 0.730075 -0.980058 0.909831 -0.809881 -0.59978 0.580015 -0.300295 -0.37 0.229983 -0.360119 0.559876 -0.470345 0.340304 0.0596563 -0.779999 0.380556 0.789707 -0.859869 -0.0900714 -0.960057 -0.689775 0.149999 0.540084 0.230065 -0.450156 0.749941 -0.769152 0.689216 -0.690064 0.200108 -0.760336 0.309964 0.519647 0.0399083 0.300216 0.309833 0.2695 -0.490017 -0.860372 -0.259728 0.0800225 0.00992613 0.120641 0.0508079 0.129841 -0.23001 0.509898 -0.89007 0.21008 0.220016 -0.489859 0.389987 -0.18952 -0.370158 -0.62046 0.109997 0.660103 0.910198 0.939855 0.790273 0.120209 -0.230024 -0.400008 -0.390393 -0.529918 0.559911 -0.530037 0.769847 -0.349579 -0.130008 0.328342 0.360132 0.779441 0.639981 0.660382 -0.0397308 -0.299955 -0.0492347 0.619066 0.490013 -0.150026 0.689598 0.53 0.370071 -0.230501 0.969827 -0.0200753 0.230801 0.439999 0.49943 -0.100318 0.830389 -0.381399 -0.619904 0.430168 0.130422 0.0699466 0.60075 0.920584 -0.0899829 -0.770005 -0.399988
-0.430092 -0.460077 -0.13555 -0.329429 -0.250645 0.349835 -0.020962 -0.960175 0.839973 0.598455 -0.280474 -0.49987 -0.166597 0.242841 -0.220271 0.158235 -0.33095 0.620293 0.889979 -0.712507 -0.409917 0.326085 -0.771527 0.111306 0.520558 -0.898528 -0.32934 0.688056 -0.990361 -0.348515 -0.899588 0.748808 0.789462 -0.137096 -0.980229 -0.861448 -0.0829522 -0.758842 -0.089367 -0.672525 -0.888303 -0.31027 -0.120241 0.108047 -0.311764 -0.213936 -0.731556 0.0898856 0.581394 0.338361 0.565125 -0.250258 -0.470019 -0.458686 0.309395 -0.929439 -0.69 -0.850321 -0.939528 -0.868867 -0.108233 0.0670302 -0.150759 -0.206796 0.580301 0.0108309 0.999085 0.80118 -0.988753 -0.751126 -0.0695105 0.0160196 -0.250635 0.232183 -0.649634 0.0875808 0.479618 0.630261 0.610736 0.950509 0.139258 0.471419 -0.300771 -0.949882 0.381424 -0.327833 -0.71096 0.459136 -0.80816 0.0700221 0.562203 0.530021 -0.870478 0.451287 0.0394011 0.0997969 0.247629 0.3835 -0.54966 -0.871181 0.638798 -0.0902143 -0.701504 0.649138 0.54485 0.407773 0.811072 0.680519 -0.712011 -0.609726 0.530134 -0.069594 -0.703504 0.590978 -0.568181 -0.719589 -0.167269 0.689928 -0.760043 -0.829425 -0.190395 0.560582 -0.270132 -0.36557 0.550419 -0.36179 0.871205 0.922333 0.229676 0.240026 -0.600839 0.105017 0.870194 -0.0997959 0.379749 0.129441 0.46024 -0.109879 -0.909398 0.140773
0.919879 -0.92052 -0.996242 -0.326862 0.978364 -0.368427 -0.926406 -0.410963 -0.929984 0.998389 -0.570354 -0.929837 -0.692853 0.838623 -0.458767 0.396058 0.0146173 0.211937 -0.959577 -0.815763 -0.199868 -0.667353 0.330398 -0.418677 -0.148739 0.305688 0.49011 -0.463872 -0.70327 -0.232424 0.59223 -0.75087 0.278072 0.759472 -0.660757 0.0768479 0.792013 0.796957 0.531882 0.728487 0.221036 0.819156 0.299032 -0.512003 0.980595 -0.831646 -0.760204 -0.457667 0.81487 -0.745011 -0.749704 -0.010371 0.0200106 -0.729049 -0.733726 -0.841029 -0.350002 -0.330884 0.586671 0.463657 -0.581788 -0.985689 -0.11224 -0.792968 0.390496 0.567396 -0.100582 0.790116 -0.440463 0.742743 -0.990804 0.5502 0.639329 -0.487107 -0.119673 0.364799 0.397916 0.5416 0.622534 0.0721775 0.918201 0.164522 0.456452 -0.889763 0.853619 0.780096 0.132678 0.934505 0.0229548 -0.779787 -0.740329 0.809819 -0.950802 -0.417602 -0.433334 0.829636 0.278342 0.0707839 -0.790211 0.605117 0.15117 -0.360662 0.941839 0.549536 0.10121 0.23372 -0.219421 -0.306766 -0.0242694 -0.870785 0.140469 0.780029 -0.867213 0.690504 0.0403933 -0.0806289 0.335596 0.980978 -0.759953 -0.779371 -0.841801 0.782712 0.760288 0.328703 -0.549055 -0.332483 0.401052 -0.211913 0.408447 0.556364 -0.183268 -0.983513 0.770167 -0.987148 -0.362343 0.208366 0.23886 0.619455 -0.869162 0.901707
-0.0102344 0.527857 -0.978915 0.185364 0.0543017 -0.687503 0.838723 -0.820554 -0.349982 -0.691451 0.521363 -0.259468 0.12914 0.629991 -0.498627 -0.753155 0.164945 -0.116253 0.237264 0.705455 -0.952106 -0.60006 -0.724323 0.699774 0.300145 -0.227622 -0.200778 0.147618 0.557633 0.0344697 0.561596 -0.768443 -0.782476 -0.230383 0.580286 0.200466 -0.778076 0.325006 -0.0686187 0.0117665 -0.430102 0.539369 -0.62864 0.318213 0.767991 -0.831772 0.718524 -0.299332 0.20417 0.444147 -0.971007 0.811628 -0.710506 0.871788 0.231556 -0.956713 -0.6197 0.633077 0.0322948 0.86394 0.540197 -0.921678 -0.67153 0.336833 -0.691785 -0.657006 0.0992063 0.218694 -0.63105 0.683591 -0.276771 0.549989 -0.741461 0.906561 -0.860055 -0.525198 0.717039 0.161627 -0.473308 0.548978 0.128913 0.945732 -0.0928012 -0.455916 0.173311 -0.690281 -0.259215 -0.244471 0.181053 0.209267 0.380642 -0.53105 -0.00762639 -0.595184 0.255796 -0.0260785 0.526811 0.11224 -0.947419 -0.604844 -0.926176 0.459571 0.0176639 1.00808 0.18687 0.0732059 -0.90746 0.593273 -0.585236 -0.287492 -0.575796 -0.859765 -0.525282 0.356119 0.240356 -0.370821 0.162899 0.396785 -0.756416 0.490586 -0.121875 -0.62588 0.498417 0.217058 0.447541 -0.676614 -0.269154 -0.697277 0.675437 -0.646926 -0.81194 0.750306 -0.629656 0.276091 -0.162096 0.239256 -0.501421 0.893117 -0.509789 -0.898194
-0.670754 -0.913302 0.997708 0.991672 0.572597 -0.521556 0.48824 -0.240391 0.969874 -0.67066 -0.25555 0.601258 0.00594367 0.536157 -0.0274334 -0.382536 0.389617 -0.377306 0.693413 -0.727905 0.509191 0.85181 -0.957883 -0.86941 0.092686 -0.055069 0.726017 0.151827 -0.469028 0.37919 0.147502 0.642595 -0.851799 -0.754392 -0.935413 -0.0433523 -0.792843 -0.25197 -0.748351 -0.320091 -0.350962 -0.280806 -0.841808 -0.472297 -0.0961444 -0.731984 -0.920357 0.748401 0.320735 0.745561 0.854442 -0.186121 0.219947 0.0358703 -0.889843 0.300171 0.430241 -0.668152 -0.168564 0.589479 -0.293209 0.450256 0.857132 0.186115 0.848752 0.907235 -0.89528 -0.0374817 -0.363243 0.0590168 -0.475057 0.340113 0.378065 -0.650521 -0.201989 -0.0327692 0.387868 0.210657 0.624668 0.497704 -0.541863 -0.129291 0.216827 -0.40931 -0.628217 -0.164609 -0.0801672 0.779203 0.8066 0.810032 0.471745 -0.400961 0.0124724 0.567809 0.587712 0.544511 -0.740434 0.934447 0.734127 -0.322692 0.150538 -0.691423 0.217837 -0.0594303 -0.60836 -0.574447 -0.23582 -0.930425 0.49383 -0.0977621 0.824581 -0.707833 0.046794 0.245665 0.979112 -0.18913 -0.531495 -0.474658 0.864253 -0.0915474 -0.862899 0.293229 -0.0646576 -0.402907 -0.700916 -0.962782 0.779399 -0.550746 -0.515283 -0.901299 0.480192 -0.900949 0.549542 -0.63175 0.299495 -0.729382 -0.0996604 0.457008 0.649168 0.639532
-0.160384 -0.211216 0.887962 -0.493986 0.869684 0.68701 -0.635805 0.060096 -0.980125 -0.779843 -0.8575 0.610661 0.0799772 0.761805 -0.0894319 -0.39131 0.920604 -0.977633 -0.499591 0.222233 0.230506 0.0951855 0.468333 -0.758451 -0.345148 -0.497456 0.232672 0.500089 -0.6995 -0.85013 0.858635 -0.629037 0.621226 0.368022 0.942738 0.303226 0.272515 0.741066 0.421676 -0.890562 -0.0103931 -0.201108 -0.353492 -0.902363 -0.613912 0.159154 -0.950671 -0.741157 -0.749808 -0.412623 -0.712957 -0.367364 -0.69001 -0.915389 -0.494496 -0.424254 0.290148 -0.288951 -0.334768 0.958461 0.112216 0.951202 -0.482733 0.0810869 -0.108809 -0.588988 0.876495 0.675904 -0.191021 -0.640034 0.541788 -0.809988 -0.330562 -0.907127 -0.691438 0.749054 0.53032 0.820241 0.839714 -0.900329 0.468198 0.161145 0.738737 0.772381 0.869549 1.0012 -0.937164 -0.640943 -0.173007 -0.840308 0.0573171 0.839844 0.340063 -0.214424 -0.0899608 -0.0205508 0.442755 0.754846 -0.937383 0.460844 -0.6007 -0.770628 0.792921 -0.438664 -0.91803 0.54917 0.730762 0.869678 0.638739 -0.630889 -0.136819 0.951722 0.790817 0.179573 -0.540746 0.0518262 -0.130882 0.299047 -0.359406 -0.851232 -0.3126 0.470577 0.816436 -0.450091 -0.676852 0.102857 -0.900614 0.261757 -0.0629274 -0.270033 0.910197 -0.504799 -0.600119 0.934967 0.359913 -0.00956343 0.580146 0.603256 0.519924 0.514728
-0.0899879 -0.293988 -0.300844 -0.659938 -0.0999587 -0.779879 0.5401 -0.248694 0.169985 0.826052 0.561371 -0.290007 0.690111 -0.0998906 0.623866 0.420011 -0.120004 0.63028 -0.469664 0.0196259 0.059467 -0.00984136 0.122157 -0.407889 -0.690247 0.0907373 0.780133 -0.34 -0.652049 -0.568802 -0.861328 0.639985 -0.579993 -0.431845 -0.973509 0.100735 -0.520223 0.596063 -0.824324 0.658193 -0.85011 -0.690685 -0.76684 -0.661717 0.449832 0.532264 -0.649376 -0.79487 0.930219 0.0118667 -0.620153 -0.129467 -0.790021 0.257222 -0.660116 0.0118749 0.419961 0.43115 -0.485453 0.120042 -0.26002 0.767775 0.930041 -0.810525 -0.338145 -0.571351 0.23994 -0.139948 -0.280013 0.109189 -0.809557 0.73002 -0.722444 0.746308 -0.769853 -0.33014 -0.929613 -0.304236 0.273764 0.840976 -0.800015 -0.722904 0.039586 -0.521337 0.859917 0.179799 -0.993029 -0.688281 -0.382872 0.999915 -0.539197 0.0503111 -0.840258 -0.519882 -0.970954 0.129211 0.869758 -0.590572 0.380974 0.851307 -0.100059 0.339915 0.231806 -0.110513 0.521789 0.0300203 0.690698 0.38036 -0.299662 0.190152 0.569856 -0.0351002 -0.590434 -0.257569 -0.150521 0.230597 0.890327 0.039916 -0.649902 -0.530014 0.650147 0.670006 -0.369428 -0.950178 -0.708517 -0.731907 -0.460358 0.90131 -0.91863 0.880067 0.460497 0.667941 -0.738175 0.0700254 -0.970007 0.042322 0.0701902 0.549986 -0.709185 -0.910144
0.890121 0.369007 -0.0657673 -0.529949 -1.00676 -0.719731 0.479985 -0.418519 0.359985 -0.883409 0.461317 -0.900001 -0.989813 0.529578 0.925616 0.170005 0.960038 -0.190049 -0.969602 -0.420443 -0.0728188 0.800129 -0.257545 0.432258 -0.0302726 -0.508705 0.521206 -0.420007 -0.96227 0.260686 0.330508 0.790666 -0.379992 0.608569 0.395734 -0.795655 0.773573 0.354638 0.127416 0.737784 0.0795491 0.209646 0.392678 0.899261 0.0295448 0.402838 -0.593645 -0.414615 0.565723 -0.127436 -0.263523 -0.541165 -0.639024 -0.794071 0.560464 0.0302015 -0.391017 -0.219415 0.795419 -0.570015 0.159911 0.538467 0.479745 0.0693835 0.0109119 -0.804763 -0.390314 0.851288 -0.979958 -0.501176 0.780277 0.339108 0.732437 0.854735 0.0197223 -0.140848 -0.739432 -0.994031 -0.883224 -0.679854 0.109861 -0.681405 0.78989 0.769028 0.127071 0.399871 -0.972579 0.0716563 -0.282744 -0.591817 0.701429 0.688123 -0.820308 0.700034 -0.601381 -0.880831 -0.269834 0.621289 0.280903 0.980622 0.332369 -0.980041 -0.17024 -0.68076 0.570564 -0.4199 0.290685 -0.971125 0.310642 -0.325547 0.429717 0.054321 -0.479176 -0.482873 -0.780793 0.000692087 0.210054 -0.0501246 -0.159829 -0.480282 0.860072 -0.720525 -0.748701 0.747674 -0.733694 0.0791564 0.620247 0.080208 0.509086 0.800052 -0.0244169 0.717519 0.87293 -0.358852 0.299993 0.0626741 -0.441377 0.120159 -0.0941815 0.169678
-0.899962 -0.0317043 0.706258 0.472397 -0.423785 0.850161 -0.489616 0.720407 -0.59933 -0.693852 0.321395 0.319512 0.660228 0.960251 -0.920291 -0.568197 0.709987 0.000296139 -1.00057 -0.673135 -0.160499 0.919765 -0.968276 -0.557827 0.930128 -0.337345 0.539469 0.970384 -0.289805 0.842922 0.280871 0.520361 -0.519965 -0.555681 0.866461 0.993863 0.206053 -0.685144 0.0648658 -0.831559 0.208523 -0.779989 -0.866928 0.430195 0.277557 0.142912 0.432762 -0.944212 0.541134 0.803323 0.877871 0.784916 -0.0791592 -0.885644 -0.579799 -0.328027 -0.910547 0.140988 0.382536 0.0508335 -0.360104 -0.600084 -0.640077 0.739456 0.760632 -0.907757 -0.620572 0.650354 -0.140546 -0.751207 -0.850501 -0.432109 0.944695 0.0886216 0.00100231 0.439602 0.280507 -0.0445719 0.41467 -0.94959 0.870001 -0.993056 0.470962 0.290052 -0.431733 -0.409498 -0.363031 -0.868197 -0.962186 0.528729 -0.709461 0.934213 -0.431519 -0.369975 -0.480525 -0.310875 -0.48948 -0.249084 -0.060073 -0.599499 -0.207483 -0.110279 0.288033 -0.0112548 0.0798864 -0.919111 0.449059 0.804838 0.18147 0.481922 -0.240269 -0.842776 -0.690344 0.385519 -0.241376 -0.88931 -0.129972 -0.000116402 0.110348 0.260409 0.599988 -0.550808 0.901344 0.46867 0.819184 -0.700466 0.779982 -0.149879 -0.691536 0.659091 0.268274 -0.192446 0.243356 -0.911301 -0.979338 -0.54959 0.31993 -0.0799486 -0.636971 0.749591
-0.19 -0.379777 0.46 0.88 0.830005 -0.439977 -0.790001 0.420059 -0.250001 -0.069748 0.190085 0.919989 0.210043 0.150123 0.390184 0.820002 0.409983 0.640012 -0.259982 0.279982 0.930021 0.579936 -0.670003 -0.139844 -0.239955 -0.999968 0.0200396 0.09 0.669912 0.379999 -0.550028 -0.419993 -0.89 0.129905 -0.840098 -0.929898 -0.730007 0.0197641 0.750216 0.169924 0.489995 -0.17 -0.28987 -0.229989 0.819945 -0.43033 -0.699981 -0.610221 -1 -0.469952 -0.610002 0.980061 0.349997 0.900172 -0.690003 -0.720748 -0.8 0.370053 -0.0799171 0.640003 0.239929 0.789974 0.370013 0.419989 0.510054 -0.820017 0.93 -0.120003 -0.180137 -0.600036 -1.31676e-06 -0.779989 0.989857 -0.95024 -0.329869 0.689993 0.930016 0.38024 0.940156 0.27 -0.879978 0.910353 -0.229992 0.240018 -0.51998 -0.199962 -0.270125 0.600064 -0.670153 -0.299982 -0.820007 -0.700017 0.0999993 -0.240004 0.519911 0.959966 -0.879977 -0.900008 -0.849989 -0.0700207 -0.95 -0.669978 -0.879997 0.639979 -0.890006 -0.600001 0.599954 0.619998 -0.419904 0.239998 -0.95 -0.480218 -0.739998 0.210118 0.559964 0.190032 0.800005 0.0999395 -0.529998 0.690004 0.0399939 0.750001 -0.51995 0.829967 -0.510329 -0.720007 -0.259994 -0.279999 -0.749934 0.0900598 0.660031 -0.0101306 0.24011 -0.729957 -0.51 0.610007 -0.869996 0.600001 -0.080003 -0.420073
0.06 -0.69 0.89 0.72 -0.690003 0.0699984 0.61 0.6 -0.22 -0.660004 -0.94 -0.79 0.359999 -0.0300002 -0.82 0.56 -0.419999 -0.449997 -0.61 0.679997 0.46 -0.37 -0.7 0.489999 0.460001 -0.58 0.999996 0.87 -0.62 0.53 -0.12 0.77 -0.54 -0.720001 -0.710002 -0.309994 -0.73 -0.54 -0.42 0.820001 0.78 -0.34 0.6 0.76 0.820002 -0.829999 -0.43 0.68 0.359995 0.450001 0.270002 -0.850002 -0.360004 0.399998 0.27 -0.629999 -0.53 0.22 -0.759999 0.629999 0.08 -0.44 0.210001 -0.310006 -0.3 -0.82 0.37 -0.42 -0.0499995 -0.78 -0.76 -0.6 0.17 -0.809999 0.629999 -0.630004 0.22999 0.5 -0.93 -0.0699997 0.0999964 -0.459998 0.999993 0.4 -0.94 -0.64 0.04 -0.38 0.559998 0.0200001 0.690001 0.530002 0.430003 0.36 0.699998 0.449998 -0.42 -0.69 -0.69 0.629995 0.06 -0.200001 0.729991 0.530001 0.0100001 -0.01 0.72 0.93 -0.22 0.24 -0.26 -0.5 -0.4 0.180001 0.769999 -0.86 -0.34 0.35 0.59 0.07 0.0399972 -0.980002 0.53 0.260004 -0.339992 -0.86 0.09 0.680001 -0.970003 0.730001 -0.35 -0.16 0.8 -0.579998 0.660001 0.750005 -0.18 -0.57 -0.58 -0.14
-0.29 0.35 0.36 0.67 0.129998 -0.460001 -0.76 -0.36 -0.99 -0.400002 0.95 0.83 -0.990001 0.68 -0.78 -0.94 -0.789999 0.210002 -0.27 -0.870002 0.05 0.4 -0.5 -0.12 -0.56 -0.74 -0.930002 -0.17 -0.00999989 -0.33 0.84 0.52 0.04 0.689999 0.499999 0.770003 -0.78 -0.09 -0.41 -0.72 0.98 -2.75668e-10 -0.71 -0.13 0.480001 0.360001 0.6 -0.79 -0.400002 0.44 -0.609999 0.0499988 0.779998 -0.750001 0.64 0.0500003 0.91 -0.94 0.430001 -0.250001 -0.96 -0.38 -0.00999935 0.769997 0.6 0.88 -0.9 0.97 -0.15 0.95 -0.74 0.8 -0.75 0.97 0.63 0.159998 -0.580005 0.23 -0.17 -0.77 0.889998 -0.699999 0.559997 -0.73 0.14 -0.54 -0.64 -0.15 -0.340001 -0.92 -0.0899994 0.110001 -0.149999 0.14 -0.940001 -0.290001 0.52 0.3 0.0400002 -0.950002 -0.4 -0.910001 0.199996 -0.599999 -0.37 -0.97 0.0499999 -0.77 0.44 -0.1 -0.25 -0.28 -0.43 -0.74 -0.44 0.44 0.92 -0.47 0.59 0.55 -0.110001 0.879999 0.96 0.510002 -0.979996 -0.33 -0.11 -0.2 -0.100001 -0.7 -0.2 0.28 -0.6 -0.349999 0.720001 -0.179997 -0.46 -0.92 -0.26 -0.32
-0.11 -0.32 -0.49 0.63 0.78 0.32 0.88 0.54 0.23 0.62 0.31 -0.56 0.87 0.8 -0.84 0.37 -0.71 0.5 -0.31 0.75 -0.26 -0.5 -0.59 -0.95 0.26 0.21 1 0.81 -0.91 -0.03 -0.2 -0.77 0.89 -0.35 0.96 -0.24 0.84 -0.09 0.6 -0.9 -0.77 0.89 0.24 -0.87 -0.85 -0.56 -0.94 -0.87 0.59 -0.21 0.34 0.44 -0.02 0.31 -0.53 0.64 0.85 -0.34 -0.99 -0.49 0.52 -0.93 -0.1 -0.53 -0.14 -0.59 -0.9 -0.81 -0.83 -0.96 -0.86 0.62 0.65 0.42 0.79 0.12 -0.35 0.46 0.56 -0.56 -0.11 -0.15 0.92 -0.06 0.88 0.11 -0.94 0.79 0.86 0.96 -0.84 0.21 0.74 0.81 -0.26 0.1 -0.19 -0.72 -0.88 -0.63 0.11 0.63 0.75 -0.41 0.52 0.51 -0.35 0.23 -0.13 -0.26 0.88 -0.91 0.77 0.97 0.85 -0.32 -0.23 -0.85 0.87 -0.75 -0.28 0.17 -0.94 0.29 -0.13 0.72 0.56 -0.63 0.83 -0.93 -0.72 0 -0.86 -0.21 -0.56 -0.24 -0.31 0.56 0.12 0.53
-0.18 0.23 -0.92 0.04 -0.02 -0.97 -0.24 0.87 0.77 -0.05 -0.9 0.64 0.64 0.08 0.82 -0.75 -0.06 -0.03 -0.88 -0.9 0.12 0.31 -0.4 0.71 0.09 0.31 0.4 -0.83 0.92 -0.67 -0.19 -0.46 0.75 0.23 -1 0.86 -0.5 -0.01 1 0.01 -0.79 0.29 0.8 0.93 0.4 0.9 0.62 0.34 0.46 0.33 0.55 -0.31 0.85 0.85 0.75 0.32 -0.1 0.31 -0.51 -0.28 -0.68 -0.15 -0.84 0.57 -0.63 -0.56 1 0.11 0.07 0.38 0.46 0.96 -0.62 0.45 -0.16 -0.34 0.61 0.93 -0.87 -0.82 -0.39 0.73 -0.69 -0.71 -0.01 0.38 0.34 -0.69 0.66 -0.06 0.38 0.35 -0.02 -0.3 -0.8 0.58 0.43 -0.74 0.25 1 0.02 0.28 -0.67 -0.22 0.51 0.63 -0.15 -0.53 -0.38 -0.08 -0.41 -0.62 0 0.23 0.55 -0.83 -0.86 0.89 -0.96 -0.61 -0.49 0.74 0.86 -0.68 -0.88 0.42 0.51 0 -0.74 0.1 0.56 0.53 0.3 -0.61 -0.33 0.8 -1 -0.58 -0.82 0.56
-0.55 0.98 0.34 -0.35 -0.17 -0.46 0.75 0.84 0.13 -0.56 -0.17 -0.31 0.43 -0.26 -0.99 -0.85 0.1 -0.25 -0.21 0.4 0.18 -0.63 -0.54 -0.86 -0.25 0.46 -0.87 -0.59 0.47 -0.03 -0.05 0.91 0.02 0.72 0.24 -0.12 -0.67 0.69 -0.91 -0.38 0.73 -0.51 0.53 -0.46 -0.6 0.4 0.66 -0.25 0.55 -0.81 0.74 0.2 0.01 -0.77 -0.75 0.78 -0.71 0.24 -0.51 -0.89 0.34 0.62 0.41 0.74 -0.4 -0.53 -0.48 0.16 -0.26 -0.51 0.65 0.95 -0.44 0.62 0.03 0.1 0.79 0.4 -0.47 0.28 0.45 -0.39 -0.63 0.67 0.45 0.8 -0.59 -0.21 0.09 0.02 0.11 -0.86 0.03 -0.83 0.55 -0.73 -0.29 -0.82 0.34 -0.64 -0.87 -0.03 -0.99 -0.38 0.48 0.23 0.79 0.7 -0.54 0.22 -0.93 -0.04 -0.03 -0.41 0.34 -0.26 0.55 0.61 -0.42 -0.05 -0.85 -0.46 -0.39 0.53 0.19 0.63 0.08 -0.09 0.44 0.95 0.54 0.36 0.99 -0.16 0.14 0.6 0.09 0.42 -0.65 0.91
-0.04 0.05 -0.82 0.84 -0.92 0.8 0.8 0.76 -0.41 -0.55 0.75 -0.16 0.21 -0.77 -0.22 0.54 0.25 -0.31 -0.98 0.58 -0.16 0.76 0.8 0.54 -0.44 0.64 0 -0.73 0.3 -0.3 -0.59 0.81 0.68 -0.9 0.44 0.76 0.55 -0.27 -0.29 0.34 0.07 0.54 0.23 -0.24 -0.93 -0.59 0.3 -0.82 0.09 0.06 0.18 0.25 -0.62 0.5 0.49 0.06 -0.15 0.51 -0.64 -0.79 -0.83 0.95 0.07 0.66 -0.33 0.8 -0.49 0.97 -0.69 0.85 -0.6 0.25 -0.04 -0.86 0.31 0.87 -0.73 0.61 -0.36 -0.35 0.97 0.18 0.79 -0.86 0.4 -0.55 0.38 -0.77 -0.9 -0.01 -0.52 0.6 0.22 0.55 0.36 -0.22 -0.6 -0.03 0.27 0.03 -0.01 0.83 0.44 0.32 -0.23 0.22 0.73 -0.8 -0.28 -0.56 -0.17 0.35 -0.87 -0.29 -0.51 -0.79 0.63 -0.13 0.23 -0.68 0.62 -0.04 -0.43 0.92 -0.27 -0.69 0.12 -0.51 0.42 0.87 -0.89 -1 -0.83 0.62 -0.39 0.29 -0.59 0.38 -0.02 -0.21
0.329999 -0.589997 0.850003 0.820054 -0.399999 0.630003 -0.189995 0.950002 0.1 0.7 0.39001 0.830017 0.469977 -0.920002 0.120083 0.899994 -0.789999 0.56 -0.580006 0.580011 0.850004 0.509989 0.369999 0.939995 -0.619991 -0.799995 -0.169997 0.680001 0.619998 0.649969 0.360023 0.150013 0.109995 0.880011 -0.029989 0.740008 0.469994 -0.269972 0.240008 -0.930006 -0.140008 0.740002 -0.129996 -0.430001 0.700003 0.0699947 0.319987 0.100007 0.489982 -0.690007 -0.890059 0.250001 0.0099972 0.55001 -0.910028 -0.580003 0.72 -0.120004 -0.999999 0.449986 -0.0300121 0.56005 0.629998 -0.45 1 0.719997 -0.040038 -0.589988 -0.460012 0.770004 0.370024 0.410002 -0.820006 -0.22002 -0.549972 0.71004 0.769996 -0.960005 -0.550003 0.299991 -0.389986 -0.969996 0.289998 0.360002 0.299999 -0.380007 0.670002 0.760003 -0.96001 -0.279999 0.429998 0.699998 0.370027 -0.730003 -0.0200119 0.659998 -0.530003 0.0200012 3.22971e-05 -0.679993 0.690013 -0.220008 0.339999 -0.389989 0.730003 0.229997 -0.729994 -0.320006 -0.92 -0.670003 -0.740007 -0.870008 0.43002 -0.799988 0.109974 -0.449982 0.899954 0.709998 0.55 0.779992 0.0500007 0.950007 0.39 0.300019 0.789985 0.680013 -0.710001 0.749992 0.590004 0.8 2.90599e-06 -0.600008 -0.899995 -0.140018 0.26 0.809996 -0.359974 -0.620018 0.559999 0.0599919
-0.909957 -0.940077 0.881227 -0.299013 0.0501989 -0.800123 0.540336 -0.600292 -0.830045 -0.799511 -0.0302615 0.799819 -0.0220157 -0.270623 0.951153 0.849765 -0.800474 0.990331 0.450748 0.270331 -0.141183 0.279685 0.869876 0.960042 0.620464 0.969849 -0.0880405 0.869755 0.259752 0.629569 0.670917 0.910303 -0.0700091 -0.421121 -0.368718 -0.689965 0.279063 0.400528 -0.319956 0.69941 0.159837 -0.650398 -0.179843 -0.569759 0.72894 -0.220162 -0.880475 0.43007 0.920061 0.600577 0.518144 -0.138843 -0.360185 -0.428956 0.239408 0.719873 0.970404 0.410679 0.661785 -0.390625 -0.580041 -0.618899 -0.0692146 0.310194 0.900413 -0.479204 0.739204 0.329241 -0.750181 -0.39869 0.391504 0.20029 0.049849 0.811272 -0.859716 0.350815 -0.129799 0.36105 0.289914 -0.529866 0.970572 0.540288 0.63188 0.229955 0.758968 0.849681 -0.210064 0.350704 0.130173 -0.750118 0.869707 -0.380778 0.690602 0.399514 -0.509095 0.160191 -0.099895 -0.701162 -0.368901 -0.849748 0.410893 0.0796679 0.0598417 -0.0498048 -0.0313128 0.519522 -0.389894 0.0997255 0.470219 0.630044 -0.20024 0.409617 -0.959801 0.790022 0.219303 0.11065 0.650976 -0.970408 0.540076 -0.50895 -0.409465 -0.109733 0.879488 0.179889 0.590737 0.141178 -0.300045 0.499176 0.0700321 -0.509603 0.639942 0.0894794 -0.649584 0.339556 -0.169625 -0.020514 0.360599 0.959553 -0.689714 -0.570168
0.281991 -0.878886 0.567885 -0.00696257 -0.275551 0.901416 0.00611707 0.0126682 0.729818 -0.869548 -0.130929 -0.976551 0.897115 -0.419101 0.398568 -0.960507 -0.747943 0.162002 -0.0267857 -0.319384 0.376257 -0.202462 0.622642 0.69269 -0.423799 0.377316 -0.961331 -0.292112 -0.520929 -0.0617598 -0.542217 -0.585326 -0.330172 -0.069002 -0.226784 -0.432415 0.258197 0.48589 -0.945771 -0.842527 0.421861 0.824719 0.280236 0.00230497 -0.294459 -0.42117 0.706748 0.230251 -0.738088 -0.996199 0.0953758 0.515377 0.12203 -0.406897 0.936433 -0.704648 0.531737 0.9768 -0.170618 -0.838206 0.401578 0.149838 0.9827 -0.960116 0.716444 0.302225 -0.612343 -0.552593 0.0970637 0.164483 0.273755 -0.0379442 -0.867683 -0.737001 -0.813996 0.172882 -0.240015 -0.528865 -0.0662292 0.29053 0.669619 0.912392 0.723308 0.611052 0.775104 0.446355 0.929937 0.203365 0.816415 -0.281803 0.627299 0.896805 0.0331701 -1.00444 -0.0681983 1.0007 -0.85091 0.844493 -0.939169 -0.659977 0.654133 -0.382508 -0.571775 -0.87835 0.35531 -0.0368089 -0.477053 -0.661348 0.909068 -0.590643 0.54294 0.228237 -0.39816 0.702084 0.269751 -0.501203 0.599853 -0.122037 -0.929025 0.925913 -0.824407 -0.893396 -0.785303 0.425395 0.167568 -0.525309 0.439885 0.655898 -0.0573901 -0.564677 -0.531594 -0.775496 0.460205 0.917279 -0.143805 0.454391 -0.267632 -0.780331 0.191728 0.258423
-0.507463 0.00942602 -0.973358 0.864647 0.356403 0.703777 0.144389 -0.461628 -0.780691 0.65081 -0.157308 -0.765394 -0.83682 0.915698 -0.0182803 -0.16183 0.571381 1.00304 -0.91613 0.559821 -0.635539 0.920802 -0.355557 0.576922 -0.233572 -0.093281 0.423224 -0.835227 0.510647 -0.39571 -0.422057 0.455711 -0.15993 -0.975375 -0.081231 0.38982 0.38722 0.438964 0.215357 -0.0716053 0.802914 -0.0543558 -0.305571 0.852833 0.881983 -0.840834 0.643806 0.341631 0.0899686 0.0891442 -0.267078 0.627997 0.932721 0.580939 -0.573488 -0.80541 0.860359 -0.338288 -0.103421 -0.566762 -0.736967 0.23031 -0.537973 -0.849037 0.447818 -0.000374248 -0.396711 -0.391493 -0.20244 0.294057 0.056148 0.257021 -0.960711 -0.802436 0.294425 0.280243 0.153421 0.565753 0.674715 0.954974 0.127649 0.031228 0.139959 -0.850489 -0.939106 0.317886 0.975476 0.733739 0.67563 -0.310013 -0.979908 -0.342497 0.17556 -0.939067 -0.143824 -0.545937 0.578144 0.597333 0.609747 0.747707 0.778928 0.239357 -0.839507 -0.31961 -0.314086 -0.768249 0.686348 -0.442239 0.0932276 0.801737 -0.44979 -0.732807 0.835908 -0.144979 0.98073 0.587858 0.606463 -0.414914 -0.278404 0.267095 0.308748 -0.955956 -0.268443 0.367072 0.493716 0.914891 0.849653 -0.389756 -0.0745014 0.108785 0.644723 -0.6853 0.878748 0.73167 0.613062 -0.271772 0.644346 0.543346 -0.371749 -1.00606
0.927994 0.35505 0.490307 0.814368 0.0884847 -0.879767 0.203457 0.0477318 0.457951 -0.480039 0.664533 0.521965 -0.0769178 0.20785 -0.426875 0.0387992 -0.809497 0.516579 0.810036 0.165837 -0.251247 0.95816 0.949705 -0.634696 -0.05237 -0.689145 -0.602966 0.00906684 0.651571 -0.766278 -0.2398 0.115733 -0.127 0.0496838 0.696328 0.362476 -0.151196 -0.144419 -0.437122 0.543422 0.750763 -0.796139 0.0426728 0.019062 -0.10797 -0.338993 -0.387056 -0.963407 0.422275 -0.898456 -0.0784992 -0.987568 -0.678968 0.462194 0.853731 0.90526 -0.468701 0.117974 -0.74016 0.773801 0.88017 -0.287076 0.259323 -0.144942 0.465541 0.736906 -1.00723 -0.656408 -0.42235 0.705715 -0.0671936 0.0394681 0.282922 -0.241946 -0.858575 0.562108 -0.197874 -0.245317 0.937135 0.725126 -0.576012 -0.578439 -0.583817 0.51155 0.0188158 0.607626 -0.711896 -0.377176 0.183743 0.240705 -0.964073 0.119922 -0.430563 -0.648814 0.373109 0.993934 -0.226716 -0.721673 -0.0762848 -0.38335 0.64095 -0.0472288 -0.64902 -0.000207023 0.570044 0.792754 0.250483 -0.973649 -0.907443 0.966872 -0.313388 -0.611915 0.0667751 0.384952 0.296261 -0.429272 -0.661743 -0.0457968 0.91854 -0.175376 -0.390776 -0.0429208 0.580362 0.198773 0.684264 -0.329392 0.867335 0.0621366 -0.539698 -0.646853 0.566644 -0.237595 -0.513848 0.312728 -0.678206 0.507208 0.563796 -0.880362 -0.0903603 -0.789306
-0.841011 -0.847212 -0.490281 -0.515565 -0.738792 -0.449196 0.745122 -0.255729 0.24621 -0.892818 -0.212256 -0.875283 0.358849 0.206391 0.0224564 0.941554 0.840976 -0.0479157 0.452397 0.200563 -0.293293 0.938907 -0.834422 -0.443894 0.727965 -0.780516 -0.0744488 -0.00907799 0.798747 -0.80268 -0.921505 0.187181 -0.162029 0.881872 -0.893533 0.654345 -0.407323 0.360377 0.559057 0.883261 -0.312763 -0.823761 0.0191211 -0.610848 -0.342952 -0.276066 0.654801 -0.258477 -0.62099 0.336856 0.388584 -0.638777 0.663633 -0.510937 0.57632 -0.477324 0.403861 -0.141916 0.356133 0.982317 0.185896 0.18652 0.269792 0.0497483 -0.12639 0.00137344 -0.077471 0.231179 -0.711522 -0.0527047 0.00588462 -0.868154 -0.0933447 -0.112979 -0.935789 0.863247 0.921473 0.624689 -0.873739 0.960904 0.625768 0.0797619 -0.666695 -0.43647 0.191956 0.860633 -0.795023 -0.203007 0.677024 -0.271814 -0.0321466 -0.293494 -0.563083 0.43801 0.219788 0.57858 -0.812054 0.62401 0.380197 0.910283 -0.0743878 -0.952399 -0.787453 0.676807 0.112349 0.375923 0.567549 -0.113084 -0.0450572 0.489083 0.234565 -0.341043 -0.964155 -0.409057 0.261016 0.0955919 -0.0688555 -0.2358 0.101376 -0.241577 -0.414885 -0.261628 -0.0108562 -0.270667 -0.0718584 0.466146 0.210381 -0.906163 0.626683 0.544164 -0.851537 -0.17332 -0.852733 -0.954953 0.640705 0.680808 0.0616675 -0.641946 -0.98307 -0.963986
0.125453 -0.510909 -0.147676 -0.430591 0.249269 0.466699 0.3656 0.907802 0.276785 -0.73194 -0.551107 -0.464695 0.0157271 -0.957591 0.881313 0.568756 0.981877 0.362193 -0.901002 -0.603619 0.506403 -0.482269 0.331965 1.02101 -0.861129 -0.942355 -0.175544 -0.381675 0.136946 0.687561 -0.851096 0.305289 0.843366 0.175311 0.600833 -0.827372 0.422612 -0.177396 0.935431 0.236821 0.402934 -0.0455875 0.819547 -0.410323 0.915129 0.435944 -0.748712 0.10413 0.285185 -0.27474 0.587052 0.655966 -0.618192 0.512499 0.969207 -0.195567 -0.390273 0.762717 -0.713158 -0.0182932 -0.703517 0.552381 0.442279 0.597324 0.578238 -0.422541 -0.88067 -0.0810062 0.722737 -0.38984 0.69376 -0.707734 0.577794 0.115089 -0.988241 -0.471491 0.438827 -0.121866 0.387339 -0.25172 0.838184 0.898301 -0.0314132 0.849879 0.00875541 -0.527593 0.513361 0.922855 0.559572 -0.945154 0.265255 -1.01656 0.873725 -0.358308 0.115247 0.465184 -0.812831 -0.828407 0.536328 0.449553 -0.793711 0.653924 0.0685906 -0.476513 0.851588 0.808909 -0.476172 -0.762115 0.82163 -0.662036 -0.680595 -0.973611 -0.512424 0.89197 0.314171 0.288265 0.449803 -0.177569 0.0260067 -0.272449 -0.0234541 -0.780308 0.826033 -0.946012 0.155346 0.144843 0.975841 -0.721077 -0.898666 0.519321 -0.633263 0.622929 -0.761364 0.884906 0.815049 -0.0841011 -0.126091 0.67339 -0.942355 0.0174626
0.605514 -0.510408 -0.0510782 0.660615 -0.450721 -0.879592 0.166121 0.69401 0.987198 -0.493954 -0.805427 -0.469046 0.0633737 0.0130219 -0.658016 0.856288 -0.712281 0.920759 -0.0560398 -0.765331 0.635216 -0.313862 0.895208 -0.952323 -0.989974 0.9027 -0.823707 0.668644 0.0157554 -0.202189 -0.925815 -0.609956 -0.476642 -0.0420722 0.967369 0.472218 0.1758 0.0261703 0.319091 0.778638 0.648615 0.196174 0.192366 0.626531 0.528696 -0.0590416 0.452476 -0.936316 -0.86196 0.860783 -0.956848 -0.191565 0.968211 -0.542788 -0.28489 0.439993 -0.515761 0.399206 -0.834517 -0.408383 -0.832285 0.599905 -0.933874 -0.843873 0.402354 0.740611 0.747286 -0.0446074 0.61061 -0.844671 0.474499 -0.726081 0.963625 0.109882 0.809796 -0.290085 -0.286915 -0.130498 0.591401 0.67223 0.439502 1.01822 -0.972795 -0.619873 0.304383 0.918258 0.0964533 0.205281 -0.527716 -0.246537 0.753107 0.766892 -0.645542 0.759709 -0.348856 0.934344 0.55562 0.131865 -0.909934 0.840008 0.334864 0.293216 -0.0925104 0.86629 0.0603287 -0.827661 0.743512 -0.112759 -0.0130078 -0.565542 -0.185162 0.658229 -0.742806 0.859107 0.876411 0.845954 0.405146 0.928061 0.0807328 0.66668 0.104003 0.583716 -0.730658 0.0098786 -0.70112 0.515586 0.309713 0.659744 0.811584 0.450015 0.458564 0.252928 0.861126 0.194026 0.45937 0.137995 0.699274 -0.861764 0.414633 0.932644
-0.337666 -0.502361 0.237445 0.624164 -0.00118923 -0.948885 0.629486 0.116113 0.188415 0.440631 0.168894 0.78408 -0.397234 0.103738 -0.735744 -0.219892 0.935394 -0.264152 1.0134 0.784958 -0.400798 0.918813 0.164129 -0.371978 0.74711 -0.0545569 -0.975616 -0.836448 0.734344 -0.581707 0.57437 0.920676 -0.251612 -0.611083 -0.801751 -0.04547 0.129303 0.515247 0.269328 -1.02614 0.440994 -0.324773 0.0560169 -0.438046 0.279561 0.00718653 -0.377742 -0.530074 -0.21491 -0.837048 -0.415605 -0.235915 0.670249 -0.264795 0.553757 0.494068 -1.00448 -0.847414 0.449236 0.247109 -0.966984 -0.368419 -0.097207 0.128336 0.765056 0.37228 -0.845938 -0.865051 0.580446 -0.608559 -0.428347 -0.0787401 -0.337111 -1.00807 -0.65067 0.358564 0.491389 -0.164602 0.982081 -0.553391 0.607659 -0.658411 0.663314 0.00305509 -0.391742 -0.828091 0.0102485 0.66879 -0.801832 0.488439 0.42073 -0.194473 0.63331 -0.322011 0.103613 1.01346 0.426796 0.484865 0.57692 -0.649003 -0.900633 -0.0556393 0.166 -0.819811 -0.607399 -0.96297 0.649068 0.29374 0.0324314 0.645364 -0.60426 -0.57572 -0.875552 -0.700273 -0.91432 -0.964539 0.872765 0.341805 0.150545 -0.595775 -0.13496 0.972054 -0.344444 0.873944 0.266765 -0.419591 -0.391197 0.787051 0.314623 0.212763 0.262673 -0.861752 0.845566 -0.0385374 -0.600955 0.446651 -0.0639413 0.779973 -0.838301 -0.289429
-0.0438579 -0.152928 -0.987752 -0.494187 -0.801254 -0.338144 -0.036345 0.300793 -0.997111 0.325373 0.403106 -0.820461 0.801594 -0.0427454 -0.890911 0.546033 -0.620516 -0.805604 0.724068 -0.88521 0.263622 0.42005 -0.344355 -0.559524 -0.816637 -0.662766 0.482965 -0.472538 0.620854 -0.0282191 -0.927743 0.239507 -0.49262 0.0775751 0.701173 0.350456 -0.6301 -0.616147 -0.0397586 -0.21955 0.219998 0.853597 0.947151 -0.885577 0.200451 -0.461558 -0.831778 0.955572 -0.318755 0.0225137 -0.298261 0.851423 -0.888711 -0.382875 -0.909721 0.938793 0.482961 -0.95454 -0.975835 0.084184 -0.156916 0.546011 -0.00192911 0.520506 -0.421495 0.700226 -0.328761 0.769881 -0.345248 0.684747 -0.200814 0.0431884 -0.396399 0.446077 0.336546 -0.0493514 0.249711 -0.43271 -0.936857 0.518178 -0.643559 -0.102347 -0.37371 -0.368725 -0.165555 -0.934519 -0.220241 0.744284 0.38502 -0.313504 0.589563 0.145017 0.294643 -0.224848 0.0881326 -0.595573 -0.380129 0.927495 -0.208516 -0.874894 -0.438578 0.389578 -0.0285708 -0.968839 -0.748769 0.0789325 0.0130916 0.361561 0.523693 -0.863168 -0.55406 0.658139 0.120906 0.522482 0.215362 0.504786 0.224227 -0.182125 0.829792 -0.0418261 0.524263 0.426102 -0.781893 0.363661 0.299597 -0.252744 0.246455 -1.00838 0.0506384 -0.845638 -0.894047 0.324422 -0.827754 -0.768987 -0.762487 0.578726 0.0473082 0.929113 0.552304 -0.527537
0.516623 -0.721488 -0.668717 0.734946 -0.66578 0.83237 0.963224 0.29405 0.764832 -0.65082 -0.249063 -0.696436 -0.397116 -0.653736 -0.389535 -0.747635 -0.133049 0.825977 0.605862 -0.335679 -0.166935 0.113567 0.949457 0.798208 0.226463 -0.354492 0.956464 -0.119716 -0.325338 0.837469 -0.936305 -0.348259 -0.474259 -0.774006 -0.48768 0.354747 -0.0770583 0.331686 -0.0876854 -0.0311483 -0.919772 -0.0411919 0.99346 -0.0351773 -0.528761 0.410588 -0.737231 -0.623303 0.426549 0.953027 -0.862531 0.784537 -0.114059 0.186834 -0.443385 -0.98124 -1.00469 -0.221686 -0.314817 -0.582521 0.0874934 0.339591 -0.0186085 -0.341212 0.831982 0.118721 -0.00323439 -0.799784 -0.892973 0.559536 0.912348 0.835546 -0.538742 0.506146 -0.28153 0.477467 0.832054 -0.852348 0.895525 -0.371519 -0.905244 0.671398 -0.0301864 0.647758 0.978364 -0.988991 -0.480364 -0.5573 -0.171484 -0.122339 0.889726 0.529678 -0.686478 -0.553558 0.281535 0.70101 -0.384128 0.568947 0.410556 0.18928 0.6697 0.827899 -0.637083 0.901307 0.508812 -0.821662 -0.207358 -0.372654 0.244459 0.791941 0.621629 -0.985497 -0.234928 0.86777 -0.863058 0.310377 -0.888861 0.436459 0.596233 -0.0607867 0.340124 -0.343996 0.152101 -0.873528 -0.96488 0.111924 0.882451 -0.527049 -0.734169 0.456389 -0.513121 0.129402 0.432799 -0.861238 -0.718544 0.968369 -0.719281 0.039907 0.352998 -0.0984427
-0.239353 0.931245 -0.722749 -0.488675 -0.905907 -0.179423 -0.192791 -0.534845 -0.92685 -0.14267 -0.724695 0.825936 -0.971806 0.713154 -1.01589 0.63745 0.849272 0.984813 -0.901663 0.34242 -0.875628 0.269088 0.357728 1.01885 -0.904742 0.826831 -0.770828 0.757331 0.391842 -1.00052 0.288829 -0.372392 0.230045 -0.2492 -0.23786 -0.142298 0.256513 -0.960882 0.748039 -0.778835 0.797183 -0.198647 0.231432 1.00706 0.54582 0.505831 -0.395585 -0.531636 -0.417313 0.833156 -0.118762 0.399555 -1.00246 0.208718 -0.646864 -0.433067 -0.288892 0.595209 -0.135492 0.807618 0.101897 -0.971045 -1.01701 -0.593268 -0.379442 0.67623 -0.0264475 0.0113654 0.549146 -0.0634008 -0.238172 -0.411858 0.91978 -0.953759 -0.554205 0.90605 -0.0383078 0.326698 0.549828 0.69091 0.826127 0.359535 -0.887849 0.395463 0.432564 0.894539 1.01243 0.0351715 -0.838248 0.791928 -0.538607 0.611298 0.225957 -0.273465 0.100081 0.429765 0.583268 0.00812388 -0.604148 -0.808005 -0.0564131 0.792767 0.805134 -0.96118 -0.459166 0.327449 -0.71725 -0.49126 -0.667821 0.542206 0.651318 -0.36726 0.461228 0.270204 -0.663482 -0.878756 0.381952 0.910903 -0.97174 0.899257 0.380599 0.32513 0.159583 0.297842 0.413899 0.53551 0.785586 -0.325692 -0.698596 -0.153762 -0.697195 -0.169113 -0.61517 -0.546325 -0.467532 -0.601626 0.757857 0.471906 0.385785 -0.684208
-0.185249 0.393544 -0.0870128 -0.617204 -0.670908 -0.598592 -0.213559 0.829861 -0.532706 0.221248 0.0139479 -0.0770542 -0.963901 0.515252 -0.0306248 -0.459334 0.211847 -0.886796 0.174454 0.099958 -0.282279 0.449602 0.893724 -0.586747 0.88851 -0.76362 0.495026 0.042259 -0.0924655 0.52549 -0.93653 0.607304 -0.898671 -0.88863 -0.594968 -0.706344 -0.124422 -0.340713 -0.913549 0.795233 -0.422706 -0.990351 -0.274708 0.988568 -0.588722 0.110322 0.278945 -0.794891 -0.667616 0.982008 -0.499881 -0.448864 -0.544228 -0.463908 -0.170701 0.843433 -0.711228 -0.0777378 0.719831 0.930618 0.552286 -1.01403 0.752736 -0.143565 0.576704 0.736432 0.830557 0.457033 0.496848 0.186042 -0.7564 0.413151 -0.624153 -0.224147 -0.272529 -0.367632 -0.333764 -0.283028 -0.874547 0.829339 -0.442489 0.990772 0.357629 0.303827 -0.611639 -0.921204 -0.806067 0.731916 0.846893 -0.359952 0.806781 -0.980328 0.571523 0.843811 0.990383 -0.954196 -0.244369 0.540593 0.623346 -0.184479 0.489613 -0.538859 -0.573758 0.262959 -0.690102 -0.401231 -0.163449 0.88363 0.21697 0.089643 -0.906423 -0.481597 0.741935 0.195442 -0.8686 0.532811 -0.299177 0.410159 0.146407 -0.388261 -0.961779 0.502872 0.601471 -0.0387509 -0.733908 -0.950695 0.281297 0.00219408 -0.783215 0.728019 -0.846565 0.242892 0.571108 0.301287 0.505967 -0.55128 0.529458 -0.182541 -0.714108 -0.351108
-0.292357 -0.789628 0.337539 0.86568 -0.801356 0.393139 -0.525268 -0.706408 0.789604 -0.887026 0.343323 -0.232489 0.409249 0.616923 -0.69115 -0.777442 -0.940458 0.681478 0.352979 0.770115 -0.585811 0.224617 -0.510101 0.0236265 -0.157346 0.50784 -0.945149 -0.427471 -0.0168528 -0.791912 -0.49899 -1.01139 0.0569947 -0.812382 -0.318086 -0.700542 -0.736507 -0.458042 -0.858575 -0.898831 0.934075 0.533457 0.623421 0.0990234 -0.418938 0.212055 0.0805853 0.207755 0.465037 0.0485795 0.214507 0.777188 -0.881218 0.242952 -0.0447475 0.178068 0.685326 -0.627442 -0.57411 -0.236724 0.105881 0.0455222 0.460046 0.638137 -0.104755 -0.873162 0.116841 0.227217 0.170631 0.435612 -0.856788 0.742392 0.82808 0.723026 -0.34881 1.01098 0.12846 -0.186192 -0.543934 0.54747 -0.369291 -0.813337 -0.442382 0.981574 -0.617434 0.64646 -0.494818 0.329926 0.340788 -0.694295 -0.527682 0.773184 -0.405815 -0.823735 0.211064 -0.464414 -0.528361 -0.11995 0.661726 0.193048 -0.112359 -0.13778 -0.185264 0.180843 0.824353 -0.933381 -0.317386 -0.112834 -1.01077 -0.735345 -0.207144 -0.940197 -0.692211 0.214497 -0.399283 0.288839 -0.455269 0.512567 -0.954319 -0.356328 -0.554577 -0.312983 -0.340476 -0.660267 -0.520316 -0.889829 0.0995587 0.289538 0.299696 0.469167 0.34595 -0.816246 -0.904933 -0.214343 0.0972731 0.117641 -0.358116 -0.35756 -0.762166 -0.50679
-0.407398 -0.839211 -0.752459 -0.0707023 -0.410494 0.953548 -0.00861112 0.636364 0.721702 -0.698336 0.904274 -0.633089 -0.303054 -0.806853 -1.03318 0.569027 -0.901688 -0.0979571 -0.683113 -0.960948 0.647371 0.938338 -0.502924 -0.0212302 -0.0668223 -0.597198 0.996678 -0.873875 0.716131 -0.155385 0.199266 0.531968 -0.422265 -0.310713 -0.881288 -0.868088 -0.251595 0.662514 -0.211193 0.0400068 0.466742 0.529995 -0.979468 0.475101 0.0904086 -0.691926 -0.0708928 -0.731786 -0.531447 0.885858 -0.584356 0.966576 0.209725 -0.103196 -0.532666 0.120363 0.609495 -0.226341 0.315519 0.0370608 -0.523904 -0.421597 0.15811 0.290852 0.707874 -0.85528 0.34837 -0.693468 0.701297 -0.206361 -0.331181 0.189803 0.0831883 -0.728051 -0.172683 0.0567429 0.96134 0.719156 0.590983 -0.563578 -1.02925 -0.423282 0.138907 -1.00073 0.90917 -0.9258 -0.590297 0.579993 -0.282276 0.801328 0.327161 0.898043 -0.470883 -0.20843 0.748267 -0.811365 -0.360261 0.723885 0.704555 -0.234662 0.384101 0.24042 -0.837372 0.433908 -0.802945 0.143488 -0.224251 -0.708485 0.415273 -0.244815 -0.786179 0.159906 0.75038 0.609588 -0.778706 -0.165168 0.316742 0.661978 1.00781 -0.209996 -0.860298 -0.290346 -0.701619 -0.319194 0.577282 0.549254 0.963211 0.21579 0.103717 -0.128384 -0.88499 0.578465 -0.20165 -0.43385 0.0491351 -0.650713 0.213476 -0.0521823 -0.971713 -0.506391
0.746618 -0.982521 -0.145425 -0.832533 0.481517 0.363243 -0.845981 0.0768159 0.874382 -0.56075 -0.526078 -0.610826 0.51358 0.324316 -0.250591 0.53687 -0.173022 0.870213 -0.890474 -0.629857 0.479685 0.70093 0.0822135 -0.798325 -0.895888 -0.0895212 0.603695 -0.78286 -0.953467 0.0761062 -0.485525 0.368091 0.289075 0.234643 0.938138 -0.816482 -0.86827 0.5093 -0.795998 0.895179 0.984888 -0.865463 -0.659832 0.784692 -0.430586 -0.0242829 0.653352 -0.0817786 -0.640085 0.270854 0.139298 -0.578716 -0.776221 0.985451 0.039927 0.414867 0.382259 0.931323 -0.396939 -0.328455 0.479514 0.175273 -0.812677 0.868998 -0.970767 -0.689489 0.370281 0.444974 0.322776 0.11449 -0.0833692 -0.434505 0.284893 0.299587 -0.376239 0.545666 0.48805 -0.292732 0.673155 0.62448 0.616374 -0.58452 -0.328443 0.847851 -0.431215 -0.025079 0.593987 -0.295716 -0.293274 -0.26975 -0.746686 0.815864 -0.092807 0.54122 -0.193597 0.134254 -0.0823825 -0.408458 0.557215 0.0303704 0.169457 -0.0971803 -0.474803 -0.69804 -0.340872 0.68069 0.917111 0.908842 0.694728 0.160718 0.383697 -0.399381 0.612936 0.458027 -0.653194 0.0880457 -0.385588 -0.550872 -0.68662 0.233112 -0.711316 0.00432452 0.20238 -0.847079 -0.685863 0.0416986 -0.92953 -1.02043 -0.754182 0.916142 -1.00408 -0.292078 -0.302421 0.139693 0.440797 0.873142 0.651401 0.126742 0.947286 0.112393
0.470795 0.482245 0.246153 0.967735 -0.612518 -0.958103 -0.308755 -0.703546 -0.929345 -0.0634899 -0.485759 -0.912634 -0.747779 0.780601 -0.0556075 -0.00398305 0.148518 0.815491 -0.959965 -0.295919 -0.110223 -0.812725 -0.19066 -0.62513 0.549596 -0.595968 0.786567 -0.858008 -0.334704 0.620465 -0.485762 0.778251 0.447194 0.475868 0.0129521 0.295126 0.955427 0.00644009 0.70484 0.947374 -0.214925 0.7763 0.448088 0.636659 -0.243281 0.421405 -0.716917 0.327796 -0.577589 -0.372241 0.154161 0.515032 -0.913673 0.230011 0.378646 0.0460575 0.397022 -0.440754 -0.434117 -0.470032 -0.590933 0.46048 0.563649 -0.823919 1.00498 0.53408 -0.144049 0.371468 -0.257513 0.016271 0.883833 0.960709 0.116589 0.900077 -0.428745 0.819752 -0.434476 -0.0582591 -0.54042 -0.00976858 0.288564 -0.731973 0.370438 -0.600228 -0.880085 -0.6892 0.261703 -0.24583 -0.723125 0.555305 -0.504834 0.728748 -0.513206 0.927608 -0.818674 0.968229 -0.505916 -0.578732 0.800954 0.883214 0.313224 0.74313 0.120151 0.911694 -0.330836 0.910586 -0.787609 0.890875 -0.384047 -0.773405 0.666402 -0.0105472 -0.0470578 -0.459462 -0.855294 0.234408 0.624368 0.374093 -0.247081 -0.685362 -0.462699 0.0734998 -0.916194 -0.526865 0.188117 0.34953 -0.0347641 0.102627 0.0224701 0.685372 -0.278885 -0.320053 -0.793516 0.945619 0.721717 -0.097003 -0.0299627 -0.495634 0.00917409 -0.0974607
-0.623636 0.774158 -0.785047 -0.169237 0.864575 0.244087 -0.891033 -0.75776 -0.0928434 0.556714 -0.816388 0.469181 -0.736545 0.528938 -0.909797 0.941324 -0.700711 -0.112515 -0.390057 0.816346 -0.46417 -0.436335 -0.0200845 0.195283 0.245917 0.785819 -0.401608 0.890396 0.452537 0.34961 0.860776 -0.365814 0.381473 -0.240183 0.285156 0.538994 -0.653733 -0.376202 -0.0159366 -0.193441 0.797711 0.285462 -0.283304 0.392893 -0.313186 0.432164 -0.289154 -0.739985 -0.61746 -0.397555 -0.573278 -0.982084 0.501003 0.918698 -0.911124 0.357281 -0.982091 -0.353768 0.57395 -0.991225 0.995064 -0.0868322 0.505016 0.683651 -0.103507 -0.165896 0.141007 -0.151776 0.121225 -0.970688 0.0747542 0.534379 -0.483388 0.929198 -0.577809 0.401904 -0.29488 -0.70851 0.951546 -0.0210611 0.0571619 0.456245 -0.738579 0.800569 0.602139 0.720991 0.823059 0.829569 -0.229272 0.949256 -0.976104 0.00161153 0.543604 0.892655 -0.161304 0.7115 0.986744 0.367974 0.880793 0.646788 0.486401 0.339967 -0.702529 -0.0827698 0.0716232 -0.812983 -0.317753 0.0447327 0.00360364 0.643058 -0.863012 0.191112 0.192989 0.240724 0.671697 -0.359893 0.299941 -0.621144 0.320149 0.355242 0.609427 0.621473 0.249057 0.354755 0.340251 0.223394 -0.96017 0.989872 0.672924 0.596161 0.333262 -0.258998 -0.566063 0.499725 -0.975386 -0.956884 -0.0697003 0.450942 -0.41567 -0.498044
0.73668 0.962807 0.82712 -0.255438 -0.617425 0.334286 0.43886 -0.218206 0.230095 -0.952879 0.154532 -0.197127 -0.876591 0.161512 -0.565504 -0.224439 -0.792727 0.584637 -0.196914 -0.383151 -0.893343 0.511285 0.158765 0.0831383 -0.561692 -0.813405 0.0618645 0.70669 0.548601 0.139684 -0.799782 -0.827241 -0.86323 0.941613 -0.702302 0.1868 0.00361155 0.890418 0.791435 0.573196 0.233919 -1.00808 -0.332786 -0.513543 0.949871 -0.316812 0.132954 0.115426 -0.852568 0.0856041 -0.657483 -0.139108 0.359968 -0.100503 -0.123692 0.611913 -0.371058 -0.979603 0.498369 -0.0851814 -0.783551 0.0944009 -0.270334 -0.298868 -0.635783 -0.924771 0.536375 -0.644574 -0.707058 0.750574 0.395368 0.0755524 0.436104 0.817137 -0.610635 -0.0874543 -0.24863 0.53775 -0.623019 0.996872 0.840982 0.383363 -0.980791 0.0538824 -0.239887 0.739643 0.317088 0.803219 -0.872189 0.110641 -0.460011 -0.709054 -0.347357 0.457349 -0.851561 0.118967 0.466692 -0.677604 -0.593049 0.717903 0.104633 -0.706684 0.340598 -1.00265 0.622909 0.528388 -0.130407 0.883808 -0.927257 -0.587325 -0.98831 0.354063 0.58044 0.185503 0.407922 -0.321578 0.64057 -0.577376 0.291728 -0.31642 0.3047 -0.199741 0.800134 -0.319161 0.29473 -0.14102 0.6172 0.152863 0.889599 0.131294 0.958521 -0.900612 0.692279 0.0630091 -0.107491 0.362649 -0.421641 0.118836 0.143064 -0.675884
-0.648156 -0.85664 -0.180027 -0.40319 0.518345 0.794185 -0.956008 0.717579 -0.867132 0.441972 0.0897359 -0.56714 0.670844 0.264642 0.570475 -0.179607 0.424422 -0.571524 0.677594 -0.725072 -0.551509 0.761322 -0.336826 0.973273 -0.575233 -0.371333 -0.0940692 -0.9106 -0.169324 -0.307204 0.716552 -0.346995 -0.15601 -0.39868 0.765679 0.926079 0.0966186 -0.274077 -0.545175 -0.0497349 0.424813 0.795718 0.467544 -0.79953 -0.233942 -0.180562 -0.765097 0.881539 -0.27352 -0.535938 0.146999 0.0566094 0.745564 0.676951 -0.641209 -0.938387 0.675769 -0.972876 -0.884554 -0.781817 -0.554611 0.217097 -0.330035 -0.91687 0.0886932 0.181504 0.779326 0.497305 0.0159921 -0.55141 0.685455 -0.378563 -0.303398 -0.567921 0.805837 -0.305573 -0.146999 0.0469492 0.772348 -0.400843 -0.741828 -0.65692 -0.093831 0.567368 0.255769 -0.507056 -0.730941 0.347811 0.327276 -0.447664 -0.00187684 -0.715817 -0.77896 -0.936593 0.166691 -0.118536 0.842127 -0.778834 -0.960983 -0.935574 0.85954 -0.863089 -0.295998 -0.733397 0.378341 0.872649 -0.761634 -0.24332 -0.217435 0.498353 -0.723314 0.212089 -0.271383 0.95826 -0.1744 0.685593 -0.223242 -0.790934 -0.755245 0.91061 0.0591919 -0.435301 0.726416 0.780761 -0.474823 -0.0148066 0.72702 0.814097 0.936575 -0.677411 0.606657 -0.530534 -0.92821 0.297713 -0.779913 1.01324 -0.49553 -0.217873 -0.0230166 0.979856
0.88315 -0.559295 0.600433 0.401998 -0.539616 0.634678 -0.146561 0.164192 0.822344 0.46698 0.878148 -0.0176633 -0.00995491 -0.952874 -0.301244 -0.529239 1.03731 0.258892 0.498346 -0.729822 -0.017136 -0.549564 0.19493 0.221293 -0.527161 -0.724602 0.473488 -0.932187 0.322496 0.300358 -0.572189 0.0121837 -0.87267 0.110434 0.762131 0.496574 0.677853 0.335944 -0.963144 0.320534 -0.593311 -0.498781 0.734039 0.647049 0.838207 0.638925 0.509102 -0.194465 0.920348 -0.136724 0.467966 0.622577 0.963448 -0.81296 0.800381 -0.948112 0.866106 0.384058 0.975988 -0.66512 0.059722 -0.536833 0.323126 -0.728971 -0.152952 0.400052 0.0670218 0.931455 0.308587 0.39853 -0.144334 0.68554 -0.790265 -0.392489 0.146553 -0.690197 0.099693 -0.762219 -0.356241 0.708898 0.552199 0.83008 0.818683 -0.24062 -0.669125 -1.03289 -0.429455 -0.944333 -0.974459 0.919598 0.518277 0.997479 0.168297 0.00325398 -0.343577 -0.783735 0.528041 0.54608 -0.177053 0.0119098 -0.505405 -0.793967 -0.252539 -0.514533 -0.804421 -0.567346 1.00949 0.172659 -0.609917 0.903761 -0.999068 0.146325 0.300565 0.884557 0.209277 0.689706 -0.921825 -0.478543 0.446301 -0.29353 -0.774743 -0.540155 0.0716058 -0.466736 -0.913055 -0.122666 -0.953955 0.204495 0.851475 0.337415 0.70358 0.392226 -0.611233 -0.890594 -0.224319 -0.649413 -0.61337 -1.00351 0.705684 0.561987
-0.912109 -0.694178 -0.748803 0.895556 -0.953508 0.947009 -0.500356 0.0326119 0.0883964 0.947201 0.726604 0.429966 0.233321 -0.653416 0.517109 0.462806 -0.259187 -0.475888 0.198182 -0.424216 -0.642798 -0.331554 -0.370834 -0.797179 -0.407729 -0.132899 0.0209659 -0.117651 -0.796538 0.658837 0.776654 -0.434834 0.492604 0.396806 -0.400977 0.297374 0.977527 0.793216 0.222495 0.385772 1.00038 0.525589 -0.254883 -0.79038 0.887898 0.440281 -0.0115609 0.715501 0.388831 -0.234963 -0.914012 -0.487364 -0.0875024 0.868548 0.941926 0.388377 -0.251088 -0.31496 0.611115 0.464856 -0.49832 0.869185 0.221404 0.880901 0.0266692 -0.0775814 0.758226 0.631808 0.403816 -0.511262 -0.327424 -0.381758 -0.363711 -0.00169759 -0.854963 -0.276608 -0.643607 0.383961 0.925585 0.965683 0.543541 0.269234 -0.00102343 -0.211331 -0.269964 -0.50532 0.890661 -0.458702 -0.143224 0.14008 -0.706736 0.509634 -0.424038 0.196755 0.406862 -1.00251 0.336381 0.829801 -0.253143 0.0370878 0.29298 0.136778 -0.623883 -0.720371 -0.797566 -0.922508 -0.0404722 -0.655446 -0.722546 -0.408168 -0.21436 -0.23279 -0.629456 -0.849954 -0.174435 0.500892 -0.26502 0.562568 0.981121 -0.47947 0.383498 0.477754 0.114969 0.588721 0.40603 -0.220224 -0.765818 0.89155 -0.125287 -0.35957 0.844432 0.282968 0.978645 -0.340043 0.834228 0.863075 0.428377 -0.0256106 -0.494224 0.876015
-0.48259 0.437383 0.259545 0.755096 0.08579 0.814708 0.1847 -0.0125988 0.996819 0.730715 -0.115658 0.941005 -0.448727 -0.370217 0.634245 0.067419 0.616564 0.0414137 -0.708068 0.413536 -0.660576 -0.408489 -0.853301 0.202542 0.66939 -0.385264 -0.62566 0.437006 0.22404 0.56271 0.901798 0.171206 -0.385357 0.406295 0.7948 -0.0677525 -0.411143 0.451234 0.674041 -0.683094 0.893427 -0.426569 -0.776604 0.432308 -0.636395 -0.174066 0.450055 0.127859 0.352833 -0.731416 -0.340889 -0.98557 0.277685 0.100471 0.753921 -0.0402498 0.366373 0.152931 -0.0391934 0.0244354 -0.0755314 0.214653 -0.906763 0.156616 -0.858307 0.224348 0.0339925 0.740862 -0.181238 -0.517076 0.924052 -0.32825 -0.573447 -0.467758 -0.177696 -0.188207 -0.541364 -0.549014 -0.994416 -0.140692 -0.508769 0.5966 0.191262 -0.6294 -0.596457 0.791334 -0.397573 -0.652113 -0.0562327 -0.705469 0.110032 0.288792 0.893024 -0.0870666 0.365825 -0.492692 -0.401545 -0.944269 -0.984601 0.912054 -0.512418 0.523814 -0.767608 0.265681 0.888522 0.683038 0.162594 -0.807986 -0.142758 0.574959 0.973615 0.478148 0.829224 -0.456454 -0.946286 0.497631 -0.624374 0.26274 0.366655 0.738327 0.820784 -0.724455 0.556049 0.841124 0.917978 0.0767653 -0.825651 0.32854 -0.278929 -0.461295 -0.754442 0.0109509 -0.643105 0.0631682 -0.217471 0.342149 0.509485 -0.533199 -1.01106 -0.675534
-0.780842 -0.462019 -0.56016 -0.658362 0.174794 0.105329 0.691257 -0.960679 -0.586577 0.405644 0.740724 -0.171036 -0.378619 -0.805722 -0.394062 -0.797409 0.682231 0.972341 -0.455448 0.165182 0.945491 0.00183966 -0.741533 0.812566 0.806767 0.0759315 0.555839 0.0696906 0.272802 0.157219 -0.181324 -0.641817 -0.59421 -0.0332408 -0.201356 0.109106 -0.767711 0.327302 -0.304262 -0.941757 -0.488081 -0.533111 -0.759181 0.272917 0.920647 -0.720297 0.318417 0.965307 0.717779 0.933257 -0.618989 -0.0293751 -0.219865 0.290955 0.0558096 -0.564538 -0.589049 -0.394141 -0.159882 -0.802652 0.989731 0.528431 -0.265183 0.161861 0.897953 0.156637 0.377604 0.00316651 0.698949 0.179913 -0.70236 0.35676 0.242528 -0.402445 -0.844897 0.700645 0.203482 -0.47001 0.524159 -0.219476 -0.701188 -0.494466 0.805912 0.853777 0.839757 -0.818221 0.486231 0.633044 0.191033 -0.134488 0.703517 0.617237 0.537113 0.74676 -0.158003 -0.870301 0.390813 0.806614 -0.633058 0.217587 0.328411 0.0267016 0.0402094 0.239373 0.726781 -0.693676 -0.18304 0.0701569 -0.973195 0.393564 -0.820761 0.37637 -0.826401 0.350494 -0.846992 0.410544 -0.616012 0.723518 -0.200371 0.315166 -0.809825 0.418243 0.783571 0.806262 -0.193059 0.417587 -0.576505 -0.516604 0.46211 0.0800354 -0.334422 -0.410247 -0.466421 -0.507438 0.462352 0.710114 -0.7103 0.696144 -0.83193 0.529881
0.711113 0.09533 0.169359 0.960882 -0.155827 -0.66059 -0.480595 -0.411561 -0.0774061 0.118217 0.591177 0.596043 0.727218 -0.673241 -0.372431 0.470777 -0.918539 -0.30296 -0.333322 -0.921265 0.882597 0.815659 -0.970607 0.958863 -0.459562 0.82781 0.560102 -0.0403661 -0.762438 0.534787 0.921732 -0.322373 -0.590614 -0.139361 -0.971837 -0.513596 0.30037 -0.828155 0.188147 -0.422454 0.455304 0.0695135 0.435162 -0.557307 0.190492 0.772517 -0.330649 0.642337 -0.480735 -0.119031 -0.904449 0.938833 -0.741325 0.717096 0.803739 0.51632 -0.360387 0.74712 -0.735659 -0.671199 -0.143718 0.133189 0.662978 0.460233 -0.22749 0.973112 0.425591 -0.301885 -0.131507 0.792624 -0.332352 0.462533 -0.0107798 0.506962 0.0614801 0.25634 -0.133046 -0.0746434 -0.263666 -0.919861 0.301978 0.514331 0.123847 -0.185724 0.807742 -0.875537 -0.160527 0.758935 -0.0285496 -0.155395 -0.779474 -0.071626 -0.654336 0.299444 0.907722 0.778636 -0.74615 -0.129091 -0.497398 0.131563 -0.666055 0.879161 0.471489 0.255191 -0.937168 0.0569842 0.587833 -0.400311 -0.890394 0.840523 -0.456607 -0.553385 0.221366 0.860446 -0.518757 -0.300941 -0.245738 0.354334 -0.229924 -0.55739 -0.489138 0.492054 0.044138 -0.00125614 -0.933401 -0.275061 0.950471 -0.61822 -0.988729 -0.0483635 -0.625807 0.66919 -0.948286 -0.109478 -0.74241 -0.721394 -0.299983 -0.807874 -0.318845 0.20803
-0.980008 0.500376 -0.28049 0.219912 0.240374 0.229975 -0.999734 0.789892 -0.0199378 -0.339233 -0.84933 0.429627 -0.054353 -0.248496 -0.190636 -0.896382 0.379993 -0.1799 0.760477 0.139842 -0.660289 -0.660098 -0.468079 -0.819531 -0.24027 -0.0405957 0.949274 0.0197599 0.260509 0.0184689 -0.880963 0.319756 0.279536 0.360214 -0.53938 0.399745 0.630689 -0.460118 -0.0400957 -0.299853 -0.886609 0.139961 0.449353 0.200313 0.591684 -0.669824 0.657358 -0.380034 0.989642 -0.888783 -0.0398355 -0.381143 -0.800966 0.110177 -0.729382 -0.319305 -0.129269 -0.970061 0.569695 -0.451416 0.190157 0.590337 0.391793 0.229615 0.0205983 -0.220008 -0.801562 -0.490396 -0.330274 0.722521 0.510413 0.119967 0.530821 -0.250176 0.398807 -0.989978 -0.360238 0.538388 -0.0399154 0.569506 0.311435 -0.519174 -0.339115 0.50936 -0.440375 0.359878 0.434109 0.180877 -0.820022 0.830917 0.261297 -0.349662 -0.299818 0.919995 -0.180045 0.699642 0.439278 -0.379963 0.829856 -0.99021 0.610216 0.7398 0.821772 0.669561 -0.821523 0.470339 0.510154 0.758941 -0.970118 0.4799 0.93967 -0.489814 0.119195 0.529966 -3.25712e-05 -0.429881 0.470169 -0.789688 0.129765 -0.589897 -0.429966 0.450769 0.129945 -0.880082 0.829414 -0.279834 -0.651222 0.661992 0.720778 0.0808857 0.730004 0.810039 -0.690014 -0.390946 -0.209572 0.179911 0.500512 0.899861 0.32002 0.709523
-0.29 0.360006 -0.0399997 0.52 0.8 0.58 0.760001 -0.76 -0.78 1.00001 -0.44 -0.760001 -0.110038 -0.669992 -0.0300045 0.280033 -0.87 0.08 0.16 0.02 0.269998 -0.470001 0.820016 -0.129999 0.66 -0.990003 -0.970004 -0.59 -0.91 0.569994 0.54999 0.88 -0.430003 -0.239998 0.130007 0.39 0.500004 0.469999 0.71 -0.88 0.520027 -0.39 0.109993 0.04 0.720015 0.310002 0.439974 -0.950004 -0.400005 -0.72 -0.299992 0.879989 -0.57 0.43 0.0300052 0.61 0.950007 -0.79 0.799999 0.469988 0.430001 -0.65 0.450017 -0.0099998 -0.799999 -0.84 -0.110011 0.95 0.56 -0.829979 0.560003 0.09 0.630006 -0.350002 -0.820009 0.19 -0.16 -0.260016 -0.34 -0.670002 -0.869987 0.390004 -0.569991 0.8 -0.72 -0.0200001 -0.119966 -0.899996 -0.820002 -0.32999 0.58001 -0.799996 -0.300003 0.54 0.310001 0.940001 0.29 0.81 0.189998 -0.0800011 0.830001 -0.62 -0.629983 0.319994 0.0899814 0.810006 -0.94 -0.740005 -0.180002 0.05 0.619998 0.56 -0.430007 0.9 -0.34 0.35 -0.08 -0.490001 0.789995 0.81 -0.53 0.0400081 -0.51 -0.0600003 0.519993 0.340001 0.379989 -0.630062 -0.22 -0.389992 -0.23 0.999999 -0.26 0.28999 -0.0599914 -0.830001 0.520001 0.279997 0.589999 -0.97
-0.02 0.66 0.42 0.81 0.26 -0.66 -0.11 0.38 0.63 -0.29 -0.18 -0.1 0.49 0.78 0.01 -0.29 0.34 0.51 -0.04 -1 0 -0.77 -0.79 -0.99 0.99 -0.99 0.27 0.13 0.77 -0.3 0.51 0.38 -0.88 0.34 -0.49 0.69 -0.98 0.83 0.64 0.02 -0.86 0.13 0.42 0.21 0.72 -0.21 0.61 -0.57 0.94 -0.24 0.07 -0.6 0.15 0.96 0.88 -0.65 0.67 -0.27 0.11 -0.65 -0.75 0.66 -0.38 0.4 -0.65 0.62 -0.09 0.58 0.65 -0.13 -0.34 -0.04 0.67 -0.42 -0.7 -0.96 -0.12 0.81 0.5 0.7 -0.62 0.89 0.68 -0.9 -0.18 0.31 -0.25 -0.17 -0.07 0.26 0.34 0.35 0.6 0.77 -0.9 0.14 0.54 -0.93 -0.75 0.53 -0.66 0.49 0.66 -0.72 0.5 -0.77 0.69 -0.01 -0.39 -0.33 0.73 0.97 -0.67 -0.62 0.56 -0.12 0.24 0.62 -0.44 0.89 0.03 -0.46 0.15 -0.89 0.89 0.23 0.43 -0.81 -0.76 0.74 0.17 -0.3 0.46 0.93 0.27 0.87 -0.05 -0.92 0.81 -0.76
0.64985 0.429552 -0.339969 0.371069 -0.939582 0.689984 -0.950394 0.230448 0.909951 0.280913 0.150424 0.880169 0.719633 -0.77069 -0.787803 -0.820247 0.579294 -0.299773 -0.420399 0.0821283 -0.9998 -0.400848 0.949552 0.729289 -0.920516 -0.64042 -0.738489 -0.190549 -0.300044 -0.180921 0.740369 0.459638 -0.920239 -0.930197 -0.978478 -0.159396 0.159097 0.900895 -0.160037 -0.0110929 0.670223 0.469247 0.17029 -0.0398056 -0.819569 -0.36924 -0.300265 0.578834 -0.459868 0.859637 -0.411072 0.000159782 -0.56075 -0.489557 -0.500793 -0.270114 0.620174 -0.969028 0.78061 -0.31893 -0.409001 -0.0583842 -0.890233 0.740109 0.700689 -0.109188 -0.431254 -0.290041 0.539629 -0.789637 0.530366 0.88018 -0.220214 -0.841762 0.150272 -0.169788 0.709505 -0.239528 -0.66977 0.980491 -0.228242 0.229289 -0.979927 -0.990935 0.468792 -0.930037 -0.188903 0.560402 -0.630016 0.880001 0.691078 -0.761112 0.941383 -0.340071 0.300461 0.370367 -0.359196 0.721882 0.421161 0.0184473 0.840519 -0.18183 -0.180488 0.459871 -0.910158 -0.931068 0.678989 0.249711 -0.440152 0.0305749 0.778954 0.757728 -0.580241 0.220352 -0.311343 -0.268518 -0.531136 0.96999 -0.82997 0.949593 -0.299793 0.93042 0.379495 0.667859 0.669121 0.0906216 0.510111 0.87988 0.500398 0.480009 -0.951313 -0.0299284 -0.899839 -0.480362 0.569744 -0.430112 0.2012 -0.670727 0.170111 0.610538
-0.20591 -0.92594 1.00873 -0.0252234 -0.628737 0.543342 0.039386 -0.413769 -0.340757 0.146053 -0.197095 -0.189812 0.611685 0.306901 -0.120917 0.607615 -0.621063 0.946807 0.183172 0.758225 -0.241991 0.844029 -0.505522 -0.108368 0.156743 -0.157652 -0.290885 -0.432897 0.109915 0.440227 0.904064 0.0290772 0.444867 -0.476312 -0.696649 0.740692 -0.463626 -0.788818 0.0540304 -0.574875 0.449506 0.440095 -0.885302 0.294359 0.683256 0.1337 0.0924768 -0.897109 -0.642508 0.0921725 -0.135657 -0.379224 -0.812996 0.982808 -0.169183 -0.234727 -0.296346 0.778126 0.762272 -0.213959 0.438323 0.0172941 0.58989 -0.835251 -0.113817 0.687937 -0.551423 -0.954716 -0.695993 -0.115364 1.00611 -0.261369 -0.669018 -0.231303 -0.84616 0.573981 0.1884 -0.021484 -0.678537 0.814785 -0.0690036 -0.935529 0.665381 0.354062 -0.477453 0.671937 -0.165154 -0.0355564 -0.844332 -0.815199 -0.201745 0.204176 0.193714 0.966939 0.786718 0.998151 0.534099 -0.456008 0.380407 -0.897067 -0.973774 -0.932362 -0.740519 -0.442269 -0.132572 0.666869 -0.229958 0.573641 0.512072 0.338188 -0.401101 -0.019895 0.426794 0.564827 0.728383 -0.478469 0.616285 0.848322 -0.140611 -0.956889 0.660422 -0.566236 0.725702 0.661872 0.312395 -0.439095 -0.392681 -0.734999 -0.236867 0.843898 0.694306 -0.702154 -0.488399 -0.725573 -0.719536 -0.385857 -0.914216 -0.823165 0.859455 -0.806316
0.484556 -0.697838 0.228924 -0.645866 -0.617404 0.560638 0.516775 0.271677 0.063765 -0.743883 0.165952 0.196637 -0.0757753 0.813353 0.803739 0.372271 0.297987 -1.00621 0.388989 0.211062 -0.270195 0.955123 -0.195537 -0.816619 0.816055 0.6375 -0.922669 0.319713 -0.978904 0.417881 0.0655286 0.77996 0.246853 0.227465 -0.0213255 -0.782137 -0.876852 -0.795525 -0.111153 0.878148 0.452633 0.573377 -0.768414 -0.680532 -0.479358 0.240016 -0.379017 -0.245993 -0.135577 0.547919 -0.245656 0.831631 -0.863422 0.234965 -0.406534 -0.829715 -0.0197896 -0.962284 -0.375471 -0.298331 0.0804779 0.464319 0.511541 -0.72744 -0.933808 0.323684 0.30479 -0.0041354 -0.967361 -0.514555 0.559155 0.371522 -0.239335 -0.567951 -0.831057 -0.39679 -0.618933 0.389884 -0.789487 -0.530889 0.548422 0.978775 0.124986 0.448575 -0.0630465 -0.836643 -0.751344 0.5499 0.180584 0.876896 0.658388 0.877898 -0.130531 0.613206 0.129422 -0.275968 0.747188 0.0686337 0.926756 -0.842138 -0.313733 0.776023 -0.5469 -0.564186 0.719459 -0.402865 -0.997008 -0.64356 -0.424596 -0.289067 0.787412 -0.218532 -0.237231 0.539718 0.590267 -0.0118322 -0.408671 -0.691969 -0.418754 -0.276828 -0.449876 -0.551548 0.455604 0.0205669 -0.346702 -0.519978 -0.111952 0.617224 0.952961 -0.762127 0.557316 0.408473 -0.614111 -0.644491 -0.871127 0.475955 0.120989 0.373429 0.0193621 0.8614
-0.736937 -0.868754 -0.978628 0.749721 0.452762 -0.89606 0.160035 -0.355399 0.501156 -0.548885 0.153051 0.454787 0.575878 0.411168 0.546398 -0.797559 -0.622796 -0.556403 -0.338727 0.636657 0.605943 -0.0536238 -0.210524 -0.25257 0.222999 0.937126 0.975555 0.522614 0.524629 -0.403729 -0.919535 0.350256 0.429145 -0.758266 -0.680859 0.680158 0.950025 -1.12671 0.604529 -0.391884 0.680055 0.114048 0.824667 0.387924 -0.739675 -0.704611 0.0941435 0.54435 0.713239 0.253404 0.0570131 0.19987 -0.0439855 0.376346 0.444254 0.340734 0.661531 0.524343 0.509797 -0.720076 0.400779 0.362819 -0.19873 0.620919 -0.0183405 0.206708 -0.948147 0.430934 -0.802232 -0.174506 -0.708436 0.300044 -0.647572 -0.545369 0.521045 0.417716 -0.0142295 0.0852075 0.0129859 0.710128 -0.74624 0.746722 -0.312934 -0.959576 0.86941 0.20224 -0.173777 -0.645263 -0.75394 -0.0931503 -0.705983 0.871789 0.0245105 0.499342 -0.483735 -0.28521 -0.935027 0.71716 0.659093 -0.57991 0.0475131 -0.414835 0.458241 0.0934159 -0.300711 0.929349 0.0362531 -0.825739 -0.82393 -0.648605 0.560801 -0.108298 0.862152 0.0666435 -0.149119 0.00221897 0.571099 -0.99624 -0.622635 -0.822513 -0.846685 -0.231299 0.423392 0.58219 -0.792918 -0.495143 -0.538458 -0.854501 0.688751 -0.88943 -0.653878 0.602417 -0.616345 0.710382 -0.668602 -0.525306 -0.774232 -0.264324 -0.266612 -0.812143
-0.130695 0.884492 0.0189957 -0.167587 -0.840213 0.381412 -0.527926 -0.214316 0.212033 -0.717345 0.954657 0.555603 -0.462641 0.231346 0.158858 -1.01583 0.161297 -0.768038 0.740639 0.743545 0.837504 -0.974455 0.889566 0.323745 -0.340317 0.429116 -0.0276439 0.930621 0.925011 0.310214 -0.726305 -0.40638 -0.447176 -0.475432 0.771402 -0.573892 0.298388 0.625556 -0.106516 0.60693 0.292798 -0.139798 0.310921 0.405907 0.508007 -0.316371 -0.549456 0.261 0.0224232 0.261868 -0.963442 -0.596951 -0.1266 -0.61264 -0.647925 -0.00912781 -0.0553172 -0.234114 -0.686223 0.223226 -0.797888 -0.258301 0.558809 -0.167293 0.641973 -0.97408 -0.736418 0.878219 -0.0731553 0.358138 0.560788 -0.865476 0.296356 0.0502865 0.290056 0.165014 0.14019 0.123526 0.386114 -0.240388 0.726632 0.758152 0.700647 0.352427 0.656161 0.297101 -0.844677 0.35631 0.676472 -0.428675 -0.434374 0.220362 -0.554295 0.389793 0.702786 0.871279 0.530771 -0.422568 -0.0460217 -0.0643301 0.382822 -0.516099 0.253335 0.0209137 -0.671296 -0.0878566 -0.492406 -0.888986 0.165509 -0.321739 0.566045 -0.259102 -0.734151 0.122187 -0.227477 -0.0753198 0.928836 0.0469343 0.685872 -0.277 -0.722171 0.291785 -0.512522 0.35233 0.634327 0.703116 0.791292 0.625768 0.257514 0.384882 -0.423949 0.00589159 0.392272 -0.999432 -0.0873007 0.988159 0.319323 -0.195456 -0.0174116 -0.831203
0.441574 -0.796894 0.517171 0.774765 0.933357 0.56509 0.0469444 0.311673 -0.547758 0.915241 0.194642 0.0635124 0.0350948 -0.452192 0.808062 0.430821 0.666677 -0.636403 0.800584 0.090984 0.708318 0.685868 -0.0733248 -0.355471 -0.208341 0.370504 0.708505 -1.05187 -0.241133 0.147735 -0.923177 0.743822 0.890361 -0.452676 -0.41789 -0.419109 -0.237954 -0.688803 0.372653 -0.307415 0.984246 0.812512 -0.17422 0.778874 -0.433198 -0.521975 0.858156 0.719553 0.877958 0.852998 0.118971 -0.489571 -0.687567 -0.66642 -0.857008 -0.0123354 -0.512831 0.155709 0.767941 0.274219 -0.163802 -0.0776522 0.903157 -0.661784 0.324883 -0.198333 -0.050751 0.196226 -0.378494 -0.35687 -0.032096 -0.38099 0.0939258 -0.0216582 0.0805127 0.437194 0.846257 0.515154 0.43084 -0.752379 0.566673 -0.261269 0.905976 -0.874607 -0.280455 0.479691 -0.1677 0.108846 0.193712 0.53853 -0.161209 0.82783 0.271409 -1.02518 0.0661673 0.271739 0.669266 0.019356 0.171894 -0.281669 0.206778 0.770057 0.335781 -0.373899 0.148896 -0.578357 0.615639 -0.0580065 -0.739864 0.181199 0.594136 -0.366693 1.13005 1.0289 -0.140106 -0.429634 0.871414 -0.405634 -0.111053 -0.118636 0.00934234 0.782763 0.469074 0.599362 -0.704209 -0.382047 0.894365 0.0351239 0.172996 -0.773762 0.679856 0.85938 -0.762449 0.706475 -0.502027 -0.657446 -0.463645 -0.680181 0.501496 0.336045
0.279025 0.385882 -0.966909 -0.178474 0.310214 0.815583 -0.395261 -0.252432 0.545633 -0.114123 0.969502 0.794686 -0.641869 0.575089 0.926573 -0.140128 0.37149 0.560321 -0.695495 -0.223609 0.301619 -0.959205 -0.72986 0.301587 0.648457 0.558729 0.368677 -0.944459 -0.672463 -0.942931 -0.410645 -0.16057 -0.686685 0.0682119 0.437919 -0.109166 -0.766524 -0.290605 0.474033 -0.636095 0.201879 0.555219 -0.928177 0.279793 -0.974942 0.924109 0.299392 -0.946341 0.505208 -0.0325824 0.631485 -0.47989 0.307495 1.01938 -0.500745 -1.02436 0.477997 0.193165 0.0510442 -0.806873 -0.58324 -0.454992 -0.643656 -0.285829 0.762833 0.359734 0.0358947 -0.704839 0.137749 -0.118439 0.627645 0.246616 -0.884951 0.453363 -0.0403507 0.230891 -0.66391 0.575653 0.806258 0.646783 -0.0731176 0.441033 0.234607 0.0446057 0.414912 0.613849 -0.647615 0.463308 -0.231423 0.106917 -0.357706 0.307845 0.435116 -0.8965 0.333458 -0.497023 -0.80179 0.446634 -0.94626 0.0213324 0.914957 0.182398 0.0741814 0.744689 1.00429 -0.659348 0.792 0.204236 0.918093 -0.324415 -0.5794 -0.476834 1.11685 0.647887 -0.740619 -0.123432 0.486402 -0.607978 0.835768 -0.478115 0.336893 -0.186349 -0.170784 -0.704514 0.0292204 -0.55479 -0.663172 0.826846 -0.330428 0.314469 0.534235 -0.0629965 0.851833 0.810143 0.322908 0.249368 0.333577 -0.647433 0.206011 0.451139
-0.640889 0.281624 -0.774733 -0.0610826 0.438685 0.661166 0.869042 0.0708309 -0.0717 0.591454 -0.18703 0.496911 -0.537413 0.15353 -0.76388 -0.375413 -0.134687 0.0428071 1.15971 0.0024686 0.758776 0.696806 0.76053 1.04182 0.462904 -0.264985 -0.278013 -0.635379 0.510132 0.640508 0.622059 -0.477308 0.879535 0.586414 0.524637 0.389508 0.558624 0.130705 0.201874 -0.00230335 0.440601 -0.598836 0.331327 0.411684 -0.12173 0.0638792 0.301641 -0.893249 0.0659132 -0.456345 0.683739 -0.786453 0.491639 0.0322577 -1.067 0.183016 -0.417003 -0.21555 0.630479 -0.581955 -0.476253 0.141062 0.172264 -0.129641 -0.261557 -0.161018 -0.4527 -1.03015 -1.05815 0.777699 -0.156113 -0.120451 0.561805 -0.140923 0.492905 -0.849071 0.0994009 -0.37832 -0.554792 0.634002 -0.399466 -0.139397 0.40188 -0.480579 -0.289541 -0.186458 0.186837 -1.07064 0.353542 0.136374 -0.534311 0.0766656 0.611519 -0.983637 -0.515069 -0.0960453 0.945413 -0.000363851 0.476978 0.368186 0.151186 0.478773 1.03182 -0.407922 -0.248804 -0.801285 0.241903 -0.481546 -0.519194 0.762028 0.140195 -0.588438 0.954969 -0.366812 0.939623 0.35486 0.166511 0.476684 0.369287 -0.417321 0.333934 0.416123 0.477564 -0.808082 -0.0817335 -0.466974 0.96481 -0.0648734 -0.780734 0.789863 -0.800193 0.896001 -0.411326 -0.435012 0.795746 -0.652354 -0.432497 0.052398 0.173234 -0.208751
0.819514 -0.181757 -0.502781 -0.823516 -0.353605 0.600278 -0.432246 0.401085 -0.996091 0.189036 0.377835 0.136759 -0.12077 -0.670936 -0.0501839 -0.713047 -0.258784 -0.313871 1.02463 0.518483 1.00847 -0.497098 0.705632 0.742871 -0.856419 -0.958297 -0.754547 -0.169818 0.484167 0.515796 -0.839023 0.326278 0.03825 0.00994209 0.912666 1.03541 0.0313938 -0.255702 0.185994 -0.881699 0.769776 -0.749566 -0.543866 1.10124 -0.29039 -0.858198 -0.778243 -0.482353 -0.65479 0.487079 -0.432384 0.418259 0.324933 0.0991114 -0.196159 -0.0987392 0.527442 -0.104433 0.352959 0.0724063 0.763589 -0.375306 -0.56523 -0.505442 0.795567 -0.31447 -0.720592 0.181412 -0.867014 0.771256 -0.635962 0.680957 -0.986783 0.658848 0.959411 0.89557 0.313226 0.672789 0.948954 0.456298 0.824573 0.154687 -0.0100785 -0.816874 -0.0421374 0.456144 -0.383679 -0.63475 -0.134085 -0.695857 0.289084 0.658752 -0.00452093 -0.874578 0.912754 -0.229985 0.626895 0.567823 0.759108 0.721041 -0.104863 -0.715643 -0.512549 -0.546264 -0.489007 -0.804612 0.0857267 0.546615 -0.29173 0.338411 -0.183606 -0.64676 0.784594 0.825723 -1.00359 -0.572085 -0.530931 -0.602835 -0.318766 0.542015 -1.02995 0.903834 0.592603 -0.640929 0.390538 0.13713 -0.483841 0.567814 -0.56058 -0.201677 0.0937675 0.349336 0.453603 -0.0739821 0.960157 0.164032 -0.409578 -0.439591 0.714545 -0.824935
0.767264 -0.617234 0.119934 -0.367844 0.9426 -0.0309703 0.295238 0.814156 -0.0412942 0.514184 -0.485025 -0.755499 -0.972599 -0.12751 -0.687313 0.599867 0.851243 -0.667442 0.146511 0.0883423 -0.136972 0.549359 -1.04613 0.97839 0.189163 -0.909291 -0.11259 0.550839 0.167073 -0.129204 -0.816653 0.651669 -0.16172 -0.0278794 0.971345 0.663402 -0.686019 0.385412 -0.147598 -0.657629 0.302556 -0.520666 -0.609656 0.237999 -0.982274 0.603504 -0.604894 -0.689477 -0.238939 0.431971 0.704841 -0.77725 0.541826 0.181001 -0.475593 0.600148 0.752537 -0.523791 0.607567 -0.021795 -0.871962 -1.15263 -0.54464 0.258716 -0.115868 0.652053 0.769442 0.191805 -0.295201 -0.261747 -0.289161 -0.427074 0.85638 1.05532 -0.414892 0.722934 -0.747303 -0.0282684 0.00927843 0.347212 -0.47162 0.184759 1.03553 -0.451694 -0.0406294 -0.0362408 0.839772 0.506027 0.0710896 -0.216209 -0.593915 0.545994 -0.0512846 0.1025 0.681759 0.530642 0.775474 0.0473215 -0.138455 0.143319 0.540105 -0.44725 1.0115 -0.879017 -0.724774 0.0702468 -0.0729513 0.60149 -0.780535 -0.541639 -0.936139 -0.190226 -0.639346 -0.49656 0.719955 0.245832 -0.605075 -0.374659 0.427267 0.566245 -0.706914 0.0959293 -1.10318 0.829925 -0.625622 0.978294 -0.142985 -0.990164 1.05672 0.816126 -0.0056163 -0.998064 -0.538182 0.376078 0.937186 -0.979257 0.725811 -0.289867 0.148539 0.908138
-0.712738 0.0721458 0.519838 0.459369 1.14298 0.248262 -0.217547 -0.0764531 -0.573497 0.844537 -0.563404 0.433114 -0.31383 0.235072 -1.10353 -0.349859 0.971535 0.740922 -0.163048 0.376794 -0.509886 -0.801458 0.873134 0.973656 -0.117166 -0.44579 -0.183738 -0.430839 0.526103 0.334651 0.913993 -0.246418 0.274516 0.340343 -0.151834 0.692914 0.332209 -0.575139 0.887547 -0.889255 0.710945 -0.415555 0.303497 -0.0290384 -0.690394 -0.92714 -0.248396 -0.516489 -0.7869 -0.892675 -0.0549875 -0.305929 -0.112382 0.567441 -0.314717 -0.709354 -0.371372 -1.07112 -0.621432 0.78643 0.380345 -0.975283 0.214784 0.956081 0.425376 -0.239709 0.825455 0.0909913 -0.848682 -0.286066 -0.173019 -0.811945 -0.957882 0.8594 0.276844 -0.777547 0.434728 -0.67133 -0.553465 0.286892 0.832728 -0.269671 0.440589 0.50205 -0.180476 -0.157285 -0.791282 0.741016 -0.279877 0.342064 0.2918 0.147672 0.342044 0.128629 -0.4638 -0.513021 0.474441 0.870625 -0.725052 0.484252 -0.55457 -1.15426 0.241491 0.861245 0.0479864 -0.86556 0.0264355 -0.32296 0.419331 -0.064393 -0.940795 0.879024 0.80428 0.840495 -0.881433 0.717745 -0.198523 0.0584578 -0.427451 -1.03764 -0.810347 -0.601838 0.438581 0.326002 -0.110986 -0.89177 0.832396 0.39632 0.0914954 0.0610195 0.290052 0.613653 0.535473 0.293991 0.54311 -0.121532 -0.470168 -0.356894 -0.340338 -0.862691
0.268588 0.0150734 -0.325647 -0.768621 0.935635 -0.0109553 0.722431 0.630331 0.468977 0.270096 -0.711279 0.136763 0.919173 -0.717421 -0.0426009 0.313995 0.352146 -0.222591 0.01721 -0.578858 -0.611846 0.988181 0.28219 -0.0703377 0.687675 0.650845 0.987877 0.234821 -0.240031 -0.637194 -0.938878 0.61675 -0.0364311 -0.471007 -0.214727 0.263375 0.258276 -0.290326 0.113244 0.987772 0.875816 -1.06288 0.484092 0.576119 -0.796544 -0.709985 0.334119 0.867451 -0.527397 0.896621 0.450912 0.647821 -0.419886 0.292966 0.52314 -0.715255 -0.833941 -0.0347685 -0.582949 -0.982728 -0.730679 -0.902329 0.0873603 -0.815981 0.149596 0.177686 0.377257 0.481325 0.659861 -0.684023 0.523311 -0.355793 0.747429 1.0895 -0.5184 0.856052 1.01606 -0.708229 -0.603088 0.0947665 0.781141 -0.764612 0.540601 0.422821 0.546909 0.0389672 -0.757048 -0.534546 0.068786 -0.0796945 -0.803575 -0.410723 0.227521 0.0200755 -0.0459145 -0.0324694 -0.359522 0.472308 -0.931573 0.0459685 0.618621 0.697952 0.316195 1.07248 -0.135283 0.642258 0.284614 -0.411664 -0.678967 0.619313 -0.656544 0.16349 0.954994 -0.101866 -0.0737939 0.171144 0.417761 -0.29774 -0.240231 -0.346426 0.538126 -0.507816 0.970524 0.312239 0.606305 0.675151 0.241273 0.328194 0.577695 -0.260636 0.572357 0.657122 0.362822 0.247599 -0.182527 -0.779334 0.0227756 0.899495 0.721436 0.179447
0.182021 0.468743 -0.477838 0.631533 -0.494952 -0.981495 -0.100507 -0.80864 0.772058 -0.508437 0.366274 0.368785 0.46759 0.713362 -0.86644 -0.660736 -0.593483 -0.375666 -0.222772 -0.0988218 -0.914701 1.12162 0.798803 -0.500785 -0.431019 -0.395846 0.349754 0.372272 -0.396118 -0.405776 -0.591427 0.008851 0.372389 -0.668843 0.595206 -0.873927 -0.608436 0.485546 -0.837928 0.370723 -0.870052 0.772605 0.788061 0.340188 0.700667 -0.672615 -0.291229 0.503423 -0.952305 -0.55241 -0.538857 -0.39397 0.0250475 0.437147 0.278072 -0.550236 0.346825 0.581896 -0.390031 -0.437768 0.206666 -0.0538363 0.131589 -0.795148 0.425529 1.17069 -0.64817 -0.131173 0.698047 -0.153632 -0.109726 0.919496 -0.396818 0.795517 -0.412129 -0.486749 0.313775 0.717654 -0.309521 0.895803 -1.01423 -0.618057 -0.753216 -0.258892 -1.27248 -0.597497 -0.379634 -0.894838 -0.615303 0.100592 0.279189 -0.228604 0.204435 -0.0192481 0.209008 -1.00133 0.755851 -0.179231 -0.924496 -0.626388 -0.366464 -0.0963533 0.779673 0.819783 -0.145193 -0.876375 -0.403623 -0.504432 -0.331828 0.764993 0.75241 0.215354 -0.154943 0.631591 -0.0633986 0.306736 0.569557 -0.881694 0.988711 -0.65959 -0.949838 0.542416 -0.740325 -0.720109 0.654337 0.685487 0.155514 -0.670011 0.779945 1.16887 -0.2336 0.736446 0.207918 -0.665319 1.01744 0.592389 -0.375034 -0.816559 -0.0901352 0.136771
0.327443 -0.611237 0.310516 -0.686214 -0.769255 -0.942626 -0.398784 -0.066889 0.956882 -0.449664 0.318552 -0.0574962 -0.308925 -0.0568151 -0.119826 -1.069 -1.04327 -0.644701 0.791031 0.416404 -0.870037 -0.0399892 -0.404208 -0.733603 0.20641 0.07352 -0.82253 -0.644042 -0.701065 -0.230595 -0.709062 -0.385509 0.69272 -0.692779 -0.51559 -0.225347 0.434261 -0.482636 -0.652377 0.315163 0.688817 0.157741 0.782658 -0.523515 0.753866 0.357387 -0.755924 -1.10853 -0.183526 -1.16554 -0.0959683 0.723117 0.565208 0.499174 0.454935 0.858071 -0.631652 -0.0834469 0.807451 -0.401548 0.37336 0.0436543 -0.135492 0.0109266 -0.288629 0.250015 0.300771 -0.518809 0.709731 -0.131938 -0.0805208 -0.305625 0.83362 -0.645492 -0.632778 -0.836481 -0.929495 0.879366 -0.340549 0.65542 -0.34702 -0.451149 0.25772 -0.612818 -0.643534 0.893746 0.0442258 0.568806 -0.44837 0.543248 -0.450549 0.332236 0.289645 0.495959 0.799123 0.300127 0.262821 0.265822 -0.352864 -0.0413105 -0.250714 0.0600969 0.0496496 -0.249174 0.187252 -0.295865 0.245089 -0.625885 0.643398 -0.645798 -0.353995 -0.640102 0.322512 -0.0223724 -0.835976 -0.5045 0.754103 -0.434897 -0.40474 0.482339 0.854407 -0.101109 -0.570651 0.0395954 -0.774359 0.47621 -0.970358 -0.0680752 1.01746 0.738344 -0.316529 -0.11917 0.90845 0.910405 -0.400127 -0.518346 0.448392 -0.198055 0.0265596 -0.5983
0.0677343 0.201033 0.093338 0.419503 0.0921626 -0.188409 0.313387 0.37173 -0.680758 0.652449 0.405264 0.596607 -0.104369 -0.664999 -0.654729 -0.906675 0.888339 -0.23068 0.312037 0.150572 -0.256783 0.115211 0.498938 0.663592 -0.788536 0.0384107 0.236568 0.723795 0.539498 0.449962 0.550632 0.0110637 1.02689 -0.729955 0.126198 0.278671 -0.103929 -0.826434 0.608553 -0.258203 -0.101579 -0.934215 -0.862582 -0.201724 -0.447055 0.322582 -0.33651 0.570857 -0.657896 -1.03004 -0.838031 0.327752 -0.185711 0.635387 -0.78964 0.166425 -0.221726 0.62984 0.824585 -0.915135 0.418278 0.281198 -0.233734 0.130187 0.268921 0.497455 0.28389 -0.91331 0.627642 -0.0253 1.16879 -0.677717 0.144209 1.03909 -0.0621993 0.71966 -0.0804713 0.0781402 0.776784 -0.0961803 -1.05209 -0.731079 0.394626 0.0218002 0.0218616 0.785962 0.760168 0.207734 -0.778282 -0.480208 -0.880142 0.355343 0.723465 0.264639 -0.652034 -0.209292 0.811203 -0.417763 -0.319323 -0.936824 0.114192 0.960543 -0.430294 -0.295884 0.163005 -0.958203 0.216734 0.431929 -0.0899592 0.909335 -0.238427 0.960925 0.238868 0.141464 -0.688472 0.613576 0.279203 -0.317803 0.37723 -1.04078 0.99006 -0.658323 -0.247307 -0.439936 -0.569371 -1.08536 -0.73542 -0.973185 0.953645 -0.669937 0.793656 -0.328537 0.147802 0.943633 0.131637 0.147557 0.508496 -0.316853 -0.379815 0.468583
0.783254 0.221446 -0.23181 0.701071 0.52344 0.568967 -0.518976 0.950444 -0.331327 -0.773598 0.653233 -1.04933 -0.115932 0.219834 0.495973 -0.86742 0.521296 0.0575735 -0.542594 -0.598082 -0.409645 -0.339086 -0.918791 0.846237 0.339602 0.0918899 0.658993 -0.191423 1.08161 0.465759 -0.00589228 0.870418 0.468626 -0.128981 0.0351969 -0.115652 -0.88709 -0.0451649 -0.532867 0.19069 -0.220055 0.752391 0.415814 -0.0762823 -0.217381 -0.585949 -0.177817 -0.416852 0.322607 -0.540437 0.0956169 0.919486 0.0341668 0.773963 -0.176807 -0.471651 -0.796506 -0.0322257 -0.613126 -0.764352 0.254021 0.828896 0.214376 -0.172276 0.0142272 -0.436233 -0.727526 -0.327824 1.00036 -0.620544 -0.410074 -0.770228 0.192413 -0.663178 -0.0393242 -0.125003 -0.707476 0.746928 -0.194314 -0.772866 0.328007 0.184964 0.369343 -1.29446 0.610897 1.02455 0.625106 0.56754 0.62655 0.375319 0.212905 -0.0457837 -1.00067 0.602451 0.295669 -0.304785 -0.37237 0.405052 1.16313 0.620318 -0.380747 0.222219 -0.101982 0.726875 0.259049 0.911883 1.03989 -0.719032 -0.388496 -0.700951 -0.312601 0.00407954 0.482863 0.593303 1.00226 0.0344713 -0.420842 0.0642418 0.358219 0.506813 -0.358506 0.402507 0.146558 0.78969 0.445083 -0.417469 -0.563745 0.455051 0.63527 -0.44326 0.627844 0.192537 -0.0573306 -0.326944 0.863262 -0.808241 -0.0354974 -0.477785 -0.0132071 -0.00568934
0.0676764 0.644384 -0.0729362 0.838301 0.0887833 -0.299392 0.0715357 0.6698 -0.167383 -0.423576 0.833931 -1.06411 -0.175879 -0.816863 0.152416 0.810042 -0.45555 0.692604 0.250803 0.707335 -0.656905 -0.701875 -1.04247 -0.0317833 -1.08901 -0.182185 -0.631742 -0.0357143 -0.323566 -0.0609726 0.641502 0.781334 -0.729024 0.0835873 0.434494 -0.0456187 -0.714145 -0.0835225 0.333961 -0.364465 0.855683 -0.496967 0.394103 0.760725 -0.324308 0.548847 -0.964742 0.604946 -0.469318 -0.43326 -0.428281 -0.0897102 0.257839 0.929129 -0.381536 -0.859257 -0.00384371 0.0297188 -1.1209 -0.699159 -0.503806 -0.158777 0.779301 0.46214 0.0176226 0.245023 -0.734941 -0.560943 -0.620564 -0.279867 0.70473 -0.837709 0.150445 0.684263 -0.286752 0.856296 -0.490054 0.557518 -0.792151 0.302 0.754829 -0.422131 0.342754 0.377444 -0.350547 -0.145502 0.149146 -0.765161 0.075605 -0.288636 0.00820881 -1.15057 -0.393423 -0.751371 -0.0375826 0.536667 0.452966 0.853864 -0.334275 -0.580247 0.370306 0.270109 1.08614 0.198889 0.453774 0.627521 0.925404 -0.0638292 -0.704133 -0.394256 -0.0986803 0.228747 -0.741124 0.271987 0.3434 -0.13754 0.459993 -0.191685 0.325528 0.697447 0.211903 -1.20835 -0.356449 0.36726 -0.0706267 -1.19828 0.279793 -0.996381 -0.59606 0.227907 0.116751 0.360876 -0.197967 0.266006 0.595566 0.455742 0.519232 -0.609613 -0.234963 -0.598731
-0.865704 -0.071925 -0.372783 -0.602351 -0.169088 -0.312096 -0.406274 0.643758 0.713101 -0.685873 1.00164 0.0456278 -0.583553 0.49613 -0.997277 -0.519913 0.509961 0.835197 -0.527132 1.19167 -0.259044 0.704482 0.113078 -0.0368263 -0.832707 -1.1497 0.623203 0.312986 0.237305 0.914251 0.539873 0.252833 -0.745907 0.243382 -0.702141 0.621481 -0.452851 0.964921 -0.538076 -0.424475 -0.751501 0.0453014 0.637502 -0.965284 -0.512438 0.330957 0.535758 -0.499496 -0.745606 -0.613458 -0.597817 0.0740601 0.540852 0.585162 -1.04208 -0.817408 0.491715 1.05128 0.264051 -1.07662 0.101625 -0.203913 -0.435434 -0.723889 -0.339432 0.65403 -1.11667 0.577708 0.769587 -0.935689 -0.875014 0.318721 -0.502891 0.573727 -0.639824 -0.429244 -0.867021 -0.800228 0.695698 0.473801 0.42272 -0.248176 -0.636772 0.146238 0.216286 -1.12001 -0.687471 -0.739235 -0.0287696 -0.497889 0.169439 -0.529498 0.198066 0.590746 0.611161 0.637378 0.471055 -0.0168211 0.806968 0.711953 0.243646 -0.806278 -0.0161849 -0.742226 0.838006 -0.912062 0.554816 -0.187522 -0.194555 -0.827763 -0.635108 0.809799 0.83022 -0.500933 -0.913573 0.0810804 0.688451 0.79937 0.181255 0.427812 0.126621 -0.351154 0.805248 0.819092 -0.0980195 0.426283 0.305193 0.231847 0.376423 -0.674041 0.546042 0.0490377 0.814265 -0.397363 0.921614 0.684841 -0.094447 -0.505108 0.420098 1.00125
-0.821965 0.352338 -0.944568 -0.184266 1.05085 -0.264987 0.0353744 -0.255312 -0.0519029 0.383667 0.808499 -0.523708 0.232805 0.72017 0.356079 0.317937 -0.693591 0.8909 0.727092 0.978116 0.629525 -0.928959 0.470799 0.551787 -0.499973 0.534259 0.726239 -0.687884 -0.555237 0.65452 -0.850782 -0.635755 0.625061 -0.717661 -0.109548 0.178666 -1.02524 -0.754859 -0.998517 -0.440605 -0.209743 0.995188 0.944432 -0.451936 0.284108 0.771231 -0.0177801 0.0274245 -0.953733 -0.932197 -0.384256 -0.892967 0.603897 0.345757 0.0984355 0.899089 0.181207 0.0464245 -0.237734 0.459018 0.0241419 -0.722875 0.39057 -0.121692 -0.486944 0.714571 -0.19275 1.1414 0.430016 -0.23424 0.395289 -0.601 0.00535302 -0.78979 -0.888866 0.0969644 0.652585 0.790437 0.789186 0.31542 -0.47859 0.611474 -0.851324 -0.420429 -0.84163 -0.992868 0.397071 -0.185328 -1.05549 0.681242 0.420007 0.755504 -0.0142711 0.685527 -0.590672 0.605591 -0.359305 0.727385 -0.513622 0.365136 -0.474955 0.469677 0.216815 0.334152 -0.423198 -0.671351 0.0236645 -0.225416 0.227184 -0.690263 -0.0332769 -0.250494 -0.552918 -0.744913 0.537564 -0.74838 0.676347 -0.467089 0.0216977 -0.965687 -0.316723 0.812199 0.451659 -0.132575 -1.05133 -0.333382 0.245573 0.618977 0.412165 0.389484 -0.516189 0.393719 -0.40499 0.0943042 0.564722 0.61355 -0.300201 -0.948306 -0.242225 1.15341
-0.0802028 0.0481977 -0.965897 -0.646199 -0.255246 0.826478 -0.762033 0.394807 0.112136 0.78981 0.849048 -0.18732 0.34312 0.577644 0.343276 -0.655305 -0.500342 0.955225 -0.772385 0.866695 0.171547 0.481687 -0.76142 -0.550318 -0.745251 0.180223 0.522972 -0.96162 1.17723 0.619277 -0.91142 0.839948 0.0968345 -0.0503232 -0.664275 0.661035 -0.937798 0.541718 -0.724175 -0.579521 0.80733 -0.842928 -0.136806 0.113163 0.334748 0.376105 -0.710044 0.528017 0.55536 0.01494 -0.284279 0.447269 -0.454363 0.891572 -0.136625 -0.346299 -0.0280642 0.312339 -0.737445 -0.357124 0.644033 -0.202934 0.393769 0.271347 -0.82882 0.430457 -1.15908 -0.838863 -0.827609 -0.606702 -0.267664 -0.90668 -0.360444 0.33324 -0.382489 0.427807 0.589313 0.613057 0.202401 -0.0824266 -0.177372 0.0890748 -0.602579 -0.532354 0.0160637 -0.0815887 -0.414549 0.142733 0.257274 -0.754607 -0.610535 0.0994542 -0.654084 0.9519 0.941269 -0.507863 0.367521 0.0833856 -0.312352 -0.512138 -0.342029 -0.328291 -0.513853 -0.207516 -0.417468 -0.0386292 0.335721 -0.561188 0.467675 -0.392179 -0.809298 -0.36916 0.195045 0.202043 -0.236715 0.490196 -0.925505 1.10313 0.379972 0.6267 0.587399 -0.489746 -0.231579 -0.683477 0.668482 0.750901 0.597748 0.118795 -0.657968 0.0792976 0.0382304 -0.657044 -0.86007 -0.579039 -0.187354 -0.467164 0.870619 -0.581403 -0.408683 0.4408
0.285411 -0.202078 -1.03865 0.720322 -0.724424 -1.0073 0.855539 -0.540221 0.911728 -0.742694 0.69812 0.277233 -0.661369 0.466023 0.0284548 -0.450446 -0.221345 0.206254 -0.15407 0.732338 -0.1579 -0.498354 0.449083 -0.716669 -0.308262 -0.598694 -0.509744 -0.44204 0.0276292 -0.949376 -0.357626 -0.846564 -0.447313 -0.401725 0.937331 -0.657894 -0.0864307 -0.139355 0.783907 0.581238 -0.352222 -0.868521 -0.829193 -0.629302 0.0147938 -0.649499 0.3036 0.298222 0.00907386 0.408836 -0.26861 -0.171293 -0.671083 0.76737 -0.508518 -0.873106 0.793264 -0.72198 -0.600498 -0.911766 0.43531 -0.969132 -0.505466 0.611288 -0.752863 -1.00468 0.660121 -0.55082 0.0555779 -0.926864 -0.347975 -0.827223 0.392078 -0.493391 -0.50093 -0.354013 -0.0243016 0.885095 -0.0254934 -0.227905 0.137192 0.172188 0.22365 0.684265 -0.231096 0.0425157 -0.167836 -0.623043 -1.01939 -0.394941 1.00027 -0.319064 -0.886346 -0.270105 0.0351717 0.546183 -1.03765 0.960793 0.764717 -0.942481 0.691128 0.451505 -0.520322 -0.582448 0.943207 0.207234 -0.653865 -0.833031 0.710345 -0.68082 -0.182456 -0.119494 0.440841 0.851416 -0.643201 -0.0150408 -0.860824 0.242232 -0.749206 0.723574 0.56747 -0.911171 -0.596216 -0.862055 0.487418 0.445032 -0.781689 0.979589 -0.319873 0.22758 0.121851 0.969614 0.130599 0.868654 -1.07391 0.053815 -0.0999064 -0.778561 -1.09092 -0.700546
-0.902357 -0.381265 0.520341 -0.217011 -0.744576 -0.799857 -0.0505659 0.517904 -0.483376 -0.227667 0.788406 0.0344557 -0.203321 -0.606618 -0.673813 -0.0496105 -0.26599 0.15618 1.11796 -0.224903 -1.01521 0.725948 -0.364264 0.0942628 -0.0174483 0.826002 0.095151 0.590204 -0.0704366 0.805495 -1.04864 -0.264942 0.161115 -0.706442 -0.234046 -0.595964 -0.799696 0.500292 -0.288258 -0.806296 0.551977 -0.678571 -0.154581 0.850996 -0.311936 0.841183 -0.0354126 -0.829638 0.638117 0.259063 0.779368 -0.418787 -0.120147 0.61609 -0.493418 -0.771951 0.00620816 -0.644647 -0.953701 -0.817019 0.676451 -0.981372 0.398129 0.635948 0.837843 0.141309 -0.814683 -0.56512 -0.811072 -0.306175 -0.854689 0.172361 0.545399 0.718136 0.122962 0.037623 -0.458155 -0.695966 0.961596 -0.476857 0.202262 -0.690786 -0.316958 -0.289651 0.389131 -0.228854 -0.520889 -0.248172 0.548632 -0.0343052 -0.540421 0.336137 0.431503 0.405255 0.341096 -0.91079 -0.0825134 0.72946 0.844233 0.21351 0.777258 0.238879 0.210367 0.00478682 -0.353215 0.745851 -0.258583 -0.712233 -0.251653 0.970665 -0.458655 0.21385 0.141096 -0.227514 0.862187 0.0309485 0.151826 0.81795 0.967802 0.254828 0.561863 0.905761 0.191404 -0.566323 0.00273688 -0.393034 -0.910681 0.779155 -0.392432 -0.0358913 0.510806 -0.80783 0.540675 0.825265 -0.545761 -0.218744 0.697431 -0.0338819 -0.453507 -0.774753
