Weights Network
5 Hiddens Layers
0.57 0.3 -0.68 0.92 -0.54 -0.36 -0.29 -0.37 0.26 -0.54 0.1 -0.08 -0.4 -0.56 0.19 0.19 -0.84 -0.1 -0.8 -0.66 -0.09 -0.75 0.83 -0.86 0.99 -0.06 0.81 0.85 0.7 0.41 -0.1 -0.93 -0.23 -0.65 -0.48 -0.27 0.92 0.36 0.82 0.33 0.99 -0.65 -0.01 -0.28 -0.21 0.17 -0.42 -0.08 0.84 -0.05 -0.44 -0.84 -0.41 -0.21 0.91 -0.32 -0.06 -1 -0.77 -0.25 -0.06 0.8 0.15 -0.02 0.77 -0.09 0.49 -0.64 -0.71 0.49 0.32 0.81 -0.18 -0.17 -0.98 -0.79 -0.91 0.82 0.5 0.53 0.85 -0.87 -0.19 0.47 -0.16 -0.95 0.7 -0.32 -0.5 -0.8 0.5 -0.99 -0.36 0.53 -0.41 0.66 0.76 0.34 -0.77 -0.88 -0.41 0.9 0.48 -0.54 -0.84 -0.23 -0.28 -0.28 0.24 0.12 0.69 -0.5 -0.74 0.21 -0.78 -0.43 -0.59 -0.42 0.93 -0.65 -0.7 0.28 0.94 -0.07 0.66 0.97 0.53 0.59 0.95 -0.66 0.54 -0.83 0.64 0.95 0.97 -0.31 0.25 -0.15 -0.85 -0.49
0.58 0.97 -0.21 -0.21 0.05 0.22 0.74 0.63 -0.25 0.29 -0.46 -0.71 0.37 -0.68 0.82 -0.32 0.47 -0.02 -0.5 -0.63 0.41 -0.29 -0.38 -0.07 -0.42 0.21 -0.96 0.26 -0.37 0.99 -0.86 -0.27 0.65 0.52 0.14 0.48 0.66 0.16 -0.71 -0.17 0.44 0.83 -0.65 0.38 0.38 0.85 0.12 0.63 0.03 0.42 0.48 -0.31 0.71 0.03 0.72 -0.29 -0.97 -0.52 -0.05 -0.61 -0.11 0.89 0.03 0.2 -0.97 -0.17 -0.55 -0.24 0.32 0.13 -0.3 -0.26 -0.43 0.89 0.98 -0.04 0.43 -0.84 0.62 0.45 0.64 0.97 -0.45 -0.37 0.04 0.47 -0.74 0.13 0.77 0.07 0.12 0.78 -0.09 0 -0.1 0.13 -0.21 0.97 0.03 0.8 -0.66 -0.98 0.06 -0.12 -0.54 -0.46 -0.52 -0.21 -0.08 0.65 -0.1 -0.51 0.12 -0.76 -0.59 -0.3 -0.17 -0.95 0.76 -0.75 0.34 0.2 -0.24 0.99 -0.88 0.95 -0.35 0.51 0.98 0.59 -0.56 0.82 0.61 0.74 0.33 0.39 0.02 -0.9 -0.59 -0.53
0.83 -0.15 -0.44 0.29 0.75 0.24 -0.97 0.61 -0.69 -0.01 0.12 0.25 0.08 0.88 -0.57 0.04 -0.48 0.36 -0.48 0.86 0.52 -0.87 0.79 -0.61 -0.78 0.62 -0.02 -0.94 0.53 -0.19 -0.34 -0.82 0.28 -0.5 0.54 -0.61 0.64 -0.89 -0.69 -0.6 -0.36 0.16 0.37 -0.71 -0.24 0.35 0.95 0.6 0.94 -0.75 0.79 0.6 -0.63 0.82 0.84 0.54 -0.54 0.48 0.36 -0.43 0.63 -0.48 -0.84 -0.22 0.08 -0.7 0.3 0.05 -0.4 -0.75 0.86 -0.03 -0.09 1 0.92 -0.46 0.52 -0.32 0.22 -0.28 0.54 -0.86 -0.4 -0.34 0.62 -0.85 -0.75 0.31 1 0.71 0.91 0.87 -0.86 0.01 -0.24 0.05 -0.42 -0.98 -0.28 -0.12 -0.54 -0.08 0.4 0.07 -0.96 0.47 0.97 0.09 -0.8 0.27 -0.34 -0.15 -0.71 -0.73 -0.31 -0.78 0.45 0.19 0.47 -0.35 0.75 0.78 0.84 -0.61 -0.83 0.38 -0.3 0.56 0.96 -0.07 -0.32 -0.97 -0.56 0.62 0.72 0.27 0.28 0.19 0.39 0.54
0.4 -0.149987 0.709925 0.58 -0.879999 0.900002 -0.550001 -0.510008 -0.44 0.94 0.920002 -0.820001 0.0999935 0.35 -0.73 -0.25 -0.160001 0.57 -0.56 -0.939978 -0.45 0.16 -0.27 0.399999 -0.849985 -0.150001 0.01 0.0399955 0.77 -0.679979 -0.11 0.520002 -0.709985 -0.85 -0.800038 0.48 -0.4 -0.700001 -0.739999 0.349988 -0.48 0.56 0.73006 -0.23 0.640015 -0.240013 0.829986 -0.74 -0.980006 0.580001 -0.619997 -0.429989 0.55 0.73 0.780042 0.0999987 0.300001 -0.620013 -0.580001 -0.150026 -0.720008 0.680002 0.780021 -0.200018 -0.269952 0.530001 -0.789957 0.449933 -0.14 0.7 -0.299998 0.310002 0.0599982 0.53002 -0.179996 -0.720002 0.710004 -0.689956 -0.86 -0.819997 0.749978 0.58 -0.47001 0.640028 -0.56 -0.18 0.799993 0.839996 0.659994 0.100009 -0.490002 -0.78 0.0400005 0.379997 0.13 -0.53 -0.97 -0.0400016 -0.96 -0.51002 0.49 0.05 -0.35 -0.560003 -0.119987 -0.72 0.609998 -0.299993 0.389999 0.610045 0.779998 -0.34 0.71 -0.120017 -0.790008 -0.300046 0.68 0.109993 -0.23 -0.750001 -0.599992 -0.0100014 0.590006 0.519999 0.899996 -0.590023 0.49 -0.36 -0.100002 -0.539999 0.450001 0.779999 -0.800002 0.239978 -0.770001 0.7 -0.909989 0.629993 -0.23 -0.909998
-0.609192 -0.424906 -0.4871 -0.799784 0.609867 0.469761 0.581238 -0.13782 -0.897945 0.411326 0.340413 -0.0397983 -0.967787 -0.460325 0.110124 -0.82951 0.0295766 -0.879971 -0.969936 0.986942 -0.800567 0.770061 0.360766 0.959846 0.670985 -0.0702244 0.0501115 0.899561 -0.25 0.997977 0.826789 0.0532897 0.680572 0.199577 0.824633 -0.981082 -0.0202899 0.221765 -0.482068 -0.051003 -0.47786 -0.300169 0.593852 -0.350011 0.259865 -0.319449 0.029254 0.359624 0.233401 -0.250524 -0.805416 0.989717 0.140153 0.239957 -0.0161333 0.320106 0.939957 -0.731619 -1.00009 -0.783025 0.280968 0.970701 -0.868134 -0.551549 -0.855057 -0.519579 0.561229 0.532703 0.466636 0.0478998 -0.777824 0.83004 0.629833 0.227769 -0.198428 -0.860207 -0.789823 0.0325562 -0.39038 0.0901449 -0.221764 0.0898501 0.336649 -0.118312 -0.989907 0.430089 0.829565 0.379561 -0.659611 0.352093 0.0382846 -0.889681 -0.748199 0.219085 0.345466 0.22756 -0.509247 -0.020756 0.539538 -0.964278 0.531365 0.660113 0.869973 -0.740803 0.53038 0.569758 -0.226311 0.66926 -0.159124 -0.377397 0.992602 0.0793474 0.0597832 -0.691001 0.459264 -0.431843 0.0587221 -0.932772 0.23939 0.160738 -0.280047 -0.46689 0.850359 -0.0499504 -0.54116 -0.719991 -0.706858 0.600037 -0.460546 0.975313 0.981532 0.179678 0.230203 0.719644 0.0729693 -0.170158 -0.328777 0.0892105 0.556971 -0.662206
0.803479 -0.669606 -0.402612 -0.830067 0.0694684 0.139731 -0.961225 0.0873018 -0.642661 -0.472609 0.825887 -0.776297 -0.0255302 -0.752196 0.96047 0.959729 0.448209 -0.795366 -0.829488 -0.395915 -0.0721046 0.861039 -0.743656 -0.0813833 -0.844217 -0.51782 0.449281 -0.287401 0.750032 -0.572388 -0.780128 -0.863884 -0.101034 0.531538 -0.457888 -0.517756 0.876416 -0.690171 -0.228469 0.583063 0.350491 -0.975786 -0.443934 0.779163 -0.538252 0.896112 -0.0291765 -0.319873 0.678237 -0.871992 -0.321973 -0.596902 -0.979389 -0.419034 -0.0567359 0.49624 -0.490846 0.123141 0.961938 -0.936789 0.622998 0.958723 -0.376919 0.458267 -0.0494792 0.710468 -0.465318 -0.540374 -0.022991 0.320213 0.0308595 0.236243 0.446152 0.810137 0.476186 -0.229624 -0.607958 0.741545 -0.692009 -0.635357 -0.15543 -0.605605 0.28719 0.152566 0.966038 -0.0788647 0.969545 -0.00641441 0.990342 -0.772756 0.3532 -0.499232 0.570383 -0.917293 0.992199 -0.0849588 0.0309774 -0.658943 -0.492743 0.83469 -0.449534 0.677088 0.821348 -0.985292 0.0559223 0.247697 -0.160235 0.117146 -0.637532 0.0274304 -0.388212 0.484727 0.651825 -0.845762 0.308061 0.410355 0.928046 0.864636 -0.960641 0.851553 -0.568774 -0.0645404 -0.220119 -0.87995 0.108769 -0.521458 -0.657406 -0.950555 0.925835 0.0778004 -0.580797 -0.503343 -0.982058 0.678569 0.667241 -0.249872 0.8516 0.189417 -0.517698 0.48133
-0.898763 0.168269 0.850301 0.840121 -0.433308 0.43273 -0.777149 0.931636 -0.789945 -0.425375 0.86099 -0.784057 0.697635 -0.673062 0.290835 -0.5202 0.401454 0.98832 -0.0683119 -0.77834 0.0768108 0.567302 0.234188 -0.643987 -0.372734 0.640812 -0.672794 -0.416108 0.600501 0.856875 -0.0809751 -0.884372 0.4841 -0.913784 -0.931148 0.96059 0.893741 -0.12678 -0.360864 0.0242496 -0.320413 -0.0376207 -0.541555 0.608708 -0.125594 -0.91051 -0.828872 0.883244 -0.60875 0.230138 -0.309866 -0.901441 0.528494 -0.193055 -0.26064 -0.589097 0.709117 0.367677 0.500211 -0.440544 0.209288 0.927189 -0.0583893 0.0477052 -0.31415 0.783224 0.0936657 -0.768434 0.600755 -0.593097 -0.445693 -0.345537 -0.82462 0.961304 0.401797 -0.53182 -0.283408 -0.501726 -0.00322801 0.268547 -0.667501 -0.17095 -0.638035 -0.526289 -0.635444 -0.0363868 -0.659426 -0.6063 -0.36978 -0.542864 0.727897 0.192037 0.259533 -0.468297 -0.93066 -0.272255 0.579021 0.710118 -0.197465 -0.52955 -0.71986 -0.127546 0.0157907 0.398297 -0.243557 0.219629 -0.751477 0.516155 -0.108369 -0.198499 0.160084 0.269379 0.800225 0.931342 0.114208 0.988559 -0.134813 0.172995 0.0133509 -0.811694 0.954582 0.181208 -0.527475 -0.904896 -0.201123 0.551855 0.979535 0.543483 0.872687 0.487617 -0.936789 -0.500401 -0.0933575 0.0173014 -0.782839 0.178244 0.572858 -0.730954 -0.312858 -0.324482
-0.570912 -0.826202 -0.419516 0.734543 0.807426 -0.31177 -0.294075 -0.231543 0.598329 -0.350476 -0.422359 -0.623146 0.67712 -0.67479 -0.858544 0.958821 -0.535937 0.938811 0.0413802 0.0970224 -0.698431 0.250316 -0.527393 0.483405 0.593091 0.534802 -0.181362 -0.00207135 0.400686 -0.920021 -0.134856 -0.362981 0.03893 -0.799369 0.528914 0.411461 0.196556 -0.162414 0.297366 -0.665269 0.248667 -0.252273 -0.922736 -0.0901974 0.151187 0.922101 -0.21907 0.0370113 0.438484 -0.179233 -0.660556 0.96316 -0.881818 0.809885 0.0083435 0.512689 0.545214 -0.502454 0.0346469 0.573998 -0.0720653 0.522227 0.680134 -0.790701 0.236643 0.847614 -0.824337 0.608573 -0.860277 -0.870227 -0.89887 -0.0516175 0.316717 0.198493 0.926856 0.907015 -0.844571 -0.707435 0.637988 -0.202889 0.0761995 -0.525913 -0.923014 -0.479373 0.798294 -0.504989 0.213071 0.351854 -0.403595 0.315117 -0.832413 0.442795 0.44593 -0.279667 0.0532335 0.964264 0.568845 0.2041 -0.0504629 0.895197 0.384096 0.849637 0.0923516 0.659658 -0.53017 -0.40721 0.719288 0.109263 0.0944185 0.616901 0.921301 -0.647296 -0.575962 -0.516936 -0.87879 0.791707 -0.971738 -0.0827229 -0.899288 0.700867 -0.488069 0.589275 0.485596 0.613197 -0.351266 0.419389 -0.884412 0.529719 0.132436 -0.7562 0.305468 -0.16014 0.734995 0.413593 -0.170611 0.984342 0.237486 -0.408807 0.508636 -0.849812
0.135481 0.338401 -0.877301 0.675743 0.295104 0.935731 -0.789459 0.440266 0.274533 -0.277766 -0.319451 0.0834562 0.366159 0.226542 -0.959042 -0.270366 0.886998 -0.683756 0.851211 0.20865 -0.947504 -0.789212 0.552796 -0.35593 0.401304 -0.505203 0.90719 -0.00637973 0.430852 -0.587599 -0.976377 -0.00251279 0.774031 0.547698 -0.308684 0.436089 -0.157772 0.0991686 0.624867 -0.586525 -0.951638 0.372997 -0.439583 -0.370641 -0.100487 0.0940237 0.241879 1.00106 -0.167744 -0.77529 0.469833 -0.404422 -0.158248 0.59254 -0.742587 -0.356679 -0.576617 0.526215 0.63569 -0.16612 -0.724191 0.96 0.789885 -0.68068 -0.562627 0.389069 -0.24255 0.204092 0.953219 0.253139 0.872846 0.567133 0.536275 0.366648 -0.905658 -0.691604 0.824271 -0.593421 -0.691096 0.717124 0.473337 -0.338834 -0.35694 0.659425 -0.992813 -0.856353 -0.543865 0.161826 -0.257615 -0.461245 0.0263842 0.0293584 0.294993 0.841066 -0.847916 -0.473983 -0.402138 0.401028 -0.713717 0.118802 -0.423494 0.307479 0.621344 -0.0284898 0.521032 0.57355 0.579606 -0.148135 -0.530495 -0.567483 0.38249 -0.176161 -0.738026 -0.134568 -0.373468 0.221919 0.188644 0.655933 0.708768 0.979162 -0.668996 -0.301902 0.246192 -0.316659 0.603098 0.40706 -0.208668 -0.601401 0.753796 -0.582771 0.955356 -0.808735 0.670235 0.153709 -0.508537 0.169156 -0.481923 -0.642004 -0.439423 -0.671651
0.568247 0.143155 0.373817 0.519965 0.918249 0.416755 -0.748258 0.334749 0.700119 -0.100386 -0.448698 0.228158 0.747556 -0.330396 0.209921 0.854784 0.446241 -0.0542186 -0.699149 -0.880913 -0.779161 0.031309 0.563686 0.331514 -0.535672 -0.520563 -0.333173 0.967202 0.567035 -0.279545 -0.296625 -0.966442 -0.949142 -0.382691 -0.175008 0.606158 0.59749 0.386234 -0.526072 0.944796 -0.951875 0.231182 0.408491 -0.481161 0.316779 0.113636 -0.748212 0.249942 -0.33416 -0.49953 0.0351575 0.933548 -0.300341 -0.695032 -0.0593503 -0.70123 -0.932154 -0.538774 0.999706 -0.086039 -0.726392 -0.457254 -0.196406 -0.520467 -0.50271 -0.479977 -0.0596831 -0.368296 -0.893924 0.889911 -0.66629 -0.873147 0.234474 0.455183 -0.506764 -0.250616 -0.441146 -0.0196721 0.0957815 0.736184 0.0645197 0.246105 0.571933 0.460319 0.816833 0.430689 -0.564882 -0.688727 -0.0422499 -0.783182 -0.600373 0.0875998 -0.728474 -0.93937 -0.802057 -0.161977 0.999146 0.94006 0.881797 0.927765 -0.574336 -0.324943 -0.625365 -0.478593 0.249072 -0.946972 -0.504164 0.470404 -0.227846 0.645074 0.518382 -0.466679 -0.443504 0.334509 -0.607822 0.36385 0.675862 0.111074 -0.576235 -0.481716 -0.137795 0.937725 0.522724 0.00313816 0.0922624 0.177196 -0.540019 0.845104 0.37962 -0.621855 -0.329399 -0.409978 0.740985 -0.667365 -0.608793 -0.132812 0.185855 0.498894 -0.748714 -0.296595
0.44928 0.846493 0.150596 0.880061 0.0744572 -0.89091 0.464872 -0.470127 0.658758 0.658435 0.560748 0.0930775 -0.904194 -0.129429 0.659956 -0.63336 0.637932 -0.635244 -0.419856 -0.263054 0.969622 -0.249816 -0.439748 0.100186 -0.303733 -0.580487 -0.251387 -0.997156 -0.417205 0.444026 0.0483726 -0.786575 -0.369864 -0.82478 -0.331168 0.6274 0.79345 -0.62874 0.742725 0.182524 -0.380278 -1.0141 -0.839918 0.649039 0.889552 -0.369582 0.151317 -0.680656 0.0200687 -0.761572 -0.427635 0.138397 0.62969 -0.692294 0.940441 0.326812 -0.860245 0.557616 0.64013 0.0772749 -0.266039 0.730345 0.889686 0.0699802 0.717693 -0.640468 0.358488 0.711328 -1.00183 -0.631698 -0.418379 0.463278 -0.702961 -0.248843 -0.489479 0.160013 -0.190201 0.480118 -0.79242 0.115251 0.659903 -0.669607 0.720769 -0.789698 -0.0492556 -0.560118 -0.914384 0.330871 0.263669 -0.145225 0.169039 -0.351114 -0.349629 0.899978 -0.710014 -0.17039 0.439903 -0.229159 -0.54965 -0.0110442 -0.0839808 0.635372 0.956728 -0.268895 0.169117 0.0791585 0.864843 0.590144 -0.289463 0.820475 -0.321681 0.685355 0.472649 0.701656 -0.648857 0.710632 0.568102 -0.859884 0.0722075 -0.63002 -0.164526 0.917693 -0.312472 0.0314787 0.981242 -0.204109 -0.703409 -0.323675 -0.680067 0.781235 -0.589105 0.950188 -0.415691 0.669817 0.200471 -0.566661 -0.28623 -0.870139 -0.519556 -0.678973
-0.290185 0.230116 0.0900347 -0.610652 0.379384 -0.00980928 -0.920061 0.149623 0.990029 -0.139917 -0.459979 0.799803 0.869617 -0.629877 -0.0100028 -0.90943 0.989815 -0.860005 -0.339996 0.93151 0.870026 0.100046 -0.500007 -0.23962 0.140264 0.439669 -0.240175 0.42996 -0.360004 0.880253 -0.00905823 -0.290255 -0.329758 -0.41 0.239919 -0.809991 0.0697573 -0.560152 0.450568 0.378591 0.430117 0.919751 0.0800961 -0.671035 0.180089 -0.949867 0.969994 -0.899929 0.519865 -0.659615 -0.540476 -0.970585 0.0498779 0.26001 0.429866 0.959517 0.369587 0.260242 0.188441 -0.930284 -0.570394 -0.70052 -0.309852 -0.310001 -0.889994 -0.420025 -0.50005 0.769811 0.549638 -0.529544 -0.649785 0.910393 0.88 0.499814 0.480018 -0.991113 0.119452 -0.170031 0.600044 -0.520019 -0.20001 -0.420029 0.920029 0.340811 -0.129999 0.0304685 -0.619476 -0.909972 0.0996423 -0.489954 0.800053 -0.0801369 0.390401 -0.459995 0.540307 -0.810194 -0.840401 -0.679955 0.109671 0.13017 0.090203 0.150269 -0.410141 0.380002 -0.959854 0.429423 -0.0100033 0.360934 -0.29 0.0697413 -0.40983 0.769953 0.220366 -0.299992 -0.419832 0.461102 0.980232 -0.309713 0.319549 -0.600048 -0.0202462 0.469828 0.961401 -0.730051 0.950452 0.749966 -0.399842 0.0403927 -0.0699733 0.95036 0.259872 -0.521261 -0.900172 0.5997 -0.0401265 0.910015 0.519981 -0.360227 0.909243 0.470213
0.869824 0.339488 -0.819923 -0.950336 0.43971 0.520148 -0.430097 0.760597 -0.079681 0.30963 0.839974 -0.699507 -0.730065 0.490086 -0.110221 0.970616 0.729932 0.710155 0.410006 -0.328549 -0.230016 -0.2594 0.739999 -0.759992 0.690128 -0.661012 0.960002 -0.0800838 0.26 0.729612 -0.498988 0.109222 0.970009 -0.0590376 0.880048 -0.559942 0.519985 0.159983 -0.708849 -0.83129 0.399564 -0.759996 0.560094 0.289841 0.15013 -0.739782 0.0699895 0.130048 -0.0701614 -0.669726 0.7093 -0.10032 -0.689566 -0.799903 0.759061 0.479528 -0.370238 -0.68031 -0.610677 -0.450124 -0.840177 -0.700099 0.280074 0.609999 0.579774 -0.629994 -0.0593908 -0.490069 -0.390312 0.680201 0.47006 0.0299883 -0.850209 -0.790038 0.380006 0.818831 -0.410522 0.511021 -0.36011 0.26944 -0.810003 0.940419 -0.56937 0.530103 0.839991 -0.159471 -0.339402 0.219905 -0.950144 -0.699969 -0.559906 -0.0500229 0.919954 0.100041 0.0499747 -0.249905 -0.899994 0.18 0.349756 -0.659868 -0.1496 0.210502 0.159959 -0.460009 -0.100072 -0.72029 -0.28005 0.38022 -0.610025 -0.219113 0.630562 0.650086 0.381212 -0.599441 -0.109999 -0.0888391 0.680341 -0.0499715 -0.930302 -0.63 -0.580541 -0.810574 -0.020016 0.0293763 -0.660473 -0.700034 -0.210957 -0.389934 0.88987 -0.630149 0.609825 0.928326 0.400109 0.450248 0.590041 0.749906 -0.810157 -0.380226 -0.220829 -0.189975
-0.819945 0.61927 -0.0601377 -0.0700003 0.710037 0.190177 -0.889714 -0.209224 -0.550038 -0.940179 -0.669965 0.321844 0.299972 0.0400056 -0.660226 0.619853 -0.83044 0.960043 0.390008 -0.270334 0.0500817 -0.339631 -0.0700102 0.189957 -0.209665 -0.210118 0.529983 0.259933 -0.639993 0.00961153 -0.859593 -0.61998 0.279945 -0.239027 0.810035 0.889971 -0.879973 -0.479804 0.409665 0.679764 -0.900506 0.70983 0.820122 0.59012 0.640011 -0.7398 0.109642 0.970039 -0.63977 0.420646 0.230007 0.560014 0.830243 -0.829907 -0.480919 -0.369813 -0.659974 -0.260346 -0.359061 0.0402966 -0.860487 0.0398024 0.530008 0.940098 0.0098085 -0.359892 0.030661 0.330072 0.929749 0.0700602 -0.19995 0.200016 -0.910704 -0.269959 -0.329983 0.680154 0.109928 -0.0385065 0.968982 -0.400079 0.249996 0.700425 -0.23938 -0.17022 -0.440009 0.189994 0.459745 -0.560113 0.640305 -0.529941 -0.430099 -0.339699 0.0699578 1.00005 0.550038 -0.51989 -0.499979 0.0997828 0.730956 -0.039931 -0.199623 0.510602 -0.560097 0.669902 0.42002 -0.189992 -0.690017 -0.389809 0.0799708 0.420842 0.449897 0.509324 -0.0790787 0.810566 0.830143 -0.999031 -0.479868 0.510043 -0.64025 0.820023 0.859876 -0.851388 -0.00990893 0.369437 0.169114 0.65008 0.478604 0.599904 0.889854 -0.520417 0.869667 -0.480732 0.689935 -0.309898 0.13015 0.839896 -0.0100223 0.2801 -0.409887 -0.319831
0.831141 0.671401 0.778986 0.433569 0.67134 0.831657 -0.941568 -0.376223 -0.595315 0.95404 -0.249935 -0.149814 -0.168156 -0.0115087 0.0401833 0.125101 -0.866228 0.549733 0.458392 -0.321759 0.0597885 -0.669846 0.699679 -0.549252 -0.676878 -0.880925 -0.230727 0.349586 -0.400146 0.243679 -0.95886 -0.181502 -0.918611 -0.443636 0.999127 0.235413 0.657237 0.261175 0.81047 0.621295 0.260061 -0.893362 0.310524 -0.168728 -0.601479 -0.631968 0.360234 -0.0736205 0.208729 -0.141806 -0.20873 0.819814 0.129942 0.119501 0.329726 0.839522 0.119243 0.291573 -0.814835 0.953598 -0.0253691 -0.111766 -0.279613 -0.200059 0.250335 0.259279 0.355177 -0.359717 0.97763 0.557598 -0.130054 -0.713378 0.600896 -0.254386 0.229587 -0.550264 0.906442 -0.880192 -0.0105516 0.535955 0.420441 -0.779751 -0.319596 -0.900553 -0.444724 0.230306 0.197662 -0.819532 -0.0744499 0.0960407 0.516596 -0.241053 0.562041 -0.111498 -0.460986 0.922546 -0.410177 0.746612 -0.636469 0.984174 0.765485 0.131815 -0.949776 -0.0882847 0.282934 0.969717 0.123452 -0.416464 0.798348 -0.323869 -0.497049 0.102887 0.450514 -0.499722 0.670174 -0.23698 0.681542 -0.674769 -0.215466 0.70986 0.285621 0.183868 0.992939 0.289738 0.211737 0.0431717 0.247836 -0.573852 -0.901054 -0.0851247 0.346654 0.369759 0.0572836 0.302637 0.716614 0.0115174 0.525833 -0.405505 0.149705 0.771464
-0.25403 0.90675 0.897868 -0.229011 0.588065 -0.277282 0.540589 0.425721 -0.867503 0.668651 -0.869209 0.389187 0.702972 -0.14415 0.180339 1.00899 -0.333986 -0.222434 -0.5431 -0.151851 -0.0715782 0.0811285 -0.72039 -0.268839 -0.640409 -0.230159 -0.623707 -0.592672 -0.719769 0.401003 0.493038 -0.810792 -0.486587 0.776417 -0.0417979 -0.264385 -0.995234 -0.696434 0.269625 0.787416 0.544394 -0.231168 0.790833 -0.585129 -0.18398 -0.202655 -0.300129 0.793836 0.387391 0.519669 -0.37585 -0.381216 -0.910703 0.549169 0.420956 -0.560922 0.511138 0.601793 0.569913 0.545803 0.587102 -0.966655 0.0480286 -0.870302 -0.139695 -0.733075 -0.658986 0.180264 0.480216 0.25793 -0.501171 0.902182 -0.733548 -0.0639852 0.199188 -0.286104 0.531967 -0.0913854 -0.702235 -0.42723 -0.926347 -0.819327 -0.741251 -0.370405 -0.0695552 0.230933 -0.137226 -0.62875 -0.878155 0.983503 -0.336072 -0.0311682 0.926736 -0.262949 0.194127 0.380361 0.81563 -0.75412 -0.52241 -0.565156 0.085534 -0.687209 0.649941 -0.230987 0.396929 0.6793 -0.329209 0.955195 0.0211446 0.395119 0.118676 -0.888854 0.410756 0.0110374 -0.539448 -0.83302 0.542851 -0.0927643 -1.00013 -0.370186 0.130071 -0.287566 0.833397 -0.370569 0.92146 -0.965772 -0.450379 -0.317321 0.766144 0.436482 -0.628004 0.85075 -0.794149 -0.587226 -0.206193 -0.160448 0.47662 -0.873846 -0.12109 -0.147908
-0.297897 0.895503 -0.109495 -0.770182 -0.777888 0.958882 0.170807 -0.110258 0.530259 0.580882 -0.658082 0.578848 -0.0615362 0.898444 0.842368 -0.199702 -0.0334824 -0.147992 -0.790963 0.245365 0.314369 -0.868525 -0.958 0.920429 0.349736 0.611511 0.108166 0.486325 0.593666 0.227646 -0.0128057 -0.492199 -0.242038 -0.171714 0.313298 0.78462 0.317631 0.183674 -0.233053 -0.922442 0.54328 0.92827 -0.271144 -0.916255 -0.0301973 0.601047 0.276746 -0.838851 -0.101491 0.316994 0.419358 0.390749 0.187786 0.92652 -0.361977 0.355854 0.0601224 -0.546647 -0.387531 -0.535077 -0.07018 0.385377 -0.902714 0.698293 0.773385 0.255083 0.702053 0.627859 -0.643192 -0.407725 0.419303 0.141944 -0.926973 0.959485 0.677206 0.376786 -0.381768 0.982479 -0.145935 -0.484551 -0.809827 0.829575 0.0960837 -0.676372 -0.785767 0.032361 0.0423183 0.0809939 0.255265 0.458862 -0.599568 0.282122 0.115592 0.511311 0.432922 -0.317186 0.303604 0.037873 0.428279 -0.514542 0.0306572 0.964232 0.511869 -0.727266 0.953724 0.12693 0.127355 0.122957 -0.301041 -0.0880334 0.898748 0.460256 -0.114114 -0.133276 -0.646645 0.586003 -0.316561 0.899412 -0.841485 0.00139 0.884385 -0.516807 -0.0255677 -0.683687 -0.488759 0.81361 -0.164144 0.635132 -0.949191 -0.640132 -0.29793 -0.0928964 0.533822 0.319215 -0.21314 0.823769 -0.0695888 0.145129 0.349061 -0.336769
0.140809 0.443593 0.821283 0.480395 0.23333 0.171982 0.464045 -0.597261 -0.229459 0.253685 0.418211 -0.925588 0.99692 -0.814833 0.216836 -0.540657 -0.984147 0.425579 -0.560193 -0.389709 -0.769036 0.0599034 -0.746932 0.891836 0.0687607 -0.55213 0.28134 -0.904381 0.151189 0.19738 -0.832751 -0.130559 -0.429076 -0.153215 0.527937 -0.336842 -0.590026 0.243103 0.669254 0.841215 -0.0461078 0.69356 -0.184513 0.77154 0.0799258 -0.749243 0.720474 0.246879 -0.228014 -0.903131 -0.971722 0.352479 0.951466 -0.274792 0.50727 0.363776 -0.510995 0.65425 -0.878558 -0.391127 0.217982 -0.243515 0.66276 0.125363 -0.98834 -0.78454 -0.363003 -0.256112 0.240127 0.857687 0.947506 -0.201946 -0.410378 0.213426 0.552321 0.399715 -0.716515 -0.56026 0.864132 -0.683927 -0.00815092 -0.684848 0.577695 1.03561 -0.0218026 -0.817408 0.63789 0.540538 0.757186 0.809487 0.655697 -0.793052 0.112784 0.300903 -0.924515 -0.300577 -0.0798481 -0.453919 -0.100624 -0.0740611 0.696139 0.897644 0.656384 0.974094 -0.623215 -0.833912 0.985238 0.408432 -0.647372 -0.688649 0.524396 0.47229 -0.369574 0.52328 0.922971 0.582558 -0.979212 0.402619 -0.983092 -0.715273 0.138818 0.719308 -0.495967 0.341965 -0.264731 0.82209 0.899748 -0.566534 0.807356 0.704938 0.335096 0.883956 -0.466541 -0.723852 -0.806153 -0.385517 0.118062 -0.574552 0.689316 -0.219691
-0.975293 0.48147 -0.678953 0.730755 0.767007 -0.708519 -0.785513 -0.358986 -0.209715 -0.698199 0.369278 -0.175654 0.347731 -0.156036 0.615076 0.360795 -0.738797 0.701395 0.959766 -0.294682 0.299441 -0.608148 0.670449 -0.190053 -0.0822101 -0.0627699 0.499857 -0.302855 0.116214 0.0877737 -0.775612 -0.134443 -0.324611 0.467533 -0.804007 -0.0912878 0.00211058 0.721361 -0.691597 -0.760003 -0.0235425 0.509328 0.316324 0.37215 0.858466 0.540419 0.763787 0.503748 0.893219 0.162434 0.631351 -0.0125735 -0.296815 -0.951221 -0.269673 -0.331643 -0.990238 -0.618184 0.376441 0.929 -0.980008 0.923886 -0.0260592 -0.613661 0.127881 -0.328411 0.974787 -0.0853364 0.027897 0.440099 -0.471627 -0.0514866 -0.720788 -0.0787507 0.732049 -0.986208 -0.258791 0.709117 0.04024 -0.509305 -0.362283 0.695816 -0.805078 -0.205311 -0.557995 -0.119003 -0.240244 -0.290296 -0.911979 -0.119485 -0.569165 -0.405927 0.259921 0.817348 0.755599 -0.523555 0.9302 0.227458 -0.300384 0.497819 0.623749 -0.00994448 0.407698 -0.971218 0.158839 -0.191772 -0.795922 0.372648 0.483885 0.572654 -0.432582 -0.529749 0.933076 0.997412 0.26074 0.392499 -0.732062 -0.589108 -0.733756 -0.995867 0.53332 0.871225 0.230232 -0.692735 -0.604478 0.420985 -0.886 0.535244 0.335339 -0.154858 -0.649149 0.173672 -0.862831 0.468161 -0.336791 0.00785058 -0.994564 0.518806 -0.600955 0.323261
-0.870478 0.950854 0.148373 -0.900584 -0.950731 -0.358377 0.15006 -0.867648 0.909746 -0.359113 0.209926 0.700323 -0.279985 0.259857 -0.0239719 0.471406 -0.671597 -0.770093 -0.450034 0.368031 0.583702 -0.649964 0.125232 -0.630005 -0.0102154 0.568192 -0.18 0.21997 -0.849997 0.249668 0.965267 0.487915 -0.639996 0.599928 0.720323 0.290349 0.969613 -0.62011 0.502998 0.567742 0.519847 0.208866 -0.76921 0.524067 -0.0830644 -0.121308 0.649744 0.669964 0.619597 -0.797038 -0.386975 0.718255 0.0299991 0.00665842 0.193323 0.367241 0.740175 0.809977 -0.243389 -0.950772 -0.0728091 0.371025 -0.739986 0.759978 0.969685 -0.89028 -0.0889726 0.953945 -0.580464 0.209433 0.0815328 -0.900592 0.668984 0.139937 0.859971 0.235294 -0.301003 -0.244047 0.870012 -0.221633 0.772257 0.220239 0.766916 0.410507 -0.909993 -0.358908 0.181143 0.429991 -0.141085 0.320556 -0.569734 -0.411811 0.28013 -0.380024 0.324767 -0.78025 0.839893 0.679954 0.43957 -0.130089 0.819514 -0.170012 -0.769991 0.236934 0.449661 -0.480276 0.650079 0.720699 -0.582643 -0.672092 -0.708516 0.160016 -0.089394 -0.640359 -0.99002 -0.320801 0.726458 -0.919936 -0.900229 -0.309915 0.197762 -0.949928 0.233979 -0.840541 0.670325 0.460416 -0.609953 0.71995 0.85129 0.180427 -0.738572 0.940117 0.350101 0.860194 -0.11478 0.459981 0.650443 0.59938 -0.962303 0.260261
-0.450183 -0.986772 0.0488036 0.0199672 0.108438 0.775328 -0.756899 0.89939 0.932712 -0.292954 0.340544 0.122828 -0.22602 -0.350211 -0.794056 -0.113123 0.753761 0.977878 -0.871891 -0.545579 -0.188725 -0.869987 -0.322207 0.529768 -0.375249 -0.94062 0.450643 -0.499997 0.350199 -0.258916 -0.21794 -0.77304 0.290978 0.0454691 -0.419618 0.527532 0.488837 0.867604 0.197215 0.76823 0.0811172 -0.469419 0.590583 0.464836 0.176521 -0.254198 0.998023 -0.824086 -0.130903 -0.339665 0.662257 -0.199423 -0.679913 0.262223 -0.647072 -0.442216 -0.0306331 -0.550446 -0.911571 0.230637 -0.573111 -0.149193 -0.977915 -0.790675 0.960395 0.715135 -1.00531 0.944368 -0.508921 0.189582 -0.849075 -0.527937 -0.501156 0.534236 -0.0900758 -0.366003 0.16912 -0.925634 0.330138 0.227121 -0.744194 0.0996568 -0.773306 0.932255 0.379895 0.29018 -0.559881 -0.100001 0.406276 0.614646 0.357523 -0.406106 -0.579943 0.829926 0.0251153 0.280565 0.164381 0.775643 -0.0483793 0.683353 -0.164508 0.160646 -0.729976 0.726678 0.0102277 -0.92978 0.353292 -0.0796369 0.468167 -0.180203 -0.908443 -0.979598 0.730676 -0.880542 0.368107 -0.291749 0.225683 -0.653389 0.824864 -0.354564 -0.751972 -0.588976 0.446258 0.819494 0.840768 -0.350045 -0.879005 -0.0200746 -0.923552 0.0924651 0.451551 -0.468466 -0.739481 -0.710375 -0.570515 0.0482807 0.0304024 -0.46133 -0.191713 0.51832
-0.00192697 0.780576 0.341067 0.0996768 -0.97146 -0.57877 0.841253 -0.946102 -0.78062 0.720717 0.889824 0.350085 -0.610232 -0.588649 -0.18354 0.860707 0.267639 0.148858 -0.464815 0.263732 -0.827076 0.496779 0.296698 -0.650256 -0.591173 0.899792 -0.430431 0.082588 -0.339995 0.928891 -0.97844 -0.212034 0.0898627 -0.109719 -0.819657 -0.488655 0.78917 0.231105 0.153588 -0.280001 -0.488986 0.246235 -0.899267 -0.343672 0.917663 0.2181 -0.241256 0.290382 0.683195 -0.947952 -0.636653 -0.463923 0.909234 -0.0457617 0.0227686 0.817974 -0.749849 0.420279 -0.871745 -0.913226 -0.873596 0.180592 -0.570613 0.100928 0.349802 -0.670616 0.339782 -0.375617 -0.0218025 0.619703 -0.359653 0.340962 -0.684236 0.971506 -0.680069 -0.832955 0.470621 -0.123898 -0.910374 -0.120331 0.243692 -0.460126 -0.180962 -0.490129 0.109786 -0.921733 -0.19036 0.330108 -0.539684 -0.039365 -0.596724 0.445962 0.370647 -0.146143 -1.00428 -0.247999 -0.748601 -0.998396 0.780982 0.503073 -0.460117 -0.430626 0.259418 0.626259 0.0985276 -0.229631 -0.419633 -0.868848 0.357936 -0.102144 -0.109776 0.0992151 0.560952 -0.610497 0.280647 0.28974 0.503937 -0.890326 -0.749548 -0.17726 0.898536 -0.277577 0.683486 0.619577 -0.708219 -0.56751 0.681784 -0.70005 -0.31057 -0.209846 -0.859226 -0.795261 -0.679875 -0.610548 0.146947 -0.180752 0.299873 -0.0391531 0.77007 -0.120587
-0.889987 0.63004 -0.329517 0.400007 0.920001 0.480028 -0.0500212 -0.989904 0.199974 -0.499479 -0.479969 -0.410013 -0.709983 0.169845 -0.449994 -0.410104 -0.529993 -0.570001 0.527937 0.2789 -0.549369 -0.900055 -0.369325 0.470019 0.319535 0.0100139 -0.76 -0.260002 -0.59 0.689828 -0.289869 0.190001 -0.709992 -0.930492 0.590018 -0.509984 0.879965 0.511031 -0.150015 -0.989932 0.159994 0.66891 0.690032 0.681036 -0.180105 -0.600044 -0.460021 0.630173 0.079761 -0.839942 0.610852 -0.95124 -0.940018 -0.450139 0.289897 -0.67005 0.769958 0.640147 0.549954 0.65064 -0.540236 0.0700442 -0.54996 0.689953 0.390032 0.119997 -0.409955 -0.589807 0.469283 -0.549234 -1.00058 -0.960032 0.169786 0.930828 0.699999 0.479939 -0.140081 0.679864 -5.26869e-07 0.389923 1.00005 0.0599876 -0.790122 0.309802 -0.2001 -0.540824 -0.689988 0.0800003 0.0996206 0.170012 0.899779 0.799929 -0.249989 -0.229968 0.150477 0.321001 0.0599509 -0.789879 0.240029 -0.340006 -0.770209 0.380014 -0.769963 0.160064 -0.460697 0.540014 -0.800209 -0.81001 0.200706 -1.00019 0.909986 0.73 0.0500325 -0.159932 0.0503756 -0.178317 0.340404 -0.570098 -0.159786 0.530089 0.80001 -0.229794 0.490148 -0.0800345 -0.759237 0.759991 -0.980004 -0.380015 0.619368 0.680049 0.0200741 0.610099 -0.259996 -0.110033 -0.149288 -0.899972 0.949933 0.949926 -0.769872 0.669909
0.630005 -0.100025 0.44 0.17 0.51 -0.720005 -0.400018 -0.95 -0.320038 0.899882 -0.690001 -0.369996 -0.390023 0.189919 0.229944 -0.559994 0.990126 -0.91 0.95 -0.32 0.21 0.759881 -0.650012 -0.51 -0.569983 0.839999 -0.28 0.04 -0.77 -0.679955 -0.440022 -0.0100003 -0.77 0.160028 0.0100122 0.829996 -0.83 -0.940012 0.809992 -0.329962 0.150015 0.67 -0.0300002 -0.800003 -0.5 0.660026 0.30001 -0.549982 -0.109942 0.589884 0.449998 0.160005 0.15 -0.620001 -0.780002 0.19999 -0.280064 -0.200002 0.509999 -0.18 0.559996 0.03 0.750001 0.060049 0.670102 -0.450002 0.00998635 -0.9 -0.500002 -0.999997 0.470029 -0.95 -0.24 -0.260034 0.46 0.0199963 0.0599796 0.400096 0.179999 -0.61995 0.980014 -0.160001 -0.589994 -0.4 -0.82 0.41 0.800034 0.46 0.86 0.819978 0.92 -0.97 -0.46 -0.929907 -0.370002 0.81 -0.0599454 0.47 -0.709946 -0.119997 -0.959996 -0.86 0.26 -0.159611 0.64 -0.970001 -0.970003 0.920059 -0.24002 0.830026 -0.780013 -0.420001 -0.0399513 -0.159851 -0.820024 -0.539994 -0.910173 0.55 -0.950025 0.79 -0.569866 0.0299948 0.269931 0.239995 0.920001 -0.44 -0.999989 -0.439999 -0.230051 0.199975 0.7 0.49 0.0299998 -0.93005 -0.44 -0.229991 0.559962 -0.609999 0.750066 -0.800121
0.270003 0.879987 -0.44 0.03 0.06 0.499997 -0.540009 0.49 0.129982 0.659941 -0.91 -0.0299982 0.539988 -0.42004 -0.300028 0.900003 -0.829936 0.78 -0.46 0.06 0.0499999 -0.41006 0.659994 -0.44 0.240008 -0.340001 -0.72 -0.52 -0.19 0.210022 -1.11125e-05 -0.93 0.33 0.110014 0.980006 0.959998 0.6 0.919994 0.139996 0.520018 0.630007 -0.78 0.09 -0.880002 0.0700001 0.370013 0.360005 0.570009 0.290029 0.349942 0.739999 -0.289998 0.180001 -0.960001 0.479999 -0.150005 -0.550032 -0.570001 0.679999 -0.49 0.729998 0.04 -0.73 0.140025 -0.659949 -0.720001 -0.490007 -0.0299999 0.529999 -0.679998 -0.929986 -0.64 -0.24 -0.960017 0.13 0.369999 0.13999 -0.319952 0.349999 0.930025 0.910007 0.0399996 0.940004 0.72 -0.28 0.16 0.310017 -0.34 0.91 -0.290011 0.01 -0.05 0.98 -0.269953 0.469999 -0.12 0.530027 0.42 -0.459973 -0.399999 2.13138e-06 -0.26 0.96 0.500195 -0.01 0.82 -0.580001 -0.70997 -0.260009 0.660013 -0.100007 0.49 0.810024 -0.839925 -0.450012 -0.949997 0.209914 0.96 0.399987 -0.23 0.920067 0.709997 -0.390034 -0.0300025 -0.0599996 -0.8 -0.299993 -0.43 0.609974 0.509988 0.02 -0.87 0.94 0.989975 0.51 -0.739995 0.0399812 -0.46 0.210033 0.309939
0.92 0.93 0.58 -0.82 -0.19 -0.19 -0.6 -0.69 -0.52 -0.25 0.23 -0.12 0.87 -0.84 0.14 -0.66 0.78 -0.21 0.67 -0.47 -0.17 0.77 -0.95 -0.47 -0.82 0.18 -0.19 -0.31 0.05 0.57 -0.7 1 0.11 0.91 0.26 -0.33 0.84 -0.23 0.58 0.45 0 0.27 -0.22 -0.32 -0.19 0.5 -0.15 0.27 1 -0.01 -0.35 0.09 0.03 -0.07 0.42 0.95 -0.56 0.09 0.94 -0.25 -0.71 0.3 -0.7 0.36 0.61 -0.4 0.78 0.58 0.85 0.08 0.03 -0.31 -1 -0.04 0.89 0.58 0.42 -0.29 0.18 0.21 0.15 0.48 0.65 -0.98 -0.17 0.49 0.11 -0.09 0.41 -0.19 -0.65 0.91 1 -1 -0.1 -0.52 -0.24 -0.83 0.46 -1 -0.9 -0.25 -0.7 -0.84 -0.05 -0.67 -0.29 0.67 -0.74 0.77 0.48 0.54 0.17 -0.26 0.71 0.04 0.01 0.72 -0.29 0.32 0.86 -0.82 -0.06 -0.17 -0.2 0.73 -0.99 -0.5 -0.3 -0.71 -0.72 0.37 -0.54 0.29 0.76 0.57 0.79 -0.16 0.74 -0.69
0.07 0.94 0.88 -1 -0.73 -0.58 0.67 -0.15 -0.29 0.51 -0.56 -0.53 -0.52 0.56 0.77 0.77 0.92 -0.55 0.17 0.58 -0.58 0.39 -0.48 0.42 0.04 -0.97 -0.08 0.15 0.67 0.7 0.68 0.75 0.63 0.67 0.67 0.12 0.22 -0.72 1 0.79 -0.4 0.68 -0.17 0.8 0.31 -0.59 0.7 0.15 -0.26 -0.97 0.01 0.37 0.18 -0.34 -0.99 -0.76 -0.24 0.43 -0.28 -0.99 -0.24 -0.69 0.89 0.38 -0.77 -0.52 -0.8 -0.36 0.42 0.99 0.42 0.68 -0.73 -0.89 -0.26 0.27 -0.97 0.44 -0.98 0.95 0.72 0.46 -0.05 0.41 -0.14 0.56 -0.24 0.78 -0.25 0.5 -0.78 0.75 0.55 -0.23 0.29 0.06 -0.72 0.76 0.9 0.53 -0.22 -0.86 0.36 0.43 0.21 -0.08 0.39 0.43 0.68 0.37 0.65 -0.04 -0.25 -0.77 0.26 0.91 -0.99 0.93 -0.28 0.85 -0.91 -0.35 -0.15 0.33 0.52 -0.35 -0.01 0.79 0.92 0.8 -0.44 -0.74 0.77 -0.52 0.82 -0.44 -0.22 -0.68 0.88 0.35
0.62 -0.95 0.53 0.8 0.5 0.6 -0.04 0.52 0.09 -0.64 -0.37 -0.77 0.9 -0.24 0.87 0.73 0.5 -0.14 -0.28 0.29 0.51 -0.46 0.33 0.96 0.97 0.64 0.26 0.48 -0.06 -0.37 -0.3 -0.81 0.76 0.85 0.46 -0.98 0.38 0.38 0.65 0.14 -0.47 -0.43 -0.61 -0.02 0.93 -0.39 -0.9 0.38 0.81 0.68 -0.09 -0.86 0.15 -0.58 -0.35 -0.42 -0.61 0.31 0.9 -0.29 -0.39 0.66 0.24 -0.75 0.82 0.43 -0.38 0.05 0.24 -0.88 -0.07 0.73 -0.16 0.44 0.84 -0.36 -0.49 -0.08 -0.25 -0.75 0.13 -0.73 -0.41 -0.37 -0.58 0.3 -0.85 -0.02 -0.84 -0.45 -0.06 0.01 0.97 -0.11 0.42 -0.04 0.98 -0.29 0.86 0.93 0.12 0.62 -0.44 -0.82 0.15 -0.6 -0.62 -0.34 -0.31 -0.91 0.74 -0.97 0.37 -0.92 0.5 -0.78 0.03 -0.99 0.77 -0.89 0.85 0.73 0.69 -0.63 -0.27 0.11 0.19 -0.1 -0.15 0.27 0.25 0.44 0.69 -0.2 -0.32 -0.03 0.23 0.95 -0.85 -0.31
-0.36 0.49 -0.22 1 -0.12 -0.76 -0.79 -0.5 -0.9 -0.83 0.01 -0.29 0.52 0.33 -0.1 -0.65 0.43 0.39 -0.02 -0.12 -0.92 0.41 0.37 -0.69 -0.08 0.35 -0.57 0.75 0.02 -0.23 -0.45 -0.6 -0.21 0.17 0.34 0.3 0.28 0.05 -0.97 0.86 -0.23 0.47 -0.18 -0.14 -0.2 0.46 -0.74 0.77 0.72 -0.87 -0.72 0.23 0.35 -0.25 -0.04 0.33 0.36 -0.1 0.89 -0.56 -0.85 -0.26 -0.19 -0.47 -0.57 -0.8 0.21 0.62 -0.64 0.75 -0.13 0.92 -0.5 -0.14 0.79 -0.36 0.71 0.46 0.78 0.9 -0.69 0.4 0.96 0.46 0.74 -0.87 0.56 -0.85 0.04 0 0.53 -0.73 -0.84 0.38 -0.1 0.13 0 0.73 -0.32 0.31 -0.58 -1 0.34 -0.78 -0.05 -0.87 -0.33 -0.68 -0.17 -0.45 -0.75 0.03 -0.74 0.96 -0.72 -0.24 -0.99 -0.62 0.21 0.73 -0.3 0.79 -0.19 0.31 -0.17 -0.26 0.22 0.61 -0.11 -0.78 -0.81 -0.02 -0.55 -0.34 -0.79 0.15 0.26 0.11 0.15 -0.55
0.400019 0.79 -0.999999 0.550003 -0.210006 -0.0999351 0.690024 0.420034 0.379953 -0.390095 0.199994 -0.990002 0.330001 -0.0599949 1 0.519972 0.579966 -0.0100199 0.840002 -0.390022 -0.989997 -0.629972 -0.279967 0.240041 -0.970025 0.0300126 0.980002 0.739923 0.440053 -0.320032 -0.639997 0.199987 -0.719999 0.150003 -0.839977 0.0500019 -0.360002 -0.399991 -0.220047 -0.729994 0.660023 -0.0200251 0.650006 -0.0699981 0.389963 0.600001 -0.510035 -0.960003 -0.229885 0.379984 0.359985 -0.800036 -0.199969 -0.929978 0.420018 -0.709974 -0.619997 0.98003 0.380032 0.69999 0.109974 0.609997 0.929932 0.859998 0.0399741 -0.0600042 0.799973 0.859976 -0.179999 -0.20002 0.330006 -0.579999 -0.719985 -0.189982 -0.28 -0.46 -0.990015 0.069996 0.269992 -0.570006 0.710036 0.729925 -0.539998 0.020009 0.799997 -0.990024 0.959973 -0.629997 0.830036 -0.159988 -0.0099924 -0.739995 0.350005 -0.620007 -0.220067 0.300005 0.71001 -0.709999 0.720081 -0.730003 -0.479968 0.64 -0.860018 -0.189999 0.530106 -0.410004 -0.109964 -0.950002 -0.850013 0.93996 0.460001 0.439992 -0.339959 -0.94002 -0.369998 0.780008 0.849969 0.219994 -0.789995 -0.0399674 -0.519966 0.309966 0.220001 -0.149998 -0.330002 0.890038 0.410047 -0.65003 -0.63001 0.349957 0.22002 0.299961 0.710008 -0.100001 -0.31998 -0.0600312 -0.0500018 0.660077 0.46003 -0.79
-0.249266 -0.640061 0.260729 0.189523 -0.299539 0.381927 0.599849 -0.768753 0.818844 -0.272006 0.650556 -0.399586 0.320105 -0.519797 -0.659599 -0.70145 -0.132846 -0.0503069 0.250111 -0.121257 -4.30339e-05 0.811086 -0.108768 -0.798052 -0.0404194 0.829503 -0.350033 -0.110872 0.551345 -0.851719 0.380833 -0.0400804 -0.950241 0.659644 0.0200241 -0.279793 0.689624 0.640377 -0.170492 0.321853 -0.928976 0.419645 -0.389495 -0.0597463 -0.962738 -0.379934 0.638679 -0.478889 -0.00653562 -0.590265 0.528472 0.948164 -0.639529 0.619989 0.499424 0.221589 -0.260802 0.14021 0.269425 -0.539824 -0.560277 -0.64966 0.298083 -0.110422 -0.310441 -0.329417 -0.440453 0.619507 -0.849786 0.489455 0.64917 0.700149 0.650032 0.680386 -0.909961 0.999526 0.589153 0.968754 -0.33064 0.119473 -0.188842 0.758125 0.942113 0.549241 0.969927 0.129531 -0.320135 -0.0592561 -0.879285 -0.659206 0.100057 0.501471 0.670006 0.510107 -0.522046 -0.629737 -0.829365 -0.450422 -0.546579 -0.720747 -0.0388904 0.780613 0.52894 -0.800601 0.792268 -0.321159 0.810627 -0.519854 -0.760239 -0.53006 -0.340376 0.670809 -0.569223 -0.771765 0.65046 0.840278 -0.880545 -0.328235 0.41021 0.380822 0.320727 -0.808553 0.790852 0.930051 -0.980126 0.401202 0.330878 0.599644 0.469827 -0.350545 0.709751 -0.0308581 -0.519662 0.390454 0.990036 -0.841376 -0.710058 -0.00823679 -0.26961 0.0903335
-0.801248 -0.208988 0.105597 0.909301 0.33729 -0.109392 -0.080402 -0.365715 -0.142908 -0.865859 -0.897308 0.129896 0.620309 0.270393 0.593551 0.536371 0.0831346 0.798018 0.181154 0.21416 0.00168229 0.676899 -0.30642 -0.533372 -0.0897023 -0.715731 -0.771118 0.0884225 -0.290028 0.688312 0.454127 0.975094 0.555314 0.52053 0.86413 0.529975 0.18666 0.903235 0.847669 -0.307178 -0.237648 0.315121 0.309716 0.582866 0.0823636 -0.883588 -0.162778 -0.313308 0.0593268 0.0805049 -0.165994 -0.122136 0.939804 0.534395 -0.643875 0.519165 -0.71219 -0.0975897 0.616248 -0.298191 0.0877545 -0.967519 0.953007 0.509238 0.699409 -0.387451 -0.307832 0.474983 -0.850157 0.229976 0.686148 0.227295 -0.172832 0.702787 0.812536 -0.141826 0.796109 -0.230698 0.269145 0.422828 -0.842826 0.524402 -0.742399 -0.578535 -0.419031 -0.820505 0.260514 -0.658494 0.553932 -0.29417 -0.475155 0.793356 -0.198394 -0.588471 -0.0130892 -0.215294 -0.25055 -0.44669 -0.0839857 -0.0752482 -0.484395 0.906193 -0.192679 -0.815816 0.109212 -0.59421 -0.113972 -0.455742 -0.943295 0.657917 0.940648 0.530805 -0.981491 0.150973 -0.988207 -0.165204 0.929872 -0.0277865 -0.367074 -0.929024 -0.488922 0.0691543 -0.76547 0.749067 -0.512716 -0.795913 -0.259888 -0.314594 -0.172169 -0.441308 0.73014 -0.340778 -0.910621 -0.397301 -0.831237 0.836767 -1.00231 0.461771 -0.198849 -0.534363
-0.535312 0.280656 -0.211822 0.850299 0.822836 -0.882683 0.423877 -0.452022 -0.880158 0.918882 0.242552 -0.708708 -0.31316 0.284827 0.319419 -0.809784 0.0474455 0.963463 -0.671924 -0.50919 0.41474 0.0832877 -0.162858 -0.83193 -0.899593 0.725557 0.525998 -0.0062385 -0.946673 -0.334298 -0.491204 0.407108 0.423775 -0.850279 -0.201295 -0.481394 0.77016 0.759491 -0.404119 0.119763 -0.37575 -0.70823 0.990172 -0.691926 -0.256022 0.436986 0.626311 0.181502 0.793304 -0.731465 -0.171959 -0.118544 -0.498824 -0.407295 0.108114 -0.488786 0.932013 -0.525527 -0.693039 -0.897612 0.501602 0.487771 -0.55521 0.0412836 -0.414344 0.265099 -0.755637 -0.907517 0.639216 0.421614 -1.00246 -0.342846 -0.167687 -0.30227 -0.311894 -0.0137135 0.428138 -0.285688 -0.120258 0.866533 -0.1647 0.180875 0.00886582 0.662057 -0.166716 0.478972 -0.786729 0.521394 0.591447 0.91858 -0.890444 0.544452 0.771901 -0.110849 0.181849 -0.598006 -0.5028 0.759414 -0.257954 0.552449 -0.125098 0.664533 0.203187 0.679941 0.96836 -0.376084 0.378688 -0.156752 -0.415974 0.549287 -0.62472 0.937906 0.278597 -0.710221 0.0489601 0.989257 -0.333984 0.273347 0.475487 0.207636 0.320356 -0.984922 0.458203 -0.658185 -0.190814 0.851263 -0.950509 0.852737 0.849978 -0.0583604 0.176035 0.132238 0.311031 -0.348649 0.507812 -0.668681 0.462145 0.259861 0.870383 -0.835784
-0.358895 0.249262 0.288374 -0.512056 0.910282 -0.349448 0.622386 0.867224 -0.878935 0.759589 -0.747836 0.891097 -0.610712 -0.612014 -0.208499 -0.177002 -0.0947521 -0.689323 0.277494 -0.257449 -1.00727 0.950352 -0.310974 -0.43543 0.156597 0.424955 0.619828 -0.0369566 -0.427398 -0.0148027 0.548483 -0.354826 -0.182343 0.635575 -0.461933 -0.354438 -0.200389 0.728512 -0.338042 0.742002 -0.311367 -0.970827 0.975151 0.245776 -0.721418 0.463437 0.116954 -0.910337 -0.582656 -0.864038 -0.180893 0.539958 -0.781259 -0.113738 -0.229383 -0.219035 0.191156 -0.346703 -0.888176 0.0386377 -0.914311 -0.594919 0.496049 0.159988 0.787718 -0.0309332 0.417267 -0.36697 -0.284384 0.227278 0.00902124 -0.374932 -0.481723 0.196065 -0.984346 -0.984798 -0.410051 -0.362096 0.395832 0.317083 0.870228 0.391765 -0.496616 0.723688 0.59042 0.276238 -0.0481566 -0.739097 -0.891058 0.555992 -0.498816 0.363345 0.822502 -0.484206 -0.262961 0.399291 -0.747018 -0.937655 0.186857 0.115124 -0.110675 -0.294403 -0.508886 0.245546 0.805156 0.64347 0.286496 0.0594556 -0.53933 0.149506 0.381935 -0.971751 -0.742423 -1.02094 -0.698064 -0.924197 0.102334 0.376916 -0.19703 0.496394 0.0474012 0.483769 0.603546 0.840993 -0.805791 -0.693554 0.529649 0.144096 -0.072541 0.614851 -0.60106 0.00738372 -0.57827 0.0473134 0.188376 0.451267 0.0658538 -0.826533 0.617702 -0.896212
0.657623 0.171923 -0.713715 0.500978 0.470492 -0.686818 0.35274 0.0861676 -0.0653053 -0.956969 0.525193 -0.162176 -0.772501 -0.848494 0.880562 0.773872 0.448829 0.360904 0.127466 0.330181 0.0277057 -0.684951 -0.0656256 0.34798 -0.511332 0.127761 -0.267306 0.655193 0.990738 -1.05612 0.830409 -0.0251448 0.299662 0.183779 0.582379 -0.466708 0.273802 -0.812443 -0.915327 -0.999283 -0.189875 -0.162497 -0.466166 0.868249 -0.295222 -0.12606 -0.839715 -0.560933 0.0928551 -0.8628 -0.278816 0.441177 0.462677 0.238137 0.619524 -0.360356 0.592106 -0.184598 0.547484 0.557518 -0.0786073 0.708619 0.222809 0.78404 0.942675 0.631305 -0.0872873 -0.115557 -0.0189101 -0.588158 -0.58029 -0.494237 0.88695 0.242775 -0.365054 0.100795 0.473166 -0.465391 -0.115395 0.0600558 0.417317 -0.424635 -0.663754 -0.929426 -0.497031 -0.505936 -0.426445 0.679876 -0.305354 0.310722 0.072619 0.544347 0.321599 0.818871 0.603253 -0.261034 -0.69953 0.508382 -0.537919 0.445195 0.979521 -0.514877 0.0012011 -0.437793 0.447942 -0.322893 -0.515129 0.266727 -0.0203751 -0.253786 0.778537 -0.827968 0.219676 -1.00654 0.751679 0.551561 0.628659 0.576915 -0.13914 -0.690568 -0.09676 0.564412 0.789541 0.204797 -0.588492 -0.774196 -0.76529 0.278941 0.752847 0.0401766 0.167262 -0.599337 0.809695 0.857559 0.898972 0.0293631 0.580999 0.0986288 0.56834 -0.93915
-0.101309 0.849246 -0.191915 0.548847 -0.046448 0.127393 -0.552815 0.371802 -0.76917 -0.197717 -0.398512 0.286596 -0.772612 0.81862 -0.56189 -0.641781 -0.928073 -0.911549 0.867221 0.96503 0.0979415 -0.662507 0.736893 0.638759 0.21875 -0.844788 -0.437564 -0.599216 -0.672786 -0.890469 0.852269 -0.53151 -0.420341 -0.154036 -0.364999 -0.923131 -0.224839 -0.0211104 0.0551429 0.56473 -0.338529 -0.0322031 0.602831 -0.0252522 -0.99431 -0.910523 -0.851083 -0.471802 0.0969122 0.0341479 -0.463157 -0.165768 0.129316 0.816167 -0.915193 0.844442 0.842725 -0.725491 0.820125 0.821796 -0.180907 -0.053194 -0.40159 -0.025788 -0.264517 0.767618 0.297072 0.618867 0.0485402 -0.49368 0.789676 -1.0151 0.966912 0.957431 0.0262816 -0.387678 0.614215 0.270681 -0.0479146 -0.585547 0.659415 0.732042 0.849224 -0.960493 -0.174906 -0.0843109 0.555127 -0.119064 0.448896 -0.248796 -0.332026 0.699618 -1.00566 0.615298 -0.995297 0.609764 -0.521168 -0.291916 0.769995 0.605225 0.865773 -0.13799 0.116473 0.372364 -0.00956959 -0.833831 0.640701 -0.988811 0.43305 0.666481 0.887108 -0.491722 -0.683358 -0.918395 -0.46562 -0.929602 0.262858 -0.170277 -0.804511 0.85857 0.546569 -0.447713 0.310011 0.261153 0.282023 0.679815 -0.66605 -0.0770954 -0.593899 -0.558675 -0.360615 -0.736857 -0.453044 -0.645437 -0.403687 -0.353832 0.636284 0.863298 0.424413 -0.502046
0.920538 0.564179 0.93902 -0.869971 0.0588795 0.304403 0.164892 -0.598407 0.960848 0.761813 0.618106 0.581915 -0.140185 -0.860278 -0.761661 -0.186196 0.863614 -0.9779 0.439371 -0.185585 -0.0741639 0.299173 -0.534785 0.55073 -0.186504 0.927989 0.0589131 0.667325 -0.6685 -0.120146 0.765017 -0.182571 0.693294 0.157828 0.083967 0.109635 -0.31892 0.560984 -0.113106 -0.18352 0.595672 -0.90149 -0.962987 -0.463657 -0.742359 0.314431 0.571429 -0.203598 -0.887202 -0.729461 0.505195 0.420564 0.747791 0.000921015 0.780165 0.767893 0.654065 0.765191 0.595487 -0.399329 0.700983 -0.653268 0.61181 -0.883144 -0.74869 -0.306044 0.415822 0.116679 0.705213 -0.922446 0.535485 0.928646 0.494521 -0.0184985 0.491189 -0.20909 0.00572631 -0.605256 0.69375 0.173186 -0.322065 0.292496 0.299466 -0.636121 0.537767 0.705888 -0.0903891 -0.272485 -0.898724 0.798488 0.889638 0.905249 -0.128105 -0.914109 -0.266542 0.804049 -0.237435 0.917782 0.164295 -0.0294943 0.434714 0.890003 -0.723758 -0.237433 -0.630757 -0.129541 -0.894257 -0.82531 -0.685756 -0.778789 0.428415 -0.00126877 0.880978 -0.880799 0.145011 -0.039293 0.0369569 0.206421 -0.100578 0.327924 -0.0117666 -0.602639 0.926591 0.452837 -0.180933 -0.724662 0.855066 0.184746 -0.126846 -0.29439 -0.18717 0.480453 0.935582 -0.842566 -0.632104 -0.819591 -0.101159 -0.109956 -0.868797 0.608025
0.233825 -0.709845 -0.818495 0.326551 0.638128 0.765695 0.138862 0.0458605 0.0639324 -0.88163 -0.0759061 0.0459044 0.918628 -0.527259 -0.339082 -0.749654 -0.159334 0.393145 -0.950825 -0.00944095 -0.910661 0.868917 -0.836299 0.29068 0.18914 -0.726773 0.070025 -0.835715 0.637122 0.326056 -0.764444 0.148741 -0.192757 -0.220164 0.657476 -0.527881 0.180523 0.0458553 -0.811799 -0.436961 0.4679 0.302197 -0.00668241 -0.00644579 0.551526 -0.576064 -0.641765 -0.667146 0.0170316 0.344179 -0.140049 0.055956 -0.523955 -0.929874 0.92773 -0.506872 -0.274493 -0.876426 0.067289 0.627909 0.545529 0.705877 0.683109 -0.647253 -0.88599 0.44969 0.508054 0.187675 -0.888546 -0.160439 -0.0387544 0.200568 -1.02888 -0.335915 0.542163 0.0848409 -0.753972 0.14277 0.380541 -0.591745 0.209987 0.442333 -0.370299 -0.499829 -0.604601 -0.0393764 -0.0917695 -0.962817 0.374528 0.316774 -0.694556 -0.289701 -0.920262 -0.700304 0.200362 0.48602 0.373033 0.204505 0.25637 0.378422 -0.628423 0.321206 1.00345 0.556999 0.737347 0.363455 -0.751655 -0.269802 0.913538 0.545989 -0.170791 -0.09426 0.0316598 0.451756 -0.163365 0.0128883 0.979875 -0.252699 0.914474 -0.509652 -0.149459 -0.812471 0.770157 0.373521 -0.351477 0.694832 0.673468 -0.67575 0.138051 1.00984 -0.254657 -0.575744 -0.284271 -0.709801 -0.848187 0.730958 0.170647 -0.127789 0.772666 -0.240537
-0.188987 1.0014 0.436372 0.291573 -0.759853 0.353531 0.242435 0.670424 0.749245 0.43059 0.158963 0.655379 0.915004 0.667284 -0.917797 -0.702332 -0.999845 0.548251 -0.594009 0.0725722 -0.099886 0.578183 -0.833779 0.170086 -0.147165 0.684674 0.390238 -0.138465 0.245469 0.692742 -0.294528 -0.355647 0.136257 0.0391309 -0.801339 0.494955 0.479924 0.300418 0.834649 0.895248 0.386218 0.222532 0.159091 0.905077 0.116025 0.51887 -0.0672588 0.085994 -0.52799 0.820041 -0.654616 -0.654677 0.225235 0.120377 -0.345806 -0.175392 -0.166814 -0.779451 -0.139678 0.390116 0.1403 -0.527334 0.745473 0.216878 0.962213 0.593152 0.451397 0.286161 0.210684 -0.368028 0.872862 -0.0296918 0.185114 -0.406821 -0.557318 -0.979067 0.313332 0.0875645 -0.898672 0.276192 -0.802129 0.771285 0.910183 -0.959457 -0.358755 -0.106045 -0.736917 0.716904 -0.965091 -0.866433 -0.123111 -0.383943 -0.0379698 -0.687855 0.0967956 0.604977 0.558976 0.420893 -0.272353 -0.0155183 0.403066 -0.35496 0.652909 0.151563 -0.0463408 -0.756975 0.346276 0.0911568 -0.93937 0.295841 0.756421 -0.680291 -0.748379 -0.922115 -0.876652 0.851252 -0.244941 0.263964 0.850858 0.562913 -0.949162 0.584973 -0.737366 -0.59232 0.428602 0.0634409 0.937019 0.925936 0.549205 -0.3942 0.955575 -0.372302 0.766999 0.223615 0.451896 -0.852514 -0.105224 0.947432 -0.573027 -0.297462
-0.477417 -0.605 0.567624 0.838741 0.829278 0.237533 0.458345 0.390002 0.194148 -0.594297 -0.742758 -0.82945 -0.75054 0.349186 -0.714769 0.540423 0.693914 -0.666356 0.296539 -0.927456 -0.540712 0.502025 0.978499 0.694814 -0.794065 0.930912 -0.0204343 -0.347152 0.26891 -0.2333 0.283663 0.285257 0.484057 -0.766293 0.314637 -0.452923 0.0336221 -0.337111 -0.503852 0.217003 0.119319 -0.00204363 -0.395183 -0.337001 0.131709 -0.569593 -0.251237 -0.690468 -0.545446 -1.06292 -0.569857 -0.947604 -0.926225 -0.925611 0.577887 0.92037 0.601644 0.236789 -0.291366 -0.0961559 0.442858 -0.735344 -0.15626 -0.549692 -0.345449 0.538128 0.618791 -0.641729 0.689794 -0.194018 -0.100652 0.493989 -0.519087 -0.664317 0.0731426 0.0809659 -0.179983 -0.659448 -1.00249 -0.606476 0.682569 0.952686 0.462424 -0.98908 0.0827999 0.841774 -0.124909 0.891 -0.158292 -0.657415 -0.103506 -0.581488 -0.835864 0.912365 -0.596661 -0.66082 0.385992 0.324436 -0.0134578 0.626766 -0.925353 -0.365615 0.331793 0.809095 0.873131 -0.548576 0.164057 -0.451096 -0.682253 -0.794489 -0.686282 0.281187 -0.871583 -0.519236 0.25541 0.658126 0.657822 -0.623296 -0.815401 -0.153238 -0.175106 -0.428453 -0.399916 0.628419 0.932054 0.699864 -0.355111 0.57759 -0.885105 0.0251982 -0.747554 0.18029 0.639281 -0.21318 -0.61055 -0.17226 0.481672 0.22649 -0.325405 0.943037
-0.729159 0.460885 0.022938 -0.658479 -0.041179 -0.361486 -0.0558299 0.900876 -0.717253 -0.0174721 -0.0627774 -0.741269 0.18278 0.124566 0.872812 0.641002 -0.733582 0.815333 0.857577 -0.320246 0.805045 -0.594676 0.246332 -0.902024 0.656286 -0.240581 0.251015 0.660932 0.140651 0.608313 -0.618984 -0.413085 -0.624233 -0.0741953 0.976257 0.589374 -0.732004 1.00335 -0.812393 -0.991922 0.0128801 -0.892485 -0.607589 0.486044 -0.608737 0.578087 -0.413768 0.103937 0.168227 0.321238 0.895857 -0.489831 0.184658 -0.625842 -0.139419 -0.667713 -0.166835 -0.932397 -0.466079 -0.511109 0.841505 0.688912 -0.560292 -0.654202 -0.428918 0.931753 0.891059 0.325387 -0.77156 -0.816663 -0.217262 -0.179645 -0.243578 -0.904314 0.53501 0.86876 -0.696308 0.625675 -1.00642 -0.900555 0.846803 -0.825279 0.701415 0.475892 0.747683 0.891028 0.388361 -0.623769 0.833953 -0.00706515 -0.364444 0.302929 -0.634451 0.883387 0.38093 0.825117 0.354946 -0.327939 -0.321258 0.262864 -0.768854 0.946044 0.837365 -0.913169 -0.523909 -0.025902 -0.247962 0.697409 -0.857279 -0.300845 0.916264 -0.0620497 0.0714313 -0.726083 0.224915 -0.644353 0.0704249 0.362824 0.866842 -0.465857 0.217785 -0.844854 0.264596 0.861045 0.259368 -0.596417 0.684659 0.701313 0.984838 0.838888 -0.0906124 -0.00476087 -0.456212 -0.357937 -0.946129 -0.476006 0.905717 -0.654951 -0.9933 0.45758
0.784612 0.364872 -0.985802 -0.325461 -0.193226 0.422188 -0.790666 0.718973 0.479685 0.0684049 -0.784269 -0.756262 -0.993273 -0.500429 0.241625 -0.815957 0.151845 0.405072 -0.00630997 0.829718 -0.132871 -0.65668 -0.732707 -0.767781 0.0557351 -0.872563 0.648608 -0.638195 0.295679 0.187061 0.734916 -0.180306 0.771144 0.239663 -0.168585 -0.391585 0.244094 0.213408 0.102514 -0.416256 0.988323 0.277371 0.352092 0.507133 0.0243295 0.69198 -0.9425 -0.100421 0.0128291 0.564829 -0.115059 0.454153 -0.635302 0.477204 -0.415747 0.679034 0.0157385 0.272827 -1.01763 0.952128 0.411657 0.690347 0.120496 0.794353 0.611706 0.443775 -0.695145 -0.0128875 -0.265648 -0.554947 0.954712 0.909505 0.0781911 0.332443 -0.0415767 0.19926 0.641374 -0.438427 -0.678888 0.864627 0.415944 0.589748 0.112188 0.769363 0.0812944 0.347145 0.880718 -0.442024 0.313053 -0.56215 0.498626 0.262297 0.586706 0.721511 -0.144096 0.95067 -0.502793 -0.797255 -0.300297 0.956722 -0.805884 0.763496 0.600333 0.362711 -0.86827 0.37713 0.234936 -0.327099 -0.257652 0.0796372 -0.519261 -0.990165 0.236229 0.791162 0.978633 0.0622065 -0.71109 -0.0793816 -0.103144 0.448921 -0.614188 0.0216141 -0.0437691 -0.103089 0.36002 0.383764 -0.74039 -0.844863 0.329957 -0.649426 -0.631303 -0.4573 -0.594703 -0.580693 -0.845223 -0.447216 0.630491 0.575494 -0.0953776 -0.491304
0.264902 0.659074 -0.900858 0.743382 0.192142 0.707989 0.513735 -0.489145 0.239909 -0.174842 -0.178917 0.935027 0.630953 0.201945 -0.216954 0.130381 0.184338 0.995767 0.948505 0.989869 0.853918 -0.897385 1.01844 0.952225 0.370191 -0.138797 0.236122 0.572959 0.90172 -0.830544 -0.751222 0.47764 0.676098 -0.675874 -0.465578 -0.770354 0.582662 -0.411974 0.970659 -0.898086 -0.43599 -0.591429 0.708621 -0.0490735 -0.682768 1.01965 -0.280749 -0.595341 0.99626 -0.689975 -0.16189 -0.97735 0.141326 0.383035 0.0152007 0.888246 -0.0188884 0.993179 0.885684 -0.013922 0.382694 -0.456169 0.541807 -0.381763 -0.276923 -0.893316 -0.878179 0.647002 -0.284309 0.253541 -0.248915 -0.129111 -0.599846 0.296512 -0.454604 -0.397463 0.447507 0.152763 0.585233 -0.0990017 -0.501739 -0.496745 0.367589 0.372384 0.406411 -0.638422 0.255581 0.498764 0.460141 -0.64044 -0.317925 -0.154686 0.527793 -0.549699 0.913297 -0.947642 0.569172 0.639018 -0.921127 -0.27689 -0.370239 0.272804 0.902739 0.160006 0.424558 0.382679 0.702716 0.389277 0.0233257 0.241327 -0.0552362 0.0611367 -0.169951 -0.282667 0.347554 0.143794 0.125286 0.066569 0.456625 -0.225706 0.809421 -0.983375 -0.923826 0.871427 0.89381 -0.0551632 -0.247801 -0.860392 0.0120401 -0.520671 0.526835 0.144964 0.749812 0.922036 0.343228 -0.272242 -0.519805 0.361011 -0.431052 -0.0794884
-0.83618 -0.202593 0.155156 -0.608479 -0.61211 0.703223 -0.0576189 0.640909 -0.236823 0.830468 -0.21419 -1.01149 0.458363 -0.912699 -0.242858 0.594853 -1.00281 0.514309 0.261855 0.358155 -0.904165 -0.315924 -0.0430893 -0.682512 -0.13699 0.105749 0.207704 -0.449318 -0.587521 0.298531 -0.565288 0.707726 -0.657926 0.84315 0.336075 1.00528 0.769728 -0.38396 -1.00657 -0.83549 -0.594266 -0.707972 0.487168 -0.22655 0.0306459 0.380904 0.14463 -0.795006 -0.872257 0.191178 0.552911 0.346377 0.0157804 -0.917027 -0.861799 0.827528 -0.0110779 0.907494 -0.129627 -0.450071 -0.99293 0.937981 0.225041 0.896664 0.655235 -0.725663 -0.183272 0.880212 -0.649236 0.868762 -0.76027 0.847586 -0.0723213 0.807982 -0.602806 0.177748 -0.0875468 0.131828 -0.376145 -0.120027 1.043 -0.940139 0.652514 -0.485241 0.535333 -0.273469 0.557204 0.600902 0.874541 0.304418 0.0839226 0.780777 0.749409 -0.0373698 -0.574864 -0.446914 -0.0184268 0.873671 0.472824 0.118426 -0.4644 0.156738 -0.0259047 -0.395911 0.390605 0.247038 0.485194 0.0729065 -0.45719 0.459636 0.579442 -0.383995 -0.55916 -0.293117 0.595179 0.293198 -0.264015 0.806194 0.943793 -0.0446318 0.146562 0.84408 -0.720713 -0.151208 0.646352 -0.315099 -0.552106 -0.679444 0.833299 -0.788675 -0.963893 -0.598091 0.3801 0.646697 0.129732 0.823443 0.596387 -0.535402 -0.204991 0.802935
0.968245 -0.555271 -0.525465 0.575998 -0.466894 -0.869405 0.729563 0.973025 0.426694 0.16489 -0.935296 0.0263145 0.302803 0.0296458 0.580449 0.805081 0.333473 0.341578 -0.632805 -0.925575 0.916297 -0.460975 0.178712 0.482131 0.349248 -0.12871 -0.357058 0.59886 0.222444 0.572767 0.401085 -0.309586 -0.499816 0.492659 -0.878184 0.998597 -0.169107 0.720306 -0.497007 -0.786778 -0.905325 -0.586661 -0.311264 -0.361378 -0.850072 0.958905 -0.388433 -0.146407 0.538238 0.015093 0.625214 -0.525292 -0.802683 0.150827 0.139478 -0.731449 0.334553 1.00379 -0.930393 -0.0155411 0.541389 -0.296089 -0.390051 0.173532 -0.878047 0.592765 0.338049 0.828997 -0.333251 0.532403 -0.710288 -0.392408 -0.338468 -0.945263 0.64465 -0.11141 -0.245334 0.539863 0.772998 -0.557579 -0.324605 -0.283042 0.877271 -0.403859 0.608443 -0.467415 -0.205362 0.00205305 -0.620314 -0.529156 -0.939706 0.438391 -0.384948 0.218631 -0.62209 0.909011 -0.00703065 -0.176836 0.933525 -0.0644922 0.0272004 0.260367 0.498324 0.0390968 0.547164 -0.829954 0.516091 -0.187945 0.82687 -0.987252 0.404468 0.49665 -0.845246 0.106014 0.773006 0.076083 -0.707691 -0.563863 -0.218839 0.265284 -0.761157 0.0957957 0.946587 0.755542 -0.943434 0.0329856 0.736144 0.714384 0.199256 -0.685207 0.712729 -0.494181 0.550454 -0.387507 0.309856 0.927655 -0.875371 -0.639303 0.031349 -0.265051
-0.44465 -0.246655 0.92057 -0.364713 -0.107397 0.534805 0.057206 -0.363078 0.124734 -0.24409 0.0589176 -0.728932 -0.572636 -0.819513 0.797562 0.718899 -0.187288 0.0346694 0.401407 -0.830904 -0.622983 -0.501952 0.685835 -0.572 0.217106 -0.0602021 0.489479 -0.585351 1.07611 -0.187827 0.794498 -0.662386 0.207834 -0.0611464 -0.997271 -0.0548795 0.246679 0.298571 0.778271 0.670102 0.811726 -0.49573 0.0324637 0.346928 -0.772248 -0.636635 0.51079 0.319131 0.303221 -0.258001 0.220412 0.370974 0.786153 0.98769 -0.669122 0.152947 -0.938974 0.262148 -0.927704 -0.608445 0.847507 0.443815 0.772337 -0.0877846 0.485628 -0.0910781 0.00997846 -0.771382 -0.795445 -0.187472 0.677746 -0.2963 0.503186 -0.901186 0.317293 0.0555329 0.360245 -0.174056 -0.929165 0.948641 0.413663 -0.769288 0.526944 -0.015281 0.491972 0.102326 -0.587888 0.678068 -0.680712 0.0114456 0.715066 0.561011 -0.438074 -0.132563 -0.561303 0.959731 0.630782 -0.0713782 0.986992 -0.2681 -0.48097 -0.603622 0.958019 0.596648 -0.294343 -0.151505 -0.213292 0.534013 -0.735025 0.463046 0.383885 0.615752 0.802139 0.217 -0.547104 0.372514 -0.7205 0.43073 0.794994 0.940576 -0.428534 0.119769 -0.944178 0.13395 0.0765384 0.968772 -0.989954 -0.955962 -0.38475 0.369241 -0.187001 -0.527069 -0.722781 0.208802 0.0767522 0.27865 -0.935547 0.935256 0.761827 -0.804116
-0.598786 -0.356935 0.0758403 0.143144 0.987848 -0.611531 -0.497179 0.0516466 -0.144278 0.469379 -0.0573195 0.452966 -0.390239 -0.0336352 0.43104 0.0625231 -0.365816 0.797097 0.730803 0.740613 -0.0273247 0.260563 0.230955 0.0469111 0.211961 0.350834 0.0863229 -0.032421 -0.766229 -0.358654 0.417472 0.428016 -0.181846 0.65527 -0.702212 -0.272502 0.31555 -0.166676 -0.267032 0.412958 0.450608 -0.464346 0.277436 -0.258576 0.863469 -0.853932 0.309168 0.504122 0.130001 -0.261917 -0.757985 -0.993004 -0.370884 0.12463 0.524043 -0.760495 -0.527739 0.487474 -0.535823 0.567375 0.567893 0.484755 -0.711858 -1.00221 -1.0217 -0.944225 0.195075 -0.00727374 0.7951 -0.3767 -0.749036 0.309795 -0.301124 -0.226696 0.637452 0.370808 0.93189 0.560755 -0.579738 0.482119 -0.901502 0.785896 0.410512 -0.359293 -0.524887 0.960907 0.884755 0.466147 0.467921 -0.165263 0.307863 -0.263567 0.695394 0.256109 0.0929353 0.457431 -0.213661 -0.853475 0.499833 0.591843 0.768272 -0.0408483 -0.825367 0.363137 -0.728746 -0.576957 -0.882945 0.0329234 0.481654 -0.574058 -0.840961 -0.803312 0.381359 0.180155 -0.974582 0.437146 0.743223 -0.278699 0.940195 0.531642 -0.755772 -0.511581 0.577151 0.451184 0.546922 -0.756626 0.0185843 -0.489121 0.634964 0.603222 -0.643974 -0.768372 0.0922681 0.547968 0.948223 -0.812168 0.110994 -0.434188 0.204129 -0.391821
-0.839268 -0.693651 -0.12374 0.309303 -0.242345 -0.932521 0.00206924 -0.116699 -0.07618 -0.81836 0.897401 -0.349178 0.71547 -0.547999 -0.10092 -0.39762 -0.692693 -0.762397 -0.423874 0.273305 0.177456 -0.372133 -0.294953 0.365079 -0.778578 -0.486031 0.271433 -0.40604 -0.730175 -0.0991983 0.860556 -0.284967 0.26659 0.855505 0.480061 0.754342 -0.803501 -0.701689 -0.19711 -0.723937 0.145232 0.871408 0.393284 -0.798677 -0.322739 0.00274917 0.439475 -0.456652 0.809472 0.81398 0.082385 0.913738 0.399019 0.0730072 0.708028 0.107105 -0.5958 0.929129 -0.741915 -0.072727 -1.03774 0.59475 -0.696646 -0.613269 0.918974 -0.651864 -0.440017 0.424807 -0.499124 0.629353 0.189033 0.802764 -0.774646 0.532839 -0.191181 0.721304 0.347862 0.0388702 -0.865097 -0.455793 -0.709418 -0.877335 -0.00901951 -0.130711 0.389685 0.0575528 0.858427 0.56179 0.203341 0.376027 1.03044 -0.82879 0.297575 -0.224535 0.794945 -0.382352 0.823918 0.374606 0.346929 -0.0633324 0.580641 -0.276737 -0.443939 0.316021 0.01596 -0.202493 -0.368371 0.941396 0.970202 -0.512662 -0.222121 -0.528351 0.0718894 0.449907 0.659415 -0.86598 -0.544088 -0.696409 -0.559546 0.741089 -0.8824 0.142647 -0.60635 -0.9107 -0.434667 -0.683017 -0.907272 -0.0903452 0.306507 -0.873391 -0.598124 -0.013534 0.115919 0.923158 -0.903837 0.727914 -0.436216 0.478603 -0.647486 0.348699
0.727313 0.7014 0.235094 -0.912336 -0.884803 -0.830616 -0.422787 -0.464016 0.933047 0.498958 -0.502712 -0.619569 -0.552521 -0.591584 0.0298119 -0.802096 -0.0935224 -0.561117 0.318738 -0.783995 -0.867848 0.0100344 0.413635 0.833115 -0.691809 0.456323 -0.228316 -0.501068 0.210128 -0.930284 0.996003 0.172723 0.294286 0.773951 0.0814332 0.110692 0.171693 -0.95058 -0.0917215 0.0519667 -0.71096 0.739602 0.301098 -0.437449 0.352069 -0.383286 -0.213987 -0.916978 0.406499 -0.7423 0.250393 -0.262837 0.714136 -0.2806 0.793303 -0.451519 -0.405734 -0.603566 0.780199 0.00415545 0.0739228 0.68525 -0.0339164 -0.945058 0.0275768 0.101574 0.644485 -0.0123217 0.433171 -0.831283 0.0808874 0.529033 -0.931631 0.298513 -0.203468 -0.55849 0.0847034 0.213027 0.947488 -0.67121 -0.631739 -0.906184 0.119106 -0.0340314 0.990736 0.266986 0.56421 -0.307673 -0.864413 -0.239613 0.419845 0.264869 0.203116 -0.839635 -0.967447 -0.280848 -0.417278 -0.0870395 -0.635266 0.661815 0.650297 -0.696075 0.11499 0.575675 -0.399198 0.0135895 -0.722172 -0.0648074 -0.372096 0.833212 -0.109386 -0.414923 -0.551206 -0.254936 -0.572336 -0.554835 -0.696143 -0.71715 0.326329 -0.745698 0.245495 -0.109553 -0.472033 -0.990438 0.307663 0.266394 0.938305 -0.97164 -0.548866 -0.496252 0.659272 0.924433 -0.662171 0.515556 -0.19323 0.33374 -0.35789 -0.623781 -0.0833473 -0.566753
0.92463 0.652154 0.435948 -0.647223 0.282528 -0.340458 -0.751045 0.210735 0.643269 0.287966 -0.703258 0.755813 0.499763 0.853367 0.034578 0.946923 -0.543383 0.516474 0.149921 -0.658638 0.855888 0.653001 -0.610958 0.379968 -0.852218 0.868236 -0.923859 0.156137 0.307132 0.286095 0.629166 -0.745805 -0.00192579 -0.402451 -0.995754 0.127492 0.787138 -0.855399 -0.438731 0.218943 -0.578419 0.60629 -0.923689 0.555954 0.254331 0.198848 0.0617497 -0.022549 -0.663562 0.348394 0.369195 -0.531931 0.27086 0.178737 0.768342 -0.586322 -0.988967 0.85586 0.432897 0.00223895 0.134312 0.448944 0.268537 0.954609 0.156069 -0.744067 -0.321143 0.935237 -0.183399 -0.927726 -0.74401 0.754946 -0.588345 0.715257 -0.201164 0.39547 -0.335926 0.205442 -0.0271944 0.501166 -0.817449 0.490067 0.623191 0.397768 -0.574738 -0.69742 -0.367687 -0.839179 0.619003 0.655044 0.223808 0.279053 -0.034853 0.0488666 -0.631407 0.9557 -0.751899 0.305526 -0.836692 0.0947543 0.311301 0.475171 0.0471873 -0.10847 0.422081 0.232581 0.824697 -0.564619 0.0078271 -0.982673 -0.822128 -0.380568 0.296769 0.202821 -0.172308 -0.688107 0.567464 0.109839 0.760377 0.585936 0.314023 0.909308 -0.707139 0.33396 0.424292 0.611079 -0.345464 -0.940165 -0.548733 -0.574603 -0.797997 -0.0507252 0.216007 -0.0315976 -0.843869 0.112166 -0.408334 -0.881265 0.588189 0.424716
-0.733584 -0.713045 -0.979072 0.416892 -0.181574 -0.801361 0.616117 -0.00730117 -0.650239 -0.665895 0.117287 0.822855 -0.548023 0.717339 0.888298 0.589749 -0.843471 0.961091 -0.390009 -0.352417 -0.675309 -0.526638 0.836739 0.189644 0.176755 0.628087 -0.922083 0.308898 -0.626339 -0.848453 0.79151 -0.788651 0.142756 0.443863 0.161281 -0.464744 0.644303 -0.173408 -0.760217 0.927026 -0.85892 0.0714799 0.623661 0.730383 0.592963 0.434165 0.0989904 -0.804291 0.357861 -1.01976 0.67456 0.11129 0.868727 -0.945642 -0.584455 -0.503702 -0.814114 0.741515 0.0323825 0.0101219 -0.0639236 -0.52263 -0.487572 -0.827235 0.881806 1.01584 0.466022 -0.128301 -0.0761864 -0.171924 -0.763363 0.886332 0.878939 -0.304341 -0.376559 -0.528821 0.588982 0.759797 -0.989758 -0.201803 0.543335 0.339204 -0.754668 0.791529 0.46291 0.685115 0.0228398 -0.000935593 -0.965459 -0.818508 -0.603072 -0.211082 -0.944411 -0.14984 0.148428 -0.634317 0.654574 -0.00480327 -0.249331 0.76248 0.357596 0.541611 -0.24413 -0.978813 -0.573215 0.311873 0.78216 0.163114 0.895298 -0.189668 -0.417355 0.570286 0.97649 0.853836 0.667627 -0.195882 -0.813231 -0.633407 -0.92866 -0.570756 0.364284 -0.300144 0.102138 0.802493 0.740978 0.765702 0.98029 -0.370273 -0.382946 0.35892 -0.838253 -0.579186 0.961177 0.73398 -0.496895 0.160504 -0.817645 -0.449936 -0.603716 -0.404739
-0.748395 0.230138 -0.744502 -0.375655 -0.299148 0.432496 -0.697218 0.924937 0.839112 -0.81543 0.307682 -0.00697093 0.197223 -0.478439 -0.281042 -0.420677 -0.357768 -0.568688 -0.0348296 -0.776004 -0.0592138 0.137935 -0.90741 0.279668 -0.603023 0.522728 0.722807 -0.502286 0.976814 -0.161837 -0.27867 -0.0402758 -0.395379 -0.682998 0.656261 -0.368583 -0.357472 0.97534 -0.923091 -0.163807 0.335842 -0.7226 -0.0937686 -0.982908 -0.463036 -0.110464 -0.184428 -0.757045 -0.757345 -0.0618742 -0.108342 0.0619293 0.500861 0.501845 0.634899 -0.390356 0.112182 -0.142645 0.375005 -0.699504 0.542848 -0.451499 -0.504638 -0.690795 -0.0257796 -0.151645 0.163438 -0.573913 0.926805 0.387204 0.236112 0.483109 -0.957074 -0.67286 0.21243 -0.397649 0.794617 -0.233266 0.315625 0.0568918 -0.425862 -0.309097 0.393529 -0.129456 0.368339 -0.930782 -0.964879 0.61922 0.0230291 0.879266 -0.777135 0.374842 0.637686 0.98524 -0.449643 0.974606 0.226863 -0.306494 0.279724 -0.192291 0.992344 0.470295 0.388387 0.272606 0.114126 -0.396818 0.62676 0.820201 -0.935878 -0.336078 -0.509657 -0.395038 0.698976 -0.143897 0.286209 -0.340751 0.541243 -0.383409 -0.430167 -0.125092 0.0141274 0.322289 0.976875 0.366332 -0.379681 0.909813 -0.964089 0.0159547 -0.475498 0.65758 -0.416561 -0.530568 -0.383055 0.259325 0.245029 -0.612804 0.662701 -0.118485 0.229123 0.488802
-0.0823531 0.410954 -0.254604 -0.0295669 0.272006 0.0622559 -0.895759 -0.253172 0.387467 -0.0263399 0.657563 0.110366 0.879542 0.71038 0.843777 0.786211 0.237555 -0.361666 0.216833 0.136687 0.512629 0.143181 0.690345 0.185467 -0.966706 0.733668 -0.340381 0.74743 0.960012 -0.245452 0.143644 -0.422006 -0.885591 0.488062 -0.828341 0.644065 0.57035 -0.134875 0.679208 0.438758 -0.579609 -0.136386 0.672405 -0.792067 0.127801 0.939364 0.380027 0.738604 0.956515 -0.0920661 0.239529 -0.478653 -0.314918 0.660723 -0.237503 -0.7732 -0.73677 0.296479 0.550822 0.159391 -0.216761 -0.865667 0.192971 0.0832523 1.01014 -0.416693 -0.992893 -0.966893 0.347325 0.176446 -0.0929143 -0.442953 -0.250272 0.158534 0.13694 0.560294 -0.882396 -0.969225 0.0917075 0.883246 -0.098931 -0.955642 -0.560706 0.910994 0.547397 -0.604955 -0.0173618 0.0208591 0.563733 -0.892332 0.62049 -0.772731 0.821955 0.898967 -0.621963 -0.302883 0.948872 -0.172466 0.930362 -0.952203 0.327317 0.549481 -0.689814 -0.917203 -0.480978 0.498903 0.937018 -0.941559 0.850297 -0.574418 0.0858309 0.742486 -0.634188 0.594728 -0.876018 0.638767 -0.422882 0.226922 0.937862 0.897923 0.220353 -0.366256 0.96164 -0.546846 0.70062 0.536226 0.824391 0.840679 0.153549 -0.265455 0.853993 -0.309873 0.578427 0.386555 0.277836 0.995966 0.895481 -0.424096 -0.143077 -0.682875
-0.621108 0.397664 -0.803118 -0.200533 -0.782375 0.666248 -0.90164 -0.476057 0.0456683 -0.141399 0.109846 0.932309 -0.756267 -0.628347 0.940611 0.665458 -0.871015 0.902543 -0.850523 0.928341 -0.744506 -0.413673 -0.538128 -0.343585 -0.992445 -0.895615 0.840885 -0.941957 -0.69951 0.88305 1.00694 -0.0815104 -0.0579663 0.00709919 -0.746754 0.00918522 0.511287 -0.756845 -0.371548 0.413655 0.274538 -0.733654 -0.203992 -0.14494 -0.607146 0.314464 0.141077 0.805036 0.92298 -0.83522 -0.205595 0.188724 0.979428 -0.874041 0.689007 -0.176373 0.418784 -0.10827 -0.412748 -0.852568 -0.10275 0.558714 -0.0188719 0.864606 -0.224915 0.0810487 -0.948414 0.283333 0.937203 -0.225721 0.745413 0.419894 0.0483976 -0.910588 -0.690138 0.960857 0.943394 -0.0955452 0.0204227 -0.815326 0.544582 -0.602146 0.968586 -0.409666 -0.723023 -0.854883 -0.145773 0.60129 -0.34665 -0.145591 -0.710155 -0.927477 -0.708158 0.618335 0.816909 0.152661 -0.812966 -0.260405 0.50533 -0.567522 0.0913552 -0.580814 -0.489247 0.197328 -0.514401 -0.140671 -1.00058 0.350384 -0.392968 -0.668284 -0.521289 0.350971 -0.476023 -0.841345 -0.786145 0.130403 0.0572368 -0.679618 -0.131598 0.967189 -0.367412 0.478296 -0.897405 -0.279196 0.970068 0.510277 0.996544 -0.260332 0.745521 -0.474745 0.191126 -0.942075 -0.294266 -0.317242 0.335934 -0.215568 0.652477 -0.971199 -0.381115 -0.712788
0.869713 -0.889972 0.210034 0.290017 0.709104 0.210341 -0.560139 0.989958 -0.485316 0.630009 0.599717 0.640047 0.324041 0.720569 0.46927 0.0199521 -0.889285 -0.470005 -0.594246 -0.0897747 -0.866921 -0.619311 0.950623 0.785502 -0.652218 -0.150032 0.949403 0.0398593 0.710474 -0.345493 -0.199148 0.969253 -0.169732 0.479637 -0.840908 -0.547031 -0.680841 0.500205 0.405749 -0.0198889 -0.550312 0.951133 0.361447 0.71084 0.0297417 -0.480047 -0.883918 -0.29792 -0.360242 -0.43744 0.85534 -0.790277 -0.319742 0.870005 0.850587 0.800002 0.801483 0.654141 -0.619916 -0.410856 0.0794275 0.117499 -0.760009 -0.130298 -0.859833 0.379578 -0.834811 -0.470343 0.952151 -0.124271 -0.815402 0.0400799 -0.18027 -0.439614 -0.839596 0.627084 -0.150195 -0.829988 0.996959 -0.0837943 -0.427855 0.539721 0.769758 -0.0187088 0.0495064 -0.0203522 0.839878 -0.429837 -0.610193 0.679805 -0.869608 0.380301 0.677865 0.549613 0.175689 0.27448 0.66848 0.669417 0.597863 0.209621 -0.990264 0.110018 -0.831695 -0.899928 -0.739762 -0.359881 0.170559 0.240219 -0.149605 0.978319 -0.282337 0.237097 -0.354556 0.19505 0.460184 0.13003 0.658836 0.667987 -0.369978 -0.83987 0.429989 0.860748 -0.239973 -0.401631 -0.96016 0.949983 0.549719 0.579986 -0.208766 -0.650077 -0.719781 0.489467 0.167998 0.370249 0.288974 0.156471 0.242045 -0.201926 -0.03238 0.696716
-0.830001 -0.209997 -0.2 0.49 0.849989 -0.939998 -0.92 -0.75 -0.489959 -0.340002 0.74 0.59 0.420037 -0.709988 -0.959918 0.680002 0.400002 -0.590001 0.769963 -0.789995 -0.959975 0.22 0.33 0.259959 0.289981 -0.620001 -0.550005 -0.78 -0.76 0.449951 0.640006 -0.840005 0.440001 -0.91 0.669993 0.10003 -0.32 -0.239996 -0.159934 -0.06 -0.969998 0.0900058 -0.259986 0.82 0.72 0.289998 -0.770028 0.33002 -0.24 -0.709976 -0.0100328 0.259997 0.39 0.69 0.740006 -0.43 -0.279983 0.219944 -0.279999 0.139999 -1 0.169976 0.490007 0.73 0.849999 -0.64 -0.980046 -6.66894e-06 -0.619985 -0.0100357 -0.52996 -0.57 0.539998 0.21 -0.749998 -0.570023 0.280001 -0.249998 0.939974 0.789967 -0.169991 -0.43 -0.65 0.130011 0.79 0.0599977 -0.71 0.67 -0.0300011 -0.679999 -0.380003 0.170001 0.809985 -0.89 0.839956 0.56013 -0.0200051 -0.760007 0.979977 -0.340001 0.84 -0.72 0.789977 0.03 0.0299989 -0.179999 -0.650001 -0.66 -0.41 0.569981 0.480061 -0.250028 -0.830042 0.259957 -0.35 0.149998 0.799988 0.17998 -0.139996 -0.36 0.12 0.850004 -0.91 0.429989 -0.370001 0.72 -0.49 0.94 -0.749989 0.759997 -0.629997 -0.16 0.0101571 -0.120001 -0.72001 -0.770031 -0.0598928 0.119983 -0.950018 0.129962
0.8 0.32 0.78 -0.02 0.03 0.98 -0.5 -0.15 0.04 0.61 0.84 -0.19 -0.89 -0.46 -0.43 0.51 0.9 -0.32 0.33 0.96 -0.41 -0.66 -1 -0.31 -0.8 0.28 -0.36 -0.25 -0.15 -0.07 -0.71 -0.59 -0.95 -0.59 0.52 0.19 0.36 0.03 -0.79 -0.65 0.78 0.55 0.57 0.54 -0.29 -0.7 1 -0.42 0.92 -0.32 -0.05 -0.73 -0.5 -0.45 -0.4 -0.74 0.36 0.48 -0.98 -0.09 -0.31 -0.65 0.29 -0.27 -0.63 0.19 0.83 -0.14 0.29 0.36 -0.23 0.61 -0.44 -0.45 0.71 0.55 0.36 0.12 0.71 -0.1 -0.82 0.38 0.61 -0.39 -0.39 0.14 0.48 -0.51 -0.94 0.66 -0.35 0.97 -0.7 0.62 -0.3 0.13 -0.04 -0.09 -0.55 0.95 0.2 0.17 -0.69 -0.16 -0.06 -0.31 -0.29 -0.5 -0.14 0.59 0.95 -0.61 0.69 -0.58 0.92 0.66 0.57 0.54 0.1 -0.23 -0.51 0.67 0.06 0.05 -0.74 -0.27 0.51 0.24 -0.56 -0.19 -0.03 -0.06 -0.33 0.96 -0.41 0.85 0.44 -0.13 0.86 -0.91
-0.569148 0.549485 0.0799149 0.298722 0.485301 0.632854 -0.899211 -0.659567 0.218252 0.136936 -0.959242 0.61084 0.299915 0.279556 -0.280031 -0.721703 -0.982152 -0.521353 0.580137 0.989171 -0.449626 0.781019 -0.529597 0.211472 0.389688 -0.120876 -0.130028 -0.821589 -0.128328 -0.65169 0.982465 0.210138 0.968145 -0.359713 0.330378 0.0697633 0.540297 0.780976 0.387032 -0.23875 -0.450282 0.118693 0.703376 -0.000271387 0.836952 -0.56065 0.319316 0.350549 0.383108 -0.410476 -0.139338 0.578384 0.87084 -0.46979 0.370756 0.541801 -0.939565 -0.410277 0.100875 -0.889032 0.339515 0.430734 0.62787 0.759187 0.880478 0.87289 -0.630128 -0.322546 -0.139934 -0.140466 0.609675 -0.289718 -0.40106 -0.829541 -0.600284 -0.600818 -0.621272 0.124353 -0.992379 -0.139209 0.790465 -0.0112944 -0.289585 -0.620201 0.909809 -0.470495 -0.912274 -0.661893 0.138511 -0.318418 0.860361 -0.369148 0.220796 -0.68881 0.968616 -0.688754 0.449844 0.419979 0.00145577 -0.770962 -0.707102 0.249355 0.528761 0.029023 0.471648 0.0600582 -0.449702 -0.831388 -0.970291 -0.160041 0.858524 -0.810569 -0.099057 -0.0723369 -0.779494 -0.469516 0.669834 0.592431 -0.138858 0.510915 0.520541 -0.992405 0.610794 0.930185 0.560134 -0.39874 -0.967655 -0.140289 -0.787825 0.648816 -0.160631 0.249319 -0.579693 0.35076 -0.399934 0.219468 0.509034 0.13292 -0.159424 0.0401769
0.799078 -0.170969 -0.667397 0.277326 0.372617 0.176241 -0.470182 0.767907 0.0894421 -0.48719 -0.600287 0.353443 -0.18751 -0.444685 0.409899 -0.128883 -0.143675 -0.254804 -0.520376 -0.00348339 0.0537732 0.792957 -0.838457 -0.256741 0.248674 0.516243 0.206053 0.196451 0.181632 -0.964859 0.877975 -0.675859 -0.32564 0.435263 0.105721 0.128 0.550427 0.654575 0.977918 0.613191 -0.959218 0.155053 -0.337143 -0.204773 0.107755 0.886451 -0.672373 -0.800329 -0.917532 0.96041 0.39959 -0.135025 -0.453133 0.602956 -0.617427 0.218137 0.079686 -0.48565 -0.39803 0.875559 -0.413763 -0.655317 -0.800752 0.966805 0.667875 0.326968 -0.356993 0.542475 0.121617 0.10317 -0.11531 -0.852273 0.850298 -0.849083 0.592981 -0.425246 0.287503 0.669954 -0.330618 -0.982299 0.478538 -0.648767 -0.534246 0.238578 0.699821 -0.647072 0.947745 -0.840701 0.129924 -0.607329 0.0662309 -0.813307 0.303754 -0.505437 -0.269628 -0.452277 -0.0425414 -0.0439469 0.370102 -0.919754 -0.533953 0.404441 -0.657859 0.200977 -0.812118 0.217304 -0.275812 -0.50252 -0.21072 0.678768 -0.298693 -0.226398 0.0469226 -0.197755 -0.831798 0.406171 -0.196481 0.199406 -0.358145 -0.717832 -0.534868 0.0722241 0.792708 0.321752 -0.119237 -0.169042 0.705584 -0.195402 0.10738 -0.480444 0.606313 0.757751 -0.802668 0.196437 -0.0324601 -0.29492 0.65636 -0.417549 -0.788259 0.845791
-0.563131 -0.175349 -0.919078 -0.0129291 0.882524 -0.790322 -0.32255 -0.141637 0.115585 0.327649 -0.107104 0.513013 0.607033 0.395639 0.476146 0.7891 0.313379 0.551848 -0.699032 -0.686994 -0.333893 0.845574 0.406201 0.0840229 -0.387824 -0.890551 0.0538389 0.995494 0.872912 0.170095 -0.117365 -0.795787 -0.202179 0.584988 -0.676674 0.987208 -0.396885 0.545368 -0.769502 -0.679343 -0.443206 -0.511294 0.921188 -0.627671 -0.0497546 0.731489 -0.712352 -0.66431 0.15363 -0.734175 0.173453 -0.150789 0.843468 0.282724 0.559651 0.221054 -0.365705 -0.596192 0.35902 0.412967 -0.207244 0.121574 0.550979 -0.260895 -0.699638 -0.0683272 -0.436038 0.98427 0.636823 0.0808234 0.101037 0.476198 -0.468887 0.449581 0.504394 0.667983 -0.453017 -0.963074 0.494651 -0.768806 -0.418553 -0.23891 0.0433754 0.565407 -0.639594 0.254994 -0.486318 -0.832068 -0.365339 -0.77656 0.741046 0.753962 -0.468147 -0.523306 0.0490437 -0.680039 0.485593 -0.909965 0.23338 -0.270985 0.685484 0.203866 0.679881 -0.479679 0.884047 -0.194197 -0.183614 -0.163604 0.196448 -0.911643 -0.833589 0.420052 0.954803 -0.680093 0.738036 -0.535966 0.598906 0.921182 0.836494 -0.435582 -0.31015 0.437467 0.347107 0.895654 0.1842 0.486825 -0.2449 -0.72894 0.306148 0.00800977 0.173548 0.359451 0.14351 -0.837674 -0.19529 -0.543552 -0.370867 0.501418 0.0404645 -0.925839
0.358521 0.450491 0.124422 -0.570611 0.70949 -0.528076 0.785868 0.290905 -0.418726 0.778723 -0.210773 0.535404 -0.448084 0.791583 -0.299895 0.881844 0.230245 0.435775 0.395455 -0.874979 -0.957983 0.759557 -0.345227 -0.511622 0.417617 0.465029 -0.685615 0.929996 -0.756083 -0.46784 0.869774 0.741049 -0.801267 0.781577 0.451838 0.552148 0.565816 0.865334 0.739138 0.155226 -0.673575 0.550836 0.356563 0.88978 0.154279 -0.958902 0.951284 -0.124798 0.59711 0.356484 -0.781176 0.0965617 -0.876433 -0.852982 -0.253348 0.514492 -0.567916 -0.870103 0.912758 0.95327 -0.549881 -0.426543 0.00651187 0.0821768 -0.0273073 -0.678578 -0.780827 -0.992731 0.699013 0.104535 -0.130151 -0.425876 -0.147407 0.0455134 -0.376527 -0.105636 0.852416 0.638792 -0.141336 -0.249608 0.0461579 -0.78085 0.240846 -0.0268041 0.267839 -0.482873 0.503224 -0.239069 -0.0220375 0.604913 -0.0854546 -0.604789 -0.812937 -0.804426 -0.277294 0.584223 0.156681 0.256274 -0.201083 -1.03748 -0.139294 -0.0470038 0.709051 0.318353 -0.58035 0.615908 0.397671 -0.74259 0.75083 -0.302333 0.34382 0.187102 0.078942 -0.0286226 -0.700296 -0.605377 0.117169 -0.732681 0.0562208 -0.485663 0.504894 0.314357 -0.73125 -0.703282 -0.586311 -0.500936 0.501752 -0.426811 -0.985494 -0.609144 0.5656 -0.517234 0.64764 -0.634251 0.31653 0.644897 -0.676015 -0.697089 -0.700885 -0.233621
-0.803796 0.314882 0.0676716 1.08227 0.570933 -0.468532 -0.875099 0.538415 -0.104826 0.28047 0.619095 0.827425 -0.887205 0.150244 0.253123 -0.157225 0.42386 0.198873 0.196358 0.870528 -0.994094 0.728628 -0.0108328 -0.0325291 -0.830208 0.46945 0.821336 -0.922049 -0.880833 -0.738562 0.266498 -0.286377 -0.789921 0.0220458 -0.914477 0.688693 0.0578729 0.292039 -0.712387 -0.475334 -0.860446 -1.13945 0.322576 0.267683 0.0848975 -0.988774 1.11674 -0.269824 -0.0271793 0.755629 -0.58975 -0.300673 -0.733975 -0.275325 0.351258 -0.378749 0.819252 0.760686 0.327165 0.970993 0.0342388 -0.663166 0.49286 -0.701742 -0.520287 1.03308 -0.206457 0.15457 0.247136 -0.989631 -0.45578 0.300365 0.482774 0.925546 0.188938 -0.481321 -0.655696 0.0610471 -0.0822185 -0.406769 0.776071 0.679992 -0.547096 -0.646005 0.752845 -0.0244325 -0.957902 0.130559 -0.225047 -0.740273 0.694645 0.145279 -0.418002 -0.908334 -0.356435 -0.204334 0.127622 0.0145779 0.93556 -0.794316 0.387464 -0.267288 0.450747 0.373394 0.908296 0.836606 -0.987707 -0.514392 0.104762 0.57831 0.385151 0.955144 0.476008 -0.42843 0.724018 0.321686 -0.354384 0.312093 0.507436 0.581244 0.268883 0.229071 0.524388 -0.274887 0.120128 0.74292 0.0775493 -0.734021 -0.97414 0.0889548 -0.177233 -0.385454 -0.851079 -0.33671 -0.479684 -0.586191 0.797508 0.129564 -0.585933 -0.533655
-0.722388 0.195791 -0.366904 -0.0299634 -0.144476 -0.336569 0.50516 -0.109435 0.48623 0.349038 -0.403103 -0.539855 -0.211105 -0.716309 -0.434404 0.0284151 -0.39883 0.323479 -0.0691051 0.653611 0.159548 0.0153355 -0.911835 0.0548269 0.426795 -0.526673 -0.230675 -0.417124 -0.521977 -0.20845 0.764381 -0.878079 -0.707465 -0.43828 0.717811 -0.0601805 0.115565 0.459504 0.473421 -0.0926052 -0.0619276 0.570552 -0.143857 0.57018 -0.907702 0.319693 -0.351877 -0.420904 -0.9003 0.211237 0.514854 0.244483 0.103021 -0.0866697 0.442958 -0.632238 -0.0176283 -0.129088 -0.519638 -0.669084 0.466486 0.260991 -0.0119387 -0.86026 0.623909 0.109222 0.188048 0.419656 0.750065 0.702848 -0.217743 -0.795127 0.280588 0.306969 -0.212864 -0.5609 -0.650299 -0.326852 -0.823002 0.638529 -0.903467 0.874738 0.314083 1.03283 -0.479684 -0.0491683 0.143623 1.02106 0.673221 -0.534359 0.760863 0.571752 -0.121189 -0.0816826 -1.02165 -0.574718 -0.670511 -0.365957 0.809922 0.560103 -0.887736 -0.392902 0.922153 -0.399476 -0.663599 0.137044 0.681767 0.250978 -0.0807226 0.752374 0.580016 -0.701275 0.444899 -0.0928035 0.248133 0.351595 0.17825 -0.753468 -0.439812 -0.941737 -0.345298 -0.971485 0.457745 0.558981 0.3521 0.339612 0.551531 -0.2259 0.710341 0.0721491 -0.715316 -1.0812 -0.330918 -0.286963 -0.479931 -0.600367 -1.04874 -0.000541255 0.316975 -0.496177
0.910378 -0.879397 0.446918 0.734841 0.126298 -0.751634 -0.398619 0.692547 -0.850403 -0.0347988 0.671122 0.240259 0.382803 0.169228 0.53944 0.582244 -0.807037 -0.0409389 0.208949 -0.203457 -0.0553318 -0.710177 0.0817657 -0.708266 0.426046 0.0778683 0.83387 -0.106706 0.844681 0.0012959 -0.660412 0.172407 -0.00689462 0.446148 -0.635138 -0.881311 0.378372 0.627279 -0.809013 0.615426 -0.511057 0.840899 0.451251 -0.608789 0.93316 -0.173788 0.0464622 -0.814469 0.487074 0.622079 -0.476596 -0.992153 -0.966467 -0.645746 0.952463 0.562061 0.653067 -0.401602 -0.763021 1.07411 0.477508 0.64929 0.510757 0.515094 0.119753 0.612798 0.915602 -0.896827 0.149694 -0.948675 -0.623126 0.282486 0.637449 0.311774 -0.209052 0.319005 0.283327 -0.58568 0.55142 -0.834754 0.901027 -0.0402819 0.528761 -0.858859 -0.880995 0.503722 0.6577 0.740845 -0.958535 -0.042689 -0.455089 1.06036 0.933559 -0.465587 0.814995 0.352387 0.325441 -0.132276 0.661108 0.497875 0.203437 -0.931829 -0.612203 -0.602269 0.906147 0.592524 -0.792192 -0.579702 -0.651207 0.752422 0.0799901 0.026401 -0.770578 -0.384031 0.405573 0.834841 0.364028 0.0391774 -0.818752 0.171569 -0.747717 -0.156718 0.700217 -0.857057 0.159327 1.06829 0.54314 -0.643095 1.07408 -0.0365495 -0.835523 -0.0292608 -0.102727 -0.135915 -0.218881 1.0466 0.240011 0.64931 -0.812134 -0.105836
-0.394436 1.00781 -0.489941 -0.500982 0.549284 -0.201761 0.190118 -0.295748 0.0124871 -0.252579 0.444629 0.127931 -0.958356 0.556953 0.555891 0.522535 0.658809 0.532549 -0.535947 -0.581706 0.456252 0.0225802 0.731953 0.218747 -0.225305 -0.772236 0.404652 -0.484273 -0.259573 -0.396214 -0.730699 -0.134515 -0.0967164 -0.196491 -0.764662 -0.551873 0.426766 -0.476148 -0.565552 -0.966949 -0.50911 -0.753382 -0.202172 1.0799 -0.0907608 0.350021 -0.335749 -0.530362 0.499048 -0.988126 0.158824 0.775227 -0.946251 0.792529 -0.699649 0.253004 -0.69966 -0.670421 0.111368 -0.0860223 -0.419131 -0.264986 -0.584408 -0.107156 -0.800187 -0.00932867 -0.81157 0.322575 -1.19089 -0.228395 -0.0210551 -0.974288 0.528309 -0.464086 0.141076 -0.552851 -0.56974 0.928598 -0.70775 1.07572 0.651767 0.184106 -0.634411 -0.961536 -0.143752 -0.731582 -0.0503614 -0.263054 -0.163286 0.798568 -0.704397 -0.361568 -0.757149 -1.03151 0.315832 0.766149 0.513548 -0.585148 -0.501448 0.501511 -0.597412 0.352851 0.960833 -0.318452 0.773007 0.357373 -0.238033 0.48943 0.0394653 -0.721482 -0.897188 0.468394 0.573183 -0.59291 0.605672 -0.234778 0.705924 -0.328653 1.03401 -0.392475 -0.754772 -0.8861 -0.284157 -0.859853 -0.367528 0.685286 -0.95385 -0.104801 0.144269 -0.254414 -0.34105 0.481765 -0.456315 -0.00105535 0.605634 0.30208 -0.112964 0.344016 0.657268 -0.470767
0.309983 -0.717723 0.0909451 0.944344 -0.645921 0.0570501 -0.420359 -0.939362 -0.577932 -0.203764 1.02967 0.360109 0.040083 -0.640621 -0.570414 -0.958264 0.94631 -0.707628 -0.921016 -0.476687 -0.731013 0.230426 0.0108782 1.05843 -1.06209 0.0387381 -0.0148436 -0.835933 -0.980159 -0.44603 0.161578 0.07953 0.752286 0.298714 0.282314 0.103143 -1.1024 0.130514 0.0175794 -0.667042 0.609289 -0.785629 0.288554 0.573548 -0.879791 0.657398 -0.182688 0.0769695 0.257715 0.469671 -0.910242 -0.629218 -0.727875 -0.871683 0.130081 -0.783419 -1.05699 0.630256 -0.743991 0.234361 -0.762006 -0.386431 -0.872357 0.464098 0.507179 -0.172799 0.807521 0.89094 -0.787396 -0.912098 -0.413895 -0.314174 0.183567 0.862515 -0.174268 -0.0413415 0.881258 -0.00204189 -0.195171 -0.654905 0.564574 -0.36571 0.610219 0.445988 0.00852601 -0.0412295 0.785625 0.496533 -0.637339 0.655091 -0.18782 -0.0364285 0.648921 -0.375015 0.688447 0.285672 1.09632 -0.938521 0.934698 0.0577066 0.661628 -0.00311483 -0.417469 0.458902 0.435846 0.313612 0.79368 -0.860238 0.95868 -0.731928 0.273363 -0.952144 -0.410076 -0.46598 -0.0382631 -0.329017 -0.176172 1.02781 0.476212 -0.619708 0.0238563 0.558958 -0.105765 0.0661098 -0.0537981 0.344016 0.0595743 -0.774899 -0.0374002 0.617588 0.579266 -1.17801 -0.523484 -1.08584 -0.674059 -0.135944 0.73871 -0.935219 -0.0950065 -0.417728
-0.704434 0.894933 0.78577 0.400818 0.673736 0.448104 -0.139535 -0.256661 -0.540128 0.808085 -1.02114 -0.81819 0.58681 -0.590117 0.950343 0.25467 0.749207 -0.487134 -0.389214 -0.882144 -0.723765 -0.35221 -0.718157 0.894965 -0.822499 0.276766 0.920087 -0.183236 0.583415 -0.0270497 0.677985 0.0941382 0.843532 0.680422 -0.589766 0.828141 0.565487 -0.959794 -0.365776 -0.332797 -0.154536 -0.697961 -0.0849838 -0.00529048 0.269 -0.466956 0.0489098 -0.890514 0.899229 -0.794058 -0.131716 -0.38171 0.358849 -1.02706 -0.88613 -0.387551 0.177937 -0.632479 0.711823 0.904575 0.644261 -0.256453 0.409008 -0.401284 0.753773 -0.0929635 -0.214958 0.788998 0.795275 -0.5715 0.543526 0.137231 0.469669 0.219562 0.77412 -1.12487 -0.43278 0.109158 -0.664854 -0.472929 0.0212507 -0.07918 0.342586 -1.0246 -0.632971 -0.560909 -0.276325 -1.04503 0.413434 0.745445 0.0937345 0.516576 0.477769 -0.927624 0.516545 -0.442966 0.673686 0.112159 -0.380951 -0.39957 0.0593353 -0.132499 -0.0024821 1.04846 -0.177167 0.916021 0.955078 -0.375705 0.950351 0.055058 0.120842 0.373112 -0.94969 -0.117238 0.422761 0.749279 -0.377821 0.43248 0.957026 0.14657 0.782186 -0.064164 -0.438212 0.0787626 0.786174 -0.0549649 0.146102 -0.131999 0.826458 0.298714 0.0134545 -0.26314 -0.119753 -0.457814 -0.178951 -0.793413 -0.394968 -0.152124 0.0483691 0.472564
1.11425 0.0262116 0.806456 -0.739107 -0.774544 1.13186 -0.449737 0.392429 -0.0265089 -0.373518 -0.275738 -0.520333 -0.114877 0.123298 0.240094 0.896308 0.373787 0.028173 0.950053 -0.00958598 -0.890204 -0.639293 -0.710713 -0.339235 0.639377 0.672631 -0.936977 -0.742777 -0.380234 0.077713 0.471851 -0.0218244 -0.705064 0.381327 0.263121 0.766254 0.752661 0.651906 0.216069 -0.583637 0.81098 0.715534 -0.19895 -0.38564 -0.507306 -0.157641 -0.996134 -0.30624 0.110453 0.578804 -1.19191 0.361178 1.11421 -0.901691 0.639796 -0.639193 0.769334 0.655087 -0.552643 -0.0368778 0.67099 0.0381869 0.427562 0.22262 0.785451 0.0655255 0.42108 -0.526735 0.244299 -0.79488 -0.543337 0.166226 -0.149243 0.620453 -0.806994 0.187419 0.606994 0.601372 0.520617 -0.527252 1.03135 -0.636151 -0.0432069 -0.677306 0.859685 1.00422 0.356527 0.496444 -0.56119 0.650293 -1.1013 0.933765 -0.301698 -0.968861 0.678687 0.57062 0.705774 -0.494377 0.560312 -1.1502 0.139919 -0.353548 0.495581 0.146256 -1.06136 -0.478257 -0.685265 0.25973 0.479988 -0.943386 0.808583 -0.759551 0.0136891 -0.860821 -0.792253 0.207773 1.15001 0.434494 -0.426915 -0.918103 -0.25608 -0.782187 -1.03018 0.48626 0.358979 0.969907 0.747671 -0.687297 0.810336 -0.130259 0.212867 -0.609178 -0.368515 -0.410846 -1.05998 -0.0632833 0.517793 -1.0115 0.133495 -0.907749
-0.466482 1.13528 -0.0367119 0.347123 0.304161 -0.260951 0.159743 -0.263323 0.0104041 -0.431175 -0.822165 -0.370518 -0.729065 -0.187981 0.0505858 -0.558478 -0.481361 0.114729 0.666906 -0.0230379 0.844453 -0.273083 -0.121228 0.197803 -0.278443 -0.249717 -0.808807 0.963408 0.625999 0.312529 -0.227596 0.609649 -0.883452 -1.04094 -0.105269 0.747556 0.340911 0.927473 0.183587 0.00927092 -0.0482542 0.611166 -0.699824 0.863807 0.129115 -0.715546 0.0517164 -0.233202 0.760695 -0.916817 -0.867167 0.352977 -0.0383525 0.712845 0.0670698 -0.260329 -0.794012 0.312951 -0.63099 -0.847637 0.689706 1.07531 0.257739 1.04213 -0.10974 0.472838 0.0267933 0.0504121 -0.568916 -0.688202 -0.000770471 0.150525 -0.173526 -0.928968 1.10305 0.652651 0.706491 -0.989667 -0.956513 -0.545595 -0.307479 0.305828 0.511497 0.524733 -0.116739 0.948955 -0.27611 0.701244 0.235533 -0.492032 -0.150057 0.316249 0.324926 -0.534235 -0.238037 -0.255838 0.502626 -0.00610611 -0.214427 -0.769364 0.17591 0.685372 -0.679664 0.122687 0.0914023 -0.592344 0.413481 -0.73803 0.717884 0.0459255 0.971616 -0.0593611 0.13994 -1.04983 0.802426 0.926397 -0.307298 -0.748563 -0.230656 -0.508846 0.399189 0.940918 -0.417802 0.629878 0.0465585 -0.239557 -0.781963 -0.220115 0.443907 0.627722 1.08615 -0.860157 0.426259 -0.621487 -1.03392 -0.510766 -0.513391 -0.656903 -0.912819 -0.198485
0.0168015 0.672684 -0.660979 1.11866 0.624679 -0.333256 0.944887 0.887084 0.834626 -0.14239 -0.363514 0.290304 -0.222647 0.521964 0.549047 0.217767 0.136706 -0.889833 -0.00486412 0.242942 0.0837559 0.74245 -0.340094 -0.0174693 0.0977916 -0.563638 -0.103212 0.673769 -0.625757 -0.434577 -0.563067 0.72603 -0.516294 -0.373667 -0.907345 -0.145323 -0.221072 0.575631 -0.985298 -0.903605 0.808946 0.759083 0.720712 -1.03714 -1.09926 -0.742585 0.405128 -0.294911 1.01941 -0.986703 -0.615353 -0.31462 -0.725232 -0.11938 -0.731507 0.439921 -1.04219 -0.400241 -0.847682 -0.595424 -0.254996 -0.61587 -0.329803 0.433067 -0.0741874 0.931392 -0.966802 0.0123245 0.167299 -0.0649754 -0.0786204 0.426124 -0.335691 0.261664 -0.625651 -1.03461 0.378312 -0.723309 -0.69411 0.15648 0.582701 0.753633 -0.262153 0.597106 -0.541473 0.371835 -0.393084 0.308956 -0.0338341 0.373848 0.295228 0.712172 -0.702077 -0.548557 -0.706899 0.732594 -0.0937767 -0.332939 0.487624 0.446324 0.5932 -0.0864188 -0.970777 -0.36863 0.872762 -0.723448 0.276172 0.552843 0.719876 -0.711251 0.139683 0.336881 -0.732315 -0.553051 0.148582 0.904741 -0.17305 -0.267868 0.416683 -0.789437 0.322464 -0.393371 -0.511576 -0.0417059 -0.436436 1.13591 0.169759 -0.331631 0.253922 0.898352 0.043974 -0.105237 -0.594751 -1.05028 0.744196 -0.713701 0.433915 -0.188548 0.418897 0.576039
-0.449893 0.743385 0.144656 1.00644 0.705058 -0.297798 0.354556 -0.991298 -0.644614 -0.420675 0.139344 -0.781294 -0.475167 -0.555537 0.592767 -0.0150665 -0.431964 0.447156 -0.314935 -0.313253 -0.507777 0.322997 0.831669 0.82981 0.86186 0.572774 -0.477929 -0.657739 0.851195 0.356441 -0.0955356 -0.741839 0.194441 0.489797 -0.402167 0.707054 -0.581884 0.927522 0.162635 0.154148 0.136316 -0.780785 0.0499342 -0.00389039 0.664781 -0.0527363 -0.727175 -0.0288249 0.645076 0.807799 -0.842308 -0.412887 0.688065 -0.519052 0.248527 -0.777644 0.305009 -0.712067 0.0652392 0.549583 0.149759 -0.520093 -0.721824 0.080811 0.815845 -0.367448 -0.053737 -0.828997 -0.505075 0.00478017 0.355345 -0.422069 0.748959 0.283346 -0.17538 -1.03845 -0.648139 0.551624 0.516002 -0.168793 0.355898 0.485533 -0.442834 0.86399 -0.269554 0.38722 -0.577518 -0.0110858 -0.309465 0.540363 -0.814047 0.90026 -0.150779 0.494437 -1.1337 0.526708 0.206799 0.364894 -0.499253 0.000818215 -0.0117681 0.328733 -0.260612 -0.268228 0.497753 -0.625621 0.112441 0.216454 0.577928 -1.09143 1.4037 0.188325 -0.491498 -0.347485 0.160822 0.112642 0.31772 0.803247 -0.671687 -0.520747 0.595534 -0.185237 -0.0354516 -0.135877 0.318744 0.0737002 -1.10211 0.380962 0.90169 0.394189 0.409895 0.271908 0.747957 0.507431 0.763077 0.767203 -0.131864 -0.122439 0.270564 0.629709
-0.787168 0.858429 -1.05996 0.0414335 -0.810966 -0.119762 -1.15178 -0.665681 0.489381 0.601503 0.269784 -1.0111 -0.0806656 0.403063 -0.029783 0.540989 -0.55085 0.0112841 0.490594 0.750523 0.0482102 -0.418292 1.01177 -0.192061 0.899308 0.516093 -0.158665 -0.0130039 -0.205922 -0.265336 0.469813 -1.2565 -0.762333 -0.851539 -0.136242 0.154936 0.211971 0.93674 -0.16353 -0.54164 0.993275 0.516663 -0.749411 0.246614 0.552876 0.567257 0.0816262 0.814367 0.0420985 0.851147 -0.728866 0.712404 0.59509 0.643298 1.00325 -0.0345622 -0.356405 0.270325 0.00346143 -1.13319 0.0980431 0.359733 0.7895 0.683432 0.437279 0.350483 -0.100636 0.808251 -0.894809 -0.326608 0.870369 0.56739 0.740337 -0.912688 0.637473 0.618847 1.00449 0.720928 -0.984633 -1.06156 -0.544241 0.214307 -0.115202 0.0540027 -0.628842 0.9036 -0.786535 0.604968 -0.0520538 0.548121 -0.151787 -0.801044 0.639826 -0.642886 0.591069 -0.869108 -0.20457 0.747252 -0.200524 0.0784572 0.310984 0.784726 -0.893372 -0.542328 0.673539 0.343552 -0.806362 -1.00114 0.144369 -0.887051 1.09983 -1.0523 -0.924981 -0.726874 -0.423147 0.853808 0.181697 0.540135 -0.460552 0.0573181 -0.781369 0.551159 0.786319 0.479496 -0.583048 -0.0169366 -1.07406 0.85686 0.459749 0.451362 -0.122156 -0.236088 0.143132 -0.427832 -1.06372 0.113771 -0.579476 -0.0931868 -0.799771 0.970694
-0.259731 -0.551727 -0.907121 -0.37046 -0.803173 0.605007 0.312792 -0.092845 -0.111655 0.944751 -0.692238 0.383537 -0.750479 0.454991 -0.216777 0.258216 -0.678106 0.552145 0.937891 -0.495756 0.653028 0.664084 -0.703985 0.324336 0.705825 -0.520005 -0.605293 -1.10195 0.874662 0.277403 0.787212 -0.954892 -1.09573 0.158836 -0.619387 0.362237 0.602482 -0.249094 0.0503315 -0.438849 0.71624 -0.675871 -0.464665 0.111748 -0.472772 0.501289 -0.164633 0.574443 0.315102 0.319287 0.155504 0.704501 -0.44778 0.715698 -0.222273 -0.0518015 -0.094754 0.679349 -1.21192 -1.32377 -0.843808 0.306631 0.813431 -0.434583 -0.281968 -0.310719 0.88565 0.510944 0.692297 0.158341 0.128099 0.567056 0.179625 -0.479842 0.523628 -0.295865 -0.130441 0.028551 -1.02063 -0.12085 -0.172014 0.365903 -0.971376 0.477521 0.406061 -0.773075 -0.621162 0.857321 -0.742535 0.453818 -0.360321 0.0573623 0.34094 0.756743 0.2083 0.660759 -0.320592 -0.468054 -0.910619 0.0243014 0.507211 -0.231413 0.015752 0.886945 -0.993102 0.208301 -1.09335 0.804861 -0.787142 0.293837 0.0642891 0.29209 0.547627 -0.760232 -0.485124 -0.575247 -0.63016 0.608064 0.984465 0.573806 0.828391 0.451533 0.473276 0.668266 0.585136 0.4004 0.115791 -0.51087 -0.225579 0.788336 -0.285333 0.371724 -0.64143 0.964021 -1.06117 -0.615151 -0.287764 -0.458368 1.06296 -0.609495
0.287603 -0.494985 -0.0546636 0.0706483 -0.330079 0.892735 -0.829794 -0.978652 0.0683524 0.398134 0.788145 0.887368 -0.958842 0.0313108 -0.725991 -1.179 0.66625 -0.140736 -0.39068 0.94705 0.585989 0.712174 0.784289 0.812739 -0.0747087 -0.655354 0.22481 0.827249 0.560333 -0.0617405 -0.30897 0.361651 -0.813891 -1.31642 -0.500205 0.319154 1.12988 -0.74395 -0.458027 -0.00271114 0.0446988 -0.963384 -0.282739 0.741964 -0.994843 -0.174179 -0.811752 0.312039 0.563901 0.590017 0.133004 -0.152861 -0.700366 0.600713 0.628693 -1.14467 -0.949322 0.58662 -0.528575 -1.08392 -1.04441 -0.569338 0.319509 0.654403 -0.867006 -0.890583 -0.378975 0.906326 -0.104654 1.02466 -0.637411 0.437422 0.642779 -0.349215 0.0652081 -0.600998 0.0644611 0.068742 -0.56348 0.34035 0.831231 0.652419 0.570772 -0.134426 0.709808 0.217758 0.00199838 0.969001 -0.874668 1.0705 -0.619249 -0.345302 0.714939 -0.856791 0.821732 0.430054 -1.03366 0.142047 -0.694159 0.410319 0.773263 -0.368085 -0.834829 0.402955 -0.00498843 0.42648 -0.367564 -0.291518 -1.23749 0.604156 -0.52939 -0.783185 0.559387 0.40814 -0.794961 0.542365 -0.926857 -0.0899994 0.393209 0.0574522 0.505421 -0.993663 -0.108513 -0.585239 -0.262641 1.0398 -0.0244379 0.398312 -0.337885 0.452724 -0.166878 -0.691488 0.0547979 0.457029 0.239045 -0.868354 0.0324899 -0.900531 0.601798 1.17082
0.959764 0.606618 -0.26716 -0.133777 -0.745939 -0.56205 0.0592442 0.602717 -0.887315 0.328619 -0.960425 0.795013 0.79423 0.25865 0.102416 -0.607634 -0.636493 0.796635 -0.216696 -0.769056 0.000261143 0.000762515 -0.106279 0.0665073 -0.0641851 -0.969914 0.556164 0.495134 0.399844 0.481036 0.875009 0.0467865 -0.538609 -0.836981 -0.763196 -0.465979 0.0254042 -0.797431 -0.711089 -0.660083 0.907515 0.312355 0.209054 0.815924 -0.264472 -0.417049 0.410192 0.525955 0.129108 -0.159706 -0.55982 -0.260075 -0.318997 0.13 0.511621 -0.771878 0.340114 -0.452927 -0.986053 -0.63776 -0.0977969 -0.082509 -0.538773 0.527816 0.276751 0.193396 0.228321 0.687256 -0.804158 -0.738153 0.737858 0.894911 1.18565 0.55109 0.979446 -0.759012 -0.929578 -0.393531 -0.886027 0.264311 0.919543 0.562955 -0.338991 0.0042391 -0.883627 -0.972201 0.0170841 0.201608 -0.716917 0.0454011 -0.756569 0.861243 0.319006 0.00479168 -1.0299 -0.402171 0.0631053 0.548668 1.00961 -0.585877 -0.303575 -0.596574 -0.209826 0.302984 -0.348422 -0.437218 0.0458359 0.168107 0.42283 0.515002 -0.375159 -0.744818 -0.637698 -0.472913 -1.13126 -0.643526 0.653107 0.291695 -0.503116 0.79177 0.35171 -0.464842 0.409332 0.805983 1.14072 0.319646 -0.350325 -0.867998 0.0174751 0.68632 -0.104999 0.188601 -0.746238 -0.828971 -0.222037 -0.448403 1.14688 0.0923569 -0.359456 0.697614
-0.707752 -0.495055 -0.489237 0.715118 -0.0928815 0.144576 0.553147 -0.062766 0.507988 -0.535257 1.15505 -0.859484 0.0729453 -0.760458 0.749721 -0.525057 0.72326 -0.752646 0.874544 -0.788356 0.0924433 1.21246 0.302297 1.17206 0.304791 0.0431452 -0.370658 0.0426246 -0.337929 -0.142795 -0.231103 -0.628377 -1.15982 0.165553 -0.451499 0.267387 -0.528488 0.546657 0.454311 -0.368067 0.505155 -0.561713 0.240777 1.01839 -0.680341 -0.483443 0.314138 0.862958 1.07306 -0.745921 0.306496 -0.926371 -0.652065 -0.0910166 0.854264 -0.0895898 0.71093 0.671896 -0.885366 -0.244782 -0.0408429 0.661904 -1.02321 0.161536 -0.610882 1.07905 0.164145 0.292848 -1.24962 -0.722578 -0.203172 -0.541209 1.02678 -0.768489 -0.684717 0.71317 -0.100018 1.20798 0.843255 0.47778 -0.156801 0.872084 0.492345 0.515329 -0.168812 -0.854338 -0.44231 -0.698949 -0.866331 0.862205 -0.45217 -0.562969 0.583883 -0.433556 0.0883766 0.622146 0.094367 0.169094 -0.849544 0.748238 -0.34906 0.489758 -0.453378 -0.090618 0.189967 -0.292974 0.476515 -0.356762 0.441134 0.176504 0.365729 -0.528767 0.947553 -0.0151111 0.640322 0.190606 -0.387882 0.395753 -0.200108 -0.833831 -0.978931 -0.609406 0.0337416 0.327757 0.697891 1.12921 -0.0786936 0.796559 0.549088 -1.0392 -0.372187 0.424688 -1.15635 -0.4756 -0.109265 -0.694477 -0.657054 -0.32545 -0.451965 -0.0533583
1.01723 -0.539511 -0.139057 0.722044 0.591369 0.313053 0.434735 -0.860593 -1.04536 0.564653 -0.134829 -0.914285 -0.356377 0.0761834 0.654005 0.683681 -0.224149 0.833167 0.520358 0.413032 -0.809901 0.410985 -0.293227 -0.820575 -0.842507 0.697296 -0.305777 -0.738333 0.702995 0.931576 -0.428454 0.797185 0.47181 -0.257987 -0.339981 -0.722388 0.199817 -0.0713336 -1.19772 -0.576528 0.142253 -0.171593 0.29439 0.10788 -0.928991 -0.491192 -1.13517 -0.812945 0.755599 -0.67567 -0.624422 0.535043 0.922302 0.18064 0.968535 0.353516 0.77797 -0.160013 -0.0688085 -0.31792 0.219088 -0.897754 -0.303399 -0.977739 0.493652 0.404278 0.68925 0.586549 0.0982444 -0.728055 0.277682 0.619329 -0.298578 -0.677247 -1.10709 0.753053 -0.640956 0.177193 -0.385137 0.7228 -0.741198 -0.940053 0.257066 0.812748 -0.100935 -0.790429 -0.167375 0.563329 -0.45427 -0.281032 0.780987 0.679897 -0.533006 -0.546582 0.781519 0.669291 0.317755 0.369718 -0.683454 -0.550468 0.870724 -0.370733 0.363354 0.339014 0.146115 -0.929782 0.464834 -0.74485 -0.789215 -0.387655 0.301072 0.264487 0.386154 -0.069018 -0.708573 -0.306156 -0.660238 0.650522 -0.266996 0.00249888 0.4517 0.220211 -0.577523 0.425826 0.766132 0.62972 -0.584491 0.451829 -0.3426 -1.02706 0.171326 -0.762711 0.0151055 -0.777436 0.956121 0.234997 -0.260438 -0.932353 -0.229107 0.499076
-0.592323 0.868592 1.00191 -0.950082 0.559945 -0.297286 -0.0805707 -0.40685 -0.723109 -0.703377 -0.301237 -0.434272 -0.435729 -0.588053 -0.410951 0.831598 -0.340883 0.207215 -1.06729 -0.891065 0.782989 0.982362 0.492827 0.698347 -1.10545 0.322171 -0.32877 -0.977743 0.404745 0.792677 0.103012 -0.456431 0.0253032 0.700368 -0.903809 -0.280943 0.572888 -0.242172 -0.3624 0.703658 0.675644 -0.920915 0.995359 0.897987 -0.58597 -0.606661 -0.00259533 0.102761 0.524047 0.0213982 -1.24945 -0.905726 -0.0537482 -0.958649 0.147477 -0.360349 0.588325 -1.0735 -0.784219 -0.563931 -0.745727 -0.36138 -0.722902 0.139115 0.100385 0.131694 -0.320983 -0.782296 0.492857 -0.670069 0.762212 -0.47224 -0.184389 -0.681423 -0.210279 0.714048 -0.841198 0.809208 -0.90535 -0.713132 -0.107382 0.408676 -0.844561 0.601546 -0.321671 0.913096 -0.14412 -0.808421 0.820042 0.512894 -0.0658256 -0.575753 -0.31695 -0.887173 0.228183 -0.630851 0.79918 0.197162 0.49401 1.20808 0.564353 -0.00697043 -0.885639 0.943654 -0.285649 -0.634533 -0.422728 0.704763 -0.312489 0.716084 -0.412033 -1.06304 0.254131 0.921156 0.546655 0.689901 0.0105446 -1.05525 1.01888 -0.0883706 0.581696 0.269457 -0.841894 0.367201 0.0494776 0.388412 0.0409288 -0.305152 0.90701 -0.449046 -0.494219 -0.097295 0.706836 0.732246 -0.067558 -0.473425 -0.244626 0.339145 0.243784 0.378144
0.9216 -0.220216 0.60632 0.0813464 0.228974 -0.470715 -1.18691 0.842488 -0.55688 -0.852552 0.9826 -0.438233 -0.116695 0.00210202 -0.279337 0.0338243 0.574525 -1.0446 0.87386 0.443926 -0.462206 -0.795589 0.604924 -0.199288 0.14099 0.179276 0.927064 0.71595 -0.600298 0.250781 -0.765514 0.0183623 -0.0303348 -0.470967 -0.853504 -0.53561 -0.983988 -0.663241 -1.16204 0.368248 -0.267923 -0.658186 -0.425106 0.615784 0.24789 0.880141 -0.416798 -0.485758 -0.00437194 -1.12602 0.344221 0.72908 -0.0887475 0.556987 0.186289 -0.88596 -0.527544 -0.0476134 -0.605305 0.696424 0.409295 -0.152367 -0.690712 0.694181 0.72247 -0.505183 0.447463 -0.646493 -1.24323 0.902285 0.871257 -0.887975 0.973517 0.729216 -0.478416 -0.210671 -0.91495 -0.24296 -0.850958 0.373684 -0.754974 0.926735 1.00186 0.875612 -0.945671 0.213024 -0.559863 1.05043 0.207457 -0.601212 -0.516798 -0.383824 -0.225652 0.175905 0.0557567 1.03933 0.13561 -0.470776 -0.189822 -0.64521 0.709996 -0.820273 0.0568398 0.15646 -0.996772 0.473489 0.473971 -0.903476 0.0384872 0.454243 -0.507549 -0.406381 -0.617258 -0.623309 0.416757 0.381637 -0.281212 0.722938 0.309579 -0.972458 -0.768752 0.285945 -0.0422425 0.26015 0.682215 -0.723581 -0.640665 -0.211083 -0.360945 -0.755518 -0.897887 -0.403934 -0.125431 -0.66687 0.0860979 0.898016 -0.381552 0.674276 -0.140417 0.528617
