Weights Network
3 Hiddens Layers
-0.98 -0.89 -0.74 0.88 -0.44 -0.4 0.88 -0.22 -0.91 0.95 -0.96 -0.9 -0.94 0.51 -0.06 -0.68 -0.36 0.41 -0.4 0.38 -0.02 -0.37 0.79 0.86 -0.15 0.68 -0.04 -0.21 0.89 0.7 -0.78 0.85 -0.67 0 -0.88 -0.19 -0.83 1 -0.74 -0.27 0.7 0.32 -0.24 0.99 0.78 0.5 -0.92 1 0.28 -0.17 0.07 0.2 0.78 -0.79 0.63 -0.76 -0.58 0.8 0.31 -0.49 0.61 0.65 -0.91 -0.65 0.18 -0.06 0.79 -0.04 0.6 0.62 -0.16 0.73 0.27 -0.09 -0.01 0.63 0.33 -0.14 0.46 0.66 -0.86 -0.88 0.25 0.13 0.87 -0.52 0.58 -0.18 -0.98 -0.97 0.59 -0.43 0.67 0.52 -0.79 0.39 -0.79 0.32 -0.25 -0.96 0.33 -0.16 -0.25 0.09 -0.32 -0.4 -0.82 -0.4 0.45 -0.8 -0.64 0.68 0.91 0.25 0.91 0.51 0.34 -0.87 -0.76 0.76 0.56 0.66 -0.38 -0.97 -0.49 0.66 0.23 0.75 -0.53 -0.57 -0.53 0.87 0.53 -0.65 -0.65 0.32 0.54 -0.61 -0.77 -0.15
0.24 -0.17 0.66 -0.09 0.73 0.03 0.33 0.5 -0.02 0.93 -0.26 -0.01 0.53 -0.83 -0.11 -0.88 0.14 0.53 -0.29 -0.76 0.73 -0.48 0.49 0.97 0.71 -0.86 0.13 -0.82 0.19 -0.92 0.79 0.51 0.72 0.88 0.76 -0.96 0.32 0.95 -0.88 -0.31 -0.95 0.33 0.26 0.53 -0.17 0.23 -0.04 0.36 -0.54 0.99 -0.24 -0.7 0.85 0.8 -0.13 -0.06 -0.89 -0.08 -0.22 -0.81 -0.08 0.17 0.06 -0.05 0.42 -0.29 -0.05 -0.76 -0.15 0.39 -0.11 0.41 0.46 0.26 -0.24 -0.54 0.22 -0.44 -0.76 -0.7 -0.76 -0.64 -0.96 0 -0.4 -0.25 0.25 0.85 -0.84 0.57 1 -0.39 0.48 0.81 0.34 0.81 -0.82 0.22 0.12 -0.47 -0.53 0.53 0.35 -0.98 0.39 -0.46 0.21 0.44 -0.4 -0.85 -0.53 0.45 0.75 -0.29 -0.38 -0.2 0.19 0.6 0.06 -0.55 -0.33 0.66 -0.4 -0.64 -0.83 -0.97 0.81 -0.2 -0.01 0.95 -0.68 0.18 0.94 0.24 0.22 -0.01 0.26 0.58 -0.02 0.71
-0.63 0.7 0.61 -0.34 -0.75 0.98 -0.25 0.72 -0.12 0.84 -0.46 0.08 -0.38 -0.2 -0.87 -0.4 -0.57 0.42 -0.14 0.66 0.67 0.27 -0.15 -0.63 -0.04 0.83 -0.47 -0.59 0.28 0.66 0.4 0.65 0.81 -0.4 -0.81 -0.78 -0.82 -0.12 0.43 0.58 -0.64 0.29 -0.08 0.34 -0.3 0.41 -0.74 0.54 -0.94 0.79 0.71 0.63 0.83 0.19 0.91 0.78 0.82 -0.17 0.64 -0.74 -0.09 -0.6 -0.98 0.67 -0.24 -0.82 0.78 -0.17 -0.95 0.24 0.67 0.32 -0.76 -0.1 -0.71 0.03 0.76 0.04 -0.89 -0.79 -0.76 -0.52 -0.66 0.98 0.61 0.33 -0.3 0.88 0.57 -0.91 0.17 -0.87 0.9 -0.33 -0.75 0.66 0.14 0.63 -0.73 -0.71 -0.65 0.26 0.26 -0.94 -0.39 -0.57 -0.85 0.46 -0.66 -0.18 0.03 0.21 -1 0.95 -0.65 0.81 -0.98 0.14 -0.74 -0.61 0.87 0.98 -0.46 -0.14 -0.75 0.25 -0.85 0.41 0.28 -0.14 -0.15 0.99 -0.31 -0.47 0.11 -0.35 0.99 0.17 0.28 0.22
-0.24 -0.450005 -0.76 -0.239997 0.839993 0.73 -0.6 -0.0499939 -0.68001 -0.91 -0.49 -0.59 0.68 -0.309997 0.590003 -0.46 0.420017 0.680004 -0.07 0.48 -0.28 0.149986 0.940007 0.650007 0.92 -0.76 0.0700001 0.09 0.05 0.570032 -0.389981 0.299985 -0.83 -0.46 0.269996 0.29 -0.330001 0.850007 0.280001 -0.11 0.45001 -0.580023 0.47 0.9 -0.83 0.32 0.07 -0.8 0.85 -0.350015 -0.7 -0.76 0.519953 -0.83 -0.219999 -0.699999 0.620007 -0.77 0.819999 1 0.469999 0.58 0.859994 0.210001 0.950001 0.16003 -0.36 0.790003 -0.17 0.0199999 -0.550001 0.4 -0.149997 0.15 0.619996 -0.370004 0.52 0.27 -0.24 -0.62 0.50998 -0.2 0.619997 -0.88 0.760001 0.699996 -0.04 -0.42 0.57 0.499995 0.94 0.68 -0.759994 0.68 1.00001 0.949998 -0.660001 -0.820002 -0.199998 0.46 0.37 -0.470001 0.44 -0.81 0.78 0.590018 0.41 -0.32001 0.04 -0.91999 -0.39 0.0300005 0.67 -0.51 -0.33 0.970001 -0.799994 0.409999 0.560025 0.129986 0.19 -0.17 -0.0900278 0.55 0.87 -0.110001 -0.0499981 0.530004 -0.83 0.22001 0.61 -0.0200073 0.5 -0.379973 -0.719981 -0.239992 -0.0600027 -0.540032 -0.93 -0.139986
0.0499748 -0.380545 -0.629299 -0.508607 0.868914 0.939889 0.910062 0.173771 -0.480983 0.839972 0.820344 0.44975 0.89981 -0.319627 0.839913 -0.0291424 0.224208 -0.961216 0.0392742 0.399873 -0.00885709 -0.675723 -0.709341 0.279734 0.160046 -0.380213 -0.480723 -0.838806 -0.291389 -0.766338 -0.198581 0.227556 -0.376032 0.789373 0.400892 0.53986 0.249779 0.801282 -0.790253 -0.378789 -0.918731 -0.382179 0.259879 -0.938685 -0.729897 -0.980004 0.699994 -0.650491 -0.420911 0.840611 0.90909 0.0183217 0.0864203 0.798622 -0.539735 -0.469864 -0.759798 0.829873 -0.259843 -0.260806 0.709459 -0.439985 -0.752025 -0.501082 0.719342 -0.32722 -0.869966 -0.268996 0.410894 -0.960208 -0.759883 -0.020026 -0.337043 0.370719 -0.470733 -0.708563 0.250119 -0.41998 -1.00266 0.0801365 -0.179694 0.840417 0.907666 0.838155 -0.269346 -0.471778 0.299919 0.0298626 -0.489305 0.209847 -0.13989 -0.150279 -0.109873 -0.73044 0.940286 0.518897 0.189855 -0.800241 -0.40784 -0.909998 -0.788781 0.599798 0.277838 0.375306 -0.640275 0.318037 0.00851519 0.998653 -0.419971 -0.0895003 0.380094 -0.5403 -0.710172 0.0900081 -0.360007 -0.279383 -0.889274 -1.00009 -0.067656 -0.749109 -0.736173 0.320133 -0.722452 -0.640181 -0.479638 0.10169 0.789089 -0.469945 -0.0505186 0.710839 -0.0799451 -0.758791 -0.249423 -0.444842 -0.0462058 0.69082 0.739042 0.601076 0.280164 0.261199
-0.825485 -0.95338 -0.237729 -0.558748 -0.507357 -0.782969 0.0496333 0.601902 0.969172 0.790752 -0.724296 -0.137695 -0.180208 0.6603 -0.005608 0.451107 -0.433184 -0.175464 -0.363004 -0.199863 0.604733 -0.440286 -0.720693 -0.553367 -0.413952 1.00081 -0.236814 0.649282 0.885464 -0.631449 -0.899713 -0.932041 -0.468597 0.505227 0.169001 -0.151832 -0.0198496 -0.69237 -0.222271 0.706833 -0.936135 0.626071 -0.928277 -0.816923 -0.398889 -0.291091 -0.960574 0.372986 -0.251224 0.595599 0.377041 -0.507773 0.0838908 -0.112521 0.992914 0.449975 -0.140587 0.873443 -0.409828 -0.0202477 0.27615 -0.269411 0.380454 -0.753845 0.205181 0.620529 -0.199424 0.335581 0.198744 0.896809 0.768183 -0.180732 0.440568 -0.430552 -0.116689 -0.288705 -0.469592 -0.139512 0.798113 -0.0684406 -0.612937 -0.227177 -0.744431 0.849625 0.00278311 -0.065827 0.110166 -0.0417126 -0.73733 -0.96885 -0.290041 0.649112 0.768925 0.919524 -0.359683 -0.0484917 -0.130621 0.675311 0.484026 0.460127 0.480937 0.0275732 0.329599 0.636171 -0.382621 -0.790726 -0.450893 -0.488165 -0.570024 -0.442207 -0.170744 -0.409225 0.348406 -0.650206 -0.858605 0.319086 -0.93519 0.538699 0.459671 0.697098 0.237991 -0.45046 0.714382 0.935338 -0.930036 0.289702 -0.436512 -0.510616 0.366966 -0.864665 0.291102 -0.798266 -0.708361 0.613285 0.0544476 -0.818888 -0.209867 -0.87884 0.478317 0.121053
0.00522233 -0.353727 0.824512 0.570409 -0.569504 -0.256506 0.360805 0.486671 -0.0331648 0.431571 0.273818 -0.804037 0.368102 -0.83729 -0.590527 0.561298 0.476824 0.616871 -0.865815 -0.138999 -0.0704476 0.694938 0.610208 0.115709 -0.0112342 0.464555 0.176277 -0.230253 -0.794713 -0.40245 -0.40159 0.105502 -0.222062 -0.550452 0.706291 -0.404402 -0.369363 0.795866 0.307889 -0.240295 -0.506375 -0.602182 0.196315 0.00418797 0.112935 -0.19268 -0.459178 -0.891012 0.370715 -0.486012 0.418408 -0.00679608 -0.213211 -0.115952 0.762422 0.19977 0.511513 -1.00156 -0.722959 -0.687734 0.37473 -0.0515936 0.96458 -0.934157 -0.833527 -0.462909 -0.790278 0.880809 0.658321 0.660638 0.237194 0.199887 -0.037595 0.800584 0.609442 -0.801768 0.495697 0.65352 -0.989435 -0.584239 0.733999 -0.868152 -0.909927 0.989203 0.402724 -0.82689 0.712186 0.914276 -0.352288 -0.649984 -0.166482 -0.255012 0.756855 -0.690927 -0.100088 0.513009 0.461172 -0.936373 -0.121756 -0.918627 -0.862775 0.0785602 0.0270417 0.395397 0.236093 -0.0605288 0.563355 0.304584 -0.490485 0.658822 -0.226657 0.704313 0.120886 -0.040453 0.721968 -0.866255 -0.533664 -0.669879 -0.0277052 -0.332317 -0.508478 0.705219 0.424444 -0.151177 0.20492 0.997673 -0.359801 0.336505 -0.390126 0.128552 -0.713976 -0.36286 -0.178043 0.50782 0.625493 -0.936848 -0.672921 0.487773 0.881953 0.433955
0.564585 -0.329106 -0.139908 0.850572 -0.211506 0.240305 -0.755868 -0.555248 0.456578 -0.516848 0.771967 0.486193 -0.233885 0.723845 -0.332598 0.0398585 -0.168651 -0.284673 0.805098 -0.833137 -0.142266 0.34798 0.346339 -0.373846 -0.209318 -0.764999 -0.886732 0.988466 0.844537 0.86825 -0.448264 -0.254726 -0.413944 -0.879209 0.566368 -0.875016 0.440967 -0.63955 0.514026 0.0801107 -0.0390189 -0.283795 -0.333128 -0.244121 0.809331 -0.232687 -0.798394 -0.626294 -0.706882 -0.230096 -0.501835 -0.146161 0.103393 0.67373 -0.917393 0.207254 -0.31695 -0.640929 0.886327 0.7793 0.160682 0.293543 -0.873624 -0.68766 -0.776091 -0.19357 -0.438725 -0.78076 -0.662186 -0.571916 -0.32078 -0.950975 0.656821 -0.390707 0.0800628 0.994945 0.263851 -0.499619 -0.378733 0.66588 -0.200871 -0.538944 0.496478 0.698753 0.480989 0.367871 -0.424886 -0.952102 0.0510181 -0.726177 -0.339407 0.294527 0.571478 -0.388857 0.734812 0.951686 0.576532 0.221413 -0.46623 0.0915279 -0.786094 -0.0922971 -0.0271549 -0.68043 -0.557527 0.924828 0.081748 0.456112 0.87073 0.844791 0.917899 -0.449903 0.469835 -0.0688329 0.231265 0.505895 -0.582126 -0.571799 -0.773143 -0.188903 -0.475681 -0.154011 0.195479 0.291808 -0.138033 0.0386002 -0.488505 -0.897934 0.332342 -0.247161 0.555996 0.309637 -0.0604584 0.170323 -0.890343 0.457417 -0.111532 0.386304 0.547268 0.713499
0.398969 -0.586656 0.140131 -0.296979 0.747387 0.0602688 -0.456685 -0.801844 -0.920924 -0.724022 -0.14705 0.87862 0.0302534 -0.977815 0.309083 0.53957 -0.0327376 -0.927809 0.848553 0.462226 0.56756 0.802188 -0.515176 0.815646 -0.628227 -0.678737 -0.387305 0.632572 -0.450208 -0.741622 -0.327572 0.459082 0.558092 -0.531461 0.0644521 -0.263689 0.990377 -0.488847 0.261038 -0.849817 0.595295 0.0978296 -0.73739 0.555812 0.400803 0.236465 -0.41981 -0.81946 0.00096069 -0.262132 -0.861539 -0.996529 -0.416327 0.511318 -0.535432 -1.00421 -0.0755371 -0.350212 -0.339403 0.00685982 -0.400917 -0.849283 0.24237 -0.758929 0.9534 0.496174 0.134771 0.83992 0.829134 0.976977 -0.442367 -0.859623 0.696288 0.749484 0.0968159 0.665388 0.741297 -0.440063 0.226849 -0.747758 -0.887049 0.830956 0.512824 -0.864547 0.600321 -0.96976 -0.978655 0.0190346 -0.739688 0.0835543 -0.311657 -0.879096 -0.767967 -0.675177 -0.373 0.643644 -0.105555 -0.833471 -0.300063 0.861423 0.99375 0.419102 -0.902606 0.498612 -0.387428 -0.563496 -0.164175 0.485406 -0.265017 0.190354 0.446193 0.914328 0.960453 0.0503741 -0.655754 -0.650918 0.579262 0.93733 -0.550337 0.351922 0.285152 -0.629693 0.550169 0.637129 0.988664 -0.36222 0.254048 -0.690332 0.701443 0.478539 -0.868579 -0.556344 -0.131936 -0.566856 0.558128 -0.0502368 -0.436311 0.679946 0.547178 -0.0488375
-0.0790643 -0.980403 -0.242579 -0.028853 -0.0704462 -0.790661 -0.555936 0.179463 0.719877 0.946024 0.604217 -0.46878 -0.387654 0.889965 -0.758387 -0.780729 0.0582669 -0.39613 0.124231 0.0660493 -0.611416 -0.847465 -0.205941 0.354285 -0.766647 -0.378199 -0.919151 0.715378 -0.970497 -0.836155 -0.691 0.250248 0.547522 0.167097 -0.778902 -0.35303 -0.080017 -0.272457 -0.443982 -0.319958 0.646382 0.369095 -0.159446 -0.0405937 0.855017 0.636857 0.369289 -0.80989 0.814015 0.137629 0.659796 -0.0599274 -0.890976 -0.232349 -0.463989 -0.271502 0.403806 0.0307363 0.673951 0.0898934 -0.720121 -0.104555 -0.434819 -0.349597 0.125541 0.248956 0.794068 0.250971 0.490099 -0.741593 -0.251792 0.870033 0.58623 -0.44115 0.300736 -0.722812 -0.299645 0.710096 -0.387704 0.200903 0.18746 0.860713 -0.622031 -0.504543 -0.260078 -0.697365 -0.289339 -0.306816 -0.940205 0.796941 0.79019 -0.457823 0.909364 0.372288 0.733867 -0.863419 -0.563354 -0.911423 -0.80138 1.00015 -0.407769 0.960302 0.169016 0.17903 0.436701 0.413243 0.647341 0.226638 0.695161 0.612625 -0.0691779 0.724066 0.75853 -0.16995 0.22413 -0.881792 0.0571667 -0.457521 -0.310436 0.702027 -0.374366 -0.991462 -0.316766 -0.184069 0.285178 -0.313331 -0.914229 0.515318 0.851909 -0.402379 -0.819801 0.133604 0.869606 -0.886987 -0.549501 -0.651906 -0.928766 0.637237 0.485994 -0.879878
-0.734136 0.220327 -0.961676 0.585554 -0.610099 0.919806 0.660587 0.519635 0.539805 -0.957451 -0.439902 -0.140431 -0.693677 -0.0600001 0.647464 0.939638 -0.287375 -0.852419 -0.13827 0.929484 -0.760389 -0.712769 -0.279012 0.671914 0.127231 -0.218928 0.648903 -0.127823 0.844603 -0.858806 0.144565 -0.619384 -0.809469 -0.208026 -0.318441 -0.491109 0.149922 -0.15925 -0.509863 -0.479956 -0.498358 0.150263 0.170247 0.54177 -0.767685 -0.121166 -0.33044 0.260003 -0.181666 0.166599 -0.379962 1.00017 -0.130063 0.350343 0.942425 0.0896431 -0.388594 -0.892596 -0.0581585 0.370163 -0.409961 0.788009 -0.757137 0.140072 -0.661924 0.329665 -0.58837 -0.359588 0.160224 -0.225354 -0.25907 0.199855 -0.0402682 0.24361 0.168496 -0.381126 -0.159892 0.450027 0.920355 -0.209735 -0.620095 0.169899 0.419673 0.0477086 -0.21021 -0.309142 -0.589763 0.751948 0.91979 -0.340285 -0.900438 0.487086 0.779836 -0.269689 0.676674 0.168944 -0.250506 -0.520287 -0.320404 0.130059 0.280588 -0.989813 0.879757 0.303262 0.990541 0.130764 -0.368823 0.331157 -0.567595 0.643732 1.00091 0.95099 0.759489 0.980066 0.801388 0.962919 -0.517682 0.389758 0.220249 -0.00284167 0.537993 -0.200742 -0.440005 -0.249736 0.668295 0.388803 0.808441 -0.281512 -0.628283 -0.606478 -0.439755 -0.541067 -0.559846 -0.914192 -0.0945177 0.0297245 -0.370141 -0.631721 -0.499741 -0.260098
0.229986 0.840029 0.709962 -0.620111 0.970196 0.20981 0.0910061 -0.690052 -0.859991 -0.770149 -0.81 0.600592 0.459897 -0.500338 -0.410395 0.960901 -0.0102007 -0.220082 -0.449902 -0.340317 -0.370081 0.709352 0.910488 0.390002 0.83987 0.429977 -0.759618 0.449821 0.579879 0.259991 -0.549974 -0.509413 0.780002 -0.0401247 0.0197406 -0.419966 -0.669977 0.509854 -0.970039 -0.350458 0.209963 0.500359 -0.00992891 -0.94013 0.910001 0.859999 -0.0102893 -0.459879 0.828748 0.690075 0.82997 -0.790004 -0.270378 -0.139837 -0.619549 0.0699212 0.950181 0.80961 -0.299909 -0.329962 -0.720558 0.00985455 -0.699861 -0.279991 -0.529955 0.550291 0.490009 0.859976 -0.219843 -0.93975 0.150064 -0.629982 -0.710321 -0.10998 0.650023 -0.0697553 0.640001 -0.510058 0.650583 0.0503832 0.579821 0.0500217 0.759977 -0.289929 -0.509964 -0.309777 0.480054 -0.819856 0.890125 -0.569914 -0.630062 -0.430662 -0.0400111 -0.659275 0.780376 0.749456 -0.24982 -0.719956 0.639995 -0.640001 -0.499766 0.720352 -0.750916 0.0400732 0.830222 0.310139 -0.828015 0.980324 -0.849818 -0.660134 0.3702 -0.769996 0.540012 0.3 0.850082 0.440076 0.740626 -0.550143 -0.749997 -0.920041 0.429834 0.200326 0.930575 -0.939847 0.569783 -0.830201 -0.0701256 -0.200077 0.880066 0.50046 -0.690039 0.9504 -0.370464 -0.609584 -0.179689 0.749997 0.85033 -0.290131 -0.880158 -0.310791
0.0300324 -0.500009 -0.880148 -0.1401 -0.0699495 0.649975 0.350225 0.479996 -0.349999 0.199954 0.520016 -0.919871 -0.5201 0.419257 -0.000280328 -0.638997 0.899868 -0.140054 -0.330025 0.529973 -0.48002 0.0498727 -0.190001 0.359758 -0.230023 -0.410015 0.150075 0.969603 0.0299882 -0.690036 0.860167 -0.429854 0.699902 -0.74013 1.67382e-05 -0.509986 -0.0398895 -0.0300459 0.449943 0.979462 0.190003 -0.389647 -0.830147 0.769918 0.199976 0.58 -0.360044 0.640112 0.610401 0.880249 0.869804 0.229977 -0.400345 0.189996 -0.979657 -0.76003 -0.249986 -0.240387 0.169938 0.579993 -0.970378 0.229997 0.440346 -0.0300009 -0.769951 -0.430004 -0.220302 -0.799999 -0.319971 -0.079874 0.470056 -0.199999 0.739869 0.590004 0.430022 0.720027 0.3 0.989937 -0.15001 0.940374 0.429776 0.349892 0.800005 -0.360007 0.969984 0.869906 0.330064 -0.0704245 0.25025 0.159951 0.880062 -0.610207 0.0199843 -0.70998 0.900314 0.679684 0.570195 0.0100006 0.639994 -0.939999 0.789941 0.120356 -0.540195 -0.840325 -0.950043 -0.19008 0.949768 -0.509696 -0.819999 0.489829 0.940265 -0.150004 -0.679945 -0.02 0.809869 -0.22002 0.10005 0.26017 -0.310008 -0.649733 0.950248 0.260493 -0.229382 0.290046 -0.349791 -0.430035 0.0900152 0.14985 -0.229978 0.410447 0.669998 0.720165 -0.399987 0.200237 0.26037 -0.879899 0.810544 0.960047 -0.950334 0.159233
0.940037 0.229551 -0.87052 0.739954 -0.710173 -0.400126 -0.0800248 0.379902 0.93983 0.470125 0.149714 0.559952 -0.640007 -0.43012 0.99011 -0.160051 0.260396 0.0803434 0.719998 0.64011 -0.550068 -0.349933 0.189999 -0.290115 0.740343 0.389914 0.21 0.229636 -0.479903 0.439958 0.210046 -0.329887 -0.450058 0.849979 0.610015 -0.0199972 0.419848 -0.0500648 0.270318 0.579864 0.470006 0.959977 0.149915 0.779994 -0.659868 0.859979 0.25998 0.000251411 0.390238 0.520096 -0.670075 0.289846 0.389988 0.999995 -0.29 0.810155 0.529802 0.80998 0.12988 0.859806 -0.46016 -0.109911 0.390103 0.260006 -0.529883 0.0700256 -0.6 0.960224 -0.260109 0.840022 0.889971 -0.939999 -0.829985 0.249925 0.530006 -0.579749 -0.219932 0.889959 -0.57006 -0.880004 -0.720006 -0.590076 0.949955 -0.350168 0.590011 -0.860061 -0.209742 -0.690264 -0.789662 0.0598248 0.0599606 -0.339995 0.66028 -0.460016 0.139962 -0.450019 0.77987 -0.179964 0.199945 -0.859978 0.489373 -0.0900122 0.88009 0.159749 0.31044 -0.579264 -0.350272 0.559689 0.199994 0.829968 0.740031 -0.320017 -0.629968 0.48 -0.300079 0.170106 0.509953 -0.469981 0.449751 -0.589807 0.460067 0.380775 -0.349956 0.620017 -0.339893 -0.950004 0.680118 0.760157 0.320028 -0.259984 0.850245 0.70002 0.929994 0.480149 0.16999 0.539993 0.970096 -0.209996 0.0999217 0.549958
0.759974 -0.373297 0.279984 0.0159064 0.78969 0.22951 -0.801137 0.240926 0.369944 0.652316 0.589393 -0.590891 0.965225 -0.419559 -0.561037 0.40145 0.337665 -0.311017 -0.811764 0.698654 0.12082 0.966737 -0.90812 -0.919271 0.0180218 0.330135 -0.760126 0.791315 -0.366307 -0.378249 0.780896 0.712653 0.781449 -0.150747 0.216964 0.619458 0.429585 0.390685 -0.521806 0.369803 -0.257639 0.100795 0.570646 -0.670097 0.900063 0.839396 0.851611 0.0599243 -0.0467705 0.788819 -0.120518 0.489789 0.556184 -0.929492 -0.12869 0.920618 1.00119 0.859207 -0.11878 0.861358 0.77988 0.70546 0.193346 0.529872 0.298186 0.358397 -0.396778 -0.659663 0.299542 0.20735 0.429995 0.990726 0.589404 0.790052 -0.254694 0.89949 0.90987 -0.960135 -0.627986 -0.0899183 -0.150508 0.641528 0.442151 -0.811288 0.52083 -0.735445 0.760227 -0.745955 0.559367 0.382524 0.711556 -0.702715 0.449867 -0.927325 0.794672 0.928721 -0.49759 0.386476 0.519633 -0.379669 0.00291597 -0.639454 -0.332964 -0.639807 0.00832006 -0.708676 0.758049 0.760219 -0.457765 -0.00711338 0.457841 0.53999 -0.0101164 -0.710046 -0.919361 -0.264629 -0.507171 0.517997 0.89725 -0.132514 0.947962 0.918745 -0.979048 -0.678604 0.99506 0.208779 -0.0607405 0.345615 0.868116 0.504676 -0.149062 -0.264102 0.197911 0.212739 0.287232 0.935301 -0.760524 0.842865 0.715309 -0.160771
0.430162 0.0526228 -0.977757 0.834648 0.458882 -0.483947 0.716331 0.65906 -0.429998 0.791514 -0.153084 -0.0600729 0.712313 -0.476963 -1.00236 0.0933608 0.161008 -0.330615 -0.424542 0.451889 -0.302919 -0.402023 -0.117599 -0.799893 0.749848 0.310096 -0.888741 0.303443 -0.269081 -0.586911 -0.977846 -0.503781 0.890848 0.625068 0.902328 -0.981908 0.439246 -0.178932 0.808648 -0.519237 -0.0776924 0.0170066 0.493846 0.168403 -0.842124 0.489621 -0.229331 -0.36061 -0.232791 0.651527 -0.0610995 -0.579872 -0.816779 0.412071 0.892044 0.634048 -0.319104 0.528637 -0.757748 0.629163 -0.431332 -0.607306 0.765368 0.00981495 0.278189 -0.583317 -0.686808 -0.148913 -0.871897 0.862016 -0.969962 -0.705992 0.358509 -0.409878 -0.688672 -0.0602774 -0.410946 0.109715 0.32357 0.7701 -0.531485 0.97194 0.75375 0.970713 0.184434 0.1088 -0.499355 -0.468764 -0.0854459 -0.42352 -0.834865 -0.30533 0.159552 -0.305458 0.410231 -0.0604975 -0.0350676 -0.462182 -0.476766 -0.390692 -0.106111 0.751141 -0.44491 0.0616676 -0.88304 0.543055 -0.182279 0.170811 -0.918646 0.840857 -0.918165 -0.299884 0.52998 -0.120078 0.933087 0.0161559 0.454529 0.265425 0.52372 0.0472614 -0.938593 -0.184569 0.481798 0.237634 -0.7977 0.304501 -0.33111 0.171285 0.446045 0.250779 -0.68411 0.84928 0.61601 -0.119256 -0.809681 -0.549383 -0.780435 -0.683957 -0.619376 -0.362167
0.379904 -0.569304 -0.197193 -0.814291 -0.92326 -0.354165 -0.515566 0.338362 0.650572 0.0436794 0.310898 0.472599 -0.599032 0.477238 0.315963 0.974842 0.870973 -0.439365 -0.744643 0.0043043 0.0221093 -0.430171 0.971832 -0.299779 -0.340935 -0.393351 -0.57896 -0.158581 0.976632 -0.0167323 -0.06902 0.968814 0.241725 -0.0853751 -0.907242 0.496991 0.589896 -0.915109 0.550518 0.960775 0.590722 0.386851 0.0619235 0.994974 -0.252081 -0.531971 0.259149 0.647299 -0.440212 -0.799376 -0.361485 -0.654534 0.653684 -0.162313 0.731117 0.376726 0.0280807 0.638346 -0.101774 -0.713317 -0.931564 0.704051 -0.0961784 -0.26942 -0.241259 0.172762 0.0918128 0.16088 0.943026 -0.913407 0.705953 0.533669 0.577945 0.305631 -0.0462244 0.74552 0.590293 -0.441787 0.433123 0.919024 0.141581 0.633778 -0.17652 0.29073 0.175826 -0.213345 -0.881497 -0.522516 -0.761217 -0.864035 0.269094 -0.79445 0.942637 -0.023747 -0.736241 0.985499 -0.224236 0.739731 -0.815714 -0.750445 0.15268 0.201485 0.419691 -0.924759 0.521663 -0.187035 -0.627148 -0.170879 -0.459427 -0.752335 -0.377814 0.729818 0.990852 0.71969 -0.597578 -0.0342668 0.704851 -0.43526 -0.491411 0.201314 -1.01902 -0.542781 0.585025 -0.0722669 -0.956641 0.02499 0.937642 0.362517 -0.502157 0.268839 -0.0713023 0.229099 0.15714 -0.157997 -0.909593 -0.941656 -0.308963 0.32754 0.678403 -0.95449
0.000784186 -0.576839 -0.161326 -0.640401 -0.21621 0.789033 0.719643 -0.919747 -0.87927 0.216253 -0.72703 0.988322 -0.394767 0.865432 0.707974 -0.855236 0.579214 -0.810585 0.68409 -0.168168 0.648899 -0.988154 0.627385 -0.189855 0.869807 0.00399729 0.419767 0.461601 -0.240979 -0.208996 -0.536531 0.886266 -0.90858 -0.414351 -0.903714 -0.0594217 -0.27964 0.435053 0.781955 -0.728813 0.322899 -0.758612 -0.309609 0.686545 0.767944 0.304169 0.941344 -0.700539 -0.788433 0.75544 0.528499 -0.0256008 -0.116525 -0.963896 0.578786 -0.605502 0.964719 0.858329 -0.656609 0.236504 0.718272 0.13621 -0.345481 -0.870309 0.979871 0.262637 -0.699093 -0.438408 -0.865203 -0.0990784 0.518049 0.191874 0.545648 -0.639453 0.48464 -0.462478 -0.616498 0.878059 -0.998827 0.419571 -0.010642 0.205425 0.463352 0.199954 0.990243 0.512245 0.281291 -0.473004 -0.426189 0.567744 -0.262337 -0.750125 -0.897153 0.428688 0.52345 0.575178 0.260306 0.858919 0.711115 -0.897651 -0.549515 0.631303 0.993733 -0.106082 0.146433 0.250578 -0.161976 -0.00516625 0.378437 0.869494 0.187918 -0.0505988 0.182014 0.779921 0.178998 -0.0932987 -0.755157 0.555574 -0.820428 0.912695 0.619139 -0.559046 0.915236 0.742964 -0.56198 -0.119677 0.0983744 -0.857916 0.996986 -0.978711 0.942862 -0.527252 0.328668 0.236713 0.19084 0.700864 -0.167864 -0.388641 0.632822 -0.397285
0.279812 0.781769 -0.992439 -0.200557 0.759289 -0.0106946 0.130649 0.749538 -0.359678 0.664065 0.8422 -0.361262 0.71972 -0.0605987 0.779971 0.363065 0.709698 0.280412 -0.394034 0.0913549 -0.806757 -0.650033 0.898044 0.749939 -0.0800115 -0.371554 -0.769828 -0.179041 0.990448 -0.561787 -0.428897 0.58247 -0.630901 -0.0526907 0.130476 0.0418252 0.290251 0.517159 0.834385 -0.619664 -0.12068 0.910662 0.312611 -0.671148 -0.179924 -0.824009 -0.809986 -0.550006 0.477779 0.535171 -0.910156 -0.541776 -0.780999 -0.317409 -0.869563 0.231145 0.826621 0.198778 0.47567 -0.641598 -0.612408 -0.748936 0.859324 -0.650431 -0.889153 -0.0617485 0.0795089 -0.258466 0.0923461 -0.829712 -0.538097 0.351082 -0.283798 0.257429 -0.780449 -0.437806 0.522605 0.848967 -0.438969 -0.999724 0.696059 0.842548 0.400094 0.799976 -0.461858 -0.0525075 -0.0660748 -0.021701 0.310817 -0.0193136 0.200529 0.460161 0.611253 0.285358 -0.698455 -0.892339 0.462513 -0.378985 -0.599805 -0.608557 -0.0613626 -0.539017 0.202902 0.169463 0.381433 0.369938 -0.451821 -0.103826 0.848816 -0.150383 0.570918 6.80969e-05 0.811365 0.199987 0.199026 -0.187508 0.9799 -0.869668 0.729363 -0.577397 0.400025 -0.356854 0.323223 -0.038699 -0.687962 -0.499212 -0.690636 -0.450738 0.429827 0.171066 0.720919 -0.989637 -0.690119 -0.273972 0.510979 -0.121032 -0.658492 -0.616824 -0.731811 0.244647
0.908071 -0.301556 -0.420328 -0.419968 0.908702 -0.530499 -0.110087 0.870202 0.690022 0.259997 -0.300756 -0.329261 0.589744 0.848969 -0.850584 0.101689 0.38977 -0.901322 -0.837734 0.789678 0.599972 -0.369449 -0.960041 0.629961 0.829379 -0.280119 -0.289653 0.159552 0.129981 -0.530025 0.551159 -0.219996 0.170098 -0.350211 -0.639728 -0.930095 0.069944 -0.419895 0.200456 0.268754 -0.168467 0.640571 0.490138 0.660677 0.989982 -0.670003 -0.599171 0.26 -0.100043 -0.299901 -0.090296 -0.120639 0.539892 0.219971 -0.80933 -0.160016 0.700948 0.360759 0.798912 0.229869 -0.810847 0.0799936 0.311516 -0.999452 -0.108602 -0.788355 -0.111569 0.959983 0.850034 0.629719 0.720551 -0.31999 0.549952 0.259569 0.129877 -0.0799961 0.200014 -0.589229 -0.378635 -0.82947 0.919369 0.970106 0.131051 -0.449359 0.730421 0.450109 0.810038 0.839574 -0.629638 0.290756 -0.428947 0.339788 -0.350185 0.67026 -0.109182 -0.709512 -0.979802 -0.639997 0.970023 0.970017 0.579525 0.430835 0.828986 0.28999 -0.599875 -0.330146 -0.949504 -0.659447 0.280037 0.869665 0.500463 -0.220276 0.289986 -0.509923 -0.470123 -0.859953 -0.0702065 -0.239679 -0.169964 0.880132 -0.0592188 -0.849058 0.140042 0.25019 -0.120005 0.00017963 0.25002 -0.550202 0.939956 0.4197 0.589698 -0.379704 -0.459761 0.600649 -0.349229 -0.808895 -0.248898 -0.560052 -0.930372 -0.0315754
0.0989778 0.388887 -0.650219 0.000804251 -0.75186 -0.260499 -0.139776 -0.127558 0.500574 -1.00001 -1.00135 -0.611361 -0.139615 -0.0737598 0.551858 -0.780697 0.319973 0.0788582 0.161188 0.228812 -0.360784 0.351153 -0.890342 0.509216 -0.179385 0.859937 -0.459915 0.919681 0.11085 -0.181944 -0.378636 -0.598838 0.432207 0.109117 -0.24717 -0.50007 0.0695733 0.932451 -0.619339 -0.330829 -0.238118 0.960175 -0.229173 0.270387 0.350172 -0.869959 0.260968 -0.760239 -0.720958 -0.848253 0.140167 -0.610713 0.531326 0.209819 0.300348 0.240006 0.229533 -0.368579 -0.0810523 -0.360115 -0.290118 -0.219494 0.791532 -0.919623 0.781423 -0.34764 -0.0433496 0.869949 0.350911 0.959081 -0.930676 0.230022 -0.518708 0.449647 0.816369 0.93 0.550433 0.00139874 0.380622 0.65002 -0.216014 -0.736839 0.760623 0.149729 0.579037 -0.110563 0.217883 0.549814 0.18834 -0.92862 -0.589078 -0.679949 0.166762 -0.529736 -0.39005 0.630946 0.960133 0.879719 0.480162 0.720376 0.988264 -0.619521 0.0786685 0.560127 0.137859 -0.412072 -0.239309 0.780329 0.120132 -0.370839 0.370316 -0.580053 -0.190472 -0.389237 -0.000153962 0.87053 0.0206999 -0.679369 -0.599975 0.759574 0.163903 0.0610741 0.487139 -0.963099 -0.560284 0.130424 -0.630446 0.0689677 -0.320014 0.67125 0.800474 0.0899968 0.271504 0.239825 -0.449595 0.612627 -0.959642 0.351496 -0.730195 0.899497
-0.690394 0.443041 0.77989 0.12001 -0.111916 -0.203257 0.579609 -0.108923 0.400077 0.989722 -0.0214854 0.708028 0.0623821 -0.640032 0.849956 0.498266 0.690105 -0.189888 -0.61873 0.131189 0.860447 -0.770695 -0.969247 -0.253733 -0.0849788 -0.279931 0.279265 0.263177 -0.875426 0.888758 -0.828626 0.446128 0.300357 0.469884 -0.869022 -0.191398 -0.660987 -0.368556 0.261418 -0.398925 -0.987925 -0.882228 -0.738832 0.940704 0.750334 -0.30968 0.760912 0.494214 -0.150111 -0.238039 0.279896 -0.990828 0.00121576 -0.587384 -0.921189 0.269972 -0.349649 -0.508538 0.849804 0.712569 0.590251 0.470983 -0.897346 0.410593 0.335092 -0.903643 0.00666672 0.637202 -0.58929 0.817885 0.639786 -0.588981 -0.489698 0.633446 -0.070283 -0.219995 0.260939 0.382657 0.101112 -0.590273 -0.711436 0.718296 0.81038 0.190683 0.496122 0.640366 -0.541216 0.180695 -0.918337 -0.0221811 -0.87927 0.721977 -0.93209 0.889375 -0.590573 -0.039038 -0.729879 -0.729256 -0.777119 0.509659 -0.6547 0.0800708 0.811173 -0.351155 -0.197871 -0.622389 -0.910906 0.298953 0.769912 0.508101 0.0641668 -0.801225 0.73968 -0.398614 0.529841 -0.159782 -0.450811 -0.761953 0.610329 0.570241 0.374659 0.221131 -0.00191089 -0.406342 0.779691 -0.951012 0.769977 0.919332 -0.9 0.479408 -0.679908 -0.883597 -0.716688 0.668977 0.511872 0.881989 0.569782 -0.999073 0.681813 -0.679932
0.489911 0.389868 0.019853 -0.179993 -0.829983 0.159984 -0.699986 -0.509991 -0.98 -0.790004 0.0199655 -0.529968 0.300166 0.979614 -0.230001 0.980101 0.480031 0.360306 0.560132 -0.140113 0.329997 0.810002 -0.239855 -0.980237 0.0699705 -0.0700176 0.699813 -0.680002 -0.89 0.00999459 0.239838 -0.999902 -0.32 0.0500402 -0.419974 -0.150019 0.979962 -0.860004 0.0900469 -0.890006 0.840064 -0.949727 0.519944 0.799943 0.0201388 -0.59 -0.349959 -0.470138 -0.160012 -0.77001 0.219975 -0.280012 0.539798 0.560004 0.590103 -0.280041 0.970176 -0.429935 -0.939919 0.699999 0.729994 0.280008 -0.239955 0.780056 0.940265 -0.609894 -0.780034 0.399997 0.710017 0.950395 0.390018 -0.759999 0.999991 -0.880078 0.629994 -0.489997 -0.120001 0.900027 -0.559942 0.12999 0.750119 -0.0200192 0.530322 -0.479691 0.610022 -0.129976 0.0200021 4.38558e-06 -0.6401 -0.689806 -0.719991 0.990011 0.719997 0.58001 -0.5801 0.750038 -0.480011 0.930001 -0.210172 0.42 0.869993 0.790005 0.789922 -0.550057 -0.29005 0.239784 -0.629316 -0.929998 -0.229971 -0.310003 0.120218 -0.670012 -0.760016 -0.959998 -0.630026 0.250001 -0.820022 -0.989944 0.329997 0.580016 -0.0699397 -0.670001 -0.829824 -0.899987 0.549938 -0.52001 0.720002 -0.140044 -0.429997 0.719984 0.519982 -0.290009 0.540006 0.979985 0.710141 -0.809811 0.88 0.480213 0.709948 -0.0401137
-0.540012 -0.849991 -0.51 -0.720001 0.620032 0.150007 0.940042 0.28 -0.32 -0.620008 -0.130008 -0.92 -0.229976 -0.0100771 1.53244e-08 -0.460017 0.97 -0.5 -0.580024 -0.3 0.05 -0.480093 0.209996 -0.970042 -0.43 -0.970038 0.88002 0.319997 0.00997523 -0.0600061 0.880013 -0.659999 0.92 0.92 0.130003 0.999995 0.559925 -0.629999 -0.870064 0.17 1.54347e-06 -0.729927 0.45 -0.6 -0.349995 -0.48 0.27 0.940001 0.91001 -0.59 -0.02 -0.579991 0.76 -0.169998 -0.699973 0.849918 0.850032 -0.49 -0.24 0.460001 0.539998 0.780019 -0.729999 0.22005 0.27 0.380003 0.62 -0.26 0.610043 0.750001 -0.469999 -0.13 0.859997 -0.16 -0.0400131 -0.52 -0.2 0.21 -0.810001 0.320001 -0.519973 0.979948 -0.449996 0.66 -0.930014 0.859998 0.75 -0.649993 0.539941 0.64 -0.570059 -0.85 0.36 0.25 -0.22 -0.430024 0.0399948 -0.569999 0.679981 -0.83 -0.879972 0.820011 0.0899958 0.1 -0.480124 -0.590002 -0.750033 -0.569996 -0.14 0.11 0.05 -0.849999 -0.15003 0.66 -0.42 0.0699979 -0.9 -0.220001 -0.199997 0.350001 -0.540003 0.0800005 0.830016 0.41 -0.06 0.459967 -0.97 0.449996 -0.469997 -0.419917 -0.62 0.779974 -0.48 -0.370008 0.72 0.0600019 0.93 0.939999 0.420018 -0.259944
-0.120006 -0.729995 0.82 0.199999 0.800016 0.220003 0.530021 -0.51 -0.56 0.219996 -0.770004 0.79 -0.309988 0.539961 0.1 0.339992 -0.48 -0.53 0.489988 0.71 0.79 -1.00005 0.00999792 -0.780021 -0.19 -0.400019 -0.40999 -0.520001 0.439988 -0.0500031 -0.399994 -0.419999 0.54 -0.39 0.0100016 -0.870003 -0.410037 -0.0299997 -0.850032 -0.25 -0.449999 0.810037 -0.22 0.24 -0.559997 0.39 -0.42 0.520001 -0.219995 -0.55 0.46 -0.409995 -0.08 -0.179999 0.280014 -0.690041 0.900016 0.66 -0.79 0.89 -0.0800011 0.200009 0.190001 -0.469975 0.8 0.190001 0.38 0.54 0.350021 -0.459999 0.91 0.6 -1 0.88 0.0399934 0.91 0.85 -0.49 -0.42 -0.35 -0.869987 0.619974 -0.289998 -0.62 0.809993 0.769999 0.39 0.340004 -0.59003 0.94 0.68997 -0.67 -0.97 0.74 -0.1 -0.630012 -0.770003 0.900001 -0.31001 -0.72 -0.889986 -0.269995 0.959998 0.67 -0.790062 0.159999 0.419983 0.370002 0.53 0.44 0.18 0.25 -0.940015 0.08 0.54 0.279999 -0.21 0.51 0.390001 -0.34 0.899998 0.52 0.380008 -0.08 0.19 0.939984 -0.1 0.689998 0.0200013 0.840042 0.71 -0.480013 0.02 0.749996 -0.89 0.530001 0.61 0.95 0.360009 -0.00997202
0.95 0.8 -0.63 0.88 0.25 0.61 0.02 -0.51 0.83 0.46 -1 -0.33 -0.43 0.83 0.29 0.24 0.19 0.65 -0.46 0.21 0.94 0.5 -0.6 0.33 0.76 0.38 -0.35 -0.47 -0.28 0.3 0.34 -0.11 0.72 0.68 -0.09 -0.3 0.74 -0.71 0.88 0.52 0.24 0.76 -0.76 -0.74 0.51 -0.36 0.64 -0.6 0.84 0.7 0.38 0.8 0.21 0.88 0.99 -0.54 0.02 0.04 -0.72 -0.49 -0.01 -0.71 -0.28 -0.41 -0.15 -0.87 0.5 0.09 0.16 -0.04 0.86 0.27 -0.92 -0.76 0.9 0.26 0.34 -0.14 0.4 0.96 -0.03 0.22 1 -0.95 -0.89 -0.87 -0.38 0.83 -0.57 0.86 -0.89 0.54 0.63 0.14 0.65 0.17 -0.01 0.57 -0.6 -0.65 0.38 -0.61 0.47 -0.7 0.62 0.48 0.73 0.42 0.28 -0.96 -0.11 -0.28 0.56 0.02 0.8 -0.57 -0.37 -0.07 0.98 -0.61 0.48 0.25 0.87 -0.19 0.05 -0.12 -0.83 -0.18 0.62 0.82 0.47 0.19 -0.87 0.3 -0.64 -0.13 -0.52 0.46 0.77 0.17
0.6 -0.05 -0.4 0.26 0.48 0.42 -0.29 0.14 0.87 0.32 -0.61 0.41 -0.64 -0.68 0.6 0.58 0.54 0.15 0.86 -0.27 -0.56 -0.42 -0.22 -0.54 0.31 0.2 -0.68 0.86 -0.91 -0.48 -0.3 0.14 -0.04 0.69 0.17 -0.89 -0.61 0 -0.4 -0.7 -0.57 0.59 -0.73 -0.5 -0.53 -0.06 -0.94 -0.81 0.4 0 -0.02 -0.65 0.21 0.47 -0.54 -0.33 0.83 -0.06 -0.89 -0.5 0.89 -0.07 0.59 -0.39 -0.49 0.93 -0.78 -0.39 0.79 -0.6 -0.26 0.74 -0.75 0.54 -0.68 0.39 -0.52 -0.43 0.48 -0.9 -0.54 0.3 0.42 -0.77 -0.96 0.16 -0.62 -0.73 0.4 0.93 0.45 0.86 0.8 -0.7 -0.3 -0.18 0.43 -0.19 -0.14 -0.78 -0.14 0.63 0.55 -0.71 0.59 -0.07 0.51 -0.66 0.77 0.89 -0.09 0.34 0.84 0.79 -0.36 0.86 0.54 -0.6 0.78 0.29 0.31 0.87 0.1 0.1 -0.19 -0.39 0.9 0.51 -0.53 0.35 0.97 -0.52 0.74 -0.75 -0.05 -0.48 -0.67 -0.84 -0.34 -0.71
-0.42 0.7 1 -0.49 0.08 -0.17 -0.66 -0.63 0.59 0.86 -0.71 0.18 -0.92 -0.5 0.49 -0.4 -0.41 0.95 0.46 0.12 0.52 0.21 -0.33 0.26 0.37 -0.67 -0.22 0.19 0.38 -0.78 0.33 -0.59 0.38 0.75 -0.31 -0.59 0.32 0.06 0.33 -0.08 0.03 0.86 0.47 0.9 0.79 0.3 0.96 -0.21 0.21 0.07 -0.51 -0.73 -0.26 -0.99 0.11 -0.16 0.94 0.8 -0.69 0.27 0.77 -0.62 -0.16 0.41 0.18 0.76 0.07 0.1 0.69 0.26 0.3 0.15 0.88 -0.33 0.12 -0.7 0.11 0.71 0.77 0.62 0.39 0.63 -0.31 -0.43 0.29 -0.07 -0.92 -0.58 0.66 0.7 -0.46 0.17 0.75 -0.63 0.06 0.18 0.2 0.53 -0.77 0.1 0.49 -0.68 0.27 0.21 0.03 0.02 -0.93 0.54 -0.27 -0.79 -0.15 -0.57 -0.17 0.51 0.05 -0.87 0.3 0.3 0.36 -0.92 -0.96 0.39 0.94 -0.24 0.6 -0.98 -0.27 0 0.72 -0.86 -0.89 -0.21 -0.2 -0.98 -0.83 0.41 -0.25 0.19 0.88 0.21
0.45 -0.49 0.31 -0.53 0.87 0.97 -0.27 -0.37 -0.04 -0.59 -1 -0.34 -0.64 -0.83 -0.37 -0.54 0.16 0.74 0.36 -0.93 0.51 0.59 0.3 0.68 -0.93 -0.49 -0.75 0.34 -0.49 -0.58 0.6 0.38 0.75 0.6 0.97 -0.68 -0.09 0.2 -0.89 -0.18 -0.32 0.04 0.06 -0.66 -0.57 -0.32 0.06 -0.08 0.3 0.65 0.18 0.61 -0.66 -0.5 -0.97 0.82 0.78 0.09 -0.04 0.5 0.83 0.92 -0.93 0.06 -0.78 -0.33 -0.4 -0.24 -0.18 -0.86 0.64 0.94 -0.51 0.08 0.96 0.19 0.01 -0.52 0.3 0.2 0.66 0.63 0.6 -0.13 -0.06 -0.52 0.61 -0.4 -0.83 0.16 0.6 0.32 -0.97 -0.4 0.43 -0.26 0.84 -0.37 1 -0.38 0.17 -0.82 -0.57 0.88 0.07 -0.31 0.93 -0.43 0.74 0.3 0.62 -0.68 -0.25 0.96 0.26 0.13 -0.04 -0.8 0.09 -0.36 -0.38 0.82 0.43 -0.61 0.93 0.13 -0.36 -0.54 0.46 0.21 -0.91 -0.05 -0.29 -0.65 0.07 -0.78 -0.58 -0.27 -0.03 -0.57
-0.349999 -0.86 -0.199972 -0.6 -0.220024 0.47003 -0.799973 -0.76 -0.0600005 0.670001 -0.190006 0.790038 -0.550002 -0.249986 0.780042 -0.909996 -0.689994 -0.929978 -0.539996 0.610005 0.279965 -0.910009 0.210032 0.280006 0.129998 -0.329992 -0.669989 -0.440028 -0.209999 0.980002 0.870004 0.779997 0.460006 -0.879999 -0.200019 0.500001 -0.160006 -0.229972 0.32 -0.579977 -0.350006 0.489998 -0.959999 0.479999 -0.50001 -0.430006 -0.149968 0.250008 -0.310002 -0.0300002 -0.00999595 0.239992 0.710002 0.249987 -0.879992 0.969968 -0.749988 0.780006 -0.520004 0.620006 -0.860024 -0.649992 -0.130005 -0.179973 -0.180037 0.909987 -0.0800071 0.570024 0.989966 -0.320006 0.700008 0.809985 -0.0899982 -0.270006 0.660015 0.380002 0.149999 -0.900024 0.629961 -0.130004 0.829992 0.719986 -0.0800605 -0.909985 -0.149995 0.579989 -0.869997 -0.0700076 -0.719991 -0.57 -0.35 0.0599833 0.950015 -0.759999 0.0399897 -0.570002 -0.750014 0.700004 0.919963 0.710006 0.779994 -0.21 -0.160004 -0.479986 0.849983 -0.540039 0.130005 0.590005 -0.190002 0.810003 0.620009 -0.919997 0.549973 0.539995 0.239999 -0.889939 0.0200065 -0.469983 0.820001 0.179982 -0.170014 -0.689975 -0.949998 -0.999994 0.87 -0.799993 0.530042 0.00999862 -0.650002 0.360013 0.620005 0.61001 0.790009 0.599982 0.919976 0.810008 0.260005 -0.980018 0.769998 -0.54998
-0.17965 0.400062 0.260206 0.829594 0.4595 -0.789011 -0.57967 -0.410107 -0.849626 -0.869963 -0.358796 0.672678 -0.410065 0.849918 0.471177 -0.8008 -0.749825 0.589945 0.200222 -0.869097 -0.960473 -0.980442 -0.739494 0.770026 -0.360071 0.319193 0.239826 0.68931 0.710528 0.74094 0.700066 -0.0596601 0.890842 0.380196 -0.520697 0.0997855 0.590369 -0.170182 -0.560469 0.34033 0.550113 0.369482 -0.259965 -0.120766 -0.130336 -0.0207809 -0.919758 0.0603386 -0.119617 0.331055 0.559982 0.529562 0.64062 -0.531086 0.399579 0.350111 0.230042 -0.35947 0.190516 0.140754 0.548974 -0.299621 -0.299973 0.0995646 0.859002 0.890374 -0.680047 0.0519278 -0.170279 -0.539982 -0.229698 0.119424 0.550087 0.798702 0.0604575 -0.269278 -0.870431 0.979685 0.810096 0.619499 -0.07067 0.419855 -0.640781 0.170248 -0.239821 -0.67027 0.930391 0.18919 0.500664 0.279987 -0.959602 0.190182 0.0502752 0.419639 0.43961 -0.820064 -0.210462 0.88998 0.579264 -0.0508286 -0.0710712 -0.239445 -0.0892086 -0.629818 -0.140256 0.298307 0.579554 -0.51022 0.429377 0.580028 -0.289297 -0.190048 -0.640014 0.860083 0.0190782 -0.957842 0.989727 -0.96006 -0.47037 -0.700534 -0.0998178 0.000778415 -0.879853 0.660077 -0.58936 -0.709792 -0.368361 -0.679861 -0.769787 0.250253 -0.629257 0.860014 0.210129 -0.699992 0.45951 0.620173 0.260433 0.338614 0.420045 -0.969643
-0.871075 -0.671149 0.620358 0.386999 0.10858 0.918097 -0.518722 -0.83989 -0.880256 -0.42952 0.420994 -0.68345 -0.380308 0.196228 0.113938 0.0823287 0.842442 -0.64008 0.919032 0.348364 -0.857055 -0.418853 0.671314 0.300857 -0.211917 -0.755653 0.927511 -0.932265 -0.167032 -0.435829 -0.269557 0.829235 0.101841 0.5015 -0.901878 0.899124 -0.139917 0.00915995 -0.0998915 -0.569477 -0.169721 0.988348 -0.899882 -0.625968 -0.773296 -0.503898 0.836935 -0.519267 0.109869 -0.733922 -0.983057 0.468666 0.130211 -0.391968 -0.121566 -0.964468 -0.964325 0.15737 -0.170091 -0.0233959 -0.504256 -0.239824 0.799644 -0.728316 0.359112 -0.489543 -0.168617 -0.729131 -0.159697 0.8281 0.190105 0.401659 -0.977778 0.530686 -0.971682 0.462066 -0.32918 0.0500469 0.556711 0.248836 -0.0808854 -0.402832 0.112775 -0.594115 0.960601 0.68901 -0.100741 0.00860974 -0.805483 0.00794837 -0.459762 -0.951697 -0.620183 -0.754523 -0.216228 0.798221 -0.541299 -0.901989 -0.818544 -0.717398 -0.0771028 0.16289 0.384364 0.267821 0.832638 0.397671 0.207577 -0.218554 0.289929 -0.20232 -0.217935 -0.811844 -0.286509 -0.327931 -0.963401 -0.29564 0.697748 -0.640225 0.0298634 -0.978028 0.433108 -0.985402 0.490427 0.831676 0.412389 -0.601797 0.491496 0.488696 0.900526 -0.149379 -0.206537 0.930863 -0.379566 -0.240418 0.00164572 -0.227218 -0.315022 -0.652063 0.689228 0.100069
-0.610659 -0.644126 0.283875 -0.659217 0.746963 -0.668884 0.976191 0.247358 -0.0411594 0.785078 -0.898916 0.721008 -0.309941 0.885421 0.599904 0.508461 -0.165076 -0.0146122 -0.594635 0.564544 0.0376408 0.257041 0.201443 -0.785312 0.387046 -1.00649 0.546272 0.435805 0.305332 -0.222537 0.126009 -0.834764 -0.211138 0.701626 0.186242 -0.864348 0.495347 0.0902899 0.534442 -0.792114 0.127336 0.816625 -0.487449 -0.948518 -0.904426 -0.144102 -0.938772 -0.169684 -0.386844 -0.821239 0.637934 0.616947 -0.917569 0.275141 -0.719946 -0.659438 -0.44768 -0.551161 -0.840705 -0.25202 0.0611595 -0.751558 -0.040156 -0.846193 0.499721 -0.717305 -0.957919 -0.872264 0.513375 -0.981993 0.906345 -0.44223 0.236983 -0.823686 -0.25088 -0.628105 -0.77591 0.0535128 0.379406 -0.267086 -0.341797 -0.685493 0.486971 -0.0692102 -0.969536 -0.107634 -0.120464 0.678138 0.315162 0.837468 0.684424 -0.780542 0.121775 -0.895137 0.609263 0.516076 0.248367 0.887429 0.804761 0.312434 0.0533266 0.10214 -0.229794 0.355293 0.954362 0.364511 0.650315 0.0514038 -0.949395 -0.77009 0.0736617 0.815342 -0.634867 0.691146 0.600372 -0.0147186 0.170261 -0.99219 0.931224 -0.0796779 -0.607659 -0.382098 0.254939 0.338934 0.469711 -0.147242 -0.868388 -0.054645 -0.192404 0.692876 0.730323 -0.207484 0.642908 0.882562 0.843189 -0.418021 0.551566 -0.227823 0.478462 -0.226854
-0.0773513 0.620501 0.703208 -0.0623906 0.591907 -0.313831 0.997942 -0.866405 0.325034 -0.883198 -0.150858 -0.477652 -0.409135 0.770211 0.102582 0.599513 0.307619 -0.905319 -0.145159 0.914943 0.296312 0.864166 0.707552 -0.865794 0.80576 -0.844325 0.0690112 -0.531767 0.367797 -0.425163 0.568045 -0.119085 -0.781239 -0.580529 -0.814999 0.757509 -0.373464 -0.968507 -0.905155 0.883179 0.462942 -0.891503 -0.201331 -0.738434 -0.508304 0.20475 -0.994785 0.314788 0.609846 -0.724969 -0.144455 -0.224453 -0.728927 0.705525 -0.755154 -0.563522 0.693406 -0.0970013 -0.182471 -0.294868 0.855743 0.710629 -0.106471 0.29104 0.224327 -0.104433 0.753948 -0.414058 0.616938 0.480496 -0.792106 0.882066 0.0633433 -0.777903 0.150374 -0.234544 0.325102 0.124168 -0.527346 -0.851225 0.326076 0.028716 -0.805764 0.101482 -0.725008 0.556301 0.0468417 0.892418 0.617265 0.8873 0.315446 0.713912 0.282132 -0.48224 -0.233054 0.0812302 0.0250784 -0.436148 0.160781 0.156853 -0.015676 0.227334 -0.237876 -0.940896 -0.874557 0.390128 -0.415051 0.515455 0.0698485 0.504052 -0.951704 -0.829122 0.826213 -0.329126 -0.903448 0.147719 -0.582329 -0.495191 -0.563671 -0.247869 0.498697 0.793252 -0.0619935 -0.670978 0.642625 0.358374 0.507082 -0.0343271 0.381234 0.130117 0.371871 -0.0402538 0.339148 0.11529 -0.0861022 -0.158683 0.208271 -0.661224 0.617668 -0.354772
-0.369259 -0.22908 -0.149995 -0.575314 -0.858373 -0.219698 -0.100324 0.344304 0.563321 -0.897339 0.699118 -0.324621 -0.562001 -0.160664 0.736806 0.165648 0.412211 0.0511614 -0.856692 -0.151407 -0.33903 0.137191 0.18624 -0.725291 -0.0683587 -0.651361 0.753952 -0.700305 -0.235904 0.685003 -0.544237 -0.71617 -0.144415 -0.0791392 0.448276 0.572145 0.799916 -0.578881 -0.401489 0.309955 0.301156 -0.992401 0.140549 0.829721 1.02521 0.914676 0.848658 -0.902964 0.188584 -0.518261 -0.638032 -0.396464 -0.149835 -0.384862 0.296473 -0.214916 -0.788326 -0.906174 -0.509514 -0.247636 -0.261606 0.0121861 0.136129 0.953687 0.673872 -0.215338 -0.799651 0.647456 0.69295 -0.485131 -0.913294 -0.790869 -0.931552 0.845931 -0.518466 0.507173 0.294642 -0.984373 -0.485402 -0.276058 0.236772 -0.384963 -0.437884 -0.817165 -0.922943 0.990766 0.593989 0.174462 0.467901 -0.261723 -0.349749 0.738104 -0.937094 0.258871 0.923263 0.418486 0.606316 -0.594818 0.704858 0.0104461 0.880087 -0.491403 -0.340791 0.770828 0.918756 0.526778 0.198421 -0.0591344 0.0273778 -0.917953 -0.288668 -0.69046 0.275618 -0.360752 0.153423 -0.51794 -0.524309 0.884992 -0.582623 -0.105604 0.582977 0.897825 -0.814797 0.790002 -0.544879 0.211528 -0.20733 -0.316595 0.394574 -0.19084 0.262576 -0.931015 -0.411625 -0.223042 0.182578 0.67625 0.0930124 0.549967 -0.704365 0.913002
0.483243 0.563352 -0.578417 0.369216 0.86828 0.591353 -0.611584 0.46281 -0.533886 0.358706 -0.43806 0.375003 0.354922 -0.947876 0.8392 0.726913 -0.617369 0.284076 0.553126 0.623919 0.171637 -0.733625 0.789307 -0.182788 0.0055728 -0.830376 -0.195928 -0.358085 -0.593602 -0.243034 0.929412 0.306125 0.106832 0.891543 0.0423213 0.632959 0.701696 -0.907141 0.631782 0.387655 0.770384 0.4161 1.00766 -0.0243651 -0.566465 0.841156 0.247871 -0.705269 0.977998 0.304435 0.882391 -0.985772 -0.447478 -0.0344304 0.682544 0.14037 0.202348 -0.205739 -0.640946 -0.494112 0.173242 -0.694264 0.250024 -0.179636 -0.16444 -0.892455 0.581155 -1.01435 0.629592 0.19695 -0.201803 0.574768 0.0500692 -0.606046 0.0527285 -0.326156 -0.374555 0.17492 0.248456 -0.544041 -0.489497 0.861376 -0.664325 0.168017 0.662572 0.203151 -0.446992 -0.178738 0.410993 0.0905572 0.754 0.906595 0.456271 -0.854177 -0.226801 0.814352 -0.721789 -0.212791 -0.827904 -0.771143 0.0921063 -0.650155 0.966675 0.417695 -0.941082 0.00921778 -0.194861 -0.744846 0.0395945 0.649549 -0.974262 0.437651 0.000412413 0.0858805 0.962294 0.827839 -0.79415 0.572042 0.864498 0.147575 0.0914982 0.382112 0.249845 -0.296208 -0.796302 0.00529904 0.69364 0.757227 -0.388837 0.668511 0.951995 0.872205 0.216761 0.662615 -0.706302 -0.516699 -0.308363 0.947817 0.961831 0.958842
0.782122 0.909069 0.0345626 0.775363 0.260477 0.800316 -0.510943 0.435547 -0.524394 0.623561 0.313673 0.173001 0.501298 -0.431844 0.948928 -0.268725 0.593999 -0.628137 -0.13553 -0.246824 0.46969 -0.451904 -0.291474 -0.807212 -0.167297 0.321288 0.319977 0.171433 -0.183253 -0.721491 0.938832 -0.506717 -0.696688 -0.889499 -0.00786942 -0.346269 -0.307746 0.181093 0.25721 -0.132982 0.788235 0.0721301 0.164349 -0.173082 0.630187 -0.348991 0.729964 0.358165 0.101757 0.145936 0.18455 0.822004 0.965097 0.93675 0.758645 0.0218119 -0.994806 -1.05624 0.625508 0.200638 0.466343 0.197259 -0.0607316 -0.886632 -0.619518 0.324353 -0.425481 -0.815076 0.654705 -0.936294 0.14396 -0.00683779 -0.825783 -0.695336 -0.412106 -0.27939 -0.586889 -0.224542 -0.455159 0.919785 0.784773 0.0876757 0.304039 0.0832181 0.819682 -0.103752 0.332 -0.0396723 -0.159834 0.484559 -0.922917 0.208145 -0.654991 0.673995 -0.744185 0.909349 0.152295 -0.713596 0.10226 -0.603314 -0.914159 -0.985176 0.945879 -0.0143339 -0.0203134 0.689011 0.495226 -0.537098 -0.0559716 0.65411 -0.711766 0.855898 -0.00556559 -0.132999 0.328994 0.790778 0.713262 0.836831 -0.194533 -0.746684 0.0501508 0.386027 0.439993 0.548053 0.163003 -0.274741 0.314796 0.847948 -0.0330142 -0.950292 -0.165081 -0.759725 -0.0399764 0.221874 0.205516 -0.787646 -0.0894936 0.0515051 0.852589 0.87438
0.222998 0.875255 -0.325242 0.650749 -0.943079 -0.574906 0.554069 -0.856593 0.125522 0.728836 0.983041 0.13809 0.0126436 -0.0361022 0.473955 0.842988 0.450877 -0.643403 -0.621806 0.173954 -0.166425 -0.702601 0.822297 -0.023177 -0.323974 -0.609897 -1.0279 0.716311 -0.00947802 -0.362379 -0.359496 0.814293 -0.627188 -0.390715 -0.217452 -0.84208 0.199472 -0.241113 -0.697999 -0.343732 -0.434151 -0.776475 0.222019 -0.901293 0.307589 0.0695248 0.156329 -0.643518 -0.287675 -0.132052 -0.196273 0.379913 -0.653487 0.228339 0.628214 -0.402647 0.783325 0.214402 0.185635 -0.794751 0.769052 -0.120397 0.0877195 -0.832031 -0.547963 0.492203 -0.907072 0.876317 -0.288793 0.815113 0.172217 0.604097 -0.374305 0.0320892 -0.652394 -0.979805 0.622548 0.524267 0.189952 -0.492371 0.291543 0.791324 -0.545925 -0.751345 0.672617 0.623198 -0.783122 -0.756601 -0.664258 0.296303 -0.869526 0.428685 0.219501 -0.197345 0.0320866 -0.219372 1.00011 -0.722891 0.633985 0.939597 -0.22604 0.642884 0.467456 -0.369004 0.664122 -0.0463337 0.779437 -0.192766 -0.997087 -0.524003 -0.717398 0.0656487 0.162778 0.0934047 -0.883602 -0.878532 0.487622 -0.94173 0.241782 -0.659236 0.500633 -0.924332 0.801357 -0.673988 0.14927 0.799991 -0.908474 -0.11467 0.522637 0.549288 0.520324 0.794273 0.270231 -0.683653 0.240104 0.95038 0.72279 0.370781 1.01974 0.225993
-0.120244 0.0465229 0.437358 0.953395 -0.719328 0.536384 0.128191 -0.820729 -0.579521 -0.133615 -0.0553092 0.363277 0.395605 0.689883 -0.954502 0.81536 -0.195048 -0.938635 -0.302562 -0.0516082 0.299844 -0.410874 -0.0854031 -0.245569 0.756549 0.387272 0.829737 0.8955 0.415396 -0.728403 0.249552 -0.371443 -0.217674 -0.305324 0.215105 0.655272 -0.73817 -0.0952982 0.905814 -0.137369 -0.0143518 -0.5835 0.980582 0.359243 -0.603598 0.630269 -0.277623 -0.0969691 0.800906 -0.440043 -0.712031 -0.0237394 -0.245389 0.0906767 -0.819436 0.588002 0.752257 0.342844 -0.905896 0.708375 0.408348 0.93246 0.264865 -0.893712 -0.923725 0.680916 0.543469 -0.0134829 -0.994756 0.869952 0.0526682 0.533714 0.733382 -0.631227 -0.510605 0.180553 0.856964 -0.362866 -0.554385 0.81936 -0.382097 0.522931 -0.315803 0.350554 0.0700106 -0.113572 0.253014 -0.233252 0.779735 -0.667361 -0.707002 0.442678 -0.293738 0.909797 0.0574205 0.177174 -0.286532 0.214112 0.850018 0.368192 0.341856 -0.482072 -0.332927 0.591103 0.84989 -0.296352 -0.0862103 0.867067 -0.66822 0.832083 0.640525 -0.487389 -0.432979 0.534382 0.427203 0.676421 -0.217673 0.764655 -0.0719555 -0.297894 0.0574008 -0.0299404 0.281603 0.744585 -0.677761 0.980411 0.816955 0.631708 -0.730114 0.340705 0.545271 -0.856464 -0.0739823 0.214356 -0.125537 -0.650406 0.253642 -0.725662 0.413886 0.562207
0.230552 0.921552 -0.381999 0.301492 -0.572203 0.226758 -0.487335 -0.161663 -0.7919 0.173372 0.400833 -0.295359 -0.993106 -0.72018 0.0591681 -0.1473 1.00142 0.764709 -0.330754 0.565893 -0.229749 0.650986 -0.164015 -0.751203 -0.048088 -0.240241 -0.955097 0.309505 -0.301561 -0.725389 0.74725 0.600008 -0.893003 0.82236 -0.47431 0.13128 0.715458 -0.417865 0.105768 0.0133367 0.975045 -0.863617 -0.000586054 -0.377596 0.563473 -0.0919389 0.107743 0.597724 -0.860308 -0.381006 0.869572 0.611786 -0.241664 -0.821347 0.662057 0.635805 -0.750404 -0.074212 -0.728525 -0.343156 -0.630082 -0.875131 0.985902 -0.837475 0.996812 0.750085 -0.794458 0.109686 -0.357014 -0.0478411 -0.0289431 0.376626 0.334658 -0.979621 0.846808 0.334594 -0.534183 0.224489 0.763438 0.0931862 0.848188 0.450368 -0.0975333 0.363437 0.844734 -0.992402 -0.69357 -0.495565 -0.723778 -0.496584 0.395759 0.0461566 0.608653 0.236765 -0.80678 -0.790336 -0.597799 -0.652972 -0.0654285 -0.685807 -0.0866272 -0.117607 0.571131 -0.182091 -0.907725 -0.34298 0.284605 0.547439 -0.0290478 -0.588109 -0.27916 0.71481 0.876292 0.788924 -0.446921 -0.215578 -0.809616 0.740193 -0.6452 0.356529 -0.0367172 -0.751919 0.0940402 -0.131312 0.824111 -0.868158 0.213897 0.807519 -0.715777 -0.00205341 -0.699259 0.233561 -0.193416 -0.957242 0.636587 0.43546 -0.182141 -0.866235 0.715513 -0.000646256
0.921645 -0.748774 0.156221 -0.136424 0.688141 0.838364 -0.404537 -0.159728 0.758598 -0.846961 -0.646797 0.925598 0.20185 0.113478 -0.179144 -0.975551 0.40009 0.9248 -0.599773 -0.282895 -0.94021 0.715491 0.708065 0.566387 -0.805277 0.455075 -0.847455 0.68259 -0.474628 0.56506 -0.556607 0.852666 -0.355588 -0.392234 0.502962 0.867505 -0.741907 -0.170527 0.217246 0.41097 0.958378 -0.641201 -0.138926 -0.84698 -0.436265 -0.493567 -0.714734 -0.68763 0.685093 -0.937709 0.41958 0.367387 -0.0241212 0.216174 0.328685 -0.536865 -0.869452 -0.692777 0.348416 -0.776913 0.249228 0.15069 -0.587056 0.525064 -0.651266 0.101425 -0.360608 0.381313 -0.643684 -0.440859 0.971923 -0.779946 -0.788177 0.772802 0.334482 -0.339376 -0.851969 -0.198181 0.407584 -0.217902 -0.885213 -0.462468 -0.330444 0.844735 -0.933281 -0.342918 0.769021 -0.0793281 0.0187268 0.45567 -0.0865937 0.360529 -0.283558 -0.289206 -0.031353 -0.65943 0.104742 0.109612 -0.208793 0.435107 0.938875 -0.525314 0.941368 0.234858 -0.928528 -0.34422 0.0380543 -0.0916911 -0.713036 -0.958031 -0.29893 0.220079 -0.787708 0.397674 0.531727 -0.856253 -0.0138885 -0.694052 -0.231809 -0.506292 0.650153 0.618782 -0.385272 -0.565266 0.106128 -0.589869 -0.328844 0.991954 -0.0646594 -0.982914 0.36953 -0.334891 -0.962271 0.76596 -0.153631 -0.785864 0.849929 0.688227 0.408495 -0.613189
0.351693 0.384788 -0.50821 0.0633127 -0.447244 0.975882 -0.413384 0.86358 0.627785 0.18426 0.645959 0.0720154 -0.592279 0.0719503 -0.0923147 0.581547 0.844186 0.924266 0.247051 -0.125288 -0.726499 -0.912706 0.915201 -0.00641618 -0.629411 0.255462 -0.378077 0.451966 -0.560079 -0.219461 0.142739 -0.779019 0.736802 -0.447527 0.572815 0.66463 0.676876 -0.773908 -0.155641 0.66934 -0.530408 -0.201665 -0.835928 0.413876 -0.769354 0.0911872 -0.62188 -0.0974841 -0.905442 -0.848127 -0.0778528 0.0142486 0.732494 0.443831 0.130364 0.345032 -0.897538 -0.468979 0.888075 -0.624438 -0.428573 0.211598 0.711181 0.871169 0.920582 -0.856452 -0.305311 0.977727 0.17205 0.821056 -0.952393 0.3473 -0.665209 0.728419 -0.406922 -0.42514 -0.465364 0.952587 0.574554 -0.706633 -0.072344 0.860307 -0.720436 -0.07846 -0.757915 -0.410103 -0.0492804 -0.0885149 -0.573844 0.731648 -0.959111 0.532453 0.111233 0.993214 0.643609 -0.859687 -0.550857 0.657809 -0.135218 -0.098742 -0.497223 -0.204186 -0.677977 -0.405339 -0.735123 0.122632 0.237816 -0.713076 -0.894613 -0.536477 -0.091403 0.601397 0.401222 0.768885 0.0755144 0.979641 -0.978354 0.346948 -0.981487 -0.491051 0.987357 -0.243682 0.481299 0.742564 -0.358076 -0.367034 0.74688 0.324181 -0.654703 0.470054 0.276885 0.492602 0.998923 0.477809 -0.623176 -0.535737 -0.586067 -0.828396 0.326117 -0.183085
-0.679289 -0.502996 -1.00089 -0.514234 0.230702 -0.151649 0.957 -0.791541 -0.783217 -0.60132 0.352763 -0.0340517 0.803801 0.0217673 -0.651902 0.486608 0.272181 -0.596378 0.518793 0.11213 0.981952 -0.603219 -0.0317926 0.561495 0.400445 0.151896 0.106276 -0.333669 0.224761 0.914833 -0.0683589 -0.733732 -0.977319 -0.972943 -0.748826 -0.0564915 0.144128 -0.570092 -0.106899 0.482743 -0.669546 0.541237 0.410869 -0.714252 0.184817 0.285215 0.630904 0.657592 0.136835 0.0215077 -0.275149 0.614361 -0.601222 0.443376 -0.646677 0.316645 -0.0608881 -0.647112 0.505124 0.498286 -0.599973 -0.140739 -0.187007 0.966501 0.101461 0.0816761 0.337036 -0.483052 -0.882997 0.363513 -0.262159 0.29723 0.213883 0.711054 -0.602687 0.136655 0.773159 -0.319231 -0.283748 -0.0829873 0.475042 -0.351536 0.147396 0.816194 0.560702 -0.840635 0.973929 -0.776211 0.786223 0.652861 -0.403993 -0.828504 0.567018 -0.626631 -0.565207 -0.501921 0.544501 0.118416 -0.643355 -0.431514 -0.301507 0.648779 -0.647491 -0.300809 0.529739 -0.454698 -0.493768 -0.321405 0.723043 0.975266 -0.606808 -0.341647 -0.82427 0.624322 0.872393 -0.58951 -0.958318 -0.232185 -0.978848 0.40113 -0.927492 0.828365 -0.501934 0.879566 0.240657 0.0273728 -0.0840801 0.248665 0.746592 -0.169807 -0.578755 0.969269 -0.0111853 0.22708 0.435027 -0.382714 0.675233 0.322179 -0.303675 -0.683797
1.02089 -0.762218 0.512813 0.770044 -0.55145 0.727553 -0.960865 0.457645 -0.73434 -0.0717359 -0.859142 0.0735719 0.959093 -0.504679 0.425672 -0.47451 0.764335 0.204974 -0.660678 0.219744 -0.866552 0.954762 -0.565759 0.628515 0.903192 -0.106274 -0.612126 0.325067 -0.412667 -0.877954 0.437121 0.138808 -0.359459 0.359329 0.513416 -0.0890287 0.2371 0.92762 -0.858708 -0.210517 -0.0847343 0.925713 -0.354348 0.393067 -0.568523 -0.211464 0.981122 -0.924062 -0.0769329 -0.434112 -0.848471 -0.529939 -0.0303123 -0.85876 0.0995418 -0.303699 -0.134603 0.645164 0.0474558 0.0238209 0.461942 0.979832 0.283622 -0.0571528 -0.224292 -0.664863 -0.815213 0.563884 -0.562286 -0.603262 0.133469 -0.31789 0.620005 0.172446 0.816428 0.305973 0.50482 -0.997948 0.444918 0.222647 0.367584 0.277014 0.921623 -0.486084 0.0384897 0.676493 -0.304264 0.883927 -0.786238 -0.697946 -0.582181 0.297885 0.872148 0.757997 -0.419722 0.984708 0.208016 0.490207 0.450318 -0.17379 0.333838 0.713422 -0.94141 -0.523312 -0.40602 0.66806 1.00246 -0.54055 0.0500289 -0.144136 -0.049571 0.157035 0.406978 0.972889 -0.586051 0.911804 -0.0093578 -0.562164 -0.225439 -0.309442 0.926104 -0.955775 -0.552906 -0.336583 -0.802977 0.597733 0.0441616 0.780719 -0.122504 -0.774652 -0.349409 -0.580568 0.0950586 -0.0707112 0.553966 0.214558 0.924908 0.999201 0.458038 0.780837
-0.75787 -0.444305 0.448536 0.279198 0.376606 0.241703 0.438846 0.625281 -0.822922 -0.956813 -0.070351 0.239261 0.0975949 -0.289348 -0.871639 -0.0147201 -0.168222 0.0112639 -0.599773 -0.21552 -0.395702 0.329376 -0.128956 0.00810186 0.628106 -0.98571 -0.060928 -0.186592 -0.428863 -0.381937 -0.140762 -0.879406 -0.714824 -0.952751 0.707257 -0.643442 -0.0402457 -0.20045 0.949322 0.718103 0.0241191 0.923265 0.896201 0.275193 0.992883 -0.0344128 0.816921 -0.555174 -0.217077 0.843828 0.182982 -0.244618 0.794721 -0.671593 -0.65955 0.425568 0.152118 -0.445004 -0.822306 -0.697672 -0.881674 -0.385365 -0.615599 -0.171733 -0.199798 0.421389 0.30223 0.372738 -0.606836 -0.605688 -0.985141 -0.226044 -0.39969 0.642561 1.00354 0.829885 0.250255 0.477007 -0.0307349 0.639344 0.113209 -0.753419 -0.872123 -0.857111 0.567493 0.10559 -0.54895 -0.874875 0.505472 0.383922 -0.572863 0.669241 -0.593362 -0.936458 0.283917 0.854147 -0.570568 0.494512 -0.487481 -0.289783 0.44309 -0.939727 -0.827056 -0.62171 -0.310459 0.806226 0.24784 -0.302233 -0.0403848 0.676708 -0.714123 -0.783772 -0.512926 0.617351 -0.0250718 0.170758 -0.883293 0.902837 -0.839251 0.705146 0.0291337 -0.619898 -0.382326 -0.331712 -0.531932 -0.751761 0.40664 0.576244 0.316138 -0.326883 -0.586975 0.084656 -0.00799146 0.343717 0.571762 -0.891443 -0.190629 0.701762 0.833632 0.576299
0.786792 0.0122788 -0.12158 0.87776 -0.822711 -0.617719 -0.179152 0.197882 -0.748144 -0.429303 -0.934403 0.21012 0.108104 -0.899806 -0.357641 0.294163 -0.366606 -0.325581 0.417782 -0.689127 0.102539 0.475704 -0.905172 0.857846 0.666052 0.381971 0.119626 0.682692 0.364995 0.392265 -0.864614 0.297137 -0.26699 0.979094 0.633828 -0.978063 0.540601 -1.00686 -0.677888 -0.432596 -0.650482 -0.728184 -0.0439738 -0.609872 -0.463121 0.0149575 -0.15524 -0.790098 -0.143265 0.118598 -0.935168 -0.107373 0.948082 0.567101 -0.508444 -0.275799 -0.0972898 -0.699295 -0.0871672 0.317442 -0.489659 0.595187 0.710233 -0.992991 0.5079 0.70807 -0.377941 -0.692897 -0.136882 -0.43915 -0.575735 -0.0850164 -0.346546 -0.788815 -0.427006 0.147592 0.655449 0.268048 -0.85533 -0.337291 -0.0024666 -0.496332 -0.907861 0.438594 0.852359 -0.128191 0.960278 -0.787846 -0.686575 -0.607496 -0.728662 -0.26811 -0.789991 -0.795401 0.642049 -0.68575 -0.253875 -0.75759 -0.399559 0.808277 0.665586 0.202293 0.969631 -0.351798 -0.888207 0.116773 0.223581 -0.370085 0.875551 -0.587751 0.408061 -0.75697 -0.0731173 -0.247656 -0.875019 -0.768847 0.770937 -0.189427 0.522724 -0.859015 0.687703 0.18843 0.264259 -0.15558 -0.559943 -0.138822 0.631195 -1.0087 -0.603956 -0.205377 0.193244 -0.756656 -0.13867 -0.813151 -0.0152893 -0.193306 0.286292 0.269257 -0.105428 0.0594297
-0.0511332 0.36607 0.306272 -0.817038 -0.043082 0.769348 0.871221 -0.603902 -0.445438 -0.440773 0.0370084 0.0979476 -0.544246 0.761407 -0.790051 -0.669854 0.887113 0.999882 0.768549 -0.430168 0.0386831 -0.239386 0.432632 0.856508 0.973463 -0.918239 0.0940462 -0.836025 0.0667212 -0.354571 0.771555 0.131018 0.39303 0.12751 -0.118557 -0.751513 0.776009 0.137152 -0.367868 0.517873 0.653113 -0.444889 -0.748622 -0.630688 0.269231 -0.628866 -0.411816 -0.364955 0.704654 -0.374976 0.271957 0.414145 0.184356 0.16573 0.116767 0.015231 -0.0740093 0.188108 0.182982 -0.57984 -0.000287874 0.183305 -0.153209 -0.579283 0.177893 -0.0332142 0.276944 0.612919 -0.959572 0.815215 0.474588 -0.0916698 -0.687173 0.793936 0.919367 0.725746 0.441835 -0.621147 0.493652 -0.00822664 0.24282 0.293712 -0.993273 -0.533192 0.0796324 -0.427521 0.225889 -0.917468 0.379454 -0.316517 0.424449 -0.66368 0.115451 -0.958094 -0.887371 -0.589086 -0.567919 -0.596246 0.298105 -0.0495666 -0.661324 -0.676925 -0.0349954 0.621718 -0.855673 -0.0095692 0.923528 0.64602 -0.232679 0.986425 0.0513762 -0.424234 -0.97043 0.047664 -0.768924 -0.362686 0.0214724 -0.298849 0.52445 0.193051 -0.886571 0.84128 0.379304 0.417093 0.650617 -0.813898 -0.648125 0.176926 0.535026 0.784631 -0.245567 -0.222183 1.00783 -0.190457 0.205698 0.605875 -0.846055 0.0145805 -0.237401 -0.310261
0.238402 0.0817981 -0.190384 0.472373 -0.0763901 0.923003 0.900605 0.105164 -0.676689 0.494939 -0.081101 0.759238 -0.673094 0.812128 0.536899 -0.130205 -0.697306 0.455023 0.332591 -0.271241 -0.70269 0.385335 0.250317 -0.510378 0.331412 -0.354728 -0.980151 0.989402 0.22702 -0.834143 -0.288406 -0.7917 -0.191232 0.550806 0.487075 0.492722 -0.0353181 -0.304208 0.456006 -0.0907703 0.0973763 -0.262981 0.602247 0.646267 0.0899878 -0.607594 0.821312 -0.743393 0.740075 -0.838694 -0.277276 0.671894 -0.473287 -0.480449 0.201682 0.974518 -0.371823 -0.244742 -0.414443 0.749907 -0.042931 -0.349771 -0.838176 0.305126 -0.40131 -0.430793 -0.721769 0.0510783 -0.91142 -0.516248 0.373986 0.327353 0.296396 -0.846432 -0.892036 0.323462 0.135555 0.988947 0.50377 0.364819 -0.402331 -0.78472 0.0610239 -0.933539 0.202959 -0.982318 -0.911053 -0.723072 -0.00671346 0.636937 0.661616 -0.149274 -0.620222 0.428835 -0.931349 0.0233833 -0.968739 -0.720512 -0.675755 0.993141 0.0697836 -0.500191 0.406713 -0.707888 -0.971206 0.167765 -0.209327 0.799382 0.269088 0.0427906 0.0903577 -0.479806 -0.888138 -0.915492 -0.342583 -0.711509 0.486791 0.287177 0.096744 -0.930968 -0.336604 1.05581 -0.141731 0.129766 0.884907 -0.0527964 -0.318411 -0.537488 -0.181735 -0.149546 0.242731 0.222915 -0.899129 -0.301952 -0.249993 -0.648926 0.836579 0.403352 -0.323012 -0.804432
-0.535426 -0.384499 0.726221 -0.29298 -0.342734 -0.612236 -0.60074 -0.232517 -0.13373 1.03234 -0.880113 -0.0719696 -0.14256 -0.231854 0.0780421 0.720421 0.829666 0.767478 -0.382054 0.82322 0.618893 0.373397 -0.681627 -0.741695 0.901114 -0.704879 -0.87719 0.564134 0.429982 -0.546143 0.882802 -0.35026 -0.856861 0.895165 -0.283105 0.266754 0.535011 -0.549504 -0.180763 -0.343725 -0.986381 0.31468 0.105849 -0.650243 0.0673034 0.520559 0.100487 0.149626 -0.995264 -0.590335 -0.723576 -0.703601 0.197235 -1.00507 -0.385476 -0.121919 0.23656 0.865154 0.456659 -0.46714 0.311956 -0.940398 -0.172302 0.77509 0.475192 0.783662 -0.878337 0.756867 -0.201328 -0.0408458 -0.170419 -0.361532 0.371944 -0.463858 -0.367358 -0.206572 -0.945284 0.619971 0.786712 0.251405 0.916471 0.962775 -0.749875 -0.61592 -0.43555 -0.81448 -0.692317 -0.895809 0.840668 0.644468 0.71139 -0.751465 0.278833 -0.394009 -0.894854 -0.123372 -0.201504 -0.684875 -0.813926 0.780301 0.0271641 -0.55038 -0.0580166 -0.20382 0.496254 -0.22295 0.924055 0.762595 0.090641 0.972363 -0.542817 -0.622085 0.890539 0.533684 -0.872429 -0.125426 -0.532717 0.556965 -0.760164 0.658552 -0.619144 0.258384 0.113726 -0.278284 -0.982428 -0.0532327 0.480402 0.696885 -0.796999 0.0951202 0.748768 -0.122273 0.260965 0.48322 0.584132 -0.974578 -0.407988 0.31939 -0.813827 -0.559468
-0.275446 0.112591 -0.313085 -0.385985 -0.284682 -0.996598 -0.241417 0.198128 -0.185114 -0.938595 0.427335 -0.520626 -0.00284729 0.0243914 0.708414 0.0342135 0.931275 0.178618 -0.48057 0.0682999 -0.0771106 -0.587004 0.76832 -0.604874 -0.603149 -0.597439 0.701667 -0.3129 -0.190446 -0.742943 -0.768976 0.193384 -0.257833 0.450773 -0.145247 0.105511 0.00673516 0.693181 0.16504 0.170359 0.841015 0.145228 0.662658 -0.472759 0.978982 0.329373 0.147823 -0.693521 -0.930629 -0.548732 0.64303 0.552607 0.652399 -0.18601 -0.623698 -0.152062 0.987062 -0.418883 0.366975 -0.0989247 0.61546 -0.319742 -0.387711 0.533165 0.0796426 0.439872 -0.365949 -0.884044 -0.00661775 -0.669756 -0.314009 -0.10942 -0.569284 -0.130024 -0.456265 0.235115 0.144471 0.57688 0.459292 -0.91288 0.746644 0.759569 0.457679 -0.136535 -0.432095 -0.82282 0.284551 -1.00042 0.464896 -0.252473 0.529261 -0.28366 1.00302 0.191418 0.0843089 0.787742 0.0551 -0.684295 0.770774 -0.647305 0.947281 -0.882039 -0.406027 0.709414 0.793974 -0.719124 -0.480079 -0.338219 -0.184019 0.821941 0.447041 -0.00994999 -0.617262 -0.42318 0.812518 0.369507 0.472033 0.275156 0.223413 0.562943 0.745709 0.877155 0.225783 0.304755 -0.699845 -0.861692 -0.455255 0.0194537 -0.892058 0.483514 0.298518 -0.197467 -0.357822 0.722019 -0.968493 -0.945087 0.0711838 0.947877 0.30406 0.0813941
0.617628 -0.173911 -0.807387 0.653197 0.458119 0.0050722 0.362196 -0.618016 -0.235772 0.145338 0.0640003 0.0538914 -0.281439 -0.463537 0.947899 -0.111139 -0.340762 0.710143 0.114823 -0.327814 -0.557951 -0.0173987 -0.543622 -0.699231 0.426792 -0.419239 0.902263 -0.563655 -0.718896 -0.410769 0.892085 0.544459 0.860258 -0.545488 0.686518 0.216851 0.0693239 0.544344 0.874298 0.324516 -0.627347 0.126983 -0.716181 0.518057 0.0181884 0.696241 -1.01162 -0.445177 -0.433063 -0.345329 -0.47437 -0.721565 -0.912903 0.579635 0.567483 0.399107 0.424838 0.588317 0.545689 -0.468723 -0.945053 -0.850986 0.874105 0.963065 -0.762929 0.997979 0.0362005 -0.280973 -0.72729 -0.851705 -0.596819 -0.989616 -0.806703 -0.418648 0.295424 0.368941 -0.490234 0.303506 0.222141 0.11821 -0.666144 -0.986644 -0.29591 -0.988298 0.404528 0.267384 0.835071 0.470593 0.430477 0.740806 -0.980608 -0.341844 0.343597 0.440056 -0.0541918 -0.079531 -0.270651 -0.341394 -0.944603 0.430741 0.233788 -0.0993423 0.215692 0.371474 0.752057 -0.229668 0.168626 0.371077 0.415891 0.364413 -0.255971 0.788693 0.184901 -0.042951 0.542755 -0.671591 0.611563 -0.658665 0.0284551 -0.776392 0.901661 0.495941 0.880821 0.0875692 -0.885213 0.777935 0.137829 0.545588 -0.974604 0.0854041 -0.247062 0.191339 0.45428 0.3681 0.234915 -0.369381 0.896879 0.219333 -0.726109 0.745521
-0.941295 0.745933 0.102405 0.126359 0.889849 0.974223 -0.00806153 0.292199 -0.617985 -0.724118 -0.381139 -0.91425 0.137167 0.123083 -0.408458 0.710597 0.712039 0.949955 0.556811 0.933857 0.213997 -0.700704 0.699365 0.581471 -0.122111 0.351998 0.737482 -0.0607881 0.276565 -0.0333873 0.116349 -0.445037 -0.495963 0.92911 0.267411 -0.365204 -0.0926584 -0.326189 -0.264456 -0.989955 -0.79699 0.104976 -0.648004 1.00336 0.948354 0.216298 0.220991 0.220207 0.426264 -0.876271 -0.686757 0.383912 -0.65463 -0.315794 0.867454 -0.257203 0.671014 -0.198198 -0.649824 -0.924044 0.574736 0.554004 0.229103 -0.708831 0.215505 0.0778741 -0.0100588 -0.00514203 -0.367871 -0.11152 0.0976175 -0.48568 0.52755 -0.61464 -0.618588 0.396627 0.412226 -0.254856 0.944108 0.909602 -0.560991 -0.336004 -0.461855 0.690058 0.0344935 0.452566 -0.023067 0.721028 -0.143069 -0.0106135 0.8311 0.0842728 0.159714 0.578188 -0.178835 -0.41225 -0.255146 -0.220323 0.212319 -0.381263 -0.0660579 0.778914 0.582217 0.223923 -0.46707 -0.23152 0.34503 0.572373 0.213223 0.0472229 -0.809551 -0.458872 0.406325 0.428011 0.254833 -0.687599 -0.731216 -0.119261 0.841237 0.346801 -0.91459 -0.543499 0.095785 -0.491315 -0.686923 0.411186 0.880005 0.295772 0.704906 -0.519252 0.306175 -0.85747 -0.509193 -0.96845 -0.17089 0.262324 -0.893423 -0.032134 -0.883585 0.246958
-0.287282 0.504193 0.755623 0.137865 0.049852 -0.260884 -0.797778 -0.563952 0.368152 0.381806 0.547043 -0.0466172 -0.783558 -0.164629 -0.526152 -0.107507 0.977492 0.418745 -0.585964 0.422533 0.448321 -0.888421 0.633399 -0.910539 0.734086 0.548605 0.719667 -0.148964 0.703469 -0.461277 0.785445 0.553214 -0.910451 -0.173598 -0.229558 0.626163 0.913473 -0.422635 -0.215987 0.522164 -0.345222 0.289037 0.810203 0.178633 -0.430026 0.482112 -0.554073 -0.497242 -0.0877844 0.815362 -0.437837 0.105576 0.540249 0.991724 -0.754106 -0.463262 0.660717 0.247092 0.581785 -0.0560683 0.723405 -0.907404 -0.464159 -0.219795 -0.871804 0.764884 -0.29773 0.654461 0.217043 -0.00848178 0.284359 -0.987598 -0.678436 -0.942024 0.859271 -0.27957 0.759171 -0.433035 0.917089 -0.279534 -0.597035 0.618651 -0.960706 0.35916 -0.580584 -0.653318 -0.367164 -0.288836 0.376363 -0.591462 -0.165957 -0.0250975 0.243543 -0.147047 0.0611611 0.595457 -0.522082 -0.00544521 -0.444905 0.110432 -0.00622808 -0.75684 -0.130317 -0.56423 0.522697 -0.434029 -0.646946 0.144059 -0.225115 0.648465 0.188103 0.203324 -0.146136 0.128448 -0.372861 0.455212 0.417837 0.382936 0.418647 0.263235 0.617116 -0.610126 0.00360784 0.220773 -0.946403 0.479014 -0.772575 0.900573 -0.28117 0.471994 0.626481 -0.0314597 -0.396635 0.0820879 0.891133 0.157575 0.55264 -0.171815 0.0745454 0.222178
-0.652633 0.922124 0.883207 -0.654528 0.936437 0.018362 0.871708 0.2731 0.0899243 -0.317736 -0.560907 0.0714187 -0.43078 -0.39536 0.0921143 0.896666 -0.734087 0.211595 0.904392 0.0164032 -0.870511 0.0638403 -0.814583 0.00635238 0.995665 -0.599488 -0.57878 0.0852587 -0.637318 -0.0246809 0.0841921 -0.388591 -0.507688 0.987703 -0.090941 -0.305814 -1.00006 -0.413351 0.629947 0.419655 0.616543 -0.538785 0.911382 -0.668158 0.923838 0.422712 -0.419957 0.930033 -0.265995 -0.661725 -0.83526 0.144967 -0.621366 0.691731 0.972353 -0.830895 -0.101735 0.107083 -0.405917 -0.159322 -0.982261 -0.969589 0.499075 -0.467461 0.36121 0.263618 0.740495 -0.056568 0.956632 0.62027 -0.185833 0.228169 -0.653567 -0.332386 -0.647903 -0.772339 0.518295 0.469949 -0.772863 -0.139653 -0.945135 1.00172 0.88756 -0.965563 0.322629 -0.0887907 -0.606937 -0.124154 0.752829 0.847153 -0.048989 0.5725 -0.651564 -0.415518 -0.732335 0.899154 0.378777 0.107347 -0.142621 0.0337419 0.00585262 0.443572 0.725759 -0.418498 0.967067 -0.464455 0.636521 0.0214185 -0.971431 -0.00135214 -0.242586 -0.580396 -0.448234 0.25883 -0.386254 0.634724 0.515833 0.649799 -0.616724 -0.219288 -0.451286 0.925382 0.561638 -0.469795 -0.780216 0.729469 0.390352 -0.415156 -0.088372 0.283067 -0.401258 -0.244602 0.190414 0.46898 -0.073691 0.409838 0.589869 -0.837883 -0.0431289 -0.991051
0.260202 0.699801 0.659507 -0.570355 -0.980226 0.130116 0.690273 -0.36 0.139994 -0.509896 -0.40978 -0.549371 0.489422 0.809782 0.619796 -0.109604 -0.929963 0.189865 0.700121 -0.540249 0.809857 0.329449 0.970017 -0.238198 -0.420142 -0.7711 -0.839829 0.019326 0.51006 -0.858531 0.31059 -0.980159 -0.499836 0.0804545 0.0109394 -0.519812 -0.999901 -0.95036 0.989683 0.570159 -0.14025 0.110243 -0.0905874 0.679486 -0.410628 0.839248 0.349827 -0.880205 0.701311 -0.360786 -0.119912 -0.930267 0.21963 0.080337 -0.92989 0.23035 -0.180006 -0.640251 -0.0700196 0.0702842 -0.151284 -0.759952 -0.249346 -0.60912 -0.780266 0.609599 0.0400368 -0.610328 0.199969 -0.499677 -0.359744 -0.190101 -0.848171 -0.550165 -0.0406415 -0.559647 -0.379957 0.409897 0.219889 -0.199777 0.460253 0.620239 -0.219711 0.620127 -0.899853 -0.480489 0.720615 0.349759 -0.810144 -0.199844 0.299915 -0.139854 -0.69975 0.499811 -0.0197108 -0.0601849 -0.560458 0.809045 0.209367 -0.30985 0.169623 0.389681 -0.829522 0.720137 0.220645 0.140041 0.459143 0.209788 0.389773 0.950064 -0.120128 -0.649902 0.659842 -0.880083 -0.931195 0.499828 0.34963 -0.510253 -0.58023 0.478963 -0.370479 0.530049 -0.279861 -0.759968 0.880782 0.0301185 -0.440079 -0.570354 0.140356 -0.469433 0.989969 0.140063 -0.750002 -0.680027 -0.40968 0.489739 -0.489931 0.829082 -0.389899 0.759934
-0.8 0.2 -0.94 0.88 0.74 -0.88 -0.259998 0.899999 0.04 0.33 -0.49 -0.23 0.0699985 -0.63 -0.200002 -0.489998 -0.59 -0.78 0.1 0.960001 -0.23 -0.140008 -0.47 0.500011 0.0399993 0.329994 0.98 -0.8 0.47 -0.669988 0.560003 -0.830005 -0.88 0.560003 0.180006 0.520002 -0.41 0.119997 -0.25 -0.03 -0.9 -0.73 -0.950004 0.49 -0.440005 -0.89 0.5 0.59 -0.399994 0.259999 -0.429997 0.92 -0.720004 -0.77 -0.94 -0.489999 -0.86 -0.12 0.760001 -1 0.829997 -0.38 0.120002 0.81 0.49 -0.36 0.65 -0.65 0.71 0.899999 0.81 0.32 -0.0299848 0.32 0.979994 0.27 0.84 0.239999 -0.27 -0.0800001 0.33 0.470004 -0.68 0.27 0.0999992 0.87 -0.5 -0.92 0.249999 -0.33 -0.77 0.140001 -0.15 -0.700001 0.370004 0.439999 -0.1 -0.180007 0.919998 -0.18 0.96 0.0199997 -0.740001 0.700001 -0.85 -0.76 -0.800005 -0.42 0.97 -0.44 -0.0700012 0.37 0.0599989 0.0199986 -0.210008 0.37 -0.17 0.0999987 -3.09637e-08 -0.950009 0.939997 -0.56 0.78 -0.49 -0.109994 -0.24 0.25 0.62 -0.499999 -0.749994 0.31 -0.57 0.73 -0.499999 0.460003 0.850001 0.45 0.219998 0.43 -0.45
-0.66 0.04 0.57 -0.84 0.14 -0.72 0.34 -0.41 0.04 0.46 -0.97 -0.7 0.39 -0.4 -0.89 -0.8 0.89 -0.34 -0.21 -0.15 0.78 -0.1 0.46 0.12 0.8 -0.05 0.81 -0.65 -0.18 -0.18 0.04 0.94 0.02 -0.85 0.73 0.4 0.04 -0.72 -0.6 0.41 0.39 -0.39 -0.93 0.1 0.1 0.76 -0.51 -0.4 -0.51 -0.97 0.44 0.35 0.31 -0.64 0.44 0.16 0.52 0.06 0.34 -0.42 0.23 -0.2 -0.87 -0.8 -0.99 0.51 -0.51 -0.48 -0.68 -0.37 -0.04 0.21 0.46 1 -0.96 0.28 -0.25 0.2 0.84 -0.06 -0.14 0.45 0.04 0.8 -0.97 -0.47 0.56 1 0.83 0.7 -0.43 -0.21 1 0.01 0.95 0.6 0.44 -0.16 -0.94 -0.64 -0.09 -0.58 0.82 0.81 -0.36 0.22 -0.98 -0.16 -0.61 0.33 0.4 0.75 0.61 -0.41 0.03 -0.06 0.7 -0.29 -0.85 0.64 0.76 0.99 -0.33 -0.58 -0.53 -0.89 -0.98 0.94 -0.93 -0.37 -0.07 1 0.69 -0.53 -0.88 0.51 -0.05 -0.93 -0.18 -0.97
0.200886 -0.280388 0.391004 -0.680623 0.509454 -0.339186 -0.179184 -0.759776 0.240124 0.230312 0.440319 -0.968955 0.799618 -0.520255 -0.188773 -0.740594 0.720308 -0.339665 0.0996999 -0.319637 -0.310563 -0.530183 -0.279866 -5.35701e-05 0.359744 0.00994918 -0.509864 -0.530933 -0.719293 -0.199462 -0.83929 0.580998 -0.659564 -0.930386 -0.240992 -0.281488 -0.919593 0.620621 0.779281 -0.369822 -0.77957 0.019148 0.27023 -0.1096 0.569831 -0.400789 -0.569573 -0.940066 0.62247 -0.279736 0.16976 -0.279891 -0.0600314 -0.360657 -0.721136 -0.810501 -0.619887 0.0419791 0.66927 -0.319877 0.610307 -0.0268427 0.459661 -0.749513 0.089422 0.0311473 0.529598 0.670945 -0.560889 0.349918 -0.909212 0.489564 -0.779993 -0.0807227 -0.539393 0.860161 0.57989 0.420236 0.300478 0.419482 0.908661 0.399497 -0.670812 -0.608565 -0.479723 -0.331171 -0.718828 0.348553 0.720576 0.46985 0.258613 -0.360014 -0.00950724 0.740845 -0.232038 -0.920882 0.239619 0.330109 0.0163227 0.870602 0.289832 -0.689597 0.900453 0.368092 1.00026 0.0382489 0.378167 -0.0603268 0.659168 -0.0995815 -0.349721 0.169937 -0.32053 -0.230046 0.439055 -0.49871 0.229937 -0.240067 -0.750945 0.84959 0.659599 0.0811512 -0.299818 0.519993 1.00204 -0.649289 0.202245 0.330314 -0.889646 0.540367 0.921384 0.110026 -0.569919 0.0599141 0.809658 0.350827 -0.148457 0.567446 0.0302636 -0.42954
0.85784 -0.742616 -0.98998 -0.813654 -0.097477 -0.760596 -0.411135 0.0312307 0.533711 0.795184 0.177058 0.837196 0.297973 0.390776 0.282503 -0.05499 0.843122 -0.60979 -0.0200839 -0.886122 0.408229 0.826259 0.99445 -0.825186 -0.65626 0.289942 0.0550629 -0.174693 -0.324631 -0.276586 -0.53446 -0.796819 -0.0642708 -0.91075 -0.484207 -0.227266 -0.960511 0.151463 0.102368 -0.499211 0.387668 0.308398 -0.0209635 0.227387 -0.735595 0.427982 0.110524 0.453144 0.427667 0.393255 0.0816361 0.635748 0.925244 -0.375633 0.207261 0.630738 0.937114 0.211996 -0.28748 0.0778026 0.517298 -0.0981015 0.311171 0.690009 0.969229 0.854466 0.285713 -0.587942 -0.7458 -0.939874 -0.520653 0.935036 -0.516275 0.693037 -0.860831 0.484532 0.743483 -0.645174 -0.562613 -0.135876 0.302269 0.733523 -0.38942 -0.104493 -0.147776 -0.0833051 -0.421892 -0.0569743 -0.174953 -0.471974 -0.895885 -0.391883 0.2903 0.672327 0.112316 -0.829144 -0.134954 0.758208 -0.519099 0.491145 -0.810906 -0.644905 0.133051 0.897433 0.47492 -0.415735 -0.64528 -0.118065 -0.31372 0.941383 -0.860294 -0.795579 -0.671953 -0.843037 0.0460522 0.325804 0.563977 0.13687 0.377037 -0.195331 0.606317 -0.761656 -0.790538 -0.300999 -0.341735 -0.746649 0.376423 0.646194 -0.948639 0.975953 0.26814 0.278623 0.597594 0.244621 -0.19217 0.45505 -0.783893 -0.64075 0.90724 0.326805
0.703487 0.114672 0.126971 0.993109 0.189762 -0.034838 -0.465533 -0.48502 0.327098 -0.141937 -0.102476 -0.0937104 -0.770822 -0.76256 -0.634836 -0.672975 -0.202147 -0.640495 0.324121 -0.402326 -0.535918 -0.319422 0.424152 0.502576 -0.82866 0.319239 0.24885 0.933555 -0.196257 -0.397218 0.716751 0.0853723 -0.905643 0.837264 -0.339449 -0.161445 0.138602 -0.663001 0.167897 0.107781 -0.593714 -0.145036 -0.583948 0.41043 -0.50468 -0.0840678 -0.909152 0.595337 -0.33077 -0.729476 -0.0527506 0.88609 -0.629922 -0.387591 0.151007 -0.0882295 0.434193 -0.813247 -0.471602 -0.86614 -0.459509 0.0825351 0.646835 0.659962 0.956654 -0.981662 0.657062 0.0745735 0.852673 -0.122692 -0.666053 0.761836 0.587376 0.349402 0.202369 0.369159 -0.750702 0.117114 0.160764 0.810307 -0.549234 -0.367568 -0.947609 0.466574 0.953713 -0.820155 0.781181 -0.204596 1.04161 -1.02402 0.482969 -0.456663 0.128677 0.317197 -0.388744 0.368124 -0.955558 -0.56181 -0.666026 -0.375949 -0.189474 -0.978167 -0.815384 0.0492935 0.630846 -0.824476 -0.688817 0.455886 0.919537 0.131641 0.516388 -0.313399 0.394144 -0.337489 0.52039 -0.736826 -0.696225 0.457899 -0.685656 0.444797 0.292595 0.0879355 -0.0972755 -0.679234 0.0166815 0.647765 0.802101 -0.858713 0.125821 0.178285 -0.00390948 0.867229 -0.529701 -0.195632 -0.593796 0.947568 0.497808 -0.0666399 -0.329777 -0.34277
0.914072 0.503529 0.133394 -0.110905 0.507677 0.413181 -0.472012 0.683129 0.408888 -0.532293 -0.0454989 0.248145 -0.247557 0.497822 -0.604284 0.211364 0.894058 -0.215387 -0.604883 -0.528888 -0.969664 -0.153351 0.798217 0.691131 -0.759639 0.530794 -0.824781 0.177178 -0.638971 -0.700771 0.654321 -0.152232 1.08283 -0.644488 0.934212 -0.449361 0.679652 0.443407 -0.663373 0.555321 -0.538031 -0.519297 -0.646777 0.325528 -0.0523598 0.452898 0.0112481 0.171573 0.725722 -0.677585 -0.98481 -0.102756 0.317185 0.736475 0.292258 -0.0635083 -0.271016 0.989117 -0.464302 -0.259328 0.213466 -0.94451 -0.705015 0.239764 -0.908183 -0.492989 -0.642045 0.304251 0.253218 -0.352031 -0.796147 0.775233 0.357774 0.683562 0.521913 0.107682 0.396313 -0.755699 -0.511901 0.98294 -0.808512 0.919411 -0.814466 -0.557378 -0.80109 -0.53311 0.795535 -0.576333 0.742654 -0.845696 0.0460597 0.482266 0.32888 0.299785 0.621864 0.388011 -0.715688 0.465725 0.76455 -0.991796 0.922826 -0.336014 0.293618 0.484068 0.953112 -0.637893 -0.640495 0.809299 -0.0898388 0.465659 0.928146 0.485893 -0.0226157 0.876652 -0.259183 0.62151 0.740417 -0.789963 0.680865 0.885865 0.547699 0.145567 -0.577421 -0.983588 0.503755 -0.869482 -0.358609 0.362071 -0.257148 -0.554296 0.311518 -0.0318068 0.103691 0.883271 -0.459763 -0.795142 0.409746 0.252434 -0.442807 -0.404656
-0.568968 -0.438187 -0.864064 0.722827 0.37161 0.671807 0.450383 -0.430779 -0.0051194 0.537072 0.275871 -0.363961 0.148086 0.854668 -0.0863858 0.62066 -0.608289 -0.355141 -0.0117722 -0.806454 -0.025058 0.672883 -0.939412 -0.437758 -0.992345 1.04516 -0.0562703 0.76654 0.145455 -0.313622 0.799765 -0.145584 -0.699805 0.0683026 0.20373 0.399375 0.556142 0.841773 -0.800855 0.58462 -0.859083 -0.0445482 0.848505 0.805982 -0.911557 -1.05209 0.323228 -0.399985 -1.05349 0.572726 0.418405 -0.768767 -0.953079 -0.799456 0.597137 0.89542 0.666405 0.6153 -1.15327 0.499862 -0.6378 0.467659 0.759825 0.600124 0.597637 -0.525589 -0.491352 0.114403 0.319764 0.157235 -0.979493 0.878675 -0.265962 -0.719234 -0.600763 0.425263 -0.765154 -0.277831 0.846617 -0.0545104 0.0914582 0.727987 -0.132594 0.741661 -0.215641 -0.607406 -0.219805 0.479442 0.156812 -0.541839 -0.118172 0.0674845 0.819364 0.769463 -0.48154 -0.497507 -0.0701925 -0.334332 -0.623609 -0.197548 -0.0388394 -0.701889 -0.329194 -0.431102 -0.719223 -0.507232 -0.180114 0.216426 -0.127025 -0.803726 0.990096 0.502533 0.484337 -0.543448 -0.120333 -0.133494 0.883376 0.52313 0.217254 -0.879165 0.672632 0.28863 0.444799 0.930209 0.674074 -0.342809 -0.655419 -0.572838 1.02562 0.739935 0.105964 -0.760781 0.647945 0.538238 -0.456439 -0.499316 0.662633 0.0087245 0.533302 0.273786
0.678955 0.856692 0.0983282 -0.464773 0.650599 0.700636 0.420813 0.419739 -0.816971 -0.205823 -0.115317 -0.85438 0.477449 0.270855 -0.144535 -0.203499 -0.00245903 0.672871 -0.565243 0.650783 0.936019 0.677625 -0.599554 -0.581813 -0.474627 0.0422454 -0.474269 -0.853766 -0.905356 0.277455 0.00681567 -0.73702 0.346229 0.998026 0.756945 0.115932 0.562888 -0.866996 0.872365 0.408982 0.689343 -0.96314 0.933727 0.40025 0.718804 0.444366 -0.150351 -0.522309 0.327137 -0.578001 0.375598 0.359921 -1.03739 -0.963359 -0.971307 -0.157128 -0.0727158 0.135214 0.635346 -0.329415 0.027723 -0.286059 0.510994 0.945792 0.857564 -0.583462 0.859429 0.649613 0.144449 -0.896304 0.612136 0.1754 -0.566778 -0.17661 -0.79024 0.335022 -1.01568 0.850029 -0.8386 -0.671111 -0.669475 -0.257084 -0.90003 -0.0601111 -0.177737 -0.872501 1.01578 -0.531381 -0.632945 -0.780943 -0.511377 -0.0686076 0.297666 0.730259 0.740019 -0.450245 -0.238105 -0.168513 0.818636 -0.538293 -0.127502 0.583528 -0.0297875 -0.57314 -0.392336 0.297865 -1.02316 -0.763588 0.575611 0.654861 0.178439 0.702798 -0.224424 -0.760899 -0.703266 0.729411 0.854308 0.605886 -0.614662 -0.388359 0.664872 -0.54634 0.889041 -0.454664 -0.54025 -0.740555 -0.485782 0.0924652 -0.320611 -0.314917 0.68255 0.654072 -0.74679 1.04817 0.733369 -0.277016 0.0864753 -0.111775 0.809381 0.324357
-0.487495 0.731637 0.203705 -0.306536 -0.576217 -0.646041 -0.249739 -0.916595 -0.723758 -0.874809 -0.484944 -0.386488 -0.771783 0.687008 0.994771 0.882741 0.637397 0.879999 -0.547649 0.789304 0.224275 -0.583364 0.776824 0.273684 -0.834394 0.4167 -0.104612 0.383653 -0.015392 0.846111 0.906925 0.242423 0.0445986 0.614419 -0.657777 -0.194514 -0.620639 0.0596968 -0.0834305 -0.892393 -0.796274 -0.997646 0.0769533 0.622167 0.032236 0.742809 -0.950879 -0.593768 -0.586692 -0.351619 -0.70626 0.3282 0.631438 0.237636 -0.782618 0.925082 0.0312486 -0.996065 0.10425 0.754675 0.869187 -0.307631 -0.951499 -0.292106 0.660452 -0.84964 0.537611 0.285237 -0.700387 0.641373 0.329386 0.58504 0.27353 -0.12223 -0.748326 -0.0430587 0.492068 -0.271331 -0.115234 0.500032 -0.605851 -0.669945 -0.050952 -0.646005 -0.0752652 0.178978 0.178495 0.600793 0.923983 -0.167901 0.027922 0.264521 -0.318147 -0.0467728 0.101612 0.67031 -0.0150942 0.809586 -0.652429 -0.0548885 0.370857 -0.255334 0.53119 0.293326 0.210941 0.717307 0.211874 0.277133 0.387215 0.702238 0.338022 -0.777987 0.717533 -0.919739 -0.58889 0.508002 -0.524649 0.146429 -0.221124 -0.747588 0.219911 -0.631342 -0.168006 0.915324 -0.723875 -0.328832 0.263994 0.400552 0.647525 -0.855311 0.245573 0.311682 -0.84416 1.04783 -0.913489 -0.257583 -0.0238499 -0.92814 0.509676 0.246224
-0.439709 -0.431315 -0.85717 0.769587 0.135277 0.305922 0.613092 0.913344 0.940819 0.851239 0.720664 0.779647 0.851217 -0.32964 -0.678434 -0.217135 0.442461 0.0421616 0.0246126 0.325462 -0.00710547 0.118741 0.518953 -0.520999 0.453262 -0.780276 0.530223 -0.692493 0.835856 -0.170824 0.183033 0.247371 0.508396 0.752036 -0.424148 0.432771 0.811159 -0.203294 0.208985 -0.0743622 -0.643191 -0.0281306 0.640951 -0.455403 0.625914 -0.891535 -0.998744 -0.231448 -0.359803 -0.0856937 -0.807128 -1.22944 -0.675838 -0.376964 0.327928 -0.861903 -0.136165 -0.239051 0.321976 0.157452 -0.287031 -0.660934 0.688198 1.20656 0.962641 0.438436 -0.708155 -0.122318 -0.559732 -1.0869 -0.797584 -0.0332528 0.231784 -0.860059 -0.911008 0.432332 -0.588546 0.906278 0.949715 -0.0830333 -1.14557 -0.327946 -0.0346899 0.962458 -0.887146 -0.989333 0.81182 0.0261373 0.538918 -1.06068 0.373139 -0.828342 0.843914 -0.0833482 -0.407207 -0.0672384 -0.411879 0.092875 0.0854283 -0.700314 -0.978073 -0.470223 -0.86882 0.0672471 -0.370648 0.454007 -0.944299 -0.562647 -0.568907 -0.958529 0.62983 -0.241377 0.179064 0.717931 0.805578 -0.592552 0.917405 0.515348 -0.0439852 0.124406 0.41517 0.61814 0.693002 -0.559138 -0.0760959 -0.505245 0.530795 0.259792 0.851449 -0.318973 0.533652 0.593993 -0.0664263 0.740659 -0.233594 0.289486 -0.341112 0.596846 0.0121916 0.678365
-0.120999 0.364116 -0.999158 -0.87542 -0.0619963 0.694506 -0.716961 -0.378744 -0.115767 0.313165 -0.31285 -0.741766 0.358586 0.0713126 0.321837 0.550519 0.416924 -0.301006 -0.687895 -0.744796 0.62 -0.736038 0.823678 0.184188 0.580574 0.103639 0.255697 -0.465883 0.59997 0.691776 0.660776 -0.391634 0.34722 0.0086967 0.714398 0.60797 -0.0929862 -0.781864 0.0709587 0.656262 0.106858 0.271051 -0.480392 0.376129 -0.73722 -0.0521135 0.437951 0.102926 -0.879746 0.112784 0.334861 -0.901413 0.569734 -0.372184 0.186446 0.0782022 -0.0639973 0.390588 0.799191 0.528553 -0.753749 -0.0559232 -1.17692 0.253405 -0.707407 0.749711 0.761301 0.593801 -0.616018 0.657011 0.699821 -0.938007 -0.324347 0.0934281 -0.996912 0.739269 0.798384 0.620028 0.253271 0.594763 -1.08205 0.691809 0.11873 -0.507449 -0.626747 -0.947097 0.764002 -0.797731 0.235864 0.653549 0.0590061 -0.709979 1.01317 0.615767 -0.182832 -0.42065 0.121549 -0.0142472 0.608926 -0.273432 -0.558614 -0.671245 -0.227723 -0.164189 0.878217 -0.875256 -0.553529 -0.788419 -0.0163151 -0.0207781 0.237447 -0.072904 0.489612 0.028185 -0.445302 0.100698 -0.577397 -0.190549 -0.332775 0.698476 0.365649 0.304329 -0.0808017 -0.743764 0.916504 -0.763019 -0.610778 -0.483209 0.381179 -0.379024 0.65878 -0.542539 -0.491281 0.984598 0.483562 -0.518857 0.336618 0.00354365 -0.730581 -0.944091
-0.697863 0.640206 -0.665283 0.684281 -0.298469 0.875218 -0.452123 0.100339 0.248072 1.02317 0.485967 -0.851556 -0.517011 0.610217 -0.827359 -0.411763 -0.292776 0.0107892 -1.07222 -0.431836 -0.804724 -0.6282 -0.221504 0.399353 0.186102 1.00283 0.392769 -0.00588099 -0.196378 0.20653 0.645141 -0.753423 0.508144 -0.0236168 -0.131532 0.293055 0.859899 -0.638428 -0.111157 0.430469 0.641372 -1.10045 0.189655 -0.521557 -0.674258 0.767934 0.407786 0.234282 -0.189797 -0.710492 -0.095257 0.686404 0.0352532 0.655721 -0.88422 0.887848 -0.285186 -0.321663 -0.710449 0.742123 0.748452 -0.319 -0.636867 0.331492 0.586587 -0.71369 -0.408905 0.961517 -0.264477 -0.610933 -0.237909 0.00300729 0.500133 -0.618306 -0.306574 0.528091 0.813485 -0.853846 0.441231 0.930957 -0.477107 0.995202 -0.15282 0.130569 -0.742584 0.294096 -0.29826 0.425727 0.567448 0.281827 0.344579 -0.580262 0.127841 -0.958457 0.0120041 -0.276337 -0.194565 0.15571 -0.276552 1.05516 -0.95134 -0.268327 0.420777 0.535148 -0.0483589 -0.377298 -0.0640886 0.513053 0.750441 -0.0448574 -0.773935 -0.127784 -0.510013 0.316575 0.00324782 0.142482 -0.934866 0.0110631 -0.350648 -0.0437698 0.301034 -0.248554 0.0610349 0.433238 0.992786 0.753865 -0.461709 0.102821 -1.00353 0.147693 -0.539038 0.50035 -0.769581 -0.273527 -0.900601 0.331562 -0.504449 0.0113256 -0.180007 0.328806
-0.919937 0.397175 -0.625319 -0.387184 -0.981632 -0.547243 0.391438 -0.612835 0.582164 0.410148 0.583089 0.388275 -0.673735 -0.491345 -0.0269678 -0.546311 -0.905307 -0.206808 0.192351 -0.73412 -0.029239 0.56557 0.781819 -0.458565 -0.197073 0.057411 -1.17972 -0.372114 0.330226 0.0246684 -0.562094 0.148207 -0.0213985 0.737242 -0.76106 -0.505366 0.483159 -0.316469 0.912632 0.306 0.433614 -0.920806 -0.60402 0.109327 -0.391324 0.0352259 -0.973402 0.61257 0.854441 -0.555809 0.885292 -0.298054 0.950215 -0.300988 -0.829557 -0.450207 -0.692213 -0.906531 0.670163 0.484595 0.0552467 -0.455069 0.780669 0.508184 -0.225444 -0.218468 0.666697 -0.963778 -0.182846 0.113267 -0.678945 -0.713344 -0.5493 0.49153 0.804941 -0.637499 0.149682 -0.912493 0.640305 0.516561 -0.907952 -0.838118 -0.667426 -0.374463 0.502126 -0.393718 -0.670273 -0.0749777 -0.0293353 -0.431946 0.378881 0.782182 1.03346 -0.483126 -0.115932 0.637712 0.401121 -0.342588 -0.25744 0.667189 -1.0134 0.191416 0.792813 0.337749 -0.66224 0.38776 0.0392683 0.838444 -0.412794 0.566252 0.603464 -1.1276 0.288804 0.760611 -0.514759 0.607498 0.247541 -0.00125573 0.61109 -0.0170871 0.0840712 -0.227674 0.972404 0.412359 0.723347 0.0436271 0.0848014 0.192728 0.605002 -0.660173 0.814485 -0.64295 -0.647335 0.149009 0.838629 -0.144771 0.62562 0.0858326 -0.242195 0.891778
0.177432 -0.513614 -0.992227 0.206845 -0.303676 -0.685396 -0.184279 0.535144 0.129964 -0.57369 0.274164 -1.00786 -0.221225 0.582233 -0.817817 0.0670952 0.475431 0.924831 0.811944 -0.306727 -0.512915 -1.12535 0.578289 -0.296798 -0.567456 -0.777161 -0.367755 0.413193 -0.28285 -0.301465 0.314292 0.860809 0.161387 0.552747 -0.188196 1.04735 -0.815799 0.450026 0.0496654 0.641715 1.02978 0.622166 -0.033937 0.75494 1.03474 0.836869 0.38137 0.139456 -0.69788 0.733166 0.649174 0.0356648 -0.967962 -0.773117 0.391931 -0.352305 -0.264882 -0.178916 -0.879014 0.0538363 -0.619092 -0.721691 0.518576 0.644256 0.527708 -0.569536 0.56853 0.638327 0.330883 -0.203916 0.0863301 -0.94703 0.351791 -0.853972 0.29078 0.332144 -0.794645 -0.650781 -0.716589 0.999279 0.408276 -0.0578917 0.212896 -0.564747 1.10449 -0.750861 -0.824517 0.0392534 -0.387278 -0.10478 0.964024 0.883539 -0.53232 -0.111975 0.324532 -0.191994 0.761431 0.148382 0.8484 0.416046 -0.679261 -0.468744 0.991629 -0.418831 0.235397 -0.597264 0.722555 0.131643 0.222729 -0.467379 -0.301333 0.393378 0.711116 0.256997 0.308829 -0.29303 0.576263 -0.213055 -0.738703 -0.95715 -0.289065 0.175258 0.26943 -0.759389 0.290931 0.654796 0.110709 0.846649 0.604096 1.04714 -0.308878 0.883577 -0.28438 -0.379288 0.0516019 -0.931152 -0.285126 0.352994 -0.855055 -0.700595
-0.0805395 -0.645571 -0.832196 0.760917 0.0190237 0.828899 -0.819183 -0.718567 0.706078 0.608213 1.00943 0.55832 -0.39353 -0.105614 -0.735993 0.117732 -0.368859 0.36222 -0.173163 0.610079 0.231344 -0.33873 -0.94732 0.764079 -0.589183 0.215638 0.750228 0.732515 0.218889 -0.267114 0.217997 -0.562889 0.437206 0.74475 -1.20669 -0.793514 -0.182286 -1.2124 0.29757 -0.537724 -0.805239 -0.29693 -0.193676 1.01794 0.0746372 0.787527 0.303413 -0.1217 0.232431 -0.911522 -0.716244 -0.711397 0.181568 0.0433451 -0.173026 -0.667676 -0.466665 0.446019 0.326704 0.38833 -0.168433 -0.0917078 -0.843577 -0.0771591 -0.0238071 0.811563 -0.51282 0.0686122 0.45214 -0.168204 -0.636382 -0.56671 0.466083 -0.222321 -1.00301 0.305969 -0.0487025 0.0011016 -0.288618 -0.10505 0.927883 0.634657 0.436374 0.769406 -0.468522 -0.76937 0.306867 0.425484 -0.59175 0.0149537 0.411525 -0.419637 0.0765754 -0.442812 0.601794 0.383758 -0.0743984 0.62574 0.717907 -0.748345 0.268831 0.364419 0.807795 -0.0259994 -0.554488 -0.577884 0.940035 -0.208569 0.799007 -0.73528 0.679212 -0.921149 -0.433419 0.72238 0.528264 -0.638203 -0.522051 -0.681762 -0.287116 0.828037 -0.994577 -0.748741 0.588748 0.318137 0.895915 0.737149 0.701074 -0.868014 0.396454 0.0295161 0.795438 -0.850808 -0.521893 0.179991 0.862759 -1.20125 0.628935 0.560982 -1.03606 -0.0738388
1.21198 0.540762 0.133714 0.166409 0.779911 0.0900826 0.736632 0.164389 -0.942314 -0.300503 0.150646 0.544481 0.6548 -0.692035 0.109317 0.725691 0.377334 -0.811589 -0.27365 -0.671296 0.720733 -0.973069 -0.76288 0.527112 0.0193261 -0.409349 -0.837838 0.516357 0.449176 0.728323 -0.862406 0.300664 -0.747541 0.934426 0.773243 0.0307474 -0.0246387 -0.0085625 0.049605 -0.911615 -0.241716 -0.113881 -0.715293 0.860806 -0.516862 0.269845 -0.0483601 -0.118119 -0.706717 -0.735401 -0.289559 -1.02216 0.0630619 0.797075 0.156172 -0.2886 0.535861 -0.16043 -0.75575 -0.0533525 -0.345431 -0.256993 -0.185336 0.183538 -0.23574 -0.140049 0.399861 0.565241 -0.40735 0.163086 0.635187 -0.272894 -0.485196 0.993826 0.727007 -0.087905 -0.72687 -0.302676 0.281912 0.085018 0.115147 0.691586 -0.0582622 -0.392634 0.701016 -0.718498 0.00979455 -0.729774 0.537726 0.219411 0.410427 0.479517 0.410031 -0.460197 -0.246004 0.125876 0.665739 0.556849 -0.807308 -0.083011 0.367124 0.257408 0.738382 -0.222512 -0.339053 -0.0351059 0.035611 -0.322289 -0.784977 0.505095 1.03955 -0.309428 0.224001 -0.745476 -0.532426 -0.372172 -0.738007 -0.0251205 0.0383157 0.170831 0.240512 -0.277653 -0.304892 -0.900644 0.896238 0.946087 -0.2824 0.375974 -0.31201 0.207988 0.387926 -0.599397 0.869462 0.593964 -0.14478 0.256599 0.659822 0.634814 0.111612 0.479756
-0.37077 -0.834881 0.369474 -1.10897 -0.161166 0.23877 -0.618891 -0.916575 -0.974683 -0.431431 -0.916781 -0.0620262 0.30397 -0.0388407 0.334534 0.576254 0.667841 0.663861 0.363916 -0.117586 1.01361 0.420123 -0.264464 -0.488988 0.679315 -1.14454 -0.266982 -1.04506 -0.046782 -0.773737 0.657949 0.515198 0.566219 0.656324 0.241958 -0.411826 0.979249 0.500676 -0.0651728 -0.461494 0.350132 0.435782 -0.164174 0.786601 -0.163063 -0.681664 -0.821538 0.625828 0.951792 -0.0238432 -0.528403 -0.198954 -1.06419 0.185602 0.277152 -0.119641 1.18429 -0.980422 0.614088 0.632213 0.631439 0.37663 0.170693 0.915396 0.481138 0.284115 0.535486 -1.01171 0.153883 -0.186035 0.282806 -0.976306 -0.142651 0.114386 0.160626 0.718309 -0.331925 -0.792147 -0.728287 -0.557756 -0.120343 0.4488 0.471873 0.753219 0.962147 0.154943 0.514316 -0.0233501 -0.572533 -0.407393 0.453593 0.108306 -0.55789 0.830869 -0.35201 -1.07536 -0.340079 0.0780595 0.751542 -0.60978 -0.286036 0.185742 0.915872 0.625561 -0.616189 0.441622 -0.135722 0.600504 0.587002 0.165322 0.718769 0.187009 -0.289788 0.381242 0.865571 0.912853 -0.945723 -0.736669 -0.957261 0.281542 0.848668 -0.871374 1.02821 0.0437005 -0.855603 -0.85683 -1.11828 0.440458 0.505937 0.171945 0.786119 -0.768087 -0.352567 0.926467 -0.661566 0.239994 0.123535 -1.00428 -0.774697 -0.888137
0.324226 1.0438 -0.646853 -0.893656 -0.012604 -0.619361 -0.729054 0.64935 -0.0016001 0.726298 -0.540119 0.461777 0.954099 -0.456182 -1.09222 -0.547216 0.637011 -0.730494 0.0904066 -0.605089 0.448278 0.524774 0.0572959 0.237023 -0.298134 0.238776 -0.0775112 -0.250279 0.0547584 0.770052 0.406212 0.642256 -0.16184 0.662082 0.465185 0.639306 -0.00618004 -0.152058 -1.06125 -0.495423 0.733158 -0.211959 0.470966 0.524299 0.391664 -0.466445 0.942993 0.220391 -0.720276 -0.271654 -0.357745 0.295003 0.60831 0.841366 -0.332965 0.450815 -0.0771732 -0.240023 0.139649 0.350468 -1.06202 -0.0388471 0.501369 -0.701235 -0.697947 -0.406048 0.593786 -0.450845 -0.0744035 -0.584361 0.237262 0.221053 -0.735819 -0.163684 0.66554 -0.327952 0.120967 -0.778708 -0.903971 -0.589679 0.444381 0.301171 0.613267 -0.855709 0.910874 0.433358 -0.0449913 0.14336 -0.219659 0.326909 0.429395 -0.64615 -0.733154 0.392459 0.926648 0.707031 -0.77228 0.0145487 0.449602 0.867318 -0.813356 0.0711697 0.100944 0.21568 0.663963 -0.628123 0.467881 0.362796 0.956508 0.325104 0.409238 -0.291838 0.811114 0.530861 0.0481717 -0.457696 -0.892153 -0.512612 0.542372 0.447753 0.0408637 0.0102521 0.404376 0.234005 0.579824 0.528376 -0.54216 -0.447236 -0.371669 0.416188 1.1354 -0.0412182 0.996281 0.593993 -0.0746292 -0.205527 0.898768 0.782366 0.201804 -0.039739
-0.0334724 0.71691 -0.0705808 0.654854 0.0131635 -0.710675 0.844256 -0.385051 -0.228098 0.730609 0.798803 0.131712 -0.65012 -0.847369 -0.387883 -0.470686 -0.0467211 0.155864 0.261767 0.490003 -0.111351 0.956763 0.0287327 -0.0303728 -1.0012 -0.36927 0.612819 -0.854258 -0.505511 0.0649421 -0.812018 -0.146163 0.701138 -0.26217 -0.517858 0.809859 0.266377 -0.663068 0.125804 0.639704 0.708162 0.00723473 0.437522 -0.230433 1.01229 -0.170033 -0.115912 0.0221957 0.795687 -0.195767 0.519279 0.495109 -0.169572 0.296399 -0.537968 0.24946 -0.582687 -0.141257 -1.08067 -0.315143 0.242925 -0.13896 0.358282 -0.28994 -0.32343 -0.0092867 -0.85974 -0.460784 -0.0218047 -0.153919 0.632766 -0.343807 -0.622758 -0.233182 -0.738668 1.09652 -0.363529 -0.947858 0.941765 -0.331405 0.396771 -0.577549 0.345113 0.715649 0.717488 0.0973051 0.337075 -1.1106 -0.315609 -0.0690373 0.64348 0.343656 0.1093 -0.498124 -0.315972 -0.554057 -0.318557 1.16371 -0.47057 0.334899 0.834488 -0.800404 0.0424984 -0.466486 1.14074 0.830277 -0.480169 0.138758 -0.384956 0.408142 0.714562 -0.0619479 -0.531596 0.495944 -0.77885 0.460922 0.0479951 0.776048 -0.481916 -0.447972 -1.0826 1.03847 0.12343 0.861691 -0.63419 1.04053 0.0032154 0.432587 0.574826 0.412797 -0.547531 -0.274262 -0.801462 -0.729227 0.750525 0.464269 -0.117078 -0.98204 -0.0594251 0.699835
-0.0288779 0.367679 -0.199528 -0.866323 -0.267021 -1.03839 0.308092 0.136256 0.633185 -0.0125633 -1.0396 -0.930995 0.711814 0.242738 -0.572862 0.649862 -0.930828 -0.538063 0.813158 -0.786368 -0.217012 0.390131 0.237313 0.265476 0.744196 -0.256886 0.331434 -0.200264 -0.435581 -0.573143 -0.263226 0.786227 -0.50832 0.450338 -0.571201 0.537764 0.851852 0.431771 -0.359838 0.46989 0.951354 -0.155784 0.464434 1.02925 -0.534686 0.460279 0.220784 0.308106 0.150506 -1.01057 0.902714 -0.0134448 -0.524358 0.52426 0.928444 0.747751 -0.107592 0.419009 0.466204 0.115591 0.270214 0.899188 1.02521 -0.330633 -0.841915 0.241938 0.24118 0.649197 -0.428245 0.168631 0.917936 -0.976546 0.347213 -0.606319 1.01985 0.396461 -0.730477 -0.668574 0.781269 -0.44659 0.395016 0.0394896 0.325162 0.384859 -0.760145 -0.528878 0.278776 -0.823516 0.71964 0.691448 -0.920936 -0.322019 0.576648 -0.106772 0.668736 -0.461422 0.067722 0.148413 0.794903 -0.682897 -0.896677 -0.541232 0.754864 0.486551 0.634172 -0.154553 0.714695 -0.571877 0.28013 0.393625 0.909902 -1.10585 0.488488 -0.192707 -0.553331 0.257268 -0.569422 0.561517 -0.838995 -0.374836 0.62864 -0.253769 0.0571458 0.805687 0.721254 -0.654516 0.517213 0.231041 -0.720321 -0.0366022 -0.23255 -0.290383 -0.647843 1.12883 0.588221 0.670605 1.16545 -0.583059 0.741082 -0.0021333
0.96961 0.966819 -1.075 0.790839 -0.58454 -0.758318 1.0324 0.803606 -0.60574 0.668202 -0.350534 -0.352146 -0.730142 -0.48473 0.718057 -0.172109 0.926738 0.479427 -0.218069 -0.958819 0.853819 0.234314 -0.948218 -0.0954072 0.343774 0.135926 0.622247 -0.862523 -0.753289 0.303251 -0.225737 -0.0759724 0.0400288 0.186386 0.305397 -0.372925 0.487043 0.0448051 -0.00358533 0.592743 -0.413671 -0.910359 -0.508829 -0.447809 0.183949 0.172592 -0.202063 0.413048 -0.241368 -0.220267 -0.883257 -0.489483 -0.0736323 0.564975 -0.541102 0.889563 0.602237 -0.505195 -0.445747 -0.0245168 -0.692857 0.188771 0.631985 -0.176872 -0.774571 -0.618219 -0.950517 -0.744507 -0.437072 -0.732678 -0.367129 -0.887134 0.0698358 -0.748336 -0.321229 0.444532 0.992238 -0.347469 0.392114 -0.310119 -1.03914 -0.189496 -0.216493 0.704221 0.933671 -1.13076 0.754037 0.782716 -0.948747 0.995967 -0.922175 -0.434375 0.926718 -1.14108 -0.845907 0.278842 0.247783 0.0653293 -0.317473 -0.239917 1.03533 0.454357 0.969238 0.506794 -0.158623 0.272789 -0.208442 0.238875 0.886636 0.351743 -0.962483 -0.697338 0.294325 -0.584655 0.677753 -0.57838 0.274511 0.709413 -0.965841 -0.245372 -0.584043 0.912013 -0.53503 -0.583539 -0.249459 -0.299418 0.39792 0.766619 0.123892 -0.474146 0.536158 0.95015 -0.185778 0.164094 -0.543785 -0.56172 0.108773 0.704702 0.237534 0.443794
0.596708 -0.564022 0.0387994 -0.306995 -0.657416 0.679227 -0.0618164 0.0428852 -0.36658 0.701309 0.597785 -0.662172 -0.537625 -0.879837 -0.268935 0.517279 -0.338816 -0.96795 -0.505937 0.23429 -0.670715 -0.140558 -0.386034 -0.906022 -0.88927 0.246917 0.00643262 0.0901336 0.72162 -0.755791 1.02147 -0.381525 -0.731061 -0.703427 -0.200811 -0.100439 -0.89777 -0.776453 0.359771 0.487352 -0.106524 0.145736 -0.197589 0.655081 0.814844 -0.991871 0.210816 0.645879 0.105221 -0.317198 -0.315687 -0.867498 -0.458866 -0.580912 -0.131313 -0.587758 0.617499 -0.230474 0.230706 1.00574 0.748796 0.636986 0.0627427 -0.760157 0.242161 0.277996 0.819682 -0.333917 0.771056 -0.817737 -0.645555 0.129757 -0.46412 -0.20654 -0.0495571 0.536472 0.960056 0.31458 0.715136 0.0687399 -0.985926 -0.0290236 0.971129 0.699293 -0.866594 0.63087 -0.560619 -0.524353 0.19626 -0.840089 -0.385379 -0.246998 0.187631 0.691144 0.602019 0.0583087 -0.677945 0.0390893 0.473028 0.234118 -0.427858 0.59963 0.7536 -0.627461 1.06228 0.739604 -0.883834 0.543761 -0.0743728 0.237083 -0.266651 0.365835 -0.416904 0.749569 -0.256166 -1.04592 -0.400621 0.919981 -0.609048 0.943489 0.386039 -0.0405212 -0.639291 -0.0655949 0.900528 -0.458752 0.0759372 -0.0709339 -0.56453 0.858816 0.44922 0.69444 -0.445235 0.982207 0.689583 -0.42352 0.0972516 0.900307 -0.12767 -0.592659
-0.107169 -0.332527 0.612019 -0.386572 0.530869 0.915916 0.196186 -0.210951 -0.404116 -0.855906 0.027392 0.856111 0.462669 0.389145 1.06792 -0.909604 -0.3086 -0.191618 0.29311 0.125016 0.706794 0.0566575 -0.923721 -0.824696 0.521771 -0.455865 0.224581 0.331015 -0.14877 0.556985 -0.00593953 0.374401 0.0988134 0.344465 0.394566 -0.898046 0.19479 -0.459583 -0.459221 0.352791 -0.302909 0.469321 0.578622 0.727811 0.649654 -0.954536 -0.725141 0.493324 0.658006 0.629457 -0.133678 0.392868 -0.474568 -0.974508 0.722402 0.661741 -0.602193 0.977441 0.247357 -0.869866 -0.987963 -0.58025 0.29273 0.478193 -0.366738 -0.761169 -0.538334 -0.793028 -0.170545 -0.122183 -0.6871 -1.12007 0.301582 -0.700818 0.073566 0.867706 0.515071 0.191173 -0.994823 0.701942 0.490221 -0.193681 -0.19927 0.919931 0.312313 0.719003 -0.770356 -0.127589 -0.214954 0.380337 0.655048 -0.469712 -0.06851 0.123374 -0.709385 -0.198871 -1.05851 0.597865 0.70689 -0.0512163 -0.56719 -0.325805 -0.634876 0.0479131 -0.498661 -0.399913 -0.664483 -0.664149 -0.870512 0.792977 -0.749981 0.282815 0.0804957 0.875704 0.146768 0.499786 1.06589 0.51436 0.259979 0.84589 -0.453651 1.06521 -0.677516 0.415034 -0.150668 -0.652788 0.764495 -0.0564372 0.580658 -0.431184 -0.185396 -0.168768 0.530715 -0.475711 -0.542962 -1.00072 0.816212 -0.517011 0.173948 -0.143095
0.605237 -0.642266 -0.763835 0.298337 -0.774606 -0.467996 -0.351874 -0.751667 -0.175387 -0.189895 -0.445498 0.153352 0.830709 0.46874 -0.293213 0.33161 -0.483248 0.0145136 -1.0418 0.797389 0.791456 -0.904236 0.420221 -0.832655 0.0112531 -0.799787 -0.319535 -0.902644 -0.0799472 -0.273195 0.48989 -0.701224 0.552061 -0.324185 -0.61344 -0.993552 0.557705 -0.446531 -0.40998 -0.877077 -0.60541 0.367867 -0.857931 0.543283 0.763494 -0.475187 -0.499708 -0.346838 -0.5474 0.656018 0.0960289 -0.195828 0.0732621 -0.538053 -0.265709 0.57933 -0.796725 -0.190466 -0.463313 -0.158434 -1.0129 -0.192111 0.942654 -0.441524 1.05209 0.54898 -0.347482 -0.569651 0.117378 0.0317281 0.740697 -0.571406 -0.511709 -0.0624858 0.410524 0.904014 -0.175391 0.0201234 -0.258196 0.79897 0.762645 -0.793672 -0.274774 0.605076 0.494611 0.712238 0.309633 0.233351 -0.115069 -0.875744 0.503479 -0.658856 -0.603525 -0.560863 -0.282957 -0.95562 -0.672327 0.528934 -0.552022 -0.0815448 -0.707748 0.375604 0.736953 -0.0752844 -1.02232 0.900506 0.198829 -0.842187 0.822015 1.01068 -0.250586 -0.681167 0.918367 0.295999 -0.783654 -0.82012 -0.5657 -0.401968 0.363813 -0.0217458 0.235505 0.831339 0.472431 0.00610785 0.367242 -0.46675 -0.849525 -0.0377495 -0.689192 -0.0980588 -0.605264 1.05065 -0.507273 -0.813816 0.907925 0.45682 0.400594 0.180645 0.594976 0.755889
